tree
version=v4
num_class=1
num_tree_per_iteration=1
label_index=0
max_feature_idx=85
objective=regression
feature_names=team_a_xg team_b_xg team_a_xga team_b_xga odds_ft_1 odds_ft_x odds_ft_2 rolling_goals_scored_form_home rolling_goals_conceded_form_home rolling_points_earned_form_home rolling_xg_for_form_home rolling_xga_against_form_home days_since_last_match_home rolling_goals_scored_form_away rolling_goals_conceded_form_away rolling_points_earned_form_away rolling_xg_for_form_away rolling_xga_against_form_away days_since_last_match_away home_matches_last_7d home_matches_last_14d away_matches_last_7d away_matches_last_14d home_rolling_xg_as_home home_rolling_xga_as_home home_rolling_goals_scored_as_home home_rolling_goals_conceded_as_home away_rolling_xg_as_away away_rolling_xga_as_away away_rolling_goals_scored_as_away away_rolling_goals_conceded_as_away rolling_possession_form_home rolling_shots_for_form_home rolling_shots_against_form_home rolling_sot_for_form_home rolling_sot_against_form_home rolling_corners_for_form_home rolling_corners_against_form_home rolling_fouls_for_form_home rolling_fouls_against_form_home rolling_da_for_form_home rolling_da_against_form_home rolling_possession_form_away rolling_shots_for_form_away rolling_shots_against_form_away rolling_sot_for_form_away rolling_sot_against_form_away rolling_corners_for_form_away rolling_corners_against_form_away rolling_fouls_for_form_away rolling_fouls_against_form_away rolling_da_for_form_away rolling_da_against_form_away market_prob_btts_yes market_prob_o25 market_prob_u25 rolling_synth_goals_minus_xg_form_home rolling_synth_goals_per_xg_ratio_form_home rolling_synth_goals_per_shot_form_home rolling_synth_goals_per_sot_form_home rolling_synth_sot_per_shot_ratio_form_home rolling_synth_goals_minus_xg_form_away rolling_synth_goals_per_xg_ratio_form_away rolling_synth_goals_per_shot_form_away rolling_synth_goals_per_sot_form_away rolling_synth_sot_per_shot_ratio_form_away rolling_synth_xga_per_shot_conceded_form_home rolling_synth_xga_per_sot_conceded_form_home rolling_synth_xga_per_shot_conceded_form_away rolling_synth_xga_per_sot_conceded_form_away pre_match_home_elo pre_match_away_elo elo_diff elo_prob_home_win dynamic_league_quality competition_type_cup competition_type_league dynamic_league_tier_0 dynamic_league_tier_1 dynamic_league_tier_2 dynamic_league_tier_3 dynamic_league_tier_4 dynamic_league_tier_5 dynamic_league_tier_6 dynamic_league_tier_7 dynamic_league_tier_8
feature_infos=[-2.7870146883385232:5.1187561658664285] [-2.6076516966964545:4.7146140402287653] [-2.884646701223283:6.9424704381231113] [-2.9298354341712285:4.7568028267437308] [-1.4332467923050305:13.269131055223546] [-3.1753741368138462:9.5113084365129481] [-1.1953227301351232:9.8888397521770219] [-2.1165286577530225:6.0304352245082882] [-2.3264101336751701:5.9689213626169018] [-1.9473582502064186:2.3379032349555691] [-2.8434950393084861:4.5565410568887312] [-2.894286538807934:6.4281980391904039] [-0.27753217751143028:14.969881645964984] [-2.12342659022109:5.9773155036095416] [-2.3063508566484949:4.4767483061133122] [-2.002984180516616:2.2781606106577859] [-2.7517277524002099:6.0746177156160677] [-3.2016094600982479:5.2314800262833625] [-0.25410024875161125:23.784079279421402] [-1.1133850074720475:2.2044040026527143] [-1.7226614852927982:2.8211726976914195] [-1.1254717107126733:2.2312986434433979] [-1.7248721144297383:2.7952052789576989] [-2.8434950393084861:4.5565410568887312] [-2.894286538807934:6.4281980391904039] [-2.1165286577530225:6.0304352245082882] [-2.3264101336751701:5.9689213626169018] [-2.7517277524002099:6.0746177156160677] [-3.2016094600982479:5.2314800262833625] [-2.12342659022109:5.9773155036095416] [-2.3063508566484949:4.4767483061133122] [-3.4284461698272648:3.3776901586451107] [-2.721842491809022:4.193962439648967] [-2.9082771127206342:6.4211814658019195] [-2.6895059483675356:4.7655856207133622] [-3.6902670761147638:4.7578530492078297] [-3.2837935838516499:4.0887551489039335] [-3.2923105778126098:4.6155166273733617] [-3.1485286318936798:5.4673241983211147] [-3.5463248260182745:9.4228499432699948] [-3.8439980281470407:4.2818660109314406] [-3.9612138272317705:5.4368625851026842] [-3.9138785592133214:3.4948079097843721] [-2.6868300546862218:4.4591198794832199] [-2.8542682906116954:4.7734196481388986] [-3.4776059459678299:4.4327551401271128] [-3.213890868752884:4.8307303345243753] [-3.3138718375140437:3.9612630950512848] [-3.2456050125486695:4.1705101742860515] [-3.5566299897680702:9.4509609517555884] [-3.1220060042353288:5.2164277582707772] [-2.922147802689691:4.9705583541762461] [-2.9417523859201458:4.082192009983685] [-3.9597704941735001:2.4787480633603352] [-2.2890740388364277:4.2648100178219268] [-4.1103822740438813:2.295135027834561] [-4.4335612994231877:4.8173276784254089] [-2.3175582303776392:6.8605668350180862] [-2.0071771844025319:8.0384913123161361] [-2.4164420553477375:8.8846045818609056] [-3.0670960110868779:5.8567387045434121] [-3.5323190386761167:5.2604687943300892] [-2.3520892750335265:5.2824622758534741] [-2.0514302553878778:7.5925127408248851] [-2.4725875619209803:9.0054449763375075] [-4.7939461475823064:3.8583950300657994] [-2.3062564728761035:10.060754100168054] [-2.6448663424073442:7.3059935641172409] [-2.2893292086102832:9.9854838827136838] [-2.8959525228945551:7.5220828106337905] [-2.4639045452071247:3.5460572660673524] [-2.4074685972838137:3.74002242767444] [-3.5971981427797424:3.551236449218734] [-2.9343982651282108:2.1952445562139338] [-1.5563042979551449:-0.12229100751865692] none none [0:1] none [0:1] none none none none none none
tree_sizes=797 863 856 856 851 864 866 865 866 861 871 868 863 859 862 857 845 856 863 865 866 866 852 852 869 868 870 840 863 842 870 853 866 866 863 864 870 870 871 858 862 859 866 858 861 868 867 867 867 864 868 871 864 867 862 861 866 864 850 844 861 865 855 860 873 866 864 870 862 857 870 864 845 845 845 857 870 871 846 845 841 872 875 872 862 864 870 873 866 870 857 861 859 873 870 879 872 870 865 868 873 864 868 872 872 871 873 874 841 855 862 860 859 870 874 872 872 855 855 855 855 864 870 876 871 872 865 868 867 867 866 864 868 781 774 868 869 866 858 857 865 865 859 867 868 863 864 779 779 787 857 856 855 869 871 871 874 871 867 783 784 776 831 856 858 858 859 870 846 848 847

Tree=0
num_leaves=8
num_cat=0
split_feature=4 0 4 0 0 31 5
split_gain=576.463 276.287 66.2359 56.2925 38.3397 24.3878 18.1987
threshold=-0.70077221249110677 -0.30868876887427465 -0.2988367029903255 -1.2680407376991447 0.38417654194368756 0.37153816652824911 2.470199608316578
decision_type=2 2 2 2 2 2 2
left_child=4 3 -3 -2 5 -1 -6
right_child=1 2 -4 -5 6 -7 -8
leaf_value=1.5019749449441699 1.4942244513502392 1.5106053470205922 1.5052898920944298 1.501250565403639 1.5215364985154465 1.5177099431849483 1.5310876606101127
leaf_weight=19 244 804 782 1077 163 56 83
leaf_count=19 244 804 782 1077 163 56 83
internal_value=1.50615 1.50431 1.50798 1.49991 1.52265 1.51352 1.5252
internal_weight=3228 2907 1586 1321 321 75 246
internal_count=3228 2907 1586 1321 321 75 246
is_linear=0
shrinkage=1


Tree=1
num_leaves=8
num_cat=0
split_feature=6 0 6 0 0 0 39
split_gain=561.957 200.058 145.051 55.6056 35.9706 35.5033 30.9021
threshold=0.11488211713305609 -0.5396438724802618 1.3639819661013097 1.0000000180025095e-35 0.70396053155197758 -1.2680407376991447 0.67911598591112943
decision_type=2 2 2 2 2 2 2
left_child=1 5 3 -2 -3 -1 -4
right_child=2 4 6 -5 -6 -7 -8
leaf_value=-0.011884728059711285 -0.00026652772664560368 -0.00090515731130926794 0.021856105133760871 0.0091925414536830081 0.0040249463929750064 -0.0059178715039873778 0.0083833630160803502
leaf_weight=238 151 1231 170 327 313 749 49
leaf_count=238 151 1231 170 327 313 749 49
internal_value=2.0518e-05 -0.00283771 0.0103756 0.00619617 9.25473e-05 -0.00741794 0.0191319
internal_weight=3228 2531 697 478 1544 987 219
internal_count=3228 2531 697 478 1544 987 219
is_linear=0
shrinkage=0.0130643


Tree=2
num_leaves=8
num_cat=0
split_feature=4 0 6 0 31 0 55
split_gain=549.932 210.826 126.008 42.1707 38.6494 33.8673 17.7963
threshold=-0.55797933411582912 -0.5396438724802618 1.3639819661013097 0.52630275954737227 0.44962003645336257 -1.1969776288973024 -0.90983806634641262
decision_type=2 2 2 2 2 2 2
left_child=2 5 4 -3 -1 -2 -4
right_child=1 3 6 -5 -6 -7 -8
leaf_value=0.0017378294452397971 -0.011178122480905316 -0.00098575985707593378 0.021380322276024474 0.0037228122915669098 0.010050982097962987 -0.0056816925726169499 0.01047651732718401
leaf_weight=175 286 1167 164 444 227 711 54
leaf_count=175 286 1167 164 444 227 711 54
internal_value=2.06129e-05 -0.00260713 0.011041 0.00030869 0.00652754 -0.0073154 0.0190054
internal_weight=3228 2608 620 1611 402 997 218
internal_count=3228 2608 620 1611 402 997 218
is_linear=0
shrinkage=0.0130643


Tree=3
num_leaves=8
num_cat=0
split_feature=6 6 6 54 31 4 54
split_gain=502.642 122.917 61.8061 49.1173 34.2359 23.8138 7.81565
threshold=0.37351257505367291 -0.38674728751517301 2.7608706481670584 -0.27775866783703607 0.44962003645336257 0.94927882651210049 1.2690346989121448
decision_type=2 2 2 2 2 2 2
left_child=1 5 4 -3 -2 -1 -4
right_child=2 3 6 -5 -6 -7 -8
leaf_value=-0.0043825318904186913 0.0029389276193476101 -0.0014763820995655546 0.0086706761723878804 0.0037003861439169673 0.011916875825100638 -0.0086751655488382269 0.023492251545574157
leaf_weight=948 111 1052 18 440 265 311 79
leaf_count=948 111 1052 18 440 265 311 79
internal_value=-0.00033405 -0.00248248 0.012038 4.6039e-05 0.0093711 -0.00548131 0.0213826
internal_weight=3224 2751 473 1492 376 1259 97
internal_count=3224 2751 473 1492 376 1259 97
is_linear=0
shrinkage=0.0130643


Tree=4
num_leaves=8
num_cat=0
split_feature=6 6 6 55 40 4 42
split_gain=490.083 119.762 60.359 53.93 30.4636 23.1976 7.7086
threshold=0.37351257505367291 -0.38674728751517301 2.7608706481670584 0.56544264721405801 0.345900617002801 0.94927882651210049 -0.58213593075763348
decision_type=2 2 2 2 2 2 2
left_child=1 5 4 -3 -2 -1 -4
right_child=2 3 6 -5 -6 -7 -8
leaf_value=-0.0043255363087888335 0.0039020789004960126 0.0027423958891572542 0.012923836740327965 -0.0022269443655871103 0.012029589435510137 -0.0085633793030971475 0.025109531385502391
leaf_weight=948 134 685 39 807 242 311 58
leaf_count=948 134 685 39 807 242 311 58
internal_value=-0.000328864 -0.00245034 0.0118876 4.5384e-05 0.00925141 -0.00541044 0.0211232
internal_weight=3224 2751 473 1492 376 1259 97
internal_count=3224 2751 473 1492 376 1259 97
is_linear=0
shrinkage=0.0130643


Tree=5
num_leaves=8
num_cat=0
split_feature=0 6 0 5 53 6 70
split_gain=481.246 242.202 84.1015 42.0203 31.5328 18.9672 18.5041
threshold=-0.077733665268287164 0.37351257505367291 -0.89495941648947286 2.39487243053745 -0.30720250724994713 -0.034327762436530476 0.41092042172208665
decision_type=2 2 2 2 2 2 2
left_child=2 4 5 -3 -2 -1 -4
right_child=1 3 6 -5 -6 -7 -8
leaf_value=-0.009530429631431565 -0.0010284853690060458 0.011334667025784693 -0.0033973512132756704 0.022607706845320538 0.0035504813769516555 -0.00064870080022547399 0.002041143714750926
leaf_weight=573 387 307 991 80 724 49 113
leaf_count=573 387 307 991 80 724 49 113
internal_value=-0.000323652 0.00508131 -0.00502469 0.0139284 0.00194357 -0.0088651 -0.00282075
internal_weight=3224 1498 1726 387 1111 622 1104
internal_count=3224 1498 1726 387 1111 622 1104
is_linear=0
shrinkage=0.0130643


Tree=6
num_leaves=8
num_cat=0
split_feature=6 0 0 54 0 62 0
split_gain=568.728 174.766 130.895 68.2977 46.5273 14.7716 9.93948
threshold=0.11488211713305609 -0.85942786208855171 1.0000000180025095e-35 1.4833778028158902 -0.13103099686966888 0.88852939252051821 -1.2858065148996054
decision_type=2 2 2 2 2 2 2
left_child=1 6 5 -4 -3 -2 -1
right_child=2 4 3 -5 -6 -7 -8
leaf_value=-0.01125856352799552 -0.00036173332134094505 -0.0030609830338488193 0.010903497538425309 0.022341296457884345 0.00099331941615295053 0.0099548018329502636 -0.0072570675825891504
leaf_weight=227 160 869 371 130 1070 23 378
leaf_count=227 160 869 371 130 1070 23 378
internal_value=9.43028e-05 -0.00274708 0.0106361 0.0140677 -0.000818368 0.00105017 -0.00885323
internal_weight=3228 2544 684 501 1939 183 605
internal_count=3228 2544 684 501 1939 183 605
is_linear=0
shrinkage=0.0130643


Tree=7
num_leaves=8
num_cat=0
split_feature=4 0 6 0 0 0 3
split_gain=555.267 168.547 129.958 60.3705 42.6364 11.5153 11.3845
threshold=-0.52624758336576749 -0.82389630768763056 1.3639819661013097 1.0000000180025095e-35 -0.13103099686966888 -1.2680407376991447 -0.1453657883990713
decision_type=2 2 2 2 2 2 2
left_child=2 5 3 -1 -3 -2 -4
right_child=1 4 6 -5 -6 -7 -8
leaf_value=-4.1011583071234975e-05 -0.011014023819639894 -0.0029591432269622359 0.0099655048167186181 0.009722988552066417 0.00097253224728356615 -0.0069136675297997848 0.020503416986852041
leaf_weight=158 234 836 41 317 1059 408 175
leaf_count=158 234 836 41 317 1059 408 175
internal_value=9.33949e-05 -0.00273225 0.010443 0.00647122 -0.000756476 -0.00849596 0.0188085
internal_weight=3228 2537 691 475 1895 642 216
internal_count=3228 2537 691 475 1895 642 216
is_linear=0
shrinkage=0.0130643


Tree=8
num_leaves=8
num_cat=0
split_feature=4 0 6 0 0 39 0
split_gain=541.192 164.248 126.73 58.8395 41.5368 16.5687 11.2071
threshold=-0.52624758336576749 -0.82389630768763056 1.3639819661013097 1.0000000180025095e-35 -0.13103099686966888 0.67911598591112943 -1.2680407376991447
decision_type=2 2 2 2 2 2 2
left_child=2 6 3 -1 -3 -4 -2
right_child=1 4 5 -5 -6 -7 -8
leaf_value=-4.0489984836583695e-05 -0.010872734697473348 -0.0029206823631600042 0.020547173587095152 0.0095976677852264297 0.00095987829864431094 0.0091433178775734841 -0.006824289242538673
leaf_weight=158 234 836 173 317 1059 43 408
leaf_count=158 234 836 173 317 1059 43 408
internal_value=9.24636e-05 -0.00269708 0.0103101 0.00638739 -0.000746544 0.0185715 -0.00838684
internal_weight=3228 2537 691 475 1895 216 642
internal_count=3228 2537 691 475 1895 216 642
is_linear=0
shrinkage=0.0130643


Tree=9
num_leaves=8
num_cat=0
split_feature=6 31 6 53 54 6 53
split_gain=501.826 101.303 90.7189 40.2204 39.5979 18.5341 14.237
threshold=0.11061897771678215 0.44962003645336257 -0.38674728751517301 -0.30720250724994713 1.2172292410294518 1.1849301106178058 0.67014949617489872
decision_type=2 2 2 2 2 2 2
left_child=2 5 6 -4 -3 -2 -1
right_child=1 4 3 -5 -6 -7 -8
leaf_value=-0.0059544243025968276 0.0013734441647249207 0.010214877177663286 -0.0030582481437616198 0.0016679676270487352 0.018860230181022918 0.010222546429715486 -0.0025861085222199532
leaf_weight=916 214 286 496 791 164 48 317
leaf_count=916 214 286 496 791 164 48 317
internal_value=0.000146991 0.00980233 -0.00258688 -0.000145441 0.0135492 0.0031928 -0.00511316
internal_weight=3232 712 2520 1287 450 262 1233
internal_count=3232 712 2520 1287 450 262 1233
is_linear=0
shrinkage=0.0130643


Tree=10
num_leaves=8
num_cat=0
split_feature=4 0 0 34 53 0 54
split_gain=473.292 164.958 108.212 56.6211 32.9169 32.5349 12.1669
threshold=-0.52624758336576749 -0.29092299167381408 -0.059967888067826582 1.3091340750485827 -0.30720250724994713 -1.1969776288973024 -0.65558258030722005
decision_type=2 2 2 2 2 2 2
left_child=2 5 6 -4 -3 -2 -1
right_child=1 4 3 -5 -6 -7 -8
leaf_value=-0.0078377055054116278 -0.0097640928625372953 -0.0019833012118452803 0.0093928760840202193 0.019058601306756184 0.0024421928766096093 -0.0046088641345132771 0.001681226111477966
leaf_weight=23 279 435 385 158 812 1003 137
leaf_count=23 279 435 385 158 812 1003 137
internal_value=0.000145669 -0.00248774 0.00959884 0.012362 0.000884348 -0.00577195 4.76306e-05
internal_weight=3232 2529 703 543 1247 1282 160
internal_count=3232 2529 703 543 1247 1282 160
is_linear=0
shrinkage=0.0130643


Tree=11
num_leaves=8
num_cat=0
split_feature=6 0 0 40 53 0 62
split_gain=477.738 156.935 106.317 58.5683 38.4535 32.419 14.0119
threshold=0.11061897771678215 -0.29092299167381408 -0.077733665268287164 1.0000000180025095e-35 -0.30720250724994713 -0.89495941648947286 0.53471381955783925
decision_type=2 2 2 2 2 2 2
left_child=1 5 6 -4 -3 -1 -2
right_child=2 4 3 -5 -6 -7 -8
leaf_value=-0.0081201099923451214 -0.00167482498005145 -0.0024441099012147962 0.0047652300173122728 0.014854718656096539 0.0023984421900211644 -0.0038180777113156392 0.0072673218142898857
leaf_weight=559 130 415 143 405 829 717 34
leaf_count=559 130 415 143 405 829 717 34
internal_value=0.000143848 -0.00252348 0.00956472 0.012308 0.000767516 -0.005736 0.000224276
internal_weight=3232 2520 712 548 1244 1276 164
internal_count=3232 2520 712 548 1244 1276 164
is_linear=0
shrinkage=0.0130643


Tree=12
num_leaves=8
num_cat=0
split_feature=4 4 6 1 39 39 4
split_gain=463.065 107.055 50.5371 30.7179 23.7002 22.8237 20.9945
threshold=-0.65317458636601422 -0.23537320149020222 1.3639819661013097 -1.5349003992168184 0.79067877962543742 0.67911598591112943 0.94927882651210049
decision_type=2 2 2 2 2 2 2
left_child=2 3 4 -2 -1 -4 -3
right_child=1 6 5 -5 -6 -7 -8
leaf_value=0.0094051204668545319 0.010575657494993803 -0.0036591197439000689 0.019091922798046411 0.00023777451380777603 -0.0024934937997609392 0.0059967508364424747 -0.0076711471491878866
leaf_weight=168 47 1219 178 1234 30 36 289
leaf_count=168 47 1219 178 1234 30 36 289
internal_value=-0.000182411 -0.0021027 0.0126663 0.000663474 0.00750994 0.0171228 -0.00445805
internal_weight=3201 2789 412 1281 198 214 1508
internal_count=3201 2789 412 1281 198 214 1508
is_linear=0
shrinkage=0.0130643


Tree=13
num_leaves=8
num_cat=0
split_feature=6 0 0 0 31 45 0
split_gain=449.004 183.348 58.9705 57.9912 29.149 27.4123 16.2359
threshold=0.45735431690705963 -0.85942786208855171 0.98821296675934678 0.47300542794599049 0.55372919635351381 -0.47826070082349742 -1.2858065148996054
decision_type=2 2 2 2 2 2 2
left_child=1 6 4 -3 -2 -4 -1
right_child=2 3 5 -5 -6 -7 -8
leaf_value=-0.011273721665645864 0.0010511571749256591 -0.0016198834288543046 0.0097343528905370607 0.003248604111670847 0.010652468459963427 0.021150047997305424 -0.0065183745056588069
leaf_weight=231 89 1572 76 563 155 125 390
leaf_count=231 89 1572 76 563 155 125 390
internal_value=-0.000179283 -0.00215528 0.0119269 -0.000324762 0.00729262 0.017205 -0.00837788
internal_weight=3201 2756 445 2135 244 201 621
internal_count=3201 2756 445 2135 244 201 621
is_linear=0
shrinkage=0.0130643


Tree=14
num_leaves=8
num_cat=0
split_feature=4 0 0 0 38 0 25
split_gain=440.543 182.332 53.6149 53.3656 29.0142 14.6315 11.1328
threshold=-0.65317458636601422 -0.85942786208855171 -0.042202110867366006 0.47300542794599049 0.94225027285871066 -1.2858065148996054 1.2001147933317902
decision_type=2 2 2 2 2 2 2
left_child=2 5 6 -3 -4 -2 -1
right_child=1 3 4 -5 -6 -7 -8
leaf_value=-0.0032201683307365968 -0.011061298468690625 -0.0014821096343820245 0.015577692504180589 0.0031566857913380045 0.0030202283021192613 -0.0065009584925721864 0.0082360898704800806
leaf_weight=40 229 1600 314 570 41 390 17
leaf_count=40 229 1600 314 570 41 390 17
internal_value=-0.000176285 -0.00204941 0.0123559 -0.000252559 0.0142247 -0.00827806 0.000279055
internal_weight=3201 2789 412 2170 355 619 57
internal_count=3201 2789 412 2170 355 619 57
is_linear=0
shrinkage=0.0130643


Tree=15
num_leaves=8
num_cat=0
split_feature=4 0 6 0 0 4 39
split_gain=436.361 178.686 107.199 41.3554 29.8447 27.8229 25.1713
threshold=-0.54740208386580858 -0.29092299167381408 1.3639819661013097 -1.1969776288973024 1.0000000180025095e-35 -0.2988367029903255 0.67911598591112943
decision_type=2 2 2 2 2 2 2
left_child=2 3 4 -2 -1 -3 -4
right_child=1 5 6 -5 -6 -7 -8
leaf_value=0.00056480876305557129 -0.010152669203187076 0.0032474370415197474 0.019205830233268249 -0.0044886648993033582 0.007976492226860114 -0.00059103690062129453 0.0069254829077369422
leaf_weight=144 293 549 175 1015 287 757 47
leaf_count=144 293 549 175 1015 287 757 47
internal_value=0 -0.00239187 0.00951398 -0.00579857 0.00556639 0.00101592 0.0168567
internal_weight=3267 2614 653 1308 431 1306 222
internal_count=3267 2614 653 1308 431 1306 222
is_linear=0
shrinkage=0.0130643


Tree=16
num_leaves=8
num_cat=0
split_feature=4 6 6 40 55 39 53
split_gain=425.341 104.505 94.8941 33.8318 30.4321 24.4625 15.3587
threshold=-0.54740208386580858 1.3639819661013097 -0.38958938045935559 0.068295622023689564 1.0352052254909376 0.67911598591112943 0.21101930525894336
decision_type=2 2 2 2 2 2 2
left_child=1 3 6 -1 -4 -3 -2
right_child=2 5 4 -5 -6 -7 -8
leaf_value=0.00030066444552101263 -0.0063038035776624597 0.01896094865912434 0.0014081509229887173 0.008111915110548781 -0.0026518986417586395 0.0068426038870535652 -0.0032338186635870671
leaf_weight=148 693 175 901 283 479 47 541
leaf_count=148 693 175 901 283 479 47 541
internal_value=0 0.00939359 -0.00236095 0.00549524 0 0.0166439 -0.00498651
internal_weight=3267 653 2614 431 1380 222 1234
internal_count=3267 653 2614 431 1380 222 1234
is_linear=0
shrinkage=0.0130643


Tree=17
num_leaves=8
num_cat=0
split_feature=6 6 6 54 39 31 53
split_gain=414.723 121.394 59.4928 53.7649 25.8155 18.7695 13.7496
threshold=0.45735431690705963 -0.38674728751517301 1.3639819661013097 -0.24406677603467408 0.67911598591112943 0.44962003645336257 0.21101930525894336
decision_type=2 2 2 2 2 2 2
left_child=1 6 5 -3 -4 -2 -1
right_child=2 3 4 -5 -6 -7 -8
leaf_value=-0.0061561213736300953 0.00087699838788137874 -0.0010403751785869545 0.018719189414222664 0.0042254363499062411 0.0065096815924899016 0.0090758992237155167 -0.0032523691507585304
leaf_weight=703 75 1095 175 468 48 159 544
leaf_count=703 75 1095 175 468 48 159 544
internal_value=0 -0.00188369 0.0114801 0.000533594 0.0163334 0.00657733 -0.00491748
internal_weight=3267 2810 457 1563 223 234 1247
internal_count=3267 2810 457 1563 223 234 1247
is_linear=0
shrinkage=0.0130643


Tree=18
num_leaves=8
num_cat=0
split_feature=6 0 0 5 0 55 58
split_gain=389.592 138.323 98.7932 55.5082 37.426 35.4272 12.7005
threshold=0.11061897771678215 -0.32645454607473523 1.0000000180025095e-35 2.5534559627040352 -0.89495941648947286 0.12228517741102318 0.3409215807578751
decision_type=2 2 2 2 2 2 2
left_child=1 4 6 -4 -1 -3 -2
right_child=2 5 3 -5 -6 -7 -8
leaf_value=-0.0077933490047729197 -0.0027590574464068838 0.0040439003777861891 0.0095977612161012842 0.021705223332880021 -0.0031413173466845364 -0.0006097126269588428 0.0038935702208058895
leaf_weight=556 94 401 447 80 681 882 92
leaf_count=556 94 401 447 80 681 882 92
internal_value=0.000255986 -0.00215367 0.00875626 0.0116264 -0.00526474 0.000841231 0.000462594
internal_weight=3233 2520 713 527 1237 1283 186
internal_count=3233 2520 713 527 1237 1283 186
is_linear=0
shrinkage=0.0130643


Tree=19
num_leaves=8
num_cat=0
split_feature=6 0 4 0 53 0 39
split_gain=379.697 134.767 98.2353 46.5145 43.6125 36.4505 29.0797
threshold=0.11061897771678215 -0.32645454607473523 -0.73779258836617856 0.50853698234691169 -0.45194698727863608 -0.89495941648947286 0.67911598591112943
decision_type=2 2 2 2 2 2 2
left_child=1 5 6 -4 -3 -1 -2
right_child=2 4 3 -5 -6 -7 -8
leaf_value=-0.0076923173042718288 0.017435453985735774 -0.0028706877032122478 0.0011737996112258179 0.0096630585760161605 0.0023880179037055549 -0.0031005361632684917 0.005725244046900814
leaf_weight=556 201 376 262 194 907 681 56
leaf_count=556 201 376 262 194 907 681 56
internal_value=0.000253011 -0.00212578 0.0086447 0.00487623 0.000830232 -0.00519662 0.0150804
internal_weight=3233 2520 713 456 1283 1237 257
internal_count=3233 2520 713 456 1283 1237 257
is_linear=0
shrinkage=0.0130643


Tree=20
num_leaves=8
num_cat=0
split_feature=6 0 4 0 53 0 39
split_gain=370.321 127.587 104.25 49.6082 43.0795 34.6787 28.2809
threshold=0.048092932944764979 -0.30868876887427465 -0.73779258836617856 0.50853698234691169 -0.45194698727863608 -0.89495941648947286 0.67911598591112943
decision_type=2 2 2 2 2 2 2
left_child=1 5 6 -4 -3 -1 -2
right_child=2 4 3 -5 -6 -7 -8
leaf_value=-0.0076272669541916083 0.017212452371061292 -0.0030343968807021652 0.001159539615623761 0.0094502667374449789 0.0023258845221972094 -0.0031388415000085921 0.0056557913226441409
leaf_weight=553 201 356 305 210 870 682 56
leaf_count=553 201 356 305 210 870 682 56
internal_value=0.000250165 -0.00222302 0.00812307 0.00462083 0.000751447 -0.00518084 0.0148892
internal_weight=3233 2461 772 515 1226 1235 257
internal_count=3233 2461 772 515 1226 1235 257
is_linear=0
shrinkage=0.0130643


Tree=21
num_leaves=8
num_cat=0
split_feature=4 4 59 54 72 65 64
split_gain=320.428 124.925 31.8905 30.624 28.3861 22.0208 5.72129
threshold=-0.69019496224108623 -0.2988367029903255 1.6837109196032443 -0.17558132587340411 -0.78784078290102266 -0.49734630812035402 0.45203181114812746
decision_type=2 2 2 2 2 2 2
left_child=2 3 5 -2 -3 -1 -4
right_child=1 4 6 -5 -6 -7 -8
leaf_value=0.008258816879180321 0.00015028149689739342 -0.0061111242823124433 0.0046761096834736929 0.0045716142839928092 -0.0024878542859180079 0.016401816771312347 -0.0044630057596734968
leaf_weight=121 678 546 21 446 1244 178 17
leaf_count=121 678 546 21 446 1244 178 17
internal_value=-6.51164e-05 -0.00147062 0.0119072 0.00192933 -0.00361383 0.0133224 0.000178118
internal_weight=3251 2914 337 1124 1790 299 38
internal_count=3251 2914 337 1124 1790 299 38
is_linear=0
shrinkage=0.0130643


Tree=22
num_leaves=8
num_cat=0
split_feature=0 4 0 4 59 4 6
split_gain=326.368 176.969 67.2903 36.6913 24.123 17.7374 17.3822
threshold=0.011095220734015731 -0.70077221249110677 -0.87719363928901239 -0.2988367029903255 1.6837109196032443 -0.082003072864904117 -0.034327762436530476
decision_type=2 2 2 2 2 2 2
left_child=2 4 6 -3 -2 -4 -1
right_child=1 3 5 -5 -6 -7 -8
leaf_value=-0.0077614033729236044 0.015317635013247828 0.0044333618859664298 -0.00055233230120253199 -0.00024211605414454332 0.00097709567015420501 -0.0038532214842970135 0
leaf_weight=586 245 637 740 506 25 456 56
leaf_count=586 245 637 740 506 25 456 56
internal_value=-6.37135e-05 0.00464455 -0.00369421 0.00235672 0.0140833 -0.00183327 -0.00710138
internal_weight=3251 1413 1838 1143 270 1196 642
internal_count=3251 1413 1838 1143 270 1196 642
is_linear=0
shrinkage=0.0130643


Tree=23
num_leaves=8
num_cat=0
split_feature=0 4 0 55 59 4 6
split_gain=318.021 172.486 65.5464 36.5561 23.4674 17.2772 16.9257
threshold=0.011095220734015731 -0.70077221249110677 -0.87719363928901239 0.71493254938299911 1.6837109196032443 -0.082003072864904117 -0.034327762436530476
decision_type=2 2 2 2 2 2 2
left_child=2 4 6 -3 -2 -4 -1
right_child=1 3 5 -5 -6 -7 -8
leaf_value=-0.0076607462227855161 0.015120979258040975 0.0040393621123960425 -0.00054515825444329371 -0.00081494764871883473 0.0009662070743805749 -0.0038033530707156553 0
leaf_weight=586 245 742 740 401 25 456 56
leaf_count=586 245 742 740 401 25 456 56
internal_value=-6.27696e-05 0.00458483 -0.0036466 0.00232596 0.0139034 -0.00180969 -0.00700945
internal_weight=3251 1413 1838 1143 270 1196 642
internal_count=3251 1413 1838 1143 270 1196 642
is_linear=0
shrinkage=0.0130643


Tree=24
num_leaves=8
num_cat=0
split_feature=4 0 0 6 0 65 70
split_gain=389.098 121.351 66.2875 38.7822 36.4695 31.7216 13.5313
threshold=-0.58442245974088058 -0.30868876887427465 0.25981610154046353 -0.08974857484809122 -1.1969776288973024 -0.49734630812035402 0.43930133366809182
decision_type=2 2 2 2 2 2 2
left_child=2 4 6 -3 -2 -4 -1
right_child=1 3 5 -5 -6 -7 -8
leaf_value=-0.0011994878984569498 -0.0090440342412383776 -0.00049243204950884061 0.0072312500244648787 0.0046709039959985247 -0.0036525961329926357 0.015724033688200953 0.0061042875436398856
leaf_weight=73 280 1074 135 317 1026 254 89
leaf_count=73 280 1074 135 317 1026 254 89
internal_value=5.08497e-05 -0.00199181 0.0100153 0.00068379 -0.00484642 0.0129281 0.00277281
internal_weight=3248 2697 551 1391 1306 389 162
internal_count=3248 2697 551 1391 1306 389 162
is_linear=0
shrinkage=0.0130643


Tree=25
num_leaves=8
num_cat=0
split_feature=4 6 6 54 16 40 4
split_gain=379.218 67.6496 57.5136 31.8594 23.6813 23.1107 13.493
threshold=-0.58442245974088058 -0.38674728751517301 1.3639819661013097 -0.070007430245765487 0.7868022782818499 0.020952134507872082 0.94927882651210049
decision_type=2 2 2 2 2 2 2
left_child=2 6 5 -3 -4 -1 -2
right_child=1 3 4 -5 -6 -7 -8
leaf_value=0.00084380462967428187 -0.0034155765228154698 -0.0010594880809462052 0.016421804881863702 0.0036502258462984528 0.001121011038393765 0.0085125415756566337 -0.0068015320438189423
leaf_weight=103 950 1161 201 306 22 225 280
leaf_count=103 950 1161 201 306 22 225 280
internal_value=5.0457e-05 -0.00196604 0.00988766 -5.86042e-05 0.0150313 0.00619381 -0.00422014
internal_weight=3248 2697 551 1467 223 328 1230
internal_count=3248 2697 551 1467 223 328 1230
is_linear=0
shrinkage=0.0130643


Tree=26
num_leaves=8
num_cat=0
split_feature=4 0 0 6 0 65 31
split_gain=369.632 117.401 64.0652 37.388 35.2911 31.1115 13.1005
threshold=-0.58442245974088058 -0.30868876887427465 0.25981610154046353 -0.08974857484809122 -1.1969776288973024 -0.49734630812035402 0.44962003645336257
decision_type=2 2 2 2 2 2 2
left_child=2 4 6 -3 -2 -4 -1
right_child=1 3 5 -5 -6 -7 -8
leaf_value=-0.0014519115497603301 -0.0088778885740820272 -0.00046373593264754091 0.0069941618024024297 0.0046055895171554229 -0.0035738212354637518 0.015391105705205877 0.0057736806443335897
leaf_weight=69 280 1074 135 317 1026 254 93
leaf_count=69 280 1074 135 317 1026 254 93
internal_value=5.01945e-05 -0.00194059 0.00976232 0.000690926 -0.00474843 0.0126255 0.00264377
internal_weight=3248 2697 551 1391 1306 389 162
internal_count=3248 2697 551 1391 1306 389 162
is_linear=0
shrinkage=0.0130643


Tree=27
num_leaves=8
num_cat=0
split_feature=0 6 0 41 6 6 62
split_gain=290.159 149.855 47.9556 30.2151 24.0269 13.25 12.5814
threshold=-0.077733665268287164 0.74724779721368506 -0.89495941648947286 -1.3242778241592872 3.4088678394406915 0.029619328807578078 0.57305606556617561
decision_type=2 2 2 2 2 2 2
left_child=2 3 5 -2 -3 -1 -4
right_child=1 4 6 -5 -6 -7 -8
leaf_value=-0.0074391303765809465 0.0093819785493914013 0.009923056534702315 -0.0030116017538192323 0.0013051238837276727 0.020029085230454529 0 0.00024245923084112184
leaf_weight=548 82 236 869 1128 59 40 252
leaf_count=548 82 236 869 1128 59 40 252
internal_value=-0.000204881 0.0039669 -0.00388859 0.00189676 0.012256 -0.00691269 -0.002268
internal_weight=3214 1505 1709 1210 295 588 1121
internal_count=3214 1505 1709 1210 295 588 1121
is_linear=0
shrinkage=0.0130643


Tree=28
num_leaves=8
num_cat=0
split_feature=0 72 0 41 6 4 62
split_gain=282.784 152.99 46.7106 46.5939 19.1728 12.9953 12.2621
threshold=-0.077733665268287164 1.318748767906625 -0.89495941648947286 -1.3242778241592872 3.4088678394406915 -0.40460920549053109 0.57305606556617561
decision_type=2 2 2 2 2 2 2
left_child=2 3 5 -2 -3 -1 -4
right_child=1 4 6 -5 -6 -7 -8
leaf_value=-0.00081016280892403844 0.010545417570495718 0.010933413260909013 -0.0029724514125246764 0.0013468162291855868 0.021189745526249051 -0.0074895250947031458 0.00023934489342588279
leaf_weight=62 99 180 869 1175 51 526 252
leaf_count=62 99 180 869 1175 51 526 252
internal_value=-0.000201359 0.003917 -0.00383802 0.00210704 0.0136111 -0.00682278 -0.00223833
internal_weight=3214 1505 1709 1274 231 588 1121
internal_count=3214 1505 1709 1274 231 588 1121
is_linear=0
shrinkage=0.0130643


Tree=29
num_leaves=8
num_cat=0
split_feature=0 72 0 41 6 16 6
split_gain=275.626 149.217 45.6677 45.4367 18.7284 12.8144 12.5915
threshold=-0.077733665268287164 1.318748767906625 -1.0370856340931576 -1.3242778241592872 3.4088678394406915 -0.23470376759349487 -0.020117297715617523
decision_type=2 2 2 2 2 2 2
left_child=2 3 6 -2 -3 -4 -1
right_child=1 4 5 -5 -6 -7 -8
leaf_value=-0.0080860744799900377 0.010413394917607323 0.010793915015777242 -0.001082731096995678 0.0013292853017214227 0.020934481560779126 -0.0037596333070154114 0
leaf_weight=401 99 180 606 1175 51 668 34
leaf_count=401 99 180 606 1175 51 668 34
internal_value=-0.00019796 0.00386788 -0.00378836 0.0020802 0.0134418 -0.00250655 -0.00744528
internal_weight=3214 1505 1709 1274 231 1274 435
internal_count=3214 1505 1709 1274 231 1274 435
is_linear=0
shrinkage=0.0130643


Tree=30
num_leaves=8
num_cat=0
split_feature=0 6 0 31 49 4 65
split_gain=314.413 148.283 50.9757 50.571 23.3291 17.5569 10.1187
threshold=-0.077733665268287164 0.14330304657488216 -1.2858065148996054 0.49842120515655836 -0.66139200600957848 -0.40460920549053109 1.0052152097221219
decision_type=2 2 2 2 2 2 2
left_child=2 4 6 -3 -2 -4 -1
right_child=1 3 5 -5 -6 -7 -8
leaf_value=-0.010764031775847513 0.0040162853515383493 0.0035755673977584221 8.7391628721762855e-06 0.01276451090755768 -4.8656960984486095e-05 -0.0035688687127899748 -0.0026881259425907064
leaf_weight=191 373 156 281 357 646 1178 41
leaf_count=191 373 156 281 357 646 1178 41
internal_value=6.57002e-05 0.00435106 -0.00380864 0.0100536 0.00143459 -0.0028711 -0.00947834
internal_weight=3223 1532 1691 513 1019 1459 232
internal_count=3223 1532 1691 513 1019 1459 232
is_linear=0
shrinkage=0.0130643


Tree=31
num_leaves=8
num_cat=0
split_feature=0 6 0 31 49 4 43
split_gain=306.371 144.497 49.7066 49.2419 22.7338 17.1096 9.49317
threshold=-0.077733665268287164 0.14330304657488216 -1.2858065148996054 0.49842120515655836 -0.66139200600957848 -0.40460920549053109 -1.3912856963921432
decision_type=2 2 2 2 2 2 2
left_child=2 4 6 -3 -2 -4 -1
right_child=1 3 5 -5 -6 -7 -8
leaf_value=0 0.0039644145608834806 0.003530110593677362 8.6266959382134432e-06 0.012599740209718787 -4.8025526702446802e-05 -0.0035224139062311976 -0.010110701906539753
leaf_weight=18 373 156 281 357 646 1178 214
leaf_count=18 373 156 281 357 646 1178 214
internal_value=6.48358e-05 0.00429509 -0.00375957 0.00992446 0.00141586 -0.00283359 -0.00935858
internal_weight=3223 1532 1691 513 1019 1459 232
internal_count=3223 1532 1691 513 1019 1459 232
is_linear=0
shrinkage=0.0130643


Tree=32
num_leaves=8
num_cat=0
split_feature=0 6 0 31 14 6 65
split_gain=298.52 140.808 48.4479 47.9474 18.3043 15.605 9.82987
threshold=-0.077733665268287164 0.14330304657488216 -1.2858065148996054 0.49842120515655836 1.4783750897705252 0.029619328807578078 1.0052152097221219
decision_type=2 2 2 2 2 2 2
left_child=2 4 6 -3 -2 -4 -1
right_child=1 3 5 -5 -6 -7 -8
leaf_value=-0.010504773634663884 0.00087131648746741259 0.0034852317288343051 -0.003301222137738116 0.012437096363074555 0.0074972153283781907 0.00074131277595722008 -0.0025572258658227995
leaf_weight=191 945 156 1281 357 74 178 41
leaf_count=191 945 156 1281 357 74 178 41
internal_value=6.40835e-05 0.00423985 -0.00371094 0.00979696 0.00139738 -0.00279656 -0.00923896
internal_weight=3223 1532 1691 513 1019 1459 232
internal_count=3223 1532 1691 513 1019 1459 232
is_linear=0
shrinkage=0.0130643


Tree=33
num_leaves=8
num_cat=0
split_feature=4 0 54 0 40 0 4
split_gain=317.027 103.06 67.0983 27.9926 26.1255 24.4087 22.5908
threshold=-0.54740208386580858 -0.30868876887427465 1.2172292410294518 0.98821296675934678 0.020952134507872082 -1.0726171884940785 -0.33585707886539745
decision_type=2 2 2 2 2 2 2
left_child=2 5 4 -4 -1 -2 -3
right_child=1 6 3 -5 -6 -7 -8
leaf_value=0.00059489485834123999 -0.0073870220999356301 0.0028785475568952911 0.0079391727433280029 0.018939007296160458 0.0076275235313068793 -0.0032975903296753261 -0.00062816867157954428
leaf_weight=139 370 494 83 117 287 879 830
leaf_count=139 370 494 83 117 287 879 830
internal_value=0.000170464 -0.00185589 0.00847992 0.0147147 0.00539828 -0.0045428 0.000673495
internal_weight=3199 2573 626 200 426 1249 1324
internal_count=3199 2573 626 200 426 1249 1324
is_linear=0
shrinkage=0.0130643


Tree=34
num_leaves=8
num_cat=0
split_feature=6 0 0 6 0 55 6
split_gain=290.945 119.776 51.9791 34.5232 24.4729 23.1333 19.9731
threshold=0.45735431690705963 -0.30868876887427465 0.98821296675934678 -0.11390636487364332 -1.339103846500987 -0.97507249930800344 1.3639819661013097
decision_type=2 2 2 2 2 2 2
left_child=1 4 6 -3 -1 -4 -2
right_child=2 3 5 -5 -6 -7 -8
leaf_value=-0.0085208486986606529 0.0022553501973735278 -0.00011155931250256902 0.018512527708024907 0.0043279586993285627 -0.0034904647425214228 0.0085892999600456557 0.010268962434676376
leaf_weight=202 149 1050 121 410 1089 90 88
leaf_count=202 149 1050 121 410 1089 90 88
internal_value=0.00016877 -0.00142064 0.00988402 0.00113349 -0.00431541 0.0146094 0.00542619
internal_weight=3199 2751 448 1460 1291 211 237
internal_count=3199 2751 448 1460 1291 211 237
is_linear=0
shrinkage=0.0130643


Tree=35
num_leaves=8
num_cat=0
split_feature=6 0 0 55 49 0 70
split_gain=283.892 101.877 60.5405 29.7923 27.9369 24.0969 16.3545
threshold=0.25840781081427749 -0.30868876887427465 0.25981610154046353 -1.0595095186490637 -0.46557880904040516 -1.1081487428949999 0.33394255360000097
decision_type=2 2 2 2 2 2 2
left_child=1 5 6 -4 -3 -1 -2
right_child=2 4 3 -5 -6 -7 -8
leaf_value=-0.007278989570872146 -0.0030788389505343526 0.0029151049836937987 0.015747046975031046 0.0079433819216736222 -0.00080711944010952144 -0.0031339981427376045 0.0051489455898778465
leaf_weight=341 66 611 164 232 768 925 92
leaf_count=341 66 611 164 232 768 925 92
internal_value=0.000167188 -0.00161224 0.00863784 0.0113491 0.00083469 -0.00428373 0.00162474
internal_weight=3199 2645 554 396 1379 1266 158
internal_count=3199 2645 554 396 1379 1266 158
is_linear=0
shrinkage=0.0130643


Tree=36
num_leaves=8
num_cat=0
split_feature=0 4 0 54 30 40 37
split_gain=247.517 115.707 54.7903 32.911 17.4422 14.9523 10.6422
threshold=-0.077733665268287164 -0.49451583261570581 -0.89495941648947286 1.4833778028158902 1.4783750897705252 -0.065126933702705045 1.1723168651153033
decision_type=2 2 2 2 2 2 2
left_child=2 3 6 -2 -3 -4 -1
right_child=1 4 5 -5 -6 -7 -8
leaf_value=-0.0075077967234824777 0.0065489602797614852 0.00041827623167098923 -0.002796686782753435 0.014191596248099191 0.0071392810722728517 0.00028885535094464197 -0.0027567248353287514
leaf_weight=469 447 848 713 134 68 413 119
leaf_count=469 447 848 713 134 68 413 119
internal_value=8.67205e-06 0.00388879 -0.00337232 0.00842996 0.000965373 -0.00165427 -0.00659984
internal_weight=3211 1497 1714 581 916 1126 588
internal_count=3211 1497 1714 581 916 1126 588
is_linear=0
shrinkage=0.0130643


Tree=37
num_leaves=8
num_cat=0
split_feature=0 4 0 55 14 40 0
split_gain=241.227 112.745 53.3906 32.2189 17.0157 14.5706 8.56507
threshold=-0.077733665268287164 -0.49451583261570581 -0.89495941648947286 -0.75087424009521453 1.4783750897705252 -0.065126933702705045 -1.339103846500987
decision_type=2 2 2 2 2 2 2
left_child=2 3 6 -2 -3 -4 -1
right_child=1 4 5 -5 -6 -7 -8
leaf_value=-0.0088344719980695367 0.011801946835129869 0.00041283937986974771 -0.0027603694477290074 0.0053562155749517426 0.0070515688783649097 0.0002851206798349915 -0.0051483878733758178
leaf_weight=205 259 848 713 322 68 413 383
leaf_count=205 259 848 713 322 68 413 383
internal_value=8.89441e-06 0.00383946 -0.0033288 0.00832218 0.000953446 -0.0016326 -0.00651494
internal_weight=3211 1497 1714 581 916 1126 588
internal_count=3211 1497 1714 581 916 1126 588
is_linear=0
shrinkage=0.0130643


Tree=38
num_leaves=8
num_cat=0
split_feature=0 4 0 54 14 40 6
split_gain=235.098 109.849 52.0347 31.6163 16.5996 14.1986 9.01441
threshold=-0.077733665268287164 -0.49451583261570581 -0.89495941648947286 1.4833778028158902 1.4783750897705252 -0.065126933702705045 -0.52600984178012045
decision_type=2 2 2 2 2 2 2
left_child=2 3 6 -2 -3 -4 -1
right_child=1 4 5 -5 -6 -7 -8
leaf_value=-0.0081748104149953205 0.0063715889036900682 0.00040747316882484646 -0.0027245238494527065 0.013862587735045914 0.0069649343251439108 0.00028143423750163403 -0.004590699176254022
leaf_weight=290 447 848 713 134 68 413 298
leaf_count=290 447 848 713 134 68 413 298
internal_value=8.98495e-06 0.00379063 -0.00328597 0.00821545 0.000941669 -0.00161121 -0.0064315
internal_weight=3211 1497 1714 581 916 1126 588
internal_count=3211 1497 1714 581 916 1126 588
is_linear=0
shrinkage=0.0130643


Tree=39
num_leaves=8
num_cat=0
split_feature=0 5 0 55 2 70 33
split_gain=264.585 128.746 48.3007 37.0587 29.2771 18.9993 8.07952
threshold=0.011095220734015731 0.56323263401339407 -1.1969776288973024 0.71493254938299911 -0.89682393363481949 0.43930133366809182 -1.0881180371069206
decision_type=2 2 2 2 2 2 2
left_child=2 3 6 -2 -3 -4 -1
right_child=1 4 5 -5 -6 -7 -8
leaf_value=-0.0017554589948315207 0.003949521369308772 0.01484131911576385 -0.0027236649694933977 -0.0010019924596112333 0.0060364224782048503 0.0021113514709434704 -0.0087192652934779714
leaf_weight=41 691 192 1403 401 121 147 272
leaf_count=41 691 192 1403 401 121 147 272
internal_value=0 0.00427559 -0.00322283 0.00212012 0.0116152 -0.00225043 -0.0078928
internal_weight=3268 1405 1863 1092 313 1550 313
internal_count=3268 1405 1863 1092 313 1550 313
is_linear=0
shrinkage=0.0130643


Tree=40
num_leaves=8
num_cat=0
split_feature=0 4 0 55 24 70 0
split_gain=257.824 124.449 47.3726 36.3821 19.2912 16.7146 12.6853
threshold=0.011095220734015731 -0.70077221249110677 -0.87719363928901239 0.71493254938299911 -1.3559668441625965 0.3543749454312427 -1.339103846500987
decision_type=2 2 2 2 2 2 2
left_child=2 4 6 -3 -2 -4 -1
right_child=1 3 5 -5 -6 -7 -8
leaf_value=-0.0087526816092904098 0.016124841672032382 0.0039270734933685714 -0.0021972439382825664 -0.00097226824680814877 0.0085190349861172191 0.0024626060326127758 -0.0045974458818910111
leaf_weight=212 113 705 1070 398 189 143 438
leaf_count=212 113 705 1070 398 189 143 438
internal_value=0 0.00422083 -0.00318117 0.00214813 0.011603 -0.00162822 -0.00602541
internal_weight=3268 1405 1863 1103 302 1213 650
internal_count=3268 1405 1863 1103 302 1213 650
is_linear=0
shrinkage=0.0130643


Tree=41
num_leaves=8
num_cat=0
split_feature=0 5 0 55 2 70 0
split_gain=251.252 122.645 46.1708 35.1574 28.139 16.2919 12.353
threshold=0.011095220734015731 0.56323263401339407 -0.87719363928901239 0.71493254938299911 -0.89682393363481949 0.3543749454312427 -1.339103846500987
decision_type=2 2 2 2 2 2 2
left_child=2 3 6 -2 -3 -4 -1
right_child=1 4 5 -5 -6 -7 -8
leaf_value=-0.0086406117838936508 0.003844760148746719 0.014493255192922607 -0.0021686536122194648 -0.00097739213750818702 0.0058614213568105996 0.0024313748341676113 -0.0045379685474099801
leaf_weight=212 691 192 1070 401 121 143 438
leaf_count=212 691 192 1070 401 121 143 438
internal_value=0 0.00416693 -0.00314012 0.00206278 0.0113308 -0.00160677 -0.00594816
internal_weight=3268 1405 1863 1092 313 1213 650
internal_count=3268 1405 1863 1092 313 1213 650
is_linear=0
shrinkage=0.0130643


Tree=42
num_leaves=8
num_cat=0
split_feature=6 0 0 55 55 60 0
split_gain=225.901 99.1583 43.481 27.9103 21.5541 20.9158 19.6204
threshold=0.37351257505367291 -0.30868876887427465 0.98821296675934678 0.21918382125737843 -1.0595095186490637 -0.81421728253036507 -1.1081487428949999
decision_type=2 2 2 2 2 2 2
left_child=1 6 5 -3 -4 -2 -1
right_child=2 3 4 -5 -6 -7 -8
leaf_value=-0.0066515721231625944 -0.0048549904558835046 0.0032583281488932909 0.01649188637967381 -0.00053568498356427324 0.0074268068587357711 0.0056601373960419614 -0.0030450985687602069
leaf_weight=375 32 522 111 875 109 251 967
leaf_count=375 32 522 111 875 109 251 967
internal_value=-6.44382e-05 -0.00155017 0.00793933 0.000876427 0.0122995 0.00436149 -0.0040826
internal_weight=3242 2739 503 1397 220 283 1342
internal_count=3242 2739 503 1397 220 283 1342
is_linear=0
shrinkage=0.0130643


Tree=43
num_leaves=8
num_cat=0
split_feature=4 0 5 31 49 18 0
split_gain=224.051 77.9185 50.0608 29.5 23.9668 18.2447 14.0869
threshold=-0.52095895824075711 -0.5396438724802618 2.39487243053745 0.44962003645336257 -0.46557880904040516 -0.064248284069807385 -1.054851411293618
decision_type=2 2 2 2 2 2 2
left_child=2 6 3 -1 -3 -4 -2
right_child=1 4 5 -5 -6 -7 -8
leaf_value=0.0013960727118334166 -0.0065872580374254893 0.0018504371981780952 0.018194620213189367 0.0072472037526285843 -0.0014675604777488324 0.0022592697825262928 -0.0033228630767894647
leaf_weight=257 414 658 72 374 842 19 606
leaf_count=257 414 658 72 374 842 19 606
internal_value=-6.32254e-05 -0.0019077 0.00632607 0.00491445 -4.91366e-07 0.0152848 -0.00468529
internal_weight=3242 2520 722 631 1500 91 1020
internal_count=3242 2520 722 631 1500 91 1020
is_linear=0
shrinkage=0.0130643


Tree=44
num_leaves=8
num_cat=0
split_feature=4 0 5 31 49 18 0
split_gain=218.418 75.9209 48.8757 28.7303 23.3483 17.7501 13.7153
threshold=-0.52095895824075711 -0.5396438724802618 2.39487243053745 0.44962003645336257 -0.46557880904040516 -0.064248284069807385 -1.054851411293618
decision_type=2 2 2 2 2 2 2
left_child=2 6 3 -1 -3 -4 -2
right_child=1 4 5 -5 -6 -7 -8
leaf_value=0.0013781348076710748 -0.0065020866635300397 0.0018264198265353852 0.017970341389111601 0.0071536024680997302 -0.0014484854449021514 0.0022352099236670081 -0.003279758693688288
leaf_weight=257 414 658 72 374 842 19 606
leaf_count=257 414 658 72 374 842 19 606
internal_value=-6.18704e-05 -0.00188308 0.00624653 0.00485134 -3.34182e-07 0.0150994 -0.00462483
internal_weight=3242 2520 722 631 1500 91 1020
internal_count=3242 2520 722 631 1500 91 1020
is_linear=0
shrinkage=0.0130643


Tree=45
num_leaves=8
num_cat=0
split_feature=0 40 0 70 54 14 4
split_gain=178.958 59.0504 56.9116 33.9923 23.2345 16.3152 13.4368
threshold=0.40194231914414813 1.1571958348874907 -0.85942786208855171 0.33394255360000097 -0.27775866783703607 0.66446967496574094 0.12425330701049687
decision_type=2 2 2 2 2 2 2
left_child=2 4 6 -4 -2 -3 -1
right_child=1 5 3 -5 -6 -7 -8
leaf_value=-0.0032957024321078688 0.00070635741766199463 0.0088978465323800143 -0.0014180501407175356 0.0040243600558470018 0.0053540212686410231 0.019867616042391099 -0.0072630698874562825
leaf_weight=338 350 123 1457 221 407 37 309
leaf_count=338 350 123 1457 221 407 37 309
internal_value=-3.57916e-05 0.00483337 -0.00196836 -0.000683452 0.00324196 0.0119847 -0.0052501
internal_weight=3242 917 2325 1678 757 160 647
internal_count=3242 917 2325 1678 757 160 647
is_linear=0
shrinkage=0.0130643


Tree=46
num_leaves=8
num_cat=0
split_feature=0 40 0 70 4 14 6
split_gain=174.472 57.647 55.4652 33.1246 22.766 15.9474 13.6366
threshold=0.40194231914414813 1.1571958348874907 -0.85942786208855171 0.33394255360000097 -0.33585707886539745 0.66446967496574094 -0.51179937705920742
decision_type=2 2 2 2 2 2 2
left_child=2 4 6 -4 -2 -3 -1
right_child=1 5 3 -5 -6 -7 -8
leaf_value=-0.0070429951814300921 0.0049003446802384706 0.0087855365145226624 -0.0013995789306631644 0.0039727901179935458 0.00013478136799494959 0.019635131583829124 -0.0030543559615270727
leaf_weight=336 482 123 1457 221 275 37 311
leaf_count=336 482 123 1457 221 275 37 311
internal_value=-3.46684e-05 0.00477302 -0.00194293 -0.000674314 0.00320032 0.0118392 -0.00518274
internal_weight=3242 917 2325 1678 757 160 647
internal_count=3242 917 2325 1678 757 160 647
is_linear=0
shrinkage=0.0130643


Tree=47
num_leaves=8
num_cat=0
split_feature=0 40 0 70 54 14 6
split_gain=170.096 56.278 54.055 32.279 22.4268 15.5876 13.2746
threshold=0.40194231914414813 1.1571958348874907 -0.85942786208855171 0.33394255360000097 -0.27775866783703607 0.66446967496574094 -0.51179937705920742
decision_type=2 2 2 2 2 2 2
left_child=2 4 6 -4 -2 -3 -1
right_child=1 5 3 -5 -6 -7 -8
leaf_value=-0.0069521483725179635 0.00066773859044289008 0.0086746441048149384 -0.0013813483449763597 0.0039218809366869407 0.0052340220441579096 0.019405367832271044 -0.0030149981981865896
leaf_weight=336 350 123 1457 221 407 37 311
leaf_count=336 350 123 1457 221 407 37 311
internal_value=-3.35762e-05 0.00471338 -0.00191781 -0.000665296 0.00315916 0.0116955 -0.00511622
internal_weight=3242 917 2325 1678 757 160 647
internal_count=3242 917 2325 1678 757 160 647
is_linear=0
shrinkage=0.0130643


Tree=48
num_leaves=8
num_cat=0
split_feature=4 54 4 40 4 34 53
split_gain=201.295 40.224 38.4119 23.328 19.1521 18.3411 17.3906
threshold=-0.52624758336576749 1.2690346989121448 -0.23537320149020222 0.068295622023689564 0.73773382151168942 0.99285746302696853 -0.30720250724994713
decision_type=2 2 2 2 2 2 2
left_child=1 3 6 -1 -4 -3 -2
right_child=2 5 4 -5 -6 -7 -8
leaf_value=0.0003895460685486275 -0.00195588836232435 0.0048640068742251052 -0.0022926075763627612 0.0062745185796127803 -0.0059032695524709172 0.014829778485883113 0.0015584294450401576
leaf_weight=184 388 59 1193 334 330 111 613
leaf_count=184 388 59 1193 334 330 111 613
internal_value=-8.16504e-05 0.00615497 -0.00179545 0.00423464 -0.00309969 0.0116669 0.000178065
internal_weight=3212 688 2524 518 1523 170 1001
internal_count=3212 688 2524 518 1523 170 1001
is_linear=0
shrinkage=0.0130643


Tree=49
num_leaves=8
num_cat=0
split_feature=6 0 0 5 0 0 65
split_gain=196.641 91.8334 32.5197 28.007 19.3833 18.6389 8.65934
threshold=0.45735431690705963 -0.29092299167381408 -0.042202110867366006 -0.48341867828606677 -1.339103846500987 2.7647906868054037 0.037990264818859851
decision_type=2 2 2 2 2 2 2
left_child=1 4 6 -3 -1 -4 -2
right_child=2 3 5 -5 -6 -7 -8
leaf_value=-0.0075139679975566379 -0.0033260276351279754 -0.0011242001490823239 0.0082402326972762733 0.0025450098346097823 -0.0031273150989828773 0.018934681695375471 0.0049050506742561069
leaf_weight=212 46 633 342 788 1124 33 34
leaf_count=212 46 633 342 788 1124 33 34
internal_value=-8.00814e-05 -0.00140138 0.00782998 0.000901041 -0.00385704 0.00942715 5.77429e-05
internal_weight=3212 2757 455 1421 1336 375 80
internal_count=3212 2757 455 1421 1336 375 80
is_linear=0
shrinkage=0.0130643


Tree=50
num_leaves=8
num_cat=0
split_feature=4 0 0 10 64 4 0
split_gain=191.725 63.9174 52.8189 30.2519 18.0394 16.7847 11.2596
threshold=-0.52624758336576749 -0.59294120408164341 -0.059967888067826582 1.9130541036121225 0.73242885570135374 -0.2988367029903255 -1.339103846500987
decision_type=2 2 2 2 2 2 2
left_child=2 6 4 -4 -1 -3 -2
right_child=1 5 3 -5 -6 -7 -8
leaf_value=-0.0029942835504649409 -0.0072779698141204364 0.0015497973275395444 0.0062063345464519566 0.014263231049601831 0.0080354849064689753 -0.0012029599504595734 -0.003628962362188389
leaf_weight=123 203 601 433 105 27 998 722
leaf_count=123 203 601 433 105 27 998 722
internal_value=-7.86295e-05 -0.00175132 0.00600782 0.00790857 -0.000738192 -0.000157126 -0.00447671
internal_weight=3212 2524 688 538 150 1599 925
internal_count=3212 2524 688 538 150 1599 925
is_linear=0
shrinkage=0.0130643


Tree=51
num_leaves=8
num_cat=0
split_feature=6 31 6 53 13 34 53
split_gain=202.953 49.6234 42.2082 17.9701 17.6887 14.9354 11.5492
threshold=0.11061897771678215 0.44962003645336257 -0.38958938045935559 -0.30720250724994713 -1.4958349498600614 0.99285746302696853 -0.25790829382852476
decision_type=2 2 2 2 2 2 2
left_child=2 5 6 -4 -3 -2 -1
right_child=1 4 3 -5 -6 -7 -8
leaf_value=-0.0051308483240898308 0.00035471686960741942 -0.0026963529325960507 -0.0019558075482292501 0.0012063599513430958 0.0093375256832917714 0.0095611259402395531 -0.0023840132180199983
leaf_weight=417 236 18 484 820 438 31 842
leaf_count=417 236 18 484 820 438 31 842
internal_value=0.000102462 0.00619882 -0.00161867 1.80889e-05 0.00880758 0.00161639 -0.00332064
internal_weight=3286 723 2563 1304 456 267 1259
internal_count=3286 723 2563 1304 456 267 1259
is_linear=0
shrinkage=0.0130643


Tree=52
num_leaves=8
num_cat=0
split_feature=6 0 0 14 31 73 37
split_gain=197.778 72.8194 50.1495 29.4366 26.3042 23.5631 7.62126
threshold=0.11061897771678215 -0.87719363928901239 1.4501231739713216 0.44855277967598312 0.44962003645336257 0.17030743571178095 1.1723168651153033
decision_type=2 2 2 2 2 2 2
left_child=1 6 4 -4 -2 -3 -1
right_child=2 5 3 -5 -6 -7 -8
leaf_value=-0.0061765003044723793 0.00059010482576197295 -0.0014216053544190965 0.0070237861897326824 0.018691613966820043 0.0064711763887332239 0.001566725381808393 -0.0021913421142603219
leaf_weight=506 228 1236 103 71 321 700 121
leaf_count=506 228 1236 103 71 321 700 121
internal_value=0.000101203 -0.00159778 0.0061194 0.0122095 0.00408077 -0.000331938 -0.00545252
internal_weight=3286 2563 723 174 549 1936 627
internal_count=3286 2563 723 174 549 1936 627
is_linear=0
shrinkage=0.0130643


Tree=53
num_leaves=8
num_cat=0
split_feature=6 0 0 14 73 0 37
split_gain=192.829 70.9587 48.9355 28.6987 22.9552 21.8593 7.40875
threshold=0.11061897771678215 -0.87719363928901239 1.4501231739713216 0.44855277967598312 0.17030743571178095 -0.21985988287197178 1.1723168651153033
decision_type=2 2 2 2 2 2 2
left_child=1 6 5 -4 -3 -2 -1
right_child=2 4 3 -5 -6 -7 -8
leaf_value=-0.0060964899065285103 -0.00048726841332820029 -0.0014030976155436953 0.0069357096236687581 0.018461391865326672 0.0015463824814958419 0.0054856650309015346 -0.0021636981409138153
leaf_weight=506 132 1236 103 71 700 417 121
leaf_count=506 132 1236 103 71 700 417 121
internal_value=0.000100363 -0.00157717 0.00604284 0.0120593 -0.000327491 0.00402855 -0.00538236
internal_weight=3286 2563 723 174 1936 549 627
internal_count=3286 2563 723 174 1936 549 627
is_linear=0
shrinkage=0.0130643


Tree=54
num_leaves=8
num_cat=0
split_feature=6 0 0 55 55 0 0
split_gain=177.973 92.5252 30.1986 28.8379 25.1572 16.333 15.5073
threshold=0.45735431690705963 -0.5396438724802618 0.98821296675934678 -1.0595095186490637 0.12228517741102318 0.86385252635612264 -1.339103846500987
decision_type=2 2 2 2 2 2 2
left_child=1 6 5 -4 -3 -2 -1
right_child=2 4 3 -5 -6 -7 -8
leaf_value=-0.0075565411932871605 0.005155116021996419 0.0027042580721703974 0.015180872134781781 0.0051263352449268992 -0.00054955090005096973 -0.0057889835467415602 -0.0034453957415746623
leaf_weight=208 226 620 123 99 1140 21 831
leaf_count=208 226 620 123 99 1140 21 831
internal_value=1.96939e-05 -0.00122661 0.00743429 0.0109495 0.000591578 0.00407884 -0.00431128
internal_weight=3268 2799 469 222 1760 247 1039
internal_count=3268 2799 469 222 1760 247 1039
is_linear=0
shrinkage=0.0130643


Tree=55
num_leaves=8
num_cat=0
split_feature=6 0 54 54 0 50 0
split_gain=173.476 90.154 34.0956 25.331 22.3757 17.1225 15.1085
threshold=0.45735431690705963 -0.5396438724802618 1.2172292410294518 -0.31109117175212153 0.98821296675934678 -1.412627082921577 -1.339103846500987
decision_type=2 2 2 2 2 2 2
left_child=1 6 5 -3 -4 -2 -1
right_child=2 3 4 -5 -6 -7 -8
leaf_value=-0.0074598238108254901 -0.0042058246116448697 -0.00068410875177403279 0.0052403341333968553 0.002500439249755852 0.014918706855220764 0.0053287379344562503 -0.0034006162670968095
leaf_weight=208 32 1056 79 704 123 235 831
leaf_count=208 32 1056 79 704 123 235 831
internal_value=1.95601e-05 -0.00121083 0.00733994 0.000583802 0.0113982 0.00407947 -0.00425575
internal_weight=3268 2799 469 1760 202 267 1039
internal_count=3268 2799 469 1760 202 267 1039
is_linear=0
shrinkage=0.0130643


Tree=56
num_leaves=8
num_cat=0
split_feature=0 54 54 0 0 33 73
split_gain=169.507 97.6917 35.2968 32.3989 31.6277 9.2629 8.80159
threshold=-0.13103099686966888 1.2172292410294518 -0.31109117175212153 -0.89495941648947286 0.98821296675934678 1.2351000795055584 0.73602206323400743
decision_type=2 2 2 2 2 2 2
left_child=3 2 -2 6 -3 -5 -1
right_child=1 4 -4 5 -6 -7 -8
leaf_value=-0.0057306110032084179 -0.00019879572111676267 0.0045527623373791395 0.0039390680946533949 -0.001015907109488976 0.015088562647910577 -0.0049951783839551475 4.2386982492465359e-05
leaf_weight=570 751 92 646 923 131 112 43
leaf_count=570 751 92 646 923 131 112 43
internal_value=1.94523e-05 0.00302113 0.00170965 -0.0029219 0.0109797 -0.00148055 -0.00530274
internal_weight=3268 1620 1397 1648 223 1035 613
internal_count=3268 1620 1397 1648 223 1035 613
is_linear=0
shrinkage=0.0130643


Tree=57
num_leaves=8
num_cat=0
split_feature=4 0 31 0 39 43 6
split_gain=162.325 69.5391 33.6473 24.8536 24.1302 15.9272 7.43463
threshold=-0.54740208386580858 -0.89495941648947286 0.44962003645336257 1.2369338475657947 0.73141104546471125 -0.1502905742367632 -0.034327762436530476
decision_type=2 2 2 2 2 2 2
left_child=2 6 5 -3 -4 -1 -2
right_child=1 3 4 -5 -6 -7 -8
leaf_value=-0.00095281852317965685 -0.0055955452663081278 -0.000543620940734206 0.0093013356926356459 0.0049088632822653052 0.0002297353910979347 0.006132684428497296 0.0013841649049052298
leaf_weight=138 546 1867 376 150 62 81 22
leaf_count=138 546 1867 376 150 62 81 22
internal_value=0.000201223 -0.00126943 0.00598192 -0.00012076 0.00806749 0.00166526 -0.00528937
internal_weight=3242 2585 657 2017 438 219 568
internal_count=3242 2585 657 2017 438 219 568
is_linear=0
shrinkage=0.0130643


Tree=58
num_leaves=8
num_cat=0
split_feature=4 41 6 54 66 65 4
split_gain=158.178 42.5142 35.3648 25.285 23.1885 19.0448 12.907
threshold=-0.54740208386580858 -1.3060291320965018 -0.38674728751517301 -0.17558132587340411 1.6464784963348884 -0.46609315908482191 0.94927882651210049
decision_type=2 2 2 2 2 2 2
left_child=1 4 6 -4 -1 -3 -2
right_child=2 5 3 -5 -6 -7 -8
leaf_value=0.013474490549235598 -0.0020541200183268487 0.00037869149343607592 -0.00074896201015565381 0.0035183035496370611 0 0.0058089876501946176 -0.0052532461910069191
leaf_weight=144 941 181 1048 301 23 309 295
leaf_count=144 941 181 1048 301 23 309 295
internal_value=0.000198915 0.00590533 -0.00125277 0.000199747 0.0115794 0.00385567 -0.00284593
internal_weight=3242 657 2585 1349 167 490 1236
internal_count=3242 657 2585 1349 167 490 1236
is_linear=0
shrinkage=0.0130643


Tree=59
num_leaves=8
num_cat=0
split_feature=4 0 41 66 53 65 0
split_gain=154.167 67.4771 41.4206 22.629 21.2231 18.5478 15.1661
threshold=-0.54740208386580858 -0.5396438724802618 -1.3060291320965018 1.6464784963348884 0.10270353752239639 -0.46609315908482191 -1.3924011781023686
decision_type=2 2 2 2 2 2 2
left_child=2 6 3 -1 -3 -4 -2
right_child=1 4 5 -5 -6 -7 -8
leaf_value=0.013303569891672806 -0.0075041438153078061 -0.00077792092797783735 0.00037385920399516666 0 0.0022974814486299063 0.005734140947041679 -0.0031050721679872642
leaf_weight=144 169 963 181 23 626 309 827
leaf_count=144 169 963 181 23 626 309 827
internal_value=0.000196519 -0.00123658 0.00583019 0.0114314 0.000426737 0.00380642 -0.00389631
internal_weight=3242 2585 657 167 1589 490 996
internal_count=3242 2585 657 167 1589 490 996
is_linear=0
shrinkage=0.0130643


Tree=60
num_leaves=8
num_cat=0
split_feature=0 54 0 4 0 70 65
split_gain=180.646 66.953 39.4767 28.9556 23.3207 19.8549 7.651
threshold=0.47300542794599049 1.0167138325633924 -0.89495941648947286 -0.7483698386161991 0.98821296675934678 -0.43538957051782184 0.69798553188414025
decision_type=2 2 2 2 2 2 2
left_child=2 5 6 -4 -3 -2 -1
right_child=1 4 3 -5 -6 -7 -8
leaf_value=-0.0055334284538293733 8.3268899532940786e-05 0.0037214576104944988 0.007815651344858213 -0.0010943522015021774 0.014680500989701653 0.0048743658723142749 -0.0017640027070083965
leaf_weight=447 237 53 60 1707 142 420 139
leaf_count=447 237 53 60 1707 142 420 139
internal_value=0.000107484 0.00525116 -0.00175452 -0.000764662 0.0119255 0.00318163 -0.00468533
internal_weight=3205 852 2353 1767 195 657 586
internal_count=3205 852 2353 1767 195 657 586
is_linear=0
shrinkage=0.0130643


Tree=61
num_leaves=8
num_cat=0
split_feature=6 6 54 39 68 72 41
split_gain=163.141 62.9825 37.2334 24.4898 15.7251 6.81217 6.15598
threshold=1.3639819661013097 -0.38674728751517301 -0.17558132587340411 0.67911598591112943 -0.85129535789010591 0.77480471096527925 -1.3242778241592872
decision_type=2 2 2 2 2 2 2
left_child=1 5 -3 4 -2 -1 -5
right_child=3 2 -4 6 -6 -7 -8
leaf_value=-0.0030951046568083993 0.00052725076207787362 -0.00050250488415740189 0.0034895146558758259 0.0062661836015065735 0.01410038722007384 0.0041764178672940092 -0.0021766974201068634
leaf_weight=1217 19 1137 605 23 162 17 25
leaf_count=1217 19 1137 605 23 162 17 25
internal_value=0.000106543 -0.000712241 0.000880124 0.0106311 0.0128057 -0.00296806 0.00175143
internal_weight=3205 2976 1742 229 181 1234 48
internal_count=3205 2976 1742 229 181 1234 48
is_linear=0
shrinkage=0.0130643


Tree=62
num_leaves=8
num_cat=0
split_feature=0 54 6 0 0 40 16
split_gain=173.776 63.7755 38.6355 33.9391 22.5508 20.2638 10.1271
threshold=0.47300542794599049 1.0167138325633924 1.3639819661013097 -0.89495941648947286 0.98821296675934678 -0.1619658854396043 -0.23470376759349487
decision_type=2 2 2 2 2 2 2
left_child=2 5 3 -1 -3 -2 -4
right_child=1 4 6 -5 -6 -7 -8
leaf_value=-0.0047243988704928925 0.00052942357573709841 0.0035998986491769212 0.012798648385530999 -0.0010551616727406243 0.014374322644736507 0.0052002110173799358 0.00094118506234298926
leaf_weight=580 297 53 33 1716 142 360 24
leaf_count=580 297 53 33 1716 142 360 24
internal_value=0.000105615 0.00515062 -0.00172055 -0.001996 0.0116658 0.00312972 0.00847927
internal_weight=3205 852 2353 2296 195 657 57
internal_count=3205 852 2353 2296 195 657 57
is_linear=0
shrinkage=0.0130643


Tree=63
num_leaves=8
num_cat=0
split_feature=0 54 0 33 4 61 6
split_gain=135.905 56.9648 49.8381 26.0735 24.3966 18.0711 15.6917
threshold=0.70396053155197758 0.87301132968586004 -0.5396438724802618 -1.179583317288514 -0.73779258836617856 0.79527372107419902 -0.65958821015670277
decision_type=2 2 2 2 2 2 2
left_child=2 5 6 -3 -4 -2 -1
right_child=1 3 4 -5 -6 -7 -8
leaf_value=-0.0061457239862637899 0.001800521857806818 0.020207760333288145 0.0075745508141238562 0.0081690557151062257 -4.8846452159942029e-05 0.010195543441920538 -0.0023997551100409346
leaf_weight=265 396 44 71 151 1400 47 801
leaf_count=265 396 44 71 151 1400 47 801
internal_value=0.0001317 0.00550505 -0.00122044 0.0113424 0.000329506 0.00281594 -0.00336664
internal_weight=3175 638 2537 195 1471 443 1066
internal_count=3175 638 2537 195 1471 443 1066
is_linear=0
shrinkage=0.0130643


Tree=64
num_leaves=8
num_cat=0
split_feature=70 4 36 54 51 71 60
split_gain=130.487 34.1668 26.8435 22.8435 22.018 13.5662 9.42115
threshold=0.37211773680638999 -0.23537320149020222 -0.083437202132748842 -0.27775866783703607 -0.25083464896228941 -0.22720849341095775 1.3958047290411766
decision_type=2 2 2 2 2 2 2
left_child=1 3 6 -1 -4 -3 -2
right_child=2 5 4 -5 -6 -7 -8
leaf_value=-0.00080409198355393442 -0.0019637320368315505 -0.00088717450850474939 0.0099863172985902981 0.0030098908822509553 0.0040412842205246116 -0.0034972933397922207 0.0074799285968366828
leaf_weight=733 89 600 232 414 234 855 18
leaf_count=733 89 600 232 414 234 855 18
internal_value=0.000130741 -0.00110919 0.00575475 0.000565 0.00709882 -0.00243752 -5.90663e-06
internal_weight=3175 2602 573 1147 466 1455 107
internal_count=3175 2602 573 1147 466 1455 107
is_linear=0
shrinkage=0.0130643


Tree=65
num_leaves=8
num_cat=0
split_feature=0 54 0 33 4 6 52
split_gain=130.825 54.7987 48.0578 25.4926 23.3853 15.0357 13.0861
threshold=0.70396053155197758 0.87301132968586004 -0.5396438724802618 -1.179583317288514 -0.73779258836617856 -0.65958821015670277 -0.52382388314173312
decision_type=2 2 2 2 2 2 2
left_child=2 6 5 -3 -4 -1 -2
right_child=1 3 4 -5 -6 -7 -8
leaf_value=-0.0060262034917363443 0.0068655167707245479 0.019887964781843001 0.0074178415905239419 0.0079923035689503565 -4.5621221727599459e-05 -0.0023575413069806205 0.001451250500351087
leaf_weight=265 100 44 71 151 1400 801 343
leaf_count=265 100 44 71 151 1400 801 343
internal_value=0.000129276 0.00540133 -0.00119726 0.0111272 0.000324577 -0.00330481 0.00276291
internal_weight=3175 638 2537 195 1471 1066 443
internal_count=3175 638 2537 195 1471 1066 443
is_linear=0
shrinkage=0.0130643


Tree=66
num_leaves=8
num_cat=0
split_feature=6 0 70 14 0 39 4
split_gain=147.872 42.8258 30.7557 19.3526 19.3262 16.0438 10.1479
threshold=0.37351257505367291 -0.82389630768763056 1.5174736676826222 1.6454366611006142 0.3486449875427664 0.96150930750047114 -0.40460920549053109
decision_type=2 2 2 2 2 2 2
left_child=1 6 4 -3 -2 -4 -1
right_child=2 3 5 -5 -6 -7 -8
leaf_value=0.00091531027678559479 -0.00017844855951537863 -0.00043543313924226631 0.012802461856669684 0.0049407990292015909 0.006533167550148722 0.0013389804813563793 -0.0044093596631292319
leaf_weight=61 110 1931 149 117 190 29 615
leaf_count=61 110 1931 149 117 190 29 615
internal_value=0.000111584 -0.00106242 0.00678422 -0.000110913 0.00405293 0.0110968 -0.00390303
internal_weight=3202 2724 478 2048 300 178 676
internal_count=3202 2724 478 2048 300 178 676
is_linear=0
shrinkage=0.0130643


Tree=67
num_leaves=8
num_cat=0
split_feature=6 0 34 52 54 14 6
split_gain=144.135 41.7163 30.5913 25.9824 19.2026 18.8668 8.40491
threshold=0.37351257505367291 -0.82389630768763056 0.99285746302696853 0.082956653677184258 0.78021293807041037 1.6454366611006142 -0.30148449918969494
decision_type=2 2 2 2 2 2 2
left_child=1 6 3 -2 -4 -3 -1
right_child=2 5 4 -5 -6 -7 -8
leaf_value=-0.0045923420017373161 0.0082577139370817662 -0.00042975718048000747 0.0019672220137136637 0.00027902011155462881 0.012865790810288895 0.0048785434851674886 -0.00080384248757757969
leaf_weight=538 123 1931 40 164 151 117 138
leaf_count=538 123 1931 40 164 151 117 138
internal_value=0.000110568 -0.00104844 0.00669841 0.00382395 0.0107575 -0.00010924 -0.00385203
internal_weight=3202 2724 478 287 191 2048 676
internal_count=3202 2724 478 287 191 2048 676
is_linear=0
shrinkage=0.0130643


Tree=68
num_leaves=8
num_cat=0
split_feature=6 0 34 52 72 1 4
split_gain=140.545 40.6524 29.8074 25.3221 18.78 18.7476 9.74951
threshold=0.37351257505367291 -0.82389630768763056 0.99285746302696853 0.082956653677184258 1.0695449022098886 -1.5152168891713205 -0.40460920549053109
decision_type=2 2 2 2 2 2 2
left_child=1 6 3 -2 -4 -3 -1
right_child=2 5 4 -5 -6 -7 -8
leaf_value=0.00091622362491494485 0.0081534839302431772 0.0070575285901490975 0.0019270325139047377 0.00027546826363496256 0.012707217955988332 -0.00033168635419234715 -0.0042989704071055316
leaf_weight=61 123 56 40 164 151 1992 615
leaf_count=61 123 56 40 164 151 1992 615
internal_value=0.000109581 -0.00103484 0.0066149 0.00377634 0.0106223 -0.000107591 -0.00380245
internal_weight=3202 2724 478 287 191 2048 676
internal_count=3202 2724 478 287 191 2048 676
is_linear=0
shrinkage=0.0130643


Tree=69
num_leaves=8
num_cat=0
split_feature=6 6 6 65 54 53 39
split_gain=130.26 34.7957 30.1611 23.0243 14.6996 9.57881 8.8771
threshold=0.11061897771678215 2.7608706481670584 -0.38958938045935559 -0.54275923159482553 1.0167138325633924 1.660858480004064 0.40718167623250462
decision_type=2 2 2 2 2 2 2
left_child=2 3 5 -2 -4 -1 -3
right_child=1 6 4 -5 -6 -7 -8
leaf_value=-0.0029362749026098636 0.00017398472441340453 0.014794142826879882 -1.1962270105369782e-05 0.0056225223274626434 0.010447543270332134 0.002735440194486639 0.0048023574649262209
leaf_weight=1171 206 70 1253 401 19 47 33
leaf_count=1171 206 70 1253 401 19 47 33
internal_value=0.000174413 0.00509734 -0.0012294 0.00381339 0.000166705 -0.00269569 0.0120606
internal_weight=3200 710 2490 607 1272 1218 103
internal_count=3200 710 2490 607 1272 1218 103
is_linear=0
shrinkage=0.0130643


Tree=70
num_leaves=8
num_cat=0
split_feature=0 54 30 72 0 16 16
split_gain=115.751 78.7138 25.113 21.092 14.571 9.31979 8.42124
threshold=-0.30868876887427465 0.60142724107799828 -0.37731899785647333 0.71057538056308023 -1.2858065148996054 -1.0415231894254589 -1.670815031335279
decision_type=2 2 2 2 2 2 2
left_child=4 3 -3 -2 5 -1 -6
right_child=1 2 -4 -5 6 -7 -8
leaf_value=0.0019073245831097584 8.5004136939201746e-06 0.0016100348904074266 0.0086785428278264055 0.0045746620913585832 0.0055904463232212603 -0.0065200522718923959 -0.002214471376842264
leaf_weight=20 1160 124 349 200 19 211 1117
leaf_count=20 1160 124 349 200 19 211 1117
internal_value=0.000172952 0.00232103 0.00688966 0.000703836 -0.00269418 -0.00570208 -0.00204953
internal_weight=3200 1833 473 1360 1367 231 1136
internal_count=3200 1833 473 1360 1367 231 1136
is_linear=0
shrinkage=0.0130643


Tree=71
num_leaves=8
num_cat=0
split_feature=6 0 4 56 56 61 0
split_gain=124.521 46.6851 45.9267 22.3366 20.4213 18.095 11.9374
threshold=0.11061897771678215 -0.48634654087888007 -0.81183334011632258 0.39078951607122442 0.15698734273442469 0.79527372107419902 -1.0370856340931576
decision_type=2 2 2 2 2 2 2
left_child=1 6 4 -4 -2 -3 -1
right_child=2 5 3 -5 -6 -7 -8
leaf_value=-0.0050568384730886092 0.003766636479275825 -0.00026892495949379147 0.0057919532127129591 0.00065922744577419736 0.016492555591406347 0.0038629632585793008 -0.0021157455773512615
leaf_weight=407 39 1225 319 278 74 207 651
leaf_count=407 39 1225 319 278 74 207 651
internal_value=0.000171125 -0.0012013 0.00498448 0.00344981 0.012534 0.000327211 -0.00327786
internal_weight=3200 2490 710 597 113 1432 1058
internal_count=3200 2490 710 597 113 1432 1058
is_linear=0
shrinkage=0.0130643


Tree=72
num_leaves=8
num_cat=0
split_feature=6 0 0 42 54 0 66
split_gain=145.749 50.0316 39.9364 24.2768 17.7276 17.0523 5.29676
threshold=0.029619328807578078 -0.89495941648947286 1.4501231739713216 0.067748847224620212 -0.17558132587340411 0.70396053155197758 1.5558812332782483
decision_type=2 2 2 2 2 2 2
left_child=1 6 4 -4 -2 -3 -1
right_child=2 5 3 -5 -6 -7 -8
leaf_value=-0.0052281977456892139 0.00019556117401035939 -0.0010310531440596541 0.0072323470534721556 0.019509176457901296 0.0049620397305027647 0.0023436482802961906 0
leaf_weight=531 212 1570 130 39 391 299 30
leaf_count=531 212 1570 130 39 391 299 30
internal_value=4.78428e-05 -0.00151917 0.00498158 0.0105707 0.00332541 -0.000478639 -0.00492791
internal_weight=3202 2430 772 169 603 1869 561
internal_count=3202 2430 772 169 603 1869 561
is_linear=0
shrinkage=0.0130643


Tree=73
num_leaves=8
num_cat=0
split_feature=6 0 0 42 65 0 66
split_gain=142.104 48.7376 38.989 23.7194 20.9452 16.6155 5.16991
threshold=0.029619328807578078 -0.89495941648947286 1.4501231739713216 0.067748847224620212 -0.61071272595241932 0.70396053155197758 1.5558812332782483
decision_type=2 2 2 2 2 2 2
left_child=1 6 4 -4 -2 -3 -1
right_child=2 5 3 -5 -6 -7 -8
leaf_value=-0.0051604447931859415 -0.00051349800492129811 -0.0010176200239700828 0.0071408925635313043 0.019279658398101016 0.0047995307457153642 0.0023134651019948741 0
leaf_weight=531 170 1570 130 39 433 299 30
leaf_count=531 170 1570 130 39 433 299 30
internal_value=4.78897e-05 -0.00149935 0.00491961 0.0104424 0.00328278 -0.000472237 -0.00486375
internal_weight=3202 2430 772 169 603 1869 561
internal_count=3202 2430 772 169 603 1869 561
is_linear=0
shrinkage=0.0130643


Tree=74
num_leaves=8
num_cat=0
split_feature=6 0 0 30 65 0 66
split_gain=138.525 47.4769 38.0728 21.0945 20.4253 16.1899 5.04619
threshold=0.029619328807578078 -0.89495941648947286 1.4501231739713216 -0.16062435523031923 -0.59238808115372943 0.70396053155197758 1.5558812332782483
decision_type=2 2 2 2 2 2 2
left_child=1 6 4 -4 -2 -3 -1
right_child=2 5 3 -5 -6 -7 -8
leaf_value=-0.0050935698472268148 -0.00041956401173629882 -0.0010043619374586889 0.0037078303899994894 0.01389487898601759 0.0047738678187434543 0.0022836706505234439 0
leaf_weight=531 176 1570 64 105 427 299 30
leaf_count=531 176 1570 64 105 427 299 30
internal_value=4.77878e-05 -0.00147978 0.00485783 0.0103158 0.00323995 -0.000465919 -0.00480043
internal_weight=3202 2430 772 169 603 1869 561
internal_count=3202 2430 772 169 603 1869 561
is_linear=0
shrinkage=0.0130643


Tree=75
num_leaves=8
num_cat=0
split_feature=4 4 6 13 65 69 71
split_gain=113.844 31.8959 25.7675 26.6269 22.0836 18.2426 9.32469
threshold=-0.54740208386580858 -0.2988367029903255 1.3639819661013097 -0.9592064496726489 0.33304150063596522 2.015950536295902 -0.22720849341095775
decision_type=2 2 2 2 2 2 2
left_child=2 5 3 -1 -4 -2 -3
right_child=1 6 4 -5 -6 -7 -8
leaf_value=-0.0028992888741036929 0.00047655107065666967 -0.001035691174151496 0.0058170591685159185 0.0047955524758639331 0.015906561362961591 0.0091431279923732036 -0.0029908718815865663
leaf_weight=94 769 780 157 327 54 40 993
leaf_count=94 769 780 157 327 54 40 993
internal_value=5.09077e-05 -0.00116219 0.00500594 0.00302856 0.0087388 0.00097054 -0.00214416
internal_weight=3214 2582 632 421 211 809 1773
internal_count=3214 2582 632 421 211 809 1773
is_linear=0
shrinkage=0.0130643


Tree=76
num_leaves=8
num_cat=0
split_feature=0 54 40 35 0 60 37
split_gain=116.253 55.0988 25.0067 21.3114 18.6598 13.6593 7.73984
threshold=-0.077733665268287164 1.0167138325633924 0.020952134507872082 -1.4198347924343164 -0.87719363928901239 -0.121869703513839 1.1723168651153033
decision_type=2 2 2 2 2 2 2
left_child=4 2 -2 -3 6 -6 -1
right_child=1 3 -4 -5 5 -7 -8
leaf_value=-0.0047667477296726999 1.5467992902606362e-05 0.0159040583957148 0.0037801865102186955 0.0060052485618385283 -0.0027004971934602474 0.00020754525052931998 -0.00089820420713877477
leaf_weight=510 745 50 511 196 525 555 122
leaf_count=510 745 50 511 196 525 555 122
internal_value=5.08173e-05 0.00270417 0.00156728 0.00831908 -0.00226885 -0.00119671 -0.0040558
internal_weight=3214 1502 1256 246 1712 1080 632
internal_count=3214 1502 1256 246 1712 1080 632
is_linear=0
shrinkage=0.0130643


Tree=77
num_leaves=8
num_cat=0
split_feature=4 4 40 65 69 51 40
split_gain=108.877 30.7555 28.0722 22.5663 17.8363 13.7957 13.4004
threshold=-0.54740208386580858 -0.2988367029903255 0.020952134507872082 -0.54275923159482553 2.015950536295902 -0.087796756950757962 -0.065126933702705045
decision_type=2 2 2 2 2 2 2
left_child=2 4 5 -4 -2 -1 -3
right_child=1 6 3 -5 -6 -7 -8
leaf_value=0.002334127937080821 0.00046964116117522245 -0.002825173857020379 0.0022913199044193237 0.0085892100558868315 0.0090395443298616502 -0.0062240293176448521 -0.00028482434717684449
leaf_weight=128 769 1259 158 308 40 38 514
leaf_count=128 769 1259 158 308 40 38 514
internal_value=5.05241e-05 -0.0011357 0.00489635 0.00652783 0.000958327 0.000174895 -0.00210003
internal_weight=3214 2582 632 466 809 166 1773
internal_count=3214 2582 632 466 809 166 1773
is_linear=0
shrinkage=0.0130643


Tree=78
num_leaves=8
num_cat=0
split_feature=6 0 0 40 0 58 35
split_gain=120.694 37.9872 35.5036 27.8263 26.5394 12.5191 8.11522
threshold=0.048092932944764979 -1.0370856340931576 -0.059967888067826582 1.5531595486561451 0.70396053155197758 0.3409215807578751 -0.94462803538492091
decision_type=2 2 2 2 2 2 2
left_child=1 6 5 -4 -3 -2 -1
right_child=2 4 3 -5 -6 -7 -8
leaf_value=0 -0.0031008873764965194 -0.0012494342109419516 0.0047076831573868039 0.012356146694227544 0.002875879491249656 0.0034177316607641394 -0.0056030004561007964
leaf_weight=55 110 1750 464 103 308 85 369
leaf_count=55 110 1750 464 103 308 85 369
internal_value=2.57757e-05 -0.00136653 0.0045635 0.00620729 -0.000619705 -0.000168161 -0.00491207
internal_weight=3244 2482 762 567 2058 195 424
internal_count=3244 2482 762 567 2058 195 424
is_linear=0
shrinkage=0.0130643


Tree=79
num_leaves=8
num_cat=0
split_feature=6 0 0 40 0 60 35
split_gain=117.63 37.0199 34.6027 27.1341 25.859 10.7804 7.898
threshold=0.048092932944764979 -1.0370856340931576 -0.059967888067826582 1.5531595486561451 0.70396053155197758 -0.18750570156594482 -0.94462803538492091
decision_type=2 2 2 2 2 2 2
left_child=1 6 5 -4 -3 -2 -1
right_child=2 4 3 -5 -6 -7 -8
leaf_value=0 -0.0043263252867129622 -0.0012331513195899878 0.0046467464558833911 0.012201203761332951 0.0028388264626215977 0.0019646462032093777 -0.0055306460581331816
leaf_weight=55 67 1750 464 103 308 128 369
leaf_count=55 67 1750 464 103 308 128 369
internal_value=2.5622e-05 -0.00134883 0.00450543 0.00612824 -0.000611465 -0.000164845 -0.00484901
internal_weight=3244 2482 762 567 2058 195 424
internal_count=3244 2482 762 567 2058 195 424
is_linear=0
shrinkage=0.0130643


Tree=80
num_leaves=8
num_cat=0
split_feature=4 54 11 1 34 73 65
split_gain=108.109 30.6205 25.7939 21.9951 17.3825 17.0679 6.89825
threshold=-0.49451583261570581 -0.17558132587340411 -1.6662381828181989 -1.5152168891713205 -0.3117835615621885 0.17030743571178095 -0.61071272595241932
decision_type=2 2 2 2 2 2 2
left_child=1 6 -3 4 -2 -5 -1
right_child=3 2 -4 5 -6 -7 -8
leaf_value=-0.0039876018289366289 0 0.012383635740755891 0.0044711500810909579 -0.0022177422764412184 0.014166538655695837 0.00016928406566702641 0.001296426333506206
leaf_weight=57 32 84 510 1698 23 713 127
leaf_count=57 32 84 510 1698 23 713 127
internal_value=2.54211e-05 0.00426251 0.00569746 -0.00131008 0.00651037 -0.00150629 -0.000310834
internal_weight=3244 778 594 2466 55 2411 184
internal_count=3244 778 594 2466 55 2411 184
is_linear=0
shrinkage=0.0130643


Tree=81
num_leaves=8
num_cat=0
split_feature=0 41 71 48 4 60 0
split_gain=93.0114 49.1387 25.5098 17.4984 16.6404 11.7493 7.62083
threshold=-0.077733665268287164 -1.3242778241592872 -0.34835052284715845 -0.79012044547913718 -0.13488932411500681 -0.056198500667908192 -1.6766536133097378
decision_type=2 2 2 2 2 2 2
left_child=4 3 -3 -2 5 -1 -6
right_child=1 2 -4 -5 6 -7 -8
leaf_value=-0.0023284166218179095 0.01707776083391321 0.0028454509504272146 -0.00092299676801430768 0.0062379176545417489 -0.008119174556000152 0.00070377697878717287 -0.0029557792476290899
leaf_weight=411 33 821 477 156 54 445 822
leaf_count=411 33 821 477 156 54 445 822
internal_value=-2.98627e-06 0.00238514 0.00145006 0.0085503 -0.00206318 -0.000738211 -0.0033301
internal_weight=3219 1487 1298 189 1732 856 876
internal_count=3219 1487 1298 189 1732 856 876
is_linear=0
shrinkage=0.0130643


Tree=82
num_leaves=8
num_cat=0
split_feature=0 41 71 48 4 60 0
split_gain=90.6638 47.9668 24.8551 17.1093 16.2174 11.4491 7.43971
threshold=-0.077733665268287164 -1.3242778241592872 -0.34835052284715845 -0.79012044547913718 -0.13488932411500681 -0.056198500667908192 -1.6766536133097378
decision_type=2 2 2 2 2 2 2
left_child=4 3 -3 -2 5 -1 -6
right_child=1 2 -4 -5 6 -7 -8
leaf_value=-0.0022983130497600964 0.016880417335927145 0.0028084712326557058 -0.00091104638910835848 0.0061586139162295907 -0.008020941017008381 0.00069467081546544136 -0.0029173654533978357
leaf_weight=411 33 821 477 156 54 445 822
leaf_count=411 33 821 477 156 54 445 822
internal_value=-2.66462e-06 0.00235507 0.00143104 0.00844645 -0.00203675 -0.000728434 -0.00328753
internal_weight=3219 1487 1298 189 1732 856 876
internal_count=3219 1487 1298 189 1732 856 876
is_linear=0
shrinkage=0.0130643


Tree=83
num_leaves=8
num_cat=0
split_feature=0 41 71 48 0 34 71
split_gain=88.3757 46.823 24.2172 16.7288 13.566 9.86904 8.85522
threshold=-0.077733665268287164 -1.3242778241592872 -0.34835052284715845 -0.79012044547913718 -0.87719363928901239 -0.18188423876759729 -1.4799155706265357
decision_type=2 2 2 2 2 2 2
left_child=4 3 -3 -2 6 -6 -1
right_child=1 2 -4 -5 5 -7 -8
leaf_value=0.004193405420153732 0.016685354273849748 0.0027719720939826794 -0.00089925078322498388 0.0060803184627989566 -0.0021823146067123768 0.00027639785941890871 -0.0038547343493162294
leaf_weight=19 33 821 477 156 632 476 605
leaf_count=19 33 821 477 156 632 476 605
internal_value=-2.34971e-06 0.00232538 0.00141227 0.00834387 -0.00201067 -0.00111494 -0.0035576
internal_weight=3219 1487 1298 189 1732 1108 624
internal_count=3219 1487 1298 189 1732 1108 624
is_linear=0
shrinkage=0.0130643


Tree=84
num_leaves=8
num_cat=0
split_feature=0 30 0 55 31 32 51
split_gain=110.442 45.2019 41.4315 32.9418 15.8362 13.0474 10.5818
threshold=1.4501231739713216 0.84206660204438044 -0.5396438724802618 0.12228517741102318 1.0482477058792312 0.98703676578739985 -0.73716135248386661
decision_type=2 2 2 2 2 2 2
left_child=2 4 6 -4 -2 -3 -1
right_child=1 5 3 -5 -6 -7 -8
leaf_value=-0.00029477472770089291 0.0010707587863112587 0.0085685570739886478 0.0023038475728588167 -0.0011500401522345318 0.0089700624791993807 0.022945100537588536 -0.0035981991881617473
leaf_weight=220 112 33 798 1134 74 34 841
leaf_count=220 112 33 798 1134 74 34 841
internal_value=-0.000152491 0.00805559 -0.000862148 0.000270405 0.00442797 0.01703 -0.00293194
internal_weight=3246 253 2993 1932 186 67 1061
internal_count=3246 253 2993 1932 186 67 1061
is_linear=0
shrinkage=0.0130643


Tree=85
num_leaves=8
num_cat=0
split_feature=0 14 0 55 40 32 6
split_gain=107.859 44.1826 40.3664 32.0914 22.5375 12.7094 10.6451
threshold=1.4501231739713216 0.84206660204438044 -0.5396438724802618 0.12228517741102318 -0.39222739290289782 0.98703676578739985 -0.65958821015670277
decision_type=2 2 2 2 2 2 2
left_child=2 4 6 -4 -2 -3 -1
right_child=1 5 3 -5 -6 -7 -8
leaf_value=-0.0052322503625631131 -0.0051830021909601877 0.0084695422774646069 0.0022739110831168988 -0.001135072586686145 0.0063999837257193827 0.022679053063230741 -0.0020994009289094879
leaf_weight=258 30 33 798 1134 156 34 803
leaf_count=258 30 33 798 1134 156 34 803
internal_value=-0.000149637 0.00796183 -0.000851004 0.000266799 0.00437417 0.0168352 -0.00289403
internal_weight=3246 253 2993 1932 186 67 1061
internal_count=3246 253 2993 1932 186 67 1061
is_linear=0
shrinkage=0.0130643


Tree=86
num_leaves=8
num_cat=0
split_feature=0 6 40 55 39 48 0
split_gain=105.254 39.6475 25.2118 21.7229 20.8051 19.8501 11.8141
threshold=1.4501231739713216 -0.38674728751517301 -0.12323030474484435 0.090649900801810485 -1.5904895987143173 0.57832938066298423 -1.179211851696842
decision_type=2 2 2 2 2 2 2
left_child=1 6 5 -3 -4 -2 -1
right_child=2 3 4 -5 -6 -7 -8
leaf_value=-0.0052906954249597226 -0.0055869266224847025 0.0023398312306692872 -0.0019583353099230103 -0.00067065068927308561 0.011684683376093725 0.0078696414105162565 -0.0019690469503191111
leaf_weight=234 35 637 18 1115 169 31 1007
leaf_count=234 35 637 18 1115 169 31 1007
internal_value=-0.000147166 -0.000840071 0.00786569 0.000418024 0.0102748 0.000605077 -0.00262412
internal_weight=3246 2993 253 1752 187 66 1241
internal_count=3246 2993 253 1752 187 66 1241
is_linear=0
shrinkage=0.0130643


Tree=87
num_leaves=8
num_cat=0
split_feature=0 55 30 0 18 23 68
split_gain=112.144 54.4796 23.7354 16.2222 14.1707 10.4237 7.92009
threshold=0.011095220734015731 -0.67968493691619691 1.3906093295040807 -1.2858065148996054 -0.093456278636238746 0.23784442919611651 1.1548488543320843
decision_type=2 2 2 2 2 2 2
left_child=3 4 -3 6 -2 -5 -1
right_child=1 2 -4 5 -6 -7 -8
leaf_value=-0.0061827452515651983 0.0086140881324722682 0.00054105514794027649 0.0077690686585989684 -0.0022655219832638019 0.0025076137065351482 0.00024787470198113206 0.00062709241790950235
leaf_weight=216 266 954 81 1204 102 352 28
leaf_count=216 266 954 81 1204 102 352 28
internal_value=-4.24424e-05 0.00271684 0.0011517 -0.00220321 0.00701233 -0.00168776 -0.0053407
internal_weight=3203 1403 1035 1800 368 1556 244
internal_count=3203 1403 1035 1800 368 1556 244
is_linear=0
shrinkage=0.0130643


Tree=88
num_leaves=8
num_cat=0
split_feature=73 4 34 54 40 69 51
split_gain=107.648 34.3993 32.7672 21.6832 12.9355 12.5655 12.3231
threshold=1.286691849764422 -0.21421870099016108 0.99285746302696853 -0.27775866783703607 1.0194693257505671 -0.42507931673429961 -0.25083464896228941
decision_type=2 2 2 2 2 2 2
left_child=1 3 5 -1 -3 -2 -4
right_child=2 4 6 -5 -6 -7 -8
leaf_value=-0.00076199841614801476 -0.0029725577310302214 -0.0025475982698855595 0.014809503065865834 0.0024245997223493608 0.0036151243801278337 0.0050429987451217264 0.0057797052741558009
leaf_weight=870 40 1357 90 616 55 118 57
leaf_count=870 40 1357 90 616 55 118 57
internal_value=-4.13599e-05 -0.000826987 0.00728014 0.00055161 -0.00228619 0.00289192 0.0116763
internal_weight=3203 2898 305 1486 1412 158 147
internal_count=3203 2898 305 1486 1412 158 147
is_linear=0
shrinkage=0.0130643


Tree=89
num_leaves=8
num_cat=0
split_feature=0 54 6 0 17 1 66
split_gain=107.959 61.0056 23.0337 15.7137 14.5642 10.0619 7.61545
threshold=0.011095220734015731 -0.17558132587340411 -0.31285287096642539 -1.2858065148996054 -0.055252552966929928 -1.5152168891713205 0.16555416178771534
decision_type=2 2 2 2 2 2 2
left_child=3 4 -3 6 -2 -5 -1
right_child=1 2 -4 5 -6 -7 -8
leaf_value=-0.0067873030252773338 0.002080252289726 0.00068491782476986509 0.0065945434562957169 0.0047909490057471285 -0.0017025849308587499 -0.0018245483249461894 -0.001402711266613696
leaf_weight=169 301 150 554 35 398 1521 75
leaf_count=169 301 150 554 35 398 1521 75
internal_value=-4.0182e-05 0.00266704 0.00536939 -0.00216034 -4.85366e-05 -0.00165286 -0.00524853
internal_weight=3203 1403 704 1800 699 1556 244
internal_count=3203 1403 704 1800 699 1556 244
is_linear=0
shrinkage=0.0130643


Tree=90
num_leaves=8
num_cat=0
split_feature=0 0 4 11 59 68 37
split_gain=76.2078 39.7176 25.5987 21.2979 21.6367 18.908 9.15904
threshold=1.4501231739713216 -0.87719363928901239 -0.2988367029903255 -1.3559668441625965 0.90578010962370492 -0.179144913612129 1.1723168651153033
decision_type=2 2 2 2 2 2 2
left_child=1 6 -3 5 -5 -2 -1
right_child=3 2 -4 4 -6 -7 -8
leaf_value=-0.0042405169558042341 0.0042967975980137702 0.0016944906770129308 -0.0010443184564482926 0.0068357497691259985 -0.003058358764402028 0.020957302809012993 -6.8729796296056463e-05
leaf_weight=497 27 1103 1220 157 44 28 119
leaf_count=497 27 1103 1220 157 44 28 119
internal_value=6.69862e-05 -0.000527378 0.000250094 0.0068467 0.00457463 0.0139497 -0.003466
internal_weight=3195 2939 2323 256 201 55 616
internal_count=3195 2939 2323 256 201 55 616
is_linear=0
shrinkage=0.0130643


Tree=91
num_leaves=8
num_cat=0
split_feature=0 6 11 59 0 68 0
split_gain=74.3769 40.5642 20.8624 21.1112 20.3923 18.4527 10.5502
threshold=1.4501231739713216 -0.38674728751517301 -1.3559668441625965 0.90578010962370492 -0.077733665268287164 -0.179144913612129 -1.1969776288973024
decision_type=2 2 2 2 2 2 2
left_child=1 6 5 -4 -3 -2 -1
right_child=2 4 3 -5 -6 -7 -8
leaf_value=-0.0050022753704917306 0.0042483879291865586 -0.00074345689834826945 0.0067488307914868231 -0.0030219670938415487 0.0020862145621395435 0.020720022047218303 -0.0017485454345622486
leaf_weight=214 27 806 157 44 921 28 998
leaf_count=214 27 806 157 44 921 28 998
internal_value=6.64933e-05 -0.000520628 0.00676432 0.0045149 0.000757955 0.0137949 -0.00235165
internal_weight=3195 2939 256 201 1727 55 1212
internal_count=3195 2939 256 201 1727 55 1212
is_linear=0
shrinkage=0.0130643


Tree=92
num_leaves=8
num_cat=0
split_feature=0 6 54 11 59 68 0
split_gain=72.5909 39.523 21.1875 20.4358 20.5985 18.008 10.2787
threshold=1.4501231739713216 -0.38674728751517301 -0.37670077463387913 -1.3559668441625965 0.90578010962370492 -0.179144913612129 -1.1969776288973024
decision_type=2 2 2 2 2 2 2
left_child=1 6 -3 5 -5 -2 -1
right_child=3 2 -4 4 -6 -7 -8
leaf_value=-0.0049382139930203937 0.0042005235639372999 -0.00053047819496554645 0.0023662784395604998 0.0066630170543717608 -0.002986008227754073 0.020485427715286417 -0.0017258000999868302
leaf_weight=214 27 961 766 157 44 28 998
leaf_count=214 27 961 766 157 44 28 998
internal_value=6.59701e-05 -0.000513999 0.000747978 0.00668294 0.00445594 0.0136418 -0.00232141
internal_weight=3195 2939 1727 256 201 55 1212
internal_count=3195 2939 1727 256 201 55 1212
is_linear=0
shrinkage=0.0130643


Tree=93
num_leaves=8
num_cat=0
split_feature=0 4 0 0 53 63 37
split_gain=102.641 48.5487 21.9982 15.3196 11.7793 11.6506 7.32046
threshold=-0.077733665268287164 -0.49451583261570581 1.8942676039828357 -0.89495941648947286 -0.40421348530838147 0.49750532336923881 1.1723168651153033
decision_type=2 2 2 2 2 2 2
left_child=3 2 -2 6 -3 -5 -1
right_child=1 4 -4 5 -6 -7 -8
leaf_value=-0.0044046563829465424 0.0042673153121904573 -0.0013759983314318954 0.011084749304762364 -0.0018261922851274036 0.0017423986329006391 0.0013150096631083926 -0.00054345151759759849
leaf_weight=491 485 295 102 865 642 253 114
leaf_count=491 485 295 102 865 642 253 114
internal_value=0.000144522 0.00261493 0.00555065 -0.00203254 0.000742126 -0.00109903 -0.00371186
internal_weight=3247 1524 587 1723 937 1118 605
internal_count=3247 1524 587 1723 937 1118 605
is_linear=0
shrinkage=0.0130643


Tree=94
num_leaves=8
num_cat=0
split_feature=0 4 0 0 62 51 37
split_gain=100.021 47.3226 21.4504 14.9284 12.6233 11.5421 7.12249
threshold=-0.077733665268287164 -0.49451583261570581 1.8942676039828357 -0.89495941648947286 0.66700836712366318 -0.6897828197625665 1.1723168651153033
decision_type=2 2 2 2 2 2 2
left_child=3 2 -2 6 -5 -3 -1
right_child=1 5 -4 4 -6 -7 -8
leaf_value=-0.0043476132420879731 0.0042120567486608231 -0.0015004362198074929 0.010945804036409471 -0.001807611411275596 0.0015504601188604235 0.001663245030656944 -0.00053661034432477678
leaf_weight=491 485 270 102 883 235 667 114
leaf_count=491 485 270 102 883 235 667 114
internal_value=0.000142749 0.00258148 0.00547994 -0.00200629 -0.00108452 0.000732235 -0.00366416
internal_weight=3247 1524 587 1723 1118 937 605
internal_count=3247 1524 587 1723 1118 937 605
is_linear=0
shrinkage=0.0130643


Tree=95
num_leaves=8
num_cat=0
split_feature=0 6 11 49 0 62 37
split_gain=97.4678 48.2663 18.0459 16.7298 14.5474 12.3017 6.92974
threshold=-0.077733665268287164 0.14330304657488216 -0.61392739697362486 -0.66139200600957848 -0.89495941648947286 0.66700836712366318 1.1723168651153033
decision_type=2 2 2 2 2 2 2
left_child=4 3 -3 -2 6 -6 -1
right_child=1 2 -4 -5 5 -7 -8
leaf_value=-0.0042913088231496151 0.0030557826009295764 0.0078101962840545509 0.0025705505047759519 -0.00039059707009223796 -0.0017841109045995322 0.0015305691118457003 -0.00052985522127146564
leaf_weight=491 374 309 201 640 883 235 114
leaf_count=491 374 309 201 640 883 235 114
internal_value=0.000140997 0.00254846 0.00581454 0.000872677 -0.00198036 -0.00107018 -0.00361708
internal_weight=3247 1524 510 1014 1723 1118 605
internal_count=3247 1524 510 1014 1723 1118 605
is_linear=0
shrinkage=0.0130643


Tree=96
num_leaves=8
num_cat=0
split_feature=6 65 0 0 54 8 4
split_gain=76.3219 31.3326 35.415 23.2922 17.6698 11.2482 9.64049
threshold=0.029619328807578078 -0.54275923159482553 1.787672940780072 -0.30868876887427465 0.68971302555840919 -0.026297947507924652 0.060789805510373447
decision_type=2 2 2 2 2 2 2
left_child=3 5 -3 6 -5 -2 -1
right_child=1 2 -4 4 -6 -7 -8
leaf_value=-0.0014183744479079618 0.0016763252358897754 0.0037548206148949686 0.013381820694492712 -0.00044987790297462693 0.0047844508956806737 -0.0038448369350306153 -0.0038067878586316149
leaf_weight=706 184 451 76 1088 118 90 535
leaf_count=706 184 451 76 1088 118 90 535
internal_value=-6.57048e-05 0.00341863 0.00526998 -0.00121668 6.44993e-05 -0.000112196 -0.00247025
internal_weight=3248 801 527 2447 1206 274 1241
internal_count=3248 801 527 2447 1206 274 1241
is_linear=0
shrinkage=0.0130643


Tree=97
num_leaves=8
num_cat=0
split_feature=6 0 8 0 54 31 4
split_gain=74.3866 27.1512 23.6288 22.6982 17.2261 13.32 9.38672
threshold=0.029619328807578078 1.7521413863791511 0.0094922649854926894 -0.30868876887427465 0.68971302555840919 0.7532717528288031 0.060789805510373447
decision_type=2 2 2 2 2 2 2
left_child=3 5 -3 6 -5 -2 -1
right_child=1 2 -4 4 -6 -7 -8
leaf_value=-0.0013999568079200234 0.00053443559942748073 0.011855087897238615 -0.00062302033086294095 -0.00044402373050249165 0.0047241473388005004 0.0042816315783089408 -0.0037574521880597979
leaf_weight=706 370 98 31 1088 118 302 535
leaf_count=706 370 98 31 1088 118 302 535
internal_value=-6.45397e-05 0.00337527 0.00881541 -0.00120089 6.36887e-05 0.00225822 -0.00243838
internal_weight=3248 801 129 2447 1206 672 1241
internal_count=3248 801 129 2447 1206 672 1241
is_linear=0
shrinkage=0.0130643


Tree=98
num_leaves=8
num_cat=0
split_feature=6 65 0 0 32 8 56
split_gain=72.5033 30.4723 33.8592 22.1195 15.1811 10.8292 9.29134
threshold=0.029619328807578078 -0.54275923159482553 1.787672940780072 -0.30868876887427465 1.1404114719286051 -0.026297947507924652 -1.4098361770898
decision_type=2 2 2 2 2 2 2
left_child=3 5 -3 6 -5 -2 -1
right_child=1 2 -4 4 -6 -7 -8
leaf_value=0.0023472413202608919 0.0016052934916084411 0.0036758733159131195 0.013092135622979671 -0.00031545189129670117 0.0055261802746125934 -0.0038102206031207088 -0.0026693632542521876
leaf_weight=60 184 451 76 1129 77 90 1181
leaf_count=60 184 451 76 1129 77 90 1181
internal_value=-6.33709e-05 0.00333255 0.00515854 -0.0011853 6.28862e-05 -0.000148527 -0.00240692
internal_weight=3248 801 527 2447 1206 274 1241
internal_count=3248 801 527 2447 1206 274 1241
is_linear=0
shrinkage=0.0130643


Tree=99
num_leaves=8
num_cat=0
split_feature=0 54 6 44 59 54 47
split_gain=78.1797 43.069 28.9482 24.9709 17.9447 15.0748 9.66442
threshold=0.97044718955888609 1.1661077060775789 -0.38958938045935559 -0.29945233040366531 1.3906598074203635 -1.0165092469931354 0.58824598995281452
decision_type=2 2 2 2 2 2 2
left_child=2 3 6 -2 -3 -4 -1
right_child=1 4 5 -5 -6 -7 -8
leaf_value=-0.0033009028789328558 0.0078005472260586177 0.013410931697382965 -0.0019948871744290349 0.00018099026567749006 0.0010637748675292233 0.0010568858700594698 -0.00086268261380238948
leaf_weight=719 99 106 352 270 29 1203 490
leaf_count=719 99 106 352 270 29 1203 490
internal_value=4.19219e-05 0.00475579 -0.000818016 0.00233378 0.0109863 0.000352389 -0.00233223
internal_weight=3268 504 2764 369 135 1555 1209
internal_count=3268 504 2764 369 135 1555 1209
is_linear=0
shrinkage=0.0130643


Tree=100
num_leaves=8
num_cat=0
split_feature=4 39 0 16 47 53 73
split_gain=84.9406 38.8908 31.1324 21.4242 17.7969 10.1768 9.80368
threshold=-0.65317458636601422 0.73141104546471125 -0.29092299167381408 1.0161094777922193 0.58824598995281452 -0.85979609709693838 -0.94249603989707653
decision_type=2 2 2 2 2 2 2
left_child=1 3 6 -1 -4 -3 -2
right_child=2 5 4 -5 -6 -7 -8
leaf_value=0.0081075704800238155 -0.0040635078813049813 0.00044094174363592349 -0.00030136548006935899 -0.0054047909254166734 0.0029630653092893523 -0.0088438978867678378 -0.0014988507565503512
leaf_weight=330 363 59 1111 17 376 24 988
leaf_count=330 363 59 1111 17 376 24 988
internal_value=4.17355e-05 0.00542727 -0.000775718 0.0073427 0.000519714 -0.00236784 -0.00221027
internal_weight=3268 430 2838 347 1487 83 1351
internal_count=3268 430 2838 347 1487 83 1351
is_linear=0
shrinkage=0.0130643


Tree=101
num_leaves=8
num_cat=0
split_feature=4 39 0 36 16 53 6
split_gain=82.7066 37.9171 30.3339 21.5012 20.9344 9.9564 9.56601
threshold=-0.65317458636601422 0.73141104546471125 -0.29092299167381408 1.8769905290772586 1.0161094777922193 -0.85979609709693838 -0.51464147000339
decision_type=2 2 2 2 2 2 2
left_child=1 4 6 -4 -1 -3 -2
right_child=2 5 3 -5 -6 -7 -8
leaf_value=0.0080030159273516768 -0.0035531134636540319 0.00043557313353767367 0.00019613892483329585 0.008589206282758239 -0.0053484583900743708 -0.0087459434742933363 -0.0012523858982296954
leaf_weight=330 534 59 1437 50 17 24 817
leaf_count=330 534 59 1437 50 17 24 817
internal_value=4.08541e-05 0.00535516 -0.000765713 0.000512887 0.00724662 -0.00233997 -0.00218177
internal_weight=3268 430 2838 1487 347 83 1351
internal_count=3268 430 2838 1487 347 83 1351
is_linear=0
shrinkage=0.0130643


Tree=102
num_leaves=8
num_cat=0
split_feature=6 63 0 54 33 61 5
split_gain=67.531 26.9709 21.1363 19.9546 17.3636 10.958 7.5927
threshold=0.029619328807578078 0.55335763628924328 -0.82389630768763056 -0.31109117175212153 -0.50045361194018112 0.66283149432508393 -0.40412691220277425
decision_type=2 2 2 2 2 2 2
left_child=2 3 6 -2 -3 -4 -1
right_child=1 4 5 -5 -6 -7 -8
leaf_value=-0.001660842042572039 -0.0014483178468153316 0.011577240134415251 -0.00081403532539883175 0.0035452551707379426 0.001575939534603496 0.0017509682209523715 -0.0046469834272283598
leaf_weight=345 183 95 1431 475 50 348 293
leaf_count=345 183 95 1431 475 50 348 293
internal_value=4.16647e-05 0.00331844 -0.00104446 0.00213236 0.00837872 -0.000300454 -0.00307865
internal_weight=3220 803 2417 658 145 1779 638
internal_count=3220 803 2417 658 145 1779 638
is_linear=0
shrinkage=0.0130643


Tree=103
num_leaves=8
num_cat=0
split_feature=6 63 71 54 33 68 45
split_gain=65.8248 26.3195 24.4105 19.4483 16.9101 13.8768 11.7754
threshold=0.029619328807578078 0.55335763628924328 -0.97065445623197466 -0.31109117175212153 -0.50045361194018112 -0.065794374483293075 0.18093605635108109
decision_type=2 2 2 2 2 2 2
left_child=2 3 5 -2 -3 -1 -4
right_child=1 4 6 -5 -6 -7 -8
leaf_value=0.0046626401789125636 -0.0014298318879467284 0.011432553663743078 -0.0007054406959378643 0.0034993552602883746 0.0015569843511299712 -0.00089238275398485258 -0.0027147388900770537
leaf_weight=181 183 95 1255 475 50 122 859
leaf_count=181 183 95 1255 475 50 122 859
internal_value=4.12292e-05 0.0032764 -0.00103102 0.00210437 0.0082756 0.00239369 -0.00153317
internal_weight=3220 803 2417 658 145 303 2114
internal_count=3220 803 2417 658 145 303 2114
is_linear=0
shrinkage=0.0130643


Tree=104
num_leaves=8
num_cat=0
split_feature=6 63 71 0 52 0 68
split_gain=64.1579 25.6839 23.7819 18.6685 16.4134 15.9612 13.531
threshold=0.029619328807578078 0.55335763628924328 -0.97065445623197466 -0.14879677407012945 -0.4502747271636825 -0.45081498647795887 -0.065794374483293075
decision_type=2 2 2 2 2 2 2
left_child=2 3 6 -2 -3 -4 -1
right_child=1 4 5 -5 -6 -7 -8
leaf_value=0.0046031423615574014 -0.0018343151939539733 0.014928768370543379 -0.002746760785212147 0.0032879583316430413 0.0047840787652220079 -0.00044944191281183797 -0.00088112216656853514
leaf_weight=181 152 42 969 506 103 1145 122
leaf_count=181 152 42 969 506 103 1145 122
internal_value=4.08959e-05 0.0032349 -0.00101763 0.00207674 0.00817375 -0.00151333 0.00236244
internal_weight=3220 803 2417 658 145 2114 303
internal_count=3220 803 2417 658 145 2114 303
is_linear=0
shrinkage=0.0130643


Tree=105
num_leaves=8
num_cat=0
split_feature=0 41 36 66 0 60 37
split_gain=58.8764 40.8781 16.3915 15.2359 11.0187 8.96899 6.83596
threshold=-0.077733665268287164 -1.3242778241592872 2.0110368696728149 -0.044449302561889802 -1.2858065148996054 -0.121869703513839 1.2546900651693238
decision_type=2 2 2 2 2 2 2
left_child=4 3 -3 -2 6 -6 -1
right_child=1 2 -4 -5 5 -7 -8
leaf_value=-0.0052711782741470788 0.012623844945859905 0.00074947335951555444 0.008796139305101253 0.0042532223690024268 -0.0022778441581996784 -0.00022289968922033104 0.00074259142801983769
leaf_weight=196 66 1291 41 113 732 753 32
leaf_count=196 66 1291 41 113 732 753 32
internal_value=-2.22807e-05 0.00184977 0.00103647 0.00764947 -0.00168322 -0.00125005 -0.0043614
internal_weight=3224 1511 1332 179 1713 1485 228
internal_count=3224 1511 1332 179 1713 1485 228
is_linear=0
shrinkage=0.0130643


Tree=106
num_leaves=8
num_cat=0
split_feature=0 41 71 65 0 60 37
split_gain=57.4053 39.8831 24.1524 13.8759 10.7285 8.73458 6.67446
threshold=-0.077733665268287164 -1.3242778241592872 -0.46009672357344417 0.95978033645579897 -1.2858065148996054 -0.121869703513839 1.2546900651693238
decision_type=2 2 2 2 2 2 2
left_child=4 3 -3 -2 6 -6 -1
right_child=1 2 -4 -5 5 -7 -8
leaf_value=-0.005203795300670817 0.0058695216026206877 0.0026464123303363719 -0.00085980793155802026 0.017888125401270296 -0.0022482598614807611 -0.00022000425949232161 0.00073404125143944777
leaf_weight=196 161 719 613 18 732 753 32
leaf_count=196 161 719 613 18 732 753 32
internal_value=-2.14608e-05 0.00182699 0.00102349 0.00755583 -0.00166158 -0.00123395 -0.00430463
internal_weight=3224 1511 1332 179 1713 1485 228
internal_count=3224 1511 1332 179 1713 1485 228
is_linear=0
shrinkage=0.0130643


Tree=107
num_leaves=8
num_cat=0
split_feature=0 41 71 54 0 60 37
split_gain=55.9616 38.9467 23.5317 18.5779 10.4458 8.50626 6.51688
threshold=-0.077733665268287164 -1.3242778241592872 -0.46009672357344417 -0.5654750455097135 -1.2858065148996054 -0.121869703513839 1.2546900651693238
decision_type=2 2 2 2 2 2 2
left_child=4 3 -3 -2 6 -6 -1
right_child=1 2 -4 -5 5 -7 -8
leaf_value=-0.0051372736724560894 -0.0010198336203484869 0.002612044778659233 -0.00084865352474584367 0.0093929579359330294 -0.0022190597882551155 -0.00021714637765893712 0.00072558939795495892
leaf_weight=196 32 719 613 147 732 753 32
leaf_count=196 32 719 613 147 732 753 32
internal_value=-2.07925e-05 0.00180421 0.00101004 0.00746554 -0.00164022 -0.00121806 -0.0042486
internal_weight=3224 1511 1332 179 1713 1485 228
internal_count=3224 1511 1332 179 1713 1485 228
is_linear=0
shrinkage=0.0130643


Tree=108
num_leaves=8
num_cat=0
split_feature=0 40 59 14 0 68 68
split_gain=66.4886 36.9971 22.2138 18.89 13.853 9.3414 4.39843
threshold=-0.077733665268287164 1.0022535121084517 -0.68669001904029192 0.78308863940668627 -1.2858065148996054 -1.2092674996014849 1.0928123524633093
decision_type=2 2 2 2 2 2 2
left_child=4 2 -2 -3 6 -6 -1
right_child=1 3 -4 -5 5 -7 -8
leaf_value=-0.0052720023504188654 -0.0017996508653526423 0.004479446084722399 0.0021378109642339591 0.01352508917962375 0.0049495644526127225 -0.0013634437916069512 0
