tree
version=v4
num_class=1
num_tree_per_iteration=1
label_index=0
max_feature_idx=80
objective=regression
feature_names=team_a_xg team_b_xg team_a_xga team_b_xga odds_ft_1 odds_ft_x odds_ft_2 rolling_goals_scored_form_home rolling_goals_conceded_form_home rolling_points_earned_form_home rolling_xg_for_form_home rolling_xga_against_form_home days_since_last_match_home rolling_goals_scored_form_away rolling_goals_conceded_form_away rolling_points_earned_form_away rolling_xg_for_form_away rolling_xga_against_form_away days_since_last_match_away home_matches_last_7d home_matches_last_14d away_matches_last_7d away_matches_last_14d home_rolling_xg_as_home home_rolling_xga_as_home home_rolling_goals_scored_as_home home_rolling_goals_conceded_as_home away_rolling_xg_as_away away_rolling_xga_as_away away_rolling_goals_scored_as_away away_rolling_goals_conceded_as_away rolling_possession_form_home rolling_shots_for_form_home rolling_shots_against_form_home rolling_sot_for_form_home rolling_sot_against_form_home rolling_corners_for_form_home rolling_corners_against_form_home rolling_fouls_for_form_home rolling_fouls_against_form_home rolling_da_for_form_home rolling_da_against_form_home rolling_possession_form_away rolling_shots_for_form_away rolling_shots_against_form_away rolling_sot_for_form_away rolling_sot_against_form_away rolling_corners_for_form_away rolling_corners_against_form_away rolling_fouls_for_form_away rolling_fouls_against_form_away rolling_da_for_form_away rolling_da_against_form_away market_prob_btts_yes market_prob_o25 market_prob_u25 rolling_synth_goals_minus_xg_form_home rolling_synth_goals_per_xg_ratio_form_home rolling_synth_goals_per_shot_form_home rolling_synth_goals_per_sot_form_home rolling_synth_sot_per_shot_ratio_form_home rolling_synth_goals_minus_xg_form_away rolling_synth_goals_per_xg_ratio_form_away rolling_synth_goals_per_shot_form_away rolling_synth_goals_per_sot_form_away rolling_synth_sot_per_shot_ratio_form_away rolling_synth_xga_per_shot_conceded_form_home rolling_synth_xga_per_sot_conceded_form_home rolling_synth_xga_per_shot_conceded_form_away rolling_synth_xga_per_sot_conceded_form_away pre_match_home_elo pre_match_away_elo elo_diff elo_prob_home_win dynamic_league_quality competition_type_league dynamic_league_tier_0 dynamic_league_tier_1 dynamic_league_tier_2 dynamic_league_tier_3 dynamic_league_tier_4
feature_infos=[-3.0294190267455217:5.4107405168080076] [-2.8208299950682809:5.3081943933794298] [-3.3631239891267177:7.6175448060705397] [-3.5900282625181772:8.2174857129700367] [-1.7389261517185912:12.113772253715888] [-3.7257812443613489:11.522542621782666] [-1.3369126851200768:12.541435440103667] [-2.1851389037050626:5.8547018990759723] [-2.3393223260320104:5.9937690670547559] [-1.9677437952875632:2.3945113499961099] [-3.2362141665131192:4.9623241384860526] [-3.0037630717083617:6.9933748272567042] [-0.39954368179479732:24.512828542803703] [-2.1777446520210186:5.5872521003554079] [-2.3257211380010996:4.7611788347521866] [-2.0159248977824777:2.339788917494396] [-4.1162579976092761:6.7368165862656033] [-3.2820574496387565:7.6245924428290826] [-0.34888220783692908:36.580526161760382] [-1.0761811371332837:2.4807393202711756] [-1.8135218208268704:3.259797489324292] [-1.0819798117813293:2.507381522058449] [-1.8180094449951829:3.2396613487670747] [-3.2362141665131192:4.9623241384860526] [-3.0037630717083617:6.9933748272567042] [-2.1851389037050626:5.8547018990759723] [-2.3393223260320104:5.9937690670547559] [-4.1162579976092761:6.7368165862656033] [-3.2820574496387565:7.6245924428290826] [-2.1777446520210186:5.5872521003554079] [-2.3257211380010996:4.7611788347521866] [-3.2663956705752821:3.2407462669645253] [-3.4917979714051972:5.0725413358707314] [-3.1376350025044819:6.4351390873632628] [-3.7976459510880449:5.8336349300900743] [-3.9676063484000332:7.8526505009528282] [-3.4001602992313322:4.3963609819080833] [-2.8494055852225335:4.6891765024669336] [-3.8248624322852649:4.9993552289050225] [-3.9305026725733816:6.0881149105049319] [-2.8630053336518149:5.46123447755516] [-3.0022216302950895:5.0505030807464815] [-3.4784245828436:3.254337193653968] [-3.8349613257644095:4.9596226979380429] [-3.4827036589467579:7.4142727053066624] [-3.8251963031803098:7.5535651006568081] [-3.9082955918144826:7.9269934550392405] [-3.4588696447668332:4.3333745522461351] [-3.3419744764897077:7.094936066056035] [-3.7947547979192984:5.885078945863282] [-3.874979121510683:4.6237658260835399] [-2.7255760340415724:5.6661287006374019] [-2.8462774504248949:4.9850305282916647] [-3.6697869069946942:4.3043422611918469] [-2.7674039655063973:3.5524188964624122] [-3.9514872889343282:3.0815090006658514] [-4.0116760091813202:4.8851311312776513] [-2.355541218047382:6.2067563812379953] [-2.1365924211364216:7.9883922604560142] [-2.5440283824160637:7.5501933538674679] [-4.9649306777975442:7.5045239886674286] [-3.3692602893958736:5.5668080070181567] [-2.3732520107908734:5.2245693057561269] [-2.1532041479769672:6.0599178838414778] [-2.5987322616408615:4.6010993159287219] [-5.0197730180044156:5.0727364090321636] [-2.7257895468216216:14.576475305097585] [-2.8683572878258827:17.819324369409134] [-2.2785513114692471:11.322987879118948] [-2.7257897346156206:9.0923777699157391] [-2.6504171790015194:3.7595137738506219] [-2.6136056825535317:3.7137582534434577] [-3.553046119579589:4.345965222098835] [-2.9590090133456255:2.3359532083402668] [-1.3167509294734485:1.558663257908661] none [0:1] [0:1] [0:1] [0:1] [0:1]
tree_sizes=812 863 858 855 864 861 861 866 862 864 870 864 866 863 865 856 785 862 782 783 787 866 775 865 861 700 779 600 611 605 611 859 780 690 867 865 867 787 603 683 774 772 597 692 867 770 868 882 515 767 605 863 783 782 516 606 777 785 518 778 688 878 863 779 870 515 867 785 597 783 691 614 513 517 784 771 513 788 596 871 611 788 692 616

Tree=0
num_leaves=8
num_cat=0
split_feature=1 6 1 1 6 1 1
split_gain=848.261 247.744 139.222 79.4031 70.7455 60.5028 29.6405
threshold=-0.045319110521555996 -0.67438678057070522 -0.79377148388247054 1.6179083858360317 -0.41003729247120541 1.6594890732449714 -1.2095783579718675
decision_type=2 2 2 2 2 2 2
left_child=2 3 6 -2 -4 -3 -1
right_child=1 5 4 -5 -6 -7 -8
leaf_value=1.1747796923407834 1.3028403312200387 1.2568587040573878 1.2508834181148354 1.3663389635736785 1.2149581062121486 1.307410711567053 1.201467545913586
leaf_weight=598 592 1964 654 214 1319 209 748
leaf_count=598 592 1964 654 214 1319 209 748
internal_value=1.24281 1.27741 1.21176 1.3197 1.22687 1.26172 1.18961
internal_weight=6298 2979 3319 806 1973 2173 1346
internal_count=6298 2979 3319 806 1973 2173 1346
is_linear=0
shrinkage=1


Tree=1
num_leaves=8
num_cat=0
split_feature=1 6 1 1 53 73 1
split_gain=680.32 226.156 93.5358 81.2996 71.6349 46.6318 22.8494
threshold=-0.12848048533943543 -0.67438678057070522 -0.79377148388247054 1.6179083858360317 0.65368780821479799 -0.24102218491800123 -1.2095783579718675
decision_type=2 2 2 2 2 2 2
left_child=2 3 6 -2 -3 -4 -1
right_child=1 4 5 -5 -6 -7 -8
leaf_value=-0.060956231824810241 0.052398221237674271 0.0047982736772601087 0.0070234545618005949 0.11585861031434931 0.038634123237454562 -0.025480217173453383 -0.037407649647172289
leaf_weight=581 602 1654 494 220 715 1225 759
leaf_count=581 602 1654 494 220 715 1225 759
internal_value=0.000166876 0.0290189 -0.0299294 0.0693855 0.0150114 -0.0161381 -0.0476196
internal_weight=6250 3191 3059 822 2369 1719 1340
internal_count=6250 3191 3059 822 2369 1719 1340
is_linear=0
shrinkage=0.0893156


Tree=2
num_leaves=8
num_cat=0
split_feature=1 1 4 72 53 13 1
split_gain=562.761 155.49 136.6 57.7278 46.8668 42.4006 33.2369
threshold=0.30811673245443133 -0.5027066720198925 0.56655865432871888 -0.34259894330451374 0.1545294296107233 0.48590129889775352 -1.2095783579718675
decision_type=2 2 2 2 2 2 2
left_child=1 6 4 -3 -2 -4 -1
right_child=2 3 5 -5 -6 -7 -8
leaf_value=-0.054820135893441604 0.0046162846164182472 0.018671028848042663 0.04436262238029412 -0.012844940126011794 0.036801852378112038 0.089719168256362447 -0.029708892775798509
leaf_weight=584 686 700 288 1373 762 384 1505
leaf_count=584 686 700 288 1373 762 384 1505
internal_value=-0.000453369 -0.0195328 0.0370024 -0.0022017 0.0215553 0.070284 -0.0367301
internal_weight=6282 4162 2120 2073 1448 672 2089
internal_count=6282 4162 2120 2073 1448 672 2089
is_linear=0
shrinkage=0.0893156


Tree=3
num_leaves=8
num_cat=0
split_feature=1 6 6 53 55 1 1
split_gain=492.81 162.108 97.7062 56.8807 45.4644 43.0379 24.4069
threshold=-0.045319110521555996 -0.71403920378563024 -0.3968198180662304 0.65368780821479799 -1.0189238034380004 -1.292739732789747 -0.3155935786796642
decision_type=2 2 2 2 2 2 2
left_child=2 4 6 -3 -2 -4 -1
right_child=1 3 5 -5 -6 -7 -8
leaf_value=-0.008283922859321162 0.108262143756566 0.0068843059843392658 -0.059289449089063598 0.037168227500087615 0.052998156153729825 -0.027500846198622326 0.023509741283540546
leaf_weight=622 161 1649 410 707 454 1988 279
leaf_count=622 161 1649 410 707 454 1988 279
internal_value=0.000247217 0.0266336 -0.023515 0.015973 0.0674693 -0.0329369 0.00155867
internal_weight=6270 2971 3299 2356 615 2398 901
internal_count=6270 2971 3299 2356 615 2398 901
is_linear=0
shrinkage=0.0893156


Tree=4
num_leaves=8
num_cat=0
split_feature=1 1 4 6 1 55 1
split_gain=376.869 106.972 97.7658 51.8069 34.9583 27.4333 21.5466
threshold=0.34969741986337105 -0.64823907795118152 0.56655865432871888 -0.59838630274209892 1.9713442288120191 -1.0189238034380004 -1.292739732789747
decision_type=2 2 2 2 2 2 2
left_child=1 6 4 -3 -2 -4 -1
right_child=2 3 5 -5 -6 -7 -8
leaf_value=-0.049047838174815381 0.013975329834264999 0.022910423238140944 0.094365661798144332 -0.0098782293521242261 0.066477353923450916 0.050345626093350943 -0.026518648339449707
leaf_weight=468 1265 473 147 2052 110 490 1229
leaf_count=468 1265 473 147 2052 110 490 1229
internal_value=-0.000231009 -0.0153912 0.0315801 -0.00373514 0.0181771 0.0605076 -0.0327331
internal_weight=6234 4222 2012 2525 1375 637 1697
internal_count=6234 4222 2012 2525 1375 637 1697
is_linear=0
shrinkage=0.0893156


Tree=5
num_leaves=8
num_cat=0
split_feature=1 1 6 53 45 1 1
split_gain=326.763 135.087 60.1825 48.1476 35.2151 33.8437 19.2811
threshold=-0.12848048533943543 1.6179083858360317 -0.3968198180662304 0.65368780821479799 0.050694300001708527 -0.77298114017800068 -0.3155935786796642
decision_type=2 2 2 2 2 2 2
left_child=2 3 6 -2 -3 -4 -1
right_child=1 4 5 -5 -6 -7 -8
leaf_value=-0.0071687064365827287 0.005624235878076137 0.030994137625761798 -0.038913630020137389 0.031886780968439193 0.084534218854891624 -0.01705694902420158 0.025181245086886361
leaf_weight=649 1954 148 1117 779 291 1145 190
leaf_count=649 1954 148 1117 779 291 1145 190
internal_value=0.000343317 0.020499 -0.0202732 0.0131108 0.0664894 -0.027851 0.000154573
internal_weight=6273 3172 3101 2733 439 2262 839
internal_count=6273 3172 3101 2733 439 2262 839
is_linear=0
shrinkage=0.0893156


Tree=6
num_leaves=8
num_cat=0
split_feature=1 4 1 0 72 47 1
split_gain=278.572 81.7469 71.372 41.0156 34.821 24.3837 14.1948
threshold=0.26653604504549155 0.56655865432871888 -0.64823907795118152 0.16646160940901647 -0.33393900056972597 0.24244634881432686 -1.1264169831539881
decision_type=2 2 2 2 2 2 2
left_child=2 3 6 -2 -4 -3 -1
right_child=1 5 4 -5 -6 -7 -8
leaf_value=-0.037756351806494559 0.0032251542578198662 0.030061108562107728 0.011659881107132449 0.034138800339512367 -0.011612134832071531 0.064495602388656301 -0.02126592425042545
leaf_weight=718 1022 274 750 515 1622 410 994
leaf_count=718 1022 274 750 515 1622 410 994
internal_value=-0.000439818 0.0250177 -0.0142849 0.0135848 -0.00425283 0.050705 -0.0281832
internal_weight=6305 2221 4084 1537 2372 684 1712
internal_count=6305 2221 4084 1537 2372 684 1712
is_linear=0
shrinkage=0.0893156


Tree=7
num_leaves=8
num_cat=0
split_feature=1 1 4 54 71 0 6
split_gain=224.861 69.9192 58.2905 47.1031 37.0152 26.8948 19.978
threshold=0.34969741986337105 -0.64823907795118152 -0.027128420189901924 1.4353993306752255 0.34048569232618925 0.14749495874934559 -0.40012418666747412
decision_type=2 2 2 2 2 2 2
left_child=1 6 5 -4 -3 -2 -1
right_child=2 4 3 -5 -6 -7 -8
leaf_value=-0.0066016443464173066 -0.0058500691462658521 -0.0089996834657172804 0.031334062545849577 0.090791225430998393 0.014734906394373791 0.02636767041954324 -0.030439083938204766
leaf_weight=354 527 1821 1076 118 736 340 1355
leaf_count=354 527 1821 1076 118 736 340 1355
internal_value=0.000186993 -0.0115161 0.024412 0.037212 -0.0021671 0.00678173 -0.0255028
internal_weight=6327 4266 2061 1194 2557 867 1709
internal_count=6327 4266 2061 1194 2557 867 1709
is_linear=0
shrinkage=0.0893156


Tree=8
num_leaves=8
num_cat=0
split_feature=1 1 6 6 16 1 0
split_gain=207.973 82.1033 42.3906 40.7658 23.9604 19.9114 15.1715
threshold=-0.045319110521555996 1.6594890732449714 -0.70743046658314268 -0.41003729247120541 0.94598192592848407 -0.79377148388247054 0.621661225241117
decision_type=2 2 2 2 2 2 2
left_child=3 2 -2 6 -3 -5 -1
right_child=1 4 -4 5 -6 -7 -8
leaf_value=-0.0048609823646947126 0.034481978963540813 0.036504062094186648 0.0050350012341679401 -0.030874030104183964 0.080482438585895169 -0.014581859362329443 0.02642630527498413
leaf_weight=751 480 262 2081 1098 159 1317 148
leaf_count=751 480 262 2081 1098 159 1317 148
internal_value=-0.000547452 0.016565 0.010555 -0.0159462 0.0531188 -0.0219902 0.000287248
internal_weight=6296 2982 2561 3314 421 2415 899
internal_count=6296 2982 2561 3314 421 2415 899
is_linear=0
shrinkage=0.0893156


Tree=9
num_leaves=8
num_cat=0
split_feature=1 73 6 0 1 1 42
split_gain=181.568 55.2331 49.2715 32.6724 29.7005 21.3041 12.672
threshold=0.34969741986337105 -0.091491367991913805 -0.59838630274209892 0.20439491072835819 -0.58586804683777194 1.7634407917673209 -0.13165368035160471
decision_type=2 2 2 2 2 2 2
left_child=2 3 6 -2 -4 -3 -1
right_child=1 5 4 -5 -6 -7 -8
leaf_value=-0.011709703602183629 0.026954923031115352 -0.0021397426508782446 -0.022825712158823452 0.063856320829438915 -0.0065174342642201231 0.045091097190339567 0.020134314020507336
leaf_weight=126 1035 667 1675 235 1904 86 476
leaf_count=126 1035 667 1675 235 1904 86 476
internal_value=0.000454416 0.0224209 -0.0101736 0.0337849 -0.0141505 0.00325148 0.0134655
internal_weight=6204 2023 4181 1270 3579 753 602
internal_count=6204 2023 4181 1270 3579 753 602
is_linear=0
shrinkage=0.0893156


Tree=10
num_leaves=8
num_cat=0
split_feature=6 1 0 1 55 54 53
split_gain=144.137 79.0841 40.2573 45.7179 37.0897 23.7202 7.49777
threshold=-0.3836023436612554 0.82787532506617756 -0.66807101961650084 -0.77298114017800068 0.31984585735419396 -0.059831160483271181 0.5381826699723663
decision_type=2 2 2 2 2 2 2
left_child=1 5 6 -4 -3 -1 -2
right_child=2 4 3 -5 -6 -7 -8
leaf_value=-0.0029764044328614999 -0.037686568742473968 0.049289906327744402 -0.023243619102611218 0.00037290510737890035 0.0073230967624815894 0.017365207143539747 -0.011201389510834672
leaf_weight=1103 480 632 970 2006 229 781 104
leaf_count=1103 480 632 970 2006 229 781 104
internal_value=0.000325526 0.0157048 -0.0115323 -0.00732393 0.0381306 0.00545488 -0.0329739
internal_weight=6305 2745 3560 2976 861 1884 584
internal_count=6305 2745 3560 2976 861 1884 584
is_linear=0
shrinkage=0.0893156


Tree=11
num_leaves=8
num_cat=0
split_feature=1 4 53 1 6 66 55
split_gain=126.652 44.8917 44.376 27.5687 20.9469 20.1902 19.0918
threshold=0.59918154431700898 -0.060111035440936426 0.26100372630742158 -0.5027066720198925 0.51518591587704421 -0.78910075145995084 -1.0189238034380004
decision_type=2 2 2 2 2 2 2
left_child=2 5 4 -4 -1 -2 -3
right_child=1 6 3 -5 -6 -7 -8
leaf_value=-0.0081967546618798917 -0.035632140243604914 0.062464725019170525 -0.0098095571036133748 0.014737399054350599 -0.024685121734591604 0.010242844934765953 0.028917254142873015
leaf_weight=2332 92 162 574 1002 835 455 827
leaf_count=2332 92 162 574 1002 835 455 827
internal_value=0.00076815 0.0230589 -0.00645013 0.00579564 -0.0125447 0.00252299 0.0344147
internal_weight=6279 1536 4743 1576 3167 547 989
internal_count=6279 1536 4743 1576 3167 547 989
is_linear=0
shrinkage=0.0893156


Tree=12
num_leaves=8
num_cat=0
split_feature=6 1 0 1 0 0 53
split_gain=96.6165 50.4609 36.2681 32.5968 28.264 19.357 7.12156
threshold=-0.3836023436612554 0.82787532506617756 -0.66807101961650084 -0.5027066720198925 -0.023204897187691823 0.31819481468638344 0.5381826699723663
decision_type=2 2 2 2 2 2 2
left_child=1 5 6 -4 -3 -1 -2
right_child=2 4 3 -5 -6 -7 -8
leaf_value=-0.00023420798435761406 -0.034351245417541622 0.02214973259730078 -0.015700173690624764 0.0031776577492248106 0.061276827388698656 0.021715108220117931 -0.008760748861421681
leaf_weight=1455 484 669 1349 1589 189 411 106
leaf_count=1455 484 669 1349 1589 189 411 106
internal_value=0.000207372 0.0128436 -0.00954851 -0.00548944 0.0307713 0.00459908 -0.0297575
internal_weight=6252 2724 3528 2938 858 1866 590
internal_count=6252 2724 3528 2938 858 1866 590
is_linear=0
shrinkage=0.0893156


Tree=13
num_leaves=8
num_cat=0
split_feature=4 53 1 5 68 0 0
split_gain=93.203 53.7291 38.8692 32.0628 21.0261 18.5167 16.4489
threshold=0.56655865432871888 -0.15089103749244828 -0.5027066720198925 0.37697089587302485 0.15130022022456688 -0.19390475312472963 0.83029438249749632
decision_type=2 2 2 2 2 2 2
left_child=1 6 -3 5 -5 -2 -1
right_child=3 2 -4 4 -6 -7 -8
leaf_value=-0.019176168797888381 0.0054111152598519275 -0.011918058509256365 0.010157307457176971 0.030725460291643122 0.081271902037550872 0.034704907220315773 -0.00099622394054584354
leaf_weight=1760 522 929 2019 168 108 257 513
leaf_count=1760 522 929 2019 168 108 257 513
internal_value=0.00013701 -0.00475534 0.00319996 0.0243505 0.0505127 0.0150783 -0.0150741
internal_weight=6276 5221 2948 1055 276 779 2273
internal_count=6276 5221 2948 1055 276 779 2273
is_linear=0
shrinkage=0.0893156


Tree=14
num_leaves=8
num_cat=0
split_feature=1 6 54 21 16 69 0
split_gain=81.5141 49.381 41.7917 22.1608 15.7326 14.1811 13.9974
threshold=1.6179083858360317 -0.030034903328174323 -0.059831160483271181 1.0000000180025095e-35 0.87640312084615968 -0.64763571325138525 0.22336156138802907
decision_type=2 2 2 2 2 2 2
left_child=1 2 -1 4 -2 -5 -3
right_child=3 6 -4 5 -6 -7 -8
leaf_value=-0.0050387603831544368 0.03732915373608435 -0.023807789243313355 0.014230418366241119 0.051631709582390911 0.090341872635595497 0.005641005890046652 -0.0087906923101322039
leaf_weight=2337 105 826 1458 76 78 181 1238
leaf_count=2337 105 826 1458 76 78 181 1238
internal_value=-0.00089819 -0.00368288 0.00236366 0.0361774 0.0599371 0.0192502 -0.0148015
internal_weight=6299 5859 3795 440 183 257 2064
internal_count=6299 5859 3795 440 183 257 2064
is_linear=0
shrinkage=0.0893156


Tree=15
num_leaves=8
num_cat=0
split_feature=1 1 13 49 40 1 0
split_gain=70.4487 43.7942 35.5462 20.6469 20.916 17.1783 16.612
threshold=1.6179083858360317 -0.58586804683777194 1.11626557351216 -0.47281185403027665 -0.16986892414367577 -1.7917079816970232 -0.80083757423419688
decision_type=2 2 2 2 2 2 2
left_child=1 5 -3 4 -2 -1 -5
right_child=3 2 -4 6 -6 -7 -8
leaf_value=-0.049575172177725169 0.081621316964227586 -0.00050747439827824442 0.023846386250642584 -0.011927935811727325 0.021996542552945194 -0.011682094602011067 0.035884221808571329
leaf_weight=101 112 3449 555 94 81 1747 151
leaf_count=101 112 3449 555 94 81 1747 151
internal_value=0.000204626 -0.00238098 0.00286768 0.0347554 0.0566092 -0.0137543 0.0175307
internal_weight=6290 5852 4004 438 193 1848 245
internal_count=6290 5852 4004 438 193 1848 245
is_linear=0
shrinkage=0.0893156


Tree=16
num_leaves=7
num_cat=0
split_feature=6 0 6 55 66 72
split_gain=69.7413 30.8531 28.3285 27.9137 20.8345 11.5939
threshold=-0.54882077372344273 -0.49737116367946305 -0.030034903328174323 -1.6615791040209489 -0.48104018010893679 0.75683848439648516
decision_type=2 2 2 2 2 2
left_child=3 5 -3 -1 -5 -2
right_child=1 2 -4 4 -6 -7
leaf_value=0.06221122203609309 -0.014012273043873313 0.0074579925646825499 -0.0090064398142388792 0.027078122538547866 0.0057448844431158648 -0.037595570698843776
leaf_weight=96 968 1583 1761 541 1125 201
leaf_count=96 968 1583 1761 541 1125 201
internal_value=0.00030432 -0.00557881 -0.00121175 0.015374 0.0126738 -0.0180692
internal_weight=6275 4513 3344 1762 1666 1169
internal_count=6275 4513 3344 1762 1666 1169
is_linear=0
shrinkage=0.0893156


Tree=17
num_leaves=8
num_cat=0
split_feature=1 61 1 1 70 0 1
split_gain=62.2611 34.0195 33.3665 24.318 18.511 17.0912 5.32827
threshold=0.26653604504549155 0.80791359661413609 1.9713442288120191 -1.1679976705629278 -1.0782343363672069 -0.66807101961650084 -1.7917079816970232
decision_type=2 2 2 2 2 2 2
left_child=3 2 -2 6 -3 -5 -1
right_child=1 4 -4 5 -6 -7 -8
leaf_value=-0.041614681770891344 0.0010801376391019718 0.07118452254762371 0.041473566443577831 -0.015775295680055892 0.024369822109612062 -0.00056757194387634178 -0.019249889784105179
leaf_weight=101 1504 79 183 753 461 2717 544
leaf_count=101 1504 79 183 753 461 2717 544
internal_value=-0.000318732 0.0117104 0.00546322 -0.00682933 0.0312228 -0.00386834 -0.0227555
internal_weight=6342 2227 1687 4115 540 3470 645
internal_count=6342 2227 1687 4115 540 3470 645
is_linear=0
shrinkage=0.0893156


Tree=18
num_leaves=7
num_cat=0
split_feature=1 6 54 0 1 69
split_gain=51.4284 29.3225 28.131 15.4913 10.5 9.32719
threshold=-0.3155935786796642 -0.11925285556175554 -0.059831160483271181 0.94409428645552151 -1.7709176379925531 -1.1063236471001345
decision_type=2 2 2 2 2 2
left_child=4 2 -2 -3 -1 -6
right_child=1 3 -4 -5 5 -7
leaf_value=-0.036969481964486843 0.0031742035506191857 -0.013166824104602869 0.021296843006342814 0.014148045116912407 0.0084050304009765583 -0.010405045525276825
leaf_weight=109 1538 732 1230 214 232 2235
leaf_count=109 1538 732 1230 214 232 2235
internal_value=-0.000137338 0.00658828 0.0112281 -0.00698538 -0.00983501 -0.0086352
internal_weight=6290 3714 2768 946 2576 2467
internal_count=6290 3714 2768 946 2576 2467
is_linear=0
shrinkage=0.0893156


Tree=19
num_leaves=7
num_cat=0
split_feature=6 55 0 0 6 78
split_gain=49.9316 40.3301 29.6476 15.6069 8.51225 7.41252
threshold=-0.12916596136548678 -1.5966763520673124 1.0768608410732177 0.090595006770332984 0.73657861216037535 1.0000000180025095e-35
decision_type=2 2 2 2 2 2
left_child=1 -1 -3 5 -5 -2
right_child=3 2 -4 4 -6 -7
leaf_value=0.053507295188727155 -0.015938701626719367 0.0019303013489485612 0.034503862888045064 0.0010596177543909335 -0.012407631339810829 -0.036610432464494483
leaf_weight=136 750 3518 238 831 681 170
leaf_count=136 750 3518 238 831 681 170
internal_value=-0.000547537 0.00572565 0.00399494 -0.0105876 -0.00500449 -0.0197609
internal_weight=6324 3892 3756 2432 1512 920
internal_count=6324 3892 3756 2432 1512 920
is_linear=0
shrinkage=0.0893156


Tree=20
num_leaves=7
num_cat=0
split_feature=1 0 4 4 1 10
split_gain=30.5331 27.4568 23.5225 20.7378 8.56802 9.0474
threshold=-0.3155935786796642 -0.44047121170045045 2.835762583599891 -0.60102592555790169 -1.7709176379925531 -0.99409798219191792
decision_type=2 2 2 2 2 2
left_child=4 2 -2 -3 -1 -6
right_child=1 3 -4 -5 5 -7
leaf_value=-0.032099315472323399 -0.0072566249208250409 -0.0047546530026775988 0.035243484986239755 0.016259229153836947 0.0077742364909433185 -0.008760759532874321
leaf_weight=111 1432 485 112 1644 301 2139
leaf_count=111 1432 485 112 1644 301 2139
internal_value=-0.000318492 0.00489455 -0.00417225 0.0114711 -0.00782526 -0.00672007
internal_weight=6224 3673 1544 2129 2551 2440
internal_count=6224 3673 1544 2129 2551 2440
is_linear=0
shrinkage=0.0893156


Tree=21
num_leaves=8
num_cat=0
split_feature=4 53 66 3 35 16 0
split_gain=35.1568 25.1344 20.3747 23.7051 20.2274 15.1967 11.6328
threshold=0.86999871463823597 -0.34358681894626797 -0.44040569883113856 -0.51191674548387933 2.0163986815848531 0.49530046000198863 0.77339443051848367
decision_type=2 2 2 2 2 2 2
left_child=1 6 3 -2 -3 -4 -1
right_child=2 4 5 -5 -6 -7 -8
leaf_value=-0.012971619550503839 0.056511206380485367 0.0014920793202128334 0.030888092679213872 -0.0015942720281311529 0.040115851995564257 -0.0030050759004860159 0.0024504547088681607
leaf_weight=1724 181 3166 154 81 112 335 504
leaf_count=1724 181 3166 154 81 112 335 504
internal_value=0.000310145 -0.00216207 0.0184383 0.0385387 0.00281243 0.00766423 -0.00948195
internal_weight=6257 5506 751 262 3278 489 2228
internal_count=6257 5506 751 262 3278 489 2228
is_linear=0
shrinkage=0.0893156


Tree=22
num_leaves=7
num_cat=0
split_feature=1 45 71 0 1 61
split_gain=41.849 23.6225 22.8513 18.1562 29.1511 21.2928
threshold=1.6179083858360317 -0.34045062325519254 1.2256741881864295 0.56476127326210435 0.34969741986337105 0.78863972381794845
decision_type=2 2 2 2 2 2
left_child=3 -2 -3 5 -5 -1
right_child=1 2 -4 4 -6 -7
leaf_value=-0.0080823817888256606 -0.014092939565636663 0.055974045935457212 0.008074645392267852 0.00063644300188752333 0.032244763496904943 0.0076558458460619918
leaf_weight=3414 88 210 128 1312 283 858
leaf_count=3414 88 210 128 1312 283 858
internal_value=7.75771e-05 0.0271078 0.0378413 -0.00188469 0.00624611 -0.00492094
internal_weight=6293 426 338 5867 1595 4272
internal_count=6293 426 338 5867 1595 4272
is_linear=0
shrinkage=0.0893156


Tree=23
num_leaves=8
num_cat=0
split_feature=53 1 0 1 68 31 69
split_gain=32.5226 19.5212 16.7859 15.7985 12.6559 9.99319 9.80803
threshold=0.26100372630742158 1.6179083858360317 -0.66807101961650084 0.30811673245443133 0.10343271332323137 -1.2853907662032835 0.067933101520608122
decision_type=2 2 2 2 2 2 2
left_child=1 2 -1 5 -5 -2 -3
right_child=3 6 -4 4 -6 -7 -8
leaf_value=-0.016143048663308748 0.030986243276262173 0.039155911015288633 -0.0024610622919296653 0.010431825621733556 0.032644025252632609 0.00061682910427721571 -0.00047749512652502687
leaf_weight=958 93 118 2826 596 312 1227 86
leaf_count=958 93 118 2826 596 312 1227 86
internal_value=0.000354322 -0.00447415 -0.00592555 0.00899805 0.0180667 0.0027582 0.0224366
internal_weight=6216 3988 3784 2228 908 1320 204
internal_count=6216 3988 3784 2228 908 1320 204
is_linear=0
shrinkage=0.0893156


Tree=24
num_leaves=8
num_cat=0
split_feature=72 0 1 0 50 35 1
split_gain=28.2388 19.578 20.5128 15.7004 15.289 13.5847 4.26659
threshold=-0.20704222609203374 0.20439491072835819 0.30811673245443133 -0.66807101961650084 1.0006166642144245 1.5362007470798933 1.306053230268984
decision_type=2 2 2 2 2 2 2
left_child=1 4 -3 6 -1 -5 -2
right_child=3 2 -4 5 -6 -7 -8
leaf_value=0.0057634738890291184 -0.020321821339536715 0.0080278002803591472 0.042366409699946345 -0.0038709006147013632 -0.016180322920198369 0.028247117536365777 0.0018595699660954685
leaf_weight=1687 599 368 223 2892 298 109 78
leaf_count=1687 599 368 223 2892 298 109 78
internal_value=-0.000453065 0.00671795 0.0209885 -0.00547612 0.002468 -0.00270358 -0.0177629
internal_weight=6254 2576 591 3678 1985 3001 677
internal_count=6254 2576 591 3678 1985 3001 677
is_linear=0
shrinkage=0.0893156


Tree=25
num_leaves=6
num_cat=0
split_feature=1 20 1 53 56
split_gain=24.9628 22.1783 19.5482 18.4937 6.44971
threshold=1.9713442288120191 1.0000000180025095e-35 -1.1679976705629278 -0.43686786763734642 -0.22269123742335314
decision_type=2 2 2 2 2
left_child=2 -2 4 -4 -1
right_child=1 -3 3 -5 -6
leaf_value=-0.027533623591718775 0.051758796715647933 -0.0028403676144320329 -0.0059601366432881281 0.0048420437486248599 -0.0088861182772067056
leaf_weight=235 138 104 2027 3360 401
leaf_count=235 138 104 2027 3360 401
internal_value=0.000158798 0.0282854 -0.000970932 0.000777021 -0.0157799
internal_weight=6265 242 6023 5387 636
internal_count=6265 242 6023 5387 636
is_linear=0
shrinkage=0.0893156


Tree=26
num_leaves=7
num_cat=0
split_feature=1 61 35 44 1 67
split_gain=23.5218 21.7969 21.9932 7.41506 7.30427 5.21827
threshold=-0.3155935786796642 2.5022622324244046 1.8686454709679425 1.2000510489351177 -1.7709176379925531 0.045149688668595984
decision_type=2 2 2 2 2 2
left_child=3 2 -2 4 -1 -5
right_child=1 -3 -4 5 -6 -7
leaf_value=-0.029751671789900246 0.0018033473722169134 0.051120963066940264 0.033660867627441499 -0.0099719036911930462 -0.0037705377992444198 -0.03244449589157989
leaf_weight=90 3452 78 182 208 2131 137
leaf_count=90 3452 78 182 208 2131 137
internal_value=-0.000142219 0.00440285 0.00339948 -0.00671804 -0.00482437 -0.0189024
internal_weight=6278 3712 3634 2566 2221 345
internal_count=6278 3712 3634 2566 2221 345
is_linear=0
shrinkage=0.0893156


Tree=27
num_leaves=5
num_cat=0
split_feature=1 6 0 72
split_gain=21.1634 17.0848 20.6877 9.12248
threshold=2.6158448836505848 0.64405629132555042 1.0768608410732177 1.2714593102895828
decision_type=2 2 2 2
left_child=1 2 -1 -3
right_child=-2 3 -4 -5
leaf_value=-0.00079432306954800168 0.043099997622118809 -0.021089019296656436 0.018619064741541066 -0.0036575850185353812
leaf_weight=4687 88 457 483 504
leaf_count=4687 88 457 483 504
internal_value=-0.000388855 -0.00101343 0.00101891 -0.0119494
internal_weight=6219 6131 5170 961
internal_count=6219 6131 5170 961
is_linear=0
shrinkage=0.0893156


Tree=28
num_leaves=5
num_cat=0
split_feature=4 0 10 8
split_gain=19.8526 18.1454 23.0219 12.3246
threshold=2.835762583599891 -0.44047121170045045 -0.66563438836909039 -0.60149262219725785
decision_type=2 2 2 2
left_child=1 3 -3 -1
right_child=-2 2 -4 -5
leaf_value=-0.019150969530183845 0.033402577181107979 0.016356502543084923 -0.00041124907753261654 -0.0032898469065693377
leaf_weight=522 141 820 3210 1557
leaf_count=522 141 820 3210 1557
internal_value=0.000268539 -0.000495848 0.00299999 -0.00727338
internal_weight=6250 6109 4030 2079
internal_count=6250 6109 4030 2079
is_linear=0
shrinkage=0.0893156


Tree=29
num_leaves=5
num_cat=0
split_feature=1 1 61 33
split_gain=22.6666 16.0429 21.1503 9.04924
threshold=2.6158448836505848 -0.5027066720198925 0.8306918099187206 -1.2289530520707286
decision_type=2 2 2 2
left_child=1 3 -3 -1
right_child=-2 2 -4 -5
leaf_value=0.0062378766786612997 0.045805739191552355 -0.0011604162269290598 0.014851766733393576 -0.010087704771838728
leaf_weight=320 83 3267 824 1758
leaf_count=320 83 3267 824 1758
internal_value=-0.000557404 -0.00118156 0.00206417 -0.00757257
internal_weight=6252 6169 4091 2078
internal_count=6252 6169 4091 2078
is_linear=0
shrinkage=0.0893156


Tree=30
num_leaves=5
num_cat=0
split_feature=1 1 47 3
split_gain=16.8226 13.4032 17.1619 7.10109
threshold=2.4703124777192955 -0.5027066720198925 -0.23571409054783274 0.20512238499773436
decision_type=2 2 2 2
left_child=1 3 -3 -1
right_child=-2 2 -4 -5
leaf_value=-0.0015453959089160078 0.036146561486287525 -0.0046771136651130862 0.0071544961389093395 -0.012100344341302497
leaf_weight=1126 102 1607 2498 928
leaf_count=1126 102 1607 2498 928
internal_value=0.00017074 -0.000424693 0.00252218 -0.00631524
internal_weight=6261 6159 4105 2054
internal_count=6261 6159 4105 2054
is_linear=0
shrinkage=0.0893156


Tree=31
num_leaves=8
num_cat=0
split_feature=72 68 10 0 3 5 7
split_gain=19.7589 13.1573 12.4765 12.018 9.20007 9.11286 7.23765
threshold=-0.20704222609203374 1.6597936015595842 -0.65757879606368042 -0.66807101961650084 1.170744462787775 -0.29967347568711561 1.299208449106301
decision_type=2 2 2 2 2 2 2
left_child=1 2 -1 6 -5 -3 -2
right_child=3 5 -4 4 -6 -7 -8
leaf_value=0.013533908540743302 -0.017947480459162335 0.0098773231652176698 0.00017622145811793574 0.0011013461700732539 -0.011516078836283285 0.052684698439783226 0.011339860572838699
leaf_weight=864 583 79 1575 2465 567 80 76
leaf_count=864 583 79 1575 2465 567 80 76
internal_value=0.000565489 0.00653299 0.00490902 -0.00363427 -0.00125743 0.0314298 -0.0145665
internal_weight=6289 2598 2439 3691 3032 159 659
internal_count=6289 2598 2439 3691 3032 159 659
is_linear=0
shrinkage=0.0893156


Tree=32
num_leaves=7
num_cat=0
split_feature=20 1 61 13 39 17
split_gain=20.1745 18.5267 15.4227 10.9125 7.47394 6.05177
threshold=1.3573027480176063 -0.024528766817086135 0.77111802127596019 0.76942169966423668 -0.33290817683162316 -1.6493059568825459
decision_type=2 2 2 2 2 2
left_child=1 5 -3 4 -2 -1
right_child=3 2 -4 -5 -6 -7
leaf_value=0.020828057747500853 0.0040013346330657279 0.0030035605791238979 0.019144523555516966 -0.047135543736548248 -0.021882692627827858 -0.0040520738681298898
leaf_weight=80 147 2070 612 85 225 3063
leaf_count=80 147 2070 612 85 225 3063
internal_value=-0.00018288 0.00123448 0.00668758 -0.0182537 -0.0116483 -0.00341807
internal_weight=6282 5825 2682 457 372 3143
internal_count=6282 5825 2682 457 372 3143
is_linear=0
shrinkage=0.0893156


Tree=33
num_leaves=6
num_cat=0
split_feature=17 35 12 2 5
split_gain=12.5547 13.5376 12.4108 8.70212 4.30641
threshold=1.7475422555240558 2.1395263570989456 -0.16253379805125978 0.6863739174887894 0.31978968137498515
decision_type=2 2 2 2 2
left_child=1 2 -1 4 -2
right_child=3 -3 -4 -5 -6
leaf_value=-0.0043549176297301888 0.0023016452888024301 0.027441139777415045 0.0039185222580180364 -0.041605505998940792 -0.024428616507509431
leaf_weight=2640 125 149 3199 88 78
leaf_count=2640 125 149 3199 88 78
internal_value=-2.38338e-05 0.000856229 0.000177447 -0.0181409 -0.00795797
internal_weight=6279 5988 5839 291 203
internal_count=6279 5988 5839 291 203
is_linear=0
shrinkage=0.0893156


Tree=34
num_leaves=8
num_cat=0
split_feature=42 10 0 0 18 3 38
split_gain=15.6904 14.5718 20.162 11.8031 11.3078 13.9897 13.7429
threshold=1.2279719987857682 -0.31173260708916667 1.0578941904135468 0.033695054791320782 -0.19067788801613275 -0.7402563467657266 0.046763066561973786
decision_type=2 2 2 2 2 2 2
left_child=1 2 -1 -3 5 -2 -6
right_child=4 3 -4 -5 6 -7 -8
leaf_value=0.0020194883349521514 -0.023897645202934401 -0.011044764846660112 0.033728750842168767 -0.00017900957682493295 0.032973438549745229 0.021627821342808832 0.0044678771201337557
leaf_weight=2126 126 1407 173 1842 287 94 255
leaf_count=2126 126 1407 173 1842 287 94 255
internal_value=0.000615792 -0.00103442 0.0044066 -0.00488519 0.0126337 -0.00443558 0.0195663
internal_weight=6310 5548 2299 3249 762 220 542
internal_count=6310 5548 2299 3249 762 220 542
is_linear=0
shrinkage=0.0893156


Tree=35
num_leaves=8
num_cat=0
split_feature=52 72 12 0 36 39 1
split_gain=14.6061 18.0827 17.8588 13.6912 22.8607 10.5899 9.06659
threshold=-0.3544976390150808 -0.79339439600396855 -0.10986493499714035 0.77339443051848367 -0.95488771560124264 1.1812692533381672 1.9713442288120191
decision_type=2 2 2 2 2 2 2
left_child=1 2 -1 6 -5 -3 -2
right_child=3 5 -4 4 -6 -7 -8
leaf_value=0.0085385538886090569 -0.0067462676559171507 0.0034546943334711404 0.039311189660263937 0.048812722356899922 0.0018895093587132632 -0.01838423458158223 0.021143598528273241
leaf_weight=502 2925 1438 215 92 832 202 96
leaf_count=502 2925 1438 215 92 832 202 96
internal_value=0.000374337 0.00593753 0.0177692 -0.0029489 0.00656396 0.000763399 -0.00585925
internal_weight=6302 2357 717 3945 924 1640 3021
internal_count=6302 2357 717 3945 924 1640 3021
is_linear=0
shrinkage=0.0893156


Tree=36
num_leaves=8
num_cat=0
split_feature=1 0 0 17 1 59 34
split_gain=13.2503 13.5775 18.8621 14.4471 4.5289 4.47997 1.24093
threshold=-1.0224652646316386 -0.49737116367946305 -1.7681367578774099 0.47463404452883523 -1.6461755757657341 -0.15506257149562777 0.19142933925065359
decision_type=2 2 2 2 2 2 2
left_child=4 2 -2 -3 6 -6 -1
right_child=1 3 -4 -5 5 -7 -8
leaf_value=-0.031295939482630028 0.032810568419866709 0.0087632130306939601 -0.0068595413123288583 -0.0033136134213949909 -0.015538240602956247 -0.0011973006198554227 -0.015654408009107518
leaf_weight=86 101 2320 1788 1198 306 403 78
leaf_count=86 101 2320 1788 1198 306 403 78
internal_value=-0.000278111 0.00137002 -0.00473729 0.00465 -0.0104885 -0.00738995 -0.0238705
internal_weight=6280 5407 1889 3518 873 709 164
internal_count=6280 5407 1889 3518 873 709 164
is_linear=0
shrinkage=0.0893156


Tree=37
num_leaves=7
num_cat=0
split_feature=6 55 0 33 55 10
split_gain=13.2455 15.4676 14.761 8.02367 8.73453 7.98908
threshold=-0.11925285556175554 -1.7090103072669633 -0.21287140378440048 -1.2289530520707286 0.15434379327964493 -1.0622810534405438
decision_type=2 2 2 2 2 2
left_child=1 -1 -3 4 -2 -5
right_child=3 2 -4 5 -6 -7
leaf_value=0.035417041846673554 -0.0020722658582102349 -0.0023219857569898136 0.0089712356358622805 -0.032875510815289777 0.028055936464703682 -0.0057980674515611093
leaf_weight=118 239 2129 1630 91 113 1962
leaf_count=118 239 2129 1630 91 113 1962
internal_value=0.000344137 0.00357462 0.00257445 -0.00486266 0.00759315 -0.00699939
internal_weight=6282 3877 3759 2405 352 2053
internal_count=6282 3877 3759 2405 352 2053
is_linear=0
shrinkage=0.0893156


Tree=38
num_leaves=5
num_cat=0
split_feature=0 0 52 71
split_gain=14.7245 11.6587 14.4341 12.3504
threshold=-1.8060700591967518 -1.3129371420453095 -0.50201613492866026 1.1996380741005048
decision_type=2 2 2 2
left_child=-1 3 -3 -2
right_child=1 2 -4 -5
leaf_value=0.034539153020748704 -0.0059573424281623459 0.0073692559124340648 -0.0023307207516384937 -0.04365990443146521
leaf_weight=98 257 1754 4048 95
leaf_count=98 257 1754 4048 95
internal_value=0.00019074 -0.000355878 0.000601285 -0.0161392
internal_weight=6252 6154 5802 352
internal_count=6252 6154 5802 352
is_linear=0
shrinkage=0.0893156


Tree=39
num_leaves=6
num_cat=0
split_feature=35 0 10 7 63
split_gain=10.2211 11.2054 17.9975 12.2793 6.70974
threshold=2.1395263570989456 1.0768608410732177 -0.34420292818095505 -1.4286173327391485 -0.088970684926687013
decision_type=2 2 2 2 2
left_child=1 3 -3 -1 -2
right_child=4 2 -4 -5 -6
leaf_value=0.017734380319137127 0.0024651369541452621 0.03546319787693164 0.0019089006874663161 -0.0038202225981291394 0.039336628506034373
leaf_weight=220 76 157 680 5046 82
leaf_count=220 76 157 680 5046 82
internal_value=-0.00081221 -0.0013932 0.00820554 -0.0029193 0.0216153
internal_weight=6261 6103 837 5266 158
internal_count=6261 6103 837 5266 158
is_linear=0
shrinkage=0.0893156


Tree=40
num_leaves=7
num_cat=0
split_feature=10 54 39 48 61 17
split_gain=14.6836 15.7734 13.071 12.9802 12.3521 9.09555
threshold=-0.65757879606368042 -0.5087774818096128 1.1812692533381672 -1.8808070005333033 2.064219668874697 -0.16892274378257496
decision_type=2 2 2 2 2 2
left_child=1 5 -3 -2 -5 -1
right_child=3 2 -4 4 -6 -7
leaf_value=0.0081973786191087451 -0.036982687082763206 0.01995595997274217 -0.015969684019879169 -0.0019705678605155276 0.024521676422562182 -0.01158497791288551
leaf_weight=380 82 784 90 4416 145 362
leaf_count=380 82 784 90 4416 145 362
internal_value=0.000790215 0.00812326 0.0162539 -0.00176157 -0.00112785 -0.00145081
internal_weight=6259 1616 874 4643 4561 742
internal_count=6259 1616 874 4643 4561 742
is_linear=0
shrinkage=0.0893156


Tree=41
num_leaves=7
num_cat=0
split_feature=17 35 53 32 31 70
split_gain=10.6869 13.0233 11.0701 7.46139 5.69443 5.45735
threshold=1.6679892969079484 2.1395263570989456 2.2118156302207725 -0.13497072567980431 -0.62942887733838371 0.37167370493687607
decision_type=2 2 2 2 2 2
left_child=1 2 -1 4 -2 -5
right_child=3 -3 -4 5 -6 -7
leaf_value=-0.0002431098208212715 -0.044407852098397579 0.028204761726350572 0.026524629111471063 0.011325567852986673 -0.011215371120017874 -0.020077655557426931
leaf_weight=5641 88 137 126 100 78 79
leaf_count=5641 88 137 126 100 78 79
internal_value=9.50529e-05 0.000988275 0.000341332 -0.0151841 -0.028825 -0.00252133
internal_weight=6249 5904 5767 345 166 179
internal_count=6249 5904 5767 345 166 179
is_linear=0
shrinkage=0.0893156


Tree=42
num_leaves=5
num_cat=0
split_feature=1 65 20 42
split_gain=13.7898 11.1705 9.1768 5.79921
threshold=2.6158448836505848 -1.7782210948555155 1.3573027480176063 -0.33429019983842478
decision_type=2 2 2 2
left_child=1 3 -3 -1
right_child=-2 2 -4 -5
leaf_value=-0.038947258752486766 0.036144102056463241 0.0013372170530233662 -0.011976291778065825 -0.006108365837862624
leaf_weight=87 84 5582 446 85
leaf_count=87 84 5582 446 85
internal_value=0.000198422 -0.00028822 0.000351801 -0.0227319
internal_weight=6284 6200 6028 172
internal_count=6284 6200 6028 172
is_linear=0
shrinkage=0.0893156


Tree=43
num_leaves=6
num_cat=0
split_feature=10 0 52 43 61
split_gain=13.0912 15.205 18.6059 12.605 11.1948
threshold=-0.65757879606368042 0.88719433447650886 -0.52767152552232621 2.4091933310643321 2.064219668874697
decision_type=2 2 2 2 2
left_child=1 2 -1 4 -2
right_child=3 -3 -4 -5 -6
leaf_value=0.018365454519103239 -0.0031142191231448074 0.035695414980947575 -0.002871513769008599 -0.038968602907434202 0.02153896128770607
leaf_weight=482 4394 130 1037 76 152
leaf_count=482 4394 130 1037 76 152
internal_value=-0.000455193 0.00637647 0.00386579 -0.00289303 -0.00228942
internal_weight=6271 1649 1519 4622 4546
internal_count=6271 1649 1519 4622 4546
is_linear=0
shrinkage=0.0893156


Tree=44
num_leaves=8
num_cat=0
split_feature=53 12 59 58 2 45 67
split_gain=11.5379 16.0087 20.5716 12.9161 11.3458 13.1117 4.41419
threshold=-0.43686786763734642 -0.10986493499714035 1.4948620051611921 2.1271859577806165 1.3284705285483169 0.70260250542987668 -0.2524594155289735
decision_type=2 2 2 2 2 2 2
left_child=4 3 -3 -2 5 -1 -6
right_child=1 2 -4 -5 6 -7 -8
leaf_value=-0.0050451550632207619 0.0011282740460837408 0.0093058859490402508 0.055558299999474724 -0.035064849878327357 -0.043033730287641479 0.016158276065746321 -0.012538346229084779
leaf_weight=2014 2718 1017 83 81 76 263 76
leaf_count=2014 2718 1017 83 81 76 263 76
internal_value=0.000658149 0.00366865 0.0127979 8.00769e-05 -0.00417334 -0.00259511 -0.0278009
internal_weight=6328 3899 1100 2799 2429 2277 152
internal_count=6328 3899 1100 2799 2429 2277 152
is_linear=0
shrinkage=0.0893156


Tree=45
num_leaves=7
num_cat=0
split_feature=6 0 0 3 74 72
split_gain=12.0581 10.6978 12.1634 8.67255 6.69328 6.16493
threshold=0.61596915821497855 -1.8060700591967518 -0.21287140378440048 -0.4471329874000331 0.21689834186977527 1.1967940470612095
decision_type=2 2 2 2 2 2
left_child=1 -1 -3 4 -2 -5
right_child=3 2 -4 5 -6 -7
leaf_value=0.031662313185606424 -0.0077481237787567015 -0.0029151937413075505 0.0056992748719837749 -0.021489001151057383 0.029478865837412903 -0.0058381391819373532
leaf_weight=95 78 2599 2631 349 76 474
leaf_count=95 78 2599 2631 349 76 474
internal_value=0.000284149 0.00195796 0.00141796 -0.0088364 0.010609 -0.0124778
internal_weight=6302 5325 5230 977 154 823
internal_count=6302 5325 5230 977 154 823
is_linear=0
shrinkage=0.0893156


Tree=46
num_leaves=8
num_cat=0
split_feature=1 65 0 67 5 51 47
split_gain=9.97408 11.3521 15.0718 12.3181 5.53857 4.31829 2.64726
threshold=-0.98088457722269917 -1.3745108799772134 0.033695054791320782 0.0107335279068355 -0.60463995300999585 0.51789870816304184 -0.0763272774271129
decision_type=2 2 2 2 2 2 2
left_child=4 3 -3 -2 6 -6 -1
right_child=1 2 -4 -5 5 -7 -8
leaf_value=-0.012739857765721584 0.0016712936697574452 -0.0017891738362170115 0.0082205797890708109 -0.030806573202636675 -0.0031370137888656591 -0.022747918377338895 -0.035507825311701449
leaf_weight=85 194 2977 2010 179 691 103 79
leaf_count=85 194 2977 2010 179 691 103 79
internal_value=-0.000379654 0.00112026 0.00224478 -0.0139085 -0.00877401 -0.00568384 -0.0237211
internal_weight=6318 5360 4987 373 958 794 164
internal_count=6318 5360 4987 373 958 794 164
is_linear=0
shrinkage=0.0893156


Tree=47
num_leaves=8
num_cat=0
split_feature=61 20 1 38 69 72 0
split_gain=10.8693 11.4342 12.2841 10.7888 12.3743 9.41189 8.35311
threshold=0.043967365783446018 1.3573027480176063 -0.024528766817086135 -0.19590291912075941 -0.42665395227348546 -0.1022779106267421 -0.95257077951156344
decision_type=2 2 2 2 2 2 2
left_child=3 2 -2 4 -1 -3 -5
right_child=1 5 -4 6 -6 -7 -8
leaf_value=0.013651868187172145 -4.0675145790141291e-05 -0.033791656939089636 0.012328380992262883 -0.020758774802059409 -0.0032953457651210276 0.0050175346788804117 -0.0050091631823974917
leaf_weight=517 1331 110 1234 322 1025 91 1626
leaf_count=517 1331 110 1234 322 1025 91 1626
internal_value=0.000118747 0.00430092 0.00590909 -0.00319519 0.00238523 -0.0162101 -0.0076137
internal_weight=6256 2766 2565 3490 1542 201 1948
internal_count=6256 2766 2565 3490 1542 201 1948
is_linear=0
shrinkage=0.0893156


Tree=48
num_leaves=4
num_cat=0
split_feature=65 49 0
split_gain=10.4902 10.3454 9.61904
threshold=2.1446455711423842 -1.9907857820325445 -1.7681367578774099
decision_type=2 2 2
left_child=1 -1 -3
right_child=-2 2 -4
leaf_value=-0.029230322965596696 0.024177989254858524 0.027503456367303187 -0.0002939534906676111
leaf_weight=97 143 101 5919
leaf_count=97 143 101 5919
internal_value=0.000264823 -0.000293837 0.00017204
internal_weight=6260 6117 6020
internal_count=6260 6117 6020
is_linear=0
shrinkage=0.0893156


Tree=49
num_leaves=7
num_cat=0
split_feature=17 8 54 48 40 52
split_gain=10.3962 11.4154 12.8788 9.95343 7.51164 3.15173
threshold=1.7475422555240558 1.213871744038485 1.082155533114179 -1.8808070005333033 -0.097326529274769633 1.1591704060112158
decision_type=2 2 2 2 2 2
left_child=1 3 -3 -1 5 -2
right_child=4 2 -4 -5 -6 -7
leaf_value=-0.029208621245077133 -0.042096027114235844 0.007116784785477592 0.042919259884275265 0.00026883469425073516 7.8119326062562389e-06 -0.017084904407430008
leaf_weight=93 77 546 94 5239 127 85
leaf_count=93 77 546 94 5239 127 85
internal_value=0.000306593 0.00110758 0.0123788 -0.000244883 -0.0162374 -0.0289869
internal_weight=6261 5972 640 5332 289 162
internal_count=6261 5972 640 5332 289 162
is_linear=0
shrinkage=0.0893156


Tree=50
num_leaves=5
num_cat=0
split_feature=45 0 1 6
split_gain=10.367 9.45814 11.8507 11.7419
threshold=2.3145937043068017 0.56476127326210435 0.30811673245443133 0.73657861216037535
decision_type=2 2 2 2
left_child=1 3 -3 -1
right_child=-2 2 -4 -5
leaf_value=-0.0010801120464361642 0.024773658591034801 0.0016706007668774521 0.020696880023450635 -0.017803436000665643
leaf_weight=4199 134 1283 328 364
leaf_count=4199 134 1283 328 364
internal_value=0.000195908 -0.00033716 0.00554576 -0.00241466
internal_weight=6308 6174 1611 4563
internal_count=6308 6174 1611 4563
is_linear=0
shrinkage=0.0893156


Tree=51
num_leaves=8
num_cat=0
split_feature=20 1 61 63 57 13 0
split_gain=11.0029 10.4423 10.9774 10.3404 9.82682 9.60799 6.99115
threshold=1.3573027480176063 0.43285879468125049 0.80791359661413609 -0.25767771269523509 2.2715407869538766 -0.75154129299782546 -0.34563795840209649
decision_type=2 2 2 2 2 2 2
left_child=1 4 -3 5 -1 -2 -5
right_child=3 2 -4 6 -6 -7 -8
leaf_value=-0.0022928925054289178 -0.018601820485252718 0.0027128381902963863 0.019638787421933791 -0.044779500405327521 0.02707349598038377 0.020754154443980401 -0.013960025090012958
leaf_weight=4010 97 1298 400 96 93 101 152
leaf_count=4010 97 1298 400 96 93 101 152
internal_value=-0.000228364 0.000810615 0.00670144 -0.0137471 -0.00162671 0.00146229 -0.0258993
internal_weight=6247 5801 1698 446 4103 198 248
internal_count=6247 5801 1698 446 4103 198 248
is_linear=0
shrinkage=0.0893156


Tree=52
num_leaves=7
num_cat=0
split_feature=47 1 7 61 48 72
split_gain=10.0889 10.4959 9.80173 9.48126 9.0207 5.78442
threshold=-0.23571409054783274 -0.91851354610928959 -0.86339184832906846 1.8872504732006148 0.76321033691161799 -0.53403982849140719
decision_type=2 2 2 2 2 2
left_child=3 5 -3 4 -1 -2
right_child=1 2 -4 -5 -6 -7
leaf_value=-0.0088138071436225131 -0.030668209344977194 0.01519185191862623 0.0026338698653529126 0.0218802403878245 0.0028005073716886792 -0.0044634670840943136
leaf_weight=1745 78 620 2479 107 768 488
leaf_count=1745 78 620 2479 107 768 488
internal_value=7.79477e-05 0.00310389 0.00514701 -0.00415405 -0.00526345 -0.00807872
internal_weight=6285 3665 3099 2620 2513 566
internal_count=6285 3665 3099 2620 2513 566
is_linear=0
shrinkage=0.0893156


Tree=53
num_leaves=7
num_cat=0
split_feature=39 10 14 14 5 42
split_gain=12.8687 15.2797 14.524 9.92727 12.2271 11.0202
threshold=-1.243691593475106 -0.66563438836909039 -0.7844780209270158 0.021231659757779731 -0.81430440616947608 1.2279719987857682
decision_type=2 2 2 2 2 2
left_child=1 -1 -3 5 -5 -2
right_child=3 2 -4 4 -6 -7
leaf_value=0.038452889118086642 -0.0074509551725958287 0.03294991758565459 -0.0045400361649362122 0.032190354823290454 0.0011952329530327617 0.0066753623142162943
leaf_weight=136 2582 108 348 106 2414 531
leaf_count=136 2582 108 348 106 2414 531
internal_value=-0.000350038 0.0121761 0.00433421 -0.00166687 0.00249989 -0.00504063
internal_weight=6225 592 456 5633 2520 3113
internal_count=6225 592 456 5633 2520 3113
is_linear=0
shrinkage=0.0893156


Tree=54
num_leaves=4
num_cat=0
split_feature=49 0 0
split_gain=9.15313 7.07869 9.40657
threshold=-1.9907857820325445 -1.7681367578774099 -1.5595036006210306
decision_type=2 2 2
left_child=-1 -2 -3
right_child=1 2 -4
leaf_value=-0.025757984726520803 0.022739199236348182 -0.028164555930980974 0.00061346758646060244
leaf_weight=107 113 92 5982
leaf_count=107 113 92 5982
internal_value=0.000141371 0.000589648 0.000177208
internal_weight=6294 6187 6074
internal_count=6294 6187 6074
is_linear=0
shrinkage=0.0893156


Tree=55
num_leaves=5
num_cat=0
split_feature=18 12 7 71
split_gain=7.83543 9.05372 8.14242 7.61612
threshold=-0.32628159071967239 -0.37320925026773755 -1.3458993439919518 0.28621385865192389
decision_type=2 2 2 2
left_child=3 -2 -3 -1
right_child=1 2 -4 -5
leaf_value=0.029935306345552887 -0.024081617039233075 0.013362908787354154 -0.0013034191747485907 -0.0056851276082025915
leaf_weight=129 133 319 5653 76
leaf_count=129 133 319 5653 76
internal_value=-0.000456217 -0.0010333 -0.000519625 0.0167187
internal_weight=6310 6105 5972 205
internal_count=6310 6105 5972 205
is_linear=0
shrinkage=0.0893156


Tree=56
num_leaves=7
num_cat=0
split_feature=3 50 61 72 51 65
split_gain=7.40025 12.0912 16.0647 14.3396 12.027 7.81227
threshold=0.12495338551848015 0.76205540252756898 -1.5627727573168804 -1.4470464663288196 1.178273759553732 -1.009542310311619
decision_type=2 2 2 2 2 2
left_child=1 2 -1 -3 5 -2
right_child=4 3 -4 -5 -6 -7
leaf_value=0.039181757103526151 -0.015820887105757249 -0.043109621369714614 0.0045022467630478789 -0.0026384229196596068 0.029917306057634933 -0.002141820940871769
leaf_weight=111 393 77 2676 753 85 2188
leaf_count=111 393 77 2676 753 85 2188
internal_value=0.000433798 0.00306573 0.00588427 -0.0063957 -0.00313614 -0.00422556
internal_weight=6283 3617 2787 830 2666 2581
internal_count=6283 3617 2787 830 2666 2581
is_linear=0
shrinkage=0.0893156


Tree=57
num_leaves=7
num_cat=0
split_feature=54 11 61 7 44 64
split_gain=9.21198 10.2657 8.90816 10.7783 9.81914 7.63371
threshold=-1.0980266870014332 0.9847818236785183 0.054480387308638904 -1.1836605261274649 -1.3131254819197251 0.48690984303181711
decision_type=2 2 2 2 2 2
left_child=1 5 4 -4 -2 -1
right_child=2 -3 3 -5 -6 -7
leaf_value=-0.00051558338640195081 -0.02197662978039858 -0.036100040827603271 0.025675497657067513 0.0033728762598224729 -0.00086638776113666046 -0.022348620795925263
leaf_weight=579 188 98 187 2294 2707 164
leaf_count=579 188 98 187 2294 2707 164
internal_value=-0.000232306 -0.00892511 0.00112714 0.0050548 -0.00223806 -0.00533776
internal_weight=6217 841 5376 2481 2895 743
internal_count=6217 841 5376 2481 2895 743
is_linear=0
shrinkage=0.0893156


Tree=58
num_leaves=4
num_cat=0
split_feature=53 12 0
split_gain=8.78152 7.85762 8.67997
threshold=2.2908908321551964 3.7349620679535795 -0.49737116367946305
decision_type=2 2 2
left_child=1 2 -1
right_child=-2 -3 -4
leaf_value=-0.0056738048612632415 0.028595110224820496 0.026985470067600961 0.0014990180059132046
leaf_weight=2000 84 82 4114
leaf_count=2000 84 82 4114
internal_value=-8.90241e-05 -0.000478264 -0.000846973
internal_weight=6280 6196 6114
internal_count=6280 6196 6114
is_linear=0
shrinkage=0.0893156


Tree=59
num_leaves=7
num_cat=0
split_feature=12 63 39 6 11 70
split_gain=7.85432 11.3454 12.7148 10.6452 9.20822 9.6041
threshold=-0.10986493499714035 -0.16067158404468196 -1.243691593475106 -0.35386302625006161 2.3725817925777819 -1.5816811504621513
decision_type=2 2 2 2 2 2
left_child=4 3 -3 -2 5 -1
right_child=1 2 -4 -5 -6 -7
leaf_value=0.020788705388205896 0.0097692964657718571 0.042965844746973271 0.0076965726511899757 -0.011200098393388806 -0.033418703396591816 -0.0028210854818334799
leaf_weight=142 310 90 872 512 76 4268
leaf_count=142 310 90 872 512 76 4268
internal_value=-0.000598298 0.00441403 0.0109985 -0.00328918 -0.00259211 -0.00206035
internal_weight=6270 1784 962 822 4486 4410
internal_count=6270 1784 962 822 4486 4410
is_linear=0
shrinkage=0.0893156


Tree=60
num_leaves=6
num_cat=0
split_feature=17 17 37 40 42
split_gain=8.78462 14.8953 10.0453 5.70612 5.50741
threshold=1.6679892969079484 1.4737958345171085 2.2461174925675698 0.18679785062844592 -0.94219975829888503
decision_type=2 2 2 2 2
left_child=1 2 -1 4 -2
right_child=3 -3 -4 -5 -6
leaf_value=0.00016139767998415259 -0.008888989207434304 0.033181469806063735 0.025561286425473097 0.0034119751029429045 -0.03637414500972351
leaf_weight=5664 131 115 127 111 105
leaf_count=5664 131 115 127 111 105
internal_value=0.00053951 0.00135131 0.000718822 -0.0132709 -0.0211271
internal_weight=6253 5906 5791 347 236
internal_count=6253 5906 5791 347 236
is_linear=0
shrinkage=0.0893156


Tree=61
num_leaves=8
num_cat=0
split_feature=10 50 42 16 40 49 0
split_gain=8.51559 24.9469 13.0288 8.92356 7.27458 7.09477 6.40431
threshold=-0.65757879606368042 1.0006166642144245 1.0000000180025095e-35 0.20056766820560587 -0.72753858469839117 -0.37381355437795455 -0.042171547847362691
decision_type=2 2 2 2 2 2 2
left_child=1 2 -1 -3 5 -2 -6
right_child=4 3 -4 -5 6 -7 -8
leaf_value=0.00182943939455783 0.0019036596096607859 -0.0092981711374175643 0.019139605796480084 -0.045395418368775288 -0.0049276110342778697 -0.018147685861264334 0.0022458765275492698
leaf_weight=758 213 173 640 80 1807 414 2203
leaf_count=758 213 173 640 80 1807 414 2203
internal_value=-0.000423996 0.00508394 0.0097556 -0.0207213 -0.00238558 -0.0113324 -0.000986102
internal_weight=6288 1651 1398 253 4637 627 4010
internal_count=6288 1651 1398 253 4637 627 4010
is_linear=0
shrinkage=0.0893156


Tree=62
num_leaves=8
num_cat=0
split_feature=47 11 33 59 41 63 5
split_gain=8.08192 11.0638 11.4484 11.2194 7.76884 9.32074 8.85546
threshold=-0.30655267415704129 1.6442050101562058 1.575341198181939 -1.8001803758970747 -0.30839348291094454 1.929321811819074 -0.46168691676489565
decision_type=2 2 2 2 2 2 2
left_child=4 3 -3 -2 6 -6 -1
right_child=1 2 -4 -5 5 -7 -8
leaf_value=0.014893713568976549 0.032308530154841482 0.048249257455646059 0.0025893874536155404 0.00035820017433242695 -0.0097698127416032989 0.022288979214646964 -0.0033138875138537124
leaf_weight=293 90 83 93 3401 1489 76 781
leaf_count=293 90 83 93 3401 1489 76 781
internal_value=-0.000427334 0.00228478 0.024135 0.00118255 -0.00419679 -0.00821152 0.00165126
internal_weight=6306 3667 176 3491 2639 1565 1074
internal_count=6306 3667 176 3491 2639 1565 1074
is_linear=0
shrinkage=0.0893156


Tree=63
num_leaves=7
num_cat=0
split_feature=39 72 8 18 49 20
split_gain=7.13215 15.0142 10.3995 7.08561 10.375 9.31868
threshold=-1.243691593475106 -1.152934456311731 1.0607594189323535 -0.19067788801613275 -0.99346957812767267 1.3573027480176063
decision_type=2 2 2 2 2 2
left_child=1 -1 -3 4 -2 -5
right_child=3 2 -4 5 -6 -7
leaf_value=0.043041589408175734 -0.023498883033973714 0.0084546555232415683 -0.025221851881943716 0.0013487055533712936 -0.0034096012829266339 -0.021627946585783483
leaf_weight=87 243 459 87 3958 1317 146
leaf_count=87 243 459 87 3958 1317 146
internal_value=-0.000411176 0.00857979 0.00308448 -0.00141639 -0.00654034 0.000530759
internal_weight=6297 633 546 5664 1560 4104
internal_count=6297 633 546 5664 1560 4104
is_linear=0
shrinkage=0.0893156


Tree=64
num_leaves=8
num_cat=0
split_feature=14 17 69 39 67 66 63
split_gain=8.76609 12.0527 10.9816 9.69703 12.8492 8.41017 8.27019
threshold=0.021231659757779731 -0.28693061772948197 -0.7039112002954071 -1.4865671712467015 0.14166418505811931 -0.74044433243460295 2.3315517604609908
decision_type=2 2 2 2 2 2 2
left_child=3 2 -2 4 -1 -3 -5
right_child=1 5 -4 6 -6 -7 -8
leaf_value=0.035476840207661092 0.034181496102710276 -0.011955771449719807 0.0074549049197441238 -0.0049170019007605207 -0.010618262960612026 0.0029839949297952848 0.024332224589920296
leaf_weight=115 167 360 463 3194 83 1821 79
leaf_count=115 167 360 463 3194 83 1821 79
internal_value=-4.57893e-05 0.00366132 0.0145432 -0.00304865 0.0161427 0.000516972 -0.00421033
internal_weight=6282 2811 630 3471 198 2181 3273
internal_count=6282 2811 630 3471 198 2181 3273
is_linear=0
shrinkage=0.0893156


Tree=65
num_leaves=4
num_cat=0
split_feature=35 41 53
split_gain=7.91349 9.2099 7.14004
threshold=2.1395263570989456 2.1457702385493436 2.2908908321551964
decision_type=2 2 2
left_child=1 2 -1
right_child=-2 -3 -4
leaf_value=-0.00029635322928773671 0.020360143584076867 -0.023284299703445449 0.027255744838217466
leaf_weight=5888 149 138 76
leaf_count=5888 149 138 76
internal_value=2.31447e-05 -0.000473078 5.43678e-05
internal_weight=6251 6102 5964
internal_count=6251 6102 5964
is_linear=0
shrinkage=0.0893156


Tree=66
num_leaves=8
num_cat=0
split_feature=0 40 50 46 70 34 45
split_gain=6.91557 10.7089 9.96537 6.80106 6.61971 8.03409 7.71066
threshold=1.0768608410732177 -0.40563170746762039 0.31475303686471506 0.80116317474606114 0.38621720674480869 1.3054954113272272 0.70260250542987668
decision_type=2 2 2 2 2 2 2
left_child=4 2 -2 -3 5 -1 -6
right_child=1 3 -4 -5 6 -7 -8
leaf_value=0.00086180057779950867 0.043410401551875227 -0.0029670589748162141 0.0027006536290578118 0.017048722720705477 -0.009299249250489864 0.023869393957292252 0.0056935384329915018
leaf_weight=3868 116 465 82 191 1074 125 367
leaf_count=3868 116 465 82 191 1074 125 367
internal_value=0.000884179 0.00835591 0.0265622 0.00285726 -0.000289652 0.00158261 -0.00547925
internal_weight=6288 854 198 656 5434 3993 1441
internal_count=6288 854 198 656 5434 3993 1441
is_linear=0
shrinkage=0.0893156


Tree=67
num_leaves=7
num_cat=0
split_feature=10 16 0 17 67 62
split_gain=7.04183 12.3649 10.449 11.1255 9.02499 8.34479
threshold=0.010461405887718251 2.3448147788338702 0.88719433447650886 1.6270491865868413 0.045149688668595984 -0.38810212895248092
decision_type=2 2 2 2 2 2
left_child=2 4 3 -1 -2 -4
right_child=1 -3 5 -5 -6 -7
leaf_value=0.0018914916420668436 -0.00037937024278863167 0.030468943876567459 0.033932993709247392 -0.022878200907962928 -0.01088375963455838 0.0058616505143825846
leaf_weight=2991 1574 82 139 152 1115 216
leaf_count=2991 1574 82 139 152 1115 216
internal_value=-0.000329682 -0.00369328 0.0023342 0.000692875 -0.00473588 0.0168593
internal_weight=6269 2771 3498 3143 2689 355
internal_count=6269 2771 3498 3143 2689 355
is_linear=0
shrinkage=0.0893156


Tree=68
num_leaves=5
num_cat=0
split_feature=1 41 9 10
split_gain=8.86287 11.35 7.12952 4.71029
threshold=2.6158448836505848 2.1457702385493436 -1.8223352904447738 -0.7969243152475457
decision_type=2 2 2 2
left_child=1 2 -1 -3
right_child=-2 3 -4 -5
leaf_value=-0.020816149144625651 0.028243199023412619 -0.0086320582333325405 0.00090893399818823997 -0.039920597113766644
leaf_weight=123 89 78 5921 76
leaf_count=123 89 78 5921 76
internal_value=0.000258195 -0.000143291 0.000466438 -0.0240878
internal_weight=6287 6198 6044 154
internal_count=6287 6198 6044 154
is_linear=0
shrinkage=0.0893156


Tree=69
num_leaves=7
num_cat=0
split_feature=10 16 64 50 2 6
split_gain=6.7215 8.68375 9.2209 7.99096 13.2016 8.91194
threshold=0.010461405887718251 2.1353738740803054 -1.5016150688683532 1.1646275316241372 0.23054018041819349 -0.11594848696051178
decision_type=2 2 2 2 2 2
left_child=3 2 -2 5 -5 -1
right_child=1 -3 -4 4 -6 -7
leaf_value=0.0070380199390031022 0.015924826824999915 0.021465653199384881 -0.0055098271057212244 0.0067496041866583825 -0.024956380497644006 -0.0040512927238250803
leaf_weight=2345 171 110 2502 213 206 767
leaf_count=2345 171 110 2502 213 206 767
internal_value=0.00015715 -0.00312494 -0.00413774 0.00274461 -0.00883315 0.00430416
internal_weight=6314 2783 2673 3531 419 3112
internal_count=6314 2783 2673 3531 419 3112
is_linear=0
shrinkage=0.0893156


Tree=70
num_leaves=6
num_cat=0
split_feature=18 7 31 48 60
split_gain=8.9497 7.93098 10.7716 9.21994 6.92168
threshold=-0.32628159071967239 -1.4286173327391485 -0.39328259734702009 -1.8808070005333033 -0.39279730009372088
decision_type=2 2 2 2 2
left_child=4 2 -2 -3 -1
right_child=1 3 -4 -5 -6
leaf_value=0.038445876195546083 0.033533655041397416 -0.029408189442268671 -0.0040635431873322541 -0.0010574989429640485 0.0047966068847559301
leaf_weight=81 123 93 120 5734 123
leaf_count=81 123 93 120 5734 123
internal_value=-0.000231955 -0.000850726 0.0149578 -0.00151037 0.0181684
internal_weight=6274 6070 243 5827 204
internal_count=6274 6070 243 5827 204
is_linear=0
shrinkage=0.0893156


Tree=71
num_leaves=5
num_cat=0
split_feature=53 19 62 0
split_gain=7.45241 6.87681 10.4135 8.63815
threshold=-1.8959243471093179 1.0000000180025095e-35 -0.11942944583778313 -1.3129371420453095
decision_type=2 2 2 2
left_child=-1 2 -2 -3
right_child=1 3 -4 -5
leaf_value=-0.02254763931615248 -0.0016030489307792511 -0.017521263543991545 0.0096082085087979014 -0.0002578089473552678
leaf_weight=108 1207 249 1460 3242
leaf_count=108 1207 249 1460 3242
internal_value=0.000710231 0.0011185 0.0045335 -0.00148979
internal_weight=6266 6158 2667 3491
internal_count=6266 6158 2667 3491
is_linear=0
shrinkage=0.0893156


Tree=72
num_leaves=4
num_cat=0
split_feature=12 52 4
split_gain=7.63494 7.70501 14.219
threshold=3.8402997940618189 -1.8232687505024612 2.835762583599891
decision_type=2 2 2
left_child=1 -1 -3
right_child=-2 2 -4
leaf_value=-0.02270067415704944 0.028023195132732364 -0.00026249295039796093 0.031045173561866351
leaf_weight=118 78 5995 118
leaf_count=118 78 5995 118
internal_value=0.000252743 -9.45264e-05 0.000341473
internal_weight=6309 6231 6113
internal_count=6309 6231 6113
is_linear=0
shrinkage=0.0893156


Tree=73
num_leaves=4
num_cat=0
split_feature=9 35 33
split_gain=7.16219 6.97235 8.38516
threshold=-1.8223352904447738 2.1395263570989456 1.7074807178273528
decision_type=2 2 2
left_child=-1 2 -2
right_child=1 -3 -4
leaf_value=-0.020036574367752816 0.00075972632660126574 0.021589209234531333 -0.016966844855095534
leaf_weight=138 5786 123 221
leaf_count=138 5786 123 221
internal_value=8.52376e-05 0.000538593 0.000107182
internal_weight=6268 6130 6007
internal_count=6268 6130 6007
is_linear=0
shrinkage=0.0893156


Tree=74
num_leaves=7
num_cat=0
split_feature=38 16 41 4 0 61
split_gain=8.38137 12.9222 12.3608 11.8074 12.0842 8.28408
threshold=0.046763066561973786 1.1160612197188169 0.50966109090915135 2.5257260002401667 -0.72497097159551338 -0.35727962242808609
decision_type=2 2 2 2 2 2
left_child=3 5 -3 4 -1 -2
right_child=1 2 -4 -5 -6 -7
leaf_value=-0.0078242486145459443 -0.0069725883988245247 -0.02742260650868128 0.010628563727269126 0.035064648595506127 0.0055103965625989369 0.0033024020726143887
leaf_weight=693 1040 289 89 92 2489 1572
leaf_count=693 1040 289 89 92 2489 1572
internal_value=0.000395883 -0.00302242 -0.0184575 0.00351836 0.00260557 -0.000787847
internal_weight=6264 2990 378 3274 3182 2612
internal_count=6264 2990 378 3274 3182 2612
is_linear=0
shrinkage=0.0893156


Tree=75
num_leaves=7
num_cat=0
split_feature=59 12 59 1 69 49
split_gain=6.46632 10.0913 9.01461 7.26769 18.5977 7.5834
threshold=1.4804416883950731 -0.10986493499714035 2.1666084278495843 1.6179083858360317 -0.67439481230364284 -1.9907857820325445
decision_type=2 2 2 2 2 2
left_child=3 2 -2 5 -5 -1
right_child=1 -3 -4 4 -6 -7
leaf_value=-0.0279437880575884 0.010523263596839928 0.030462100785765899 -0.023187953112363754 0.042613041419266501 -0.0010175194558393521 -0.0015063633191927906
leaf_weight=88 232 135 87 106 294 5309
leaf_count=88 232 135 87 106 294 5309
internal_value=-0.000272288 0.00999213 0.00132221 -0.00107655 0.0105389 -0.00193785
internal_weight=6251 454 319 5797 400 5397
internal_count=6251 454 319 5797 400 5397
is_linear=0
shrinkage=0.0893156


Tree=76
num_leaves=4
num_cat=0
split_feature=43 16 49
split_gain=6.44069 7.00781 10.321
threshold=2.4678238912223489 2.0337005728115174 -1.8367884270178216
decision_type=2 2 2
left_child=1 2 -1
right_child=-2 -3 -4
leaf_value=-0.024458711676308482 -0.022916020434556417 0.01916636174040855 0.0002521417563655971
leaf_weight=138 98 151 5873
leaf_count=138 98 151 5873
internal_value=-0.0001987 0.000162228 -0.000314792
internal_weight=6260 6162 6011
internal_count=6260 6162 6011
is_linear=0
shrinkage=0.0893156


Tree=77
num_leaves=7
num_cat=0
split_feature=10 16 36 34 43 6
split_gain=7.76947 10.4671 8.98158 7.45784 10.1579 8.5354
threshold=0.010461405887718251 2.3448147788338702 1.7502689107334939 -0.36560369678763305 -1.5190541995227631 -0.54221203652095518
decision_type=2 2 2 2 2 2
left_child=3 2 -2 4 -1 -5
right_child=1 -3 -4 5 -6 -7
leaf_value=0.023607265611288626 -0.0058626639176719963 0.028862960533083126 0.011200307616273114 0.018110620823433558 -0.0020180281480416751 0.0034111850335342081
leaf_weight=132 2410 79 274 459 1894 1007
leaf_count=132 2410 79 274 459 1894 1007
internal_value=0.000362336 -0.00317606 -0.00411992 0.00316269 -0.000347347 0.00801507
internal_weight=6255 2763 2684 3492 2026 1466
internal_count=6255 2763 2684 3492 2026 1466
is_linear=0
shrinkage=0.0893156


Tree=78
num_leaves=5
num_cat=0
split_feature=1 41 39 41
split_gain=6.97748 11.4178 9.78049 8.27062
threshold=2.6158448836505848 2.0435134168218316 -0.24182983516727519 1.838999773366808
decision_type=2 2 2 2
left_child=1 3 -3 -1
right_child=-2 2 -4 -5
leaf_value=-0.00070381849769774927 0.024756529187690852 -0.03946381460003439 0.0020206188081161995 0.02894869078469103
leaf_weight=5905 85 112 76 76
leaf_count=5905 85 112 76 76
internal_value=-0.00065774 -0.00100828 -0.0226815 -0.000326649
internal_weight=6254 6169 188 5981
internal_count=6254 6169 188 5981
is_linear=0
shrinkage=0.0893156


Tree=79
num_leaves=8
num_cat=0
split_feature=0 14 46 8 64 54 66
split_gain=5.76302 8.12572 11.3162 7.83151 9.98045 8.03527 7.35451
threshold=-0.70600432093584253 -1.1515687415824771 -0.87550277355821615 1.213871744038485 0.45262493075767712 0.50446483219079019 0.81456054494652119
decision_type=2 2 2 2 2 2 2
left_child=1 2 -1 5 -5 -2 -3
right_child=3 6 -4 4 -6 -7 -8
leaf_value=-0.0052847800825997267 0.0024077189193184275 -0.010764361060204395 0.035305485079265078 0.0023789741405788409 0.030099536305030618 -0.005835320032863381 0.0082135265178408627
leaf_weight=145 2905 1137 88 298 159 1397 190
leaf_count=145 2905 1137 88 298 159 1397 190
internal_value=-0.000632046 -0.00534337 0.0100358 0.000911852 0.0120285 -0.00026854 -0.0080454
internal_weight=6319 1560 233 4759 457 4302 1327
internal_count=6319 1560 233 4759 457 4302 1327
is_linear=0
shrinkage=0.0893156


Tree=80
num_leaves=5
num_cat=0
split_feature=48 2 63 5
split_gain=6.28797 5.9718 8.45067 6.21428
threshold=-1.8808070005333033 -0.89659430691354947 0.73456619409356161 0.33885008620766482
decision_type=2 2 2 2
left_child=-1 3 -3 -2
right_child=1 2 -4 -5
leaf_value=-0.021812810564461368 0.011189861738778615 0.00074929699354090188 -0.0083772493263886087 -0.0023788059963462753
leaf_weight=105 711 3993 1015 433
leaf_count=105 711 3993 1015 433
internal_value=-0.000139898 0.00022964 -0.00109998 0.00605219
internal_weight=6257 6152 5008 1144
internal_count=6257 6152 5008 1144
is_linear=0
shrinkage=0.0893156


Tree=81
num_leaves=7
num_cat=0
split_feature=20 1 5 40 18 16
split_gain=5.36349 6.84951 10.8376 5.56785 5.47201 4.93746
threshold=1.3573027480176063 0.26653604504549155 -0.81430440616947608 -0.47212890276411773 -0.28108035648515922 -0.47356048176538995
decision_type=2 2 2 2 2 2
left_child=1 5 -3 -2 -5 -1
right_child=3 2 -4 4 -6 -7
leaf_value=0.0019795433544700682 -0.026133241208190876 0.034941285804153475 0.0030768251436768352 0.0099068561803143523 -0.013071569671072735 -0.004597125991281514
leaf_weight=1526 121 89 1978 138 206 2257
leaf_count=1526 121 89 1978 138 206 2257
internal_value=-0.000418432 0.000315054 0.00444993 -0.00965101 -0.00384691 -0.00194361
internal_weight=6315 5850 2067 465 344 3783
internal_count=6315 5850 2067 465 344 3783
is_linear=0
shrinkage=0.0893156


Tree=82
num_leaves=6
num_cat=0
split_feature=40 1 52 53 33
split_gain=8.53544 6.99309 6.74315 5.60514 1.24815
threshold=-1.5481744266528914 -1.6461755757657341 -0.4058084202024127 -0.051340374130109702 -0.6979479453474926
decision_type=2 2 2 2 2
left_child=3 4 -3 -1 -2
right_child=1 2 -4 -5 -6
leaf_value=-0.034967549213572813 -0.0089187320200543752 0.0056185036976676324 -0.00075002458823224922 -0.0050131609047830124 -0.024109155266352947
leaf_weight=86 85 2035 3807 119 89
leaf_count=86 85 2035 3807 119 89
internal_value=0.000331045 0.000942108 0.001468 -0.0175904 -0.0167015
internal_weight=6221 6016 5842 205 174
internal_count=6221 6016 5842 205 174
is_linear=0
shrinkage=0.0893156


Tree=83
num_leaves=5
num_cat=0
split_feature=0 0 43 10
split_gain=9.96334 7.53829 9.03161 8.78705
threshold=-1.7681367578774099 -0.72497097159551338 -1.1672708385746653 -0.65757879606368042
decision_type=2 2 2 2
left_child=-1 2 -2 -3
right_child=1 3 -4 -5
leaf_value=0.026434628263936017 0.013738327198870403 0.0081615460518463037 -0.0091255616348066646 -0.0011416785659883078
leaf_weight=109 155 1036 1239 3710
leaf_count=109 155 1036 1239 3710
internal_value=-0.000331493 -0.000807025 -0.00658169 0.000888638
internal_weight=6249 6140 1394 4746
internal_count=6249 6140 1394 4746
is_linear=0
shrinkage=0.0893156


end of trees

feature_importances:
team_b_xg=83
team_a_xg=54
odds_ft_2=27
market_prob_btts_yes=17
rolling_xg_for_form_home=15
rolling_synth_goals_minus_xg_form_away=13
odds_ft_1=12
elo_diff=12
rolling_xg_for_form_away=10
rolling_xga_against_form_away=10
odds_ft_x=8
days_since_last_match_home=8
rolling_sot_against_form_home=8
rolling_fouls_against_form_home=8
market_prob_o25=8
market_prob_u25=8
home_matches_last_14d=7
rolling_da_for_form_home=7
rolling_fouls_for_form_away=7
team_b_xga=6
rolling_goals_scored_form_home=6
rolling_da_against_form_home=6
rolling_possession_form_away=6
rolling_da_against_form_away=6
rolling_synth_goals_per_shot_form_away=6
rolling_synth_xga_per_sot_conceded_form_away=6
days_since_last_match_away=5
rolling_shots_against_form_home=5
rolling_sot_for_form_away=5
rolling_corners_for_form_away=5
rolling_corners_against_form_away=5
rolling_fouls_against_form_away=5
rolling_synth_goals_per_sot_form_home=5
rolling_synth_xga_per_shot_conceded_form_home=5
rolling_synth_xga_per_sot_conceded_form_home=5
team_a_xga=4
rolling_goals_conceded_form_home=4
rolling_goals_scored_form_away=4
rolling_goals_conceded_form_away=4
rolling_shots_for_form_away=4
rolling_synth_sot_per_shot_ratio_form_away=4
pre_match_home_elo=4
pre_match_away_elo=4
rolling_xga_against_form_home=3
rolling_possession_form_home=3
rolling_sot_for_form_home=3
rolling_fouls_for_form_home=3
rolling_synth_goals_per_sot_form_away=3
rolling_synth_xga_per_shot_conceded_form_away=3
rolling_points_earned_form_home=2
rolling_corners_for_form_home=2
rolling_shots_against_form_away=2
rolling_sot_against_form_away=2
rolling_da_for_form_away=2
rolling_synth_goals_per_xg_ratio_form_away=2
elo_prob_home_win=2
home_matches_last_7d=1
away_matches_last_7d=1
rolling_shots_for_form_home=1
rolling_corners_against_form_home=1
rolling_synth_goals_minus_xg_form_home=1
rolling_synth_goals_per_xg_ratio_form_home=1
rolling_synth_goals_per_shot_form_home=1
rolling_synth_sot_per_shot_ratio_form_home=1
dynamic_league_quality=1
dynamic_league_tier_2=1

parameters:
[boosting: gbdt]
[objective: regression]
[metric: poisson,l2]
[tree_learner: serial]
[device_type: cpu]
[data_sample_strategy: bagging]
[data: ]
[valid: ]
[num_iterations: 112]
[learning_rate: 0.0893156]
[num_leaves: 209]
[num_threads: 2]
[seed: 0]
[deterministic: 0]
[force_col_wise: 0]
[force_row_wise: 0]
[histogram_pool_size: -1]
[max_depth: 3]
[min_data_in_leaf: 76]
[min_sum_hessian_in_leaf: 0.001]
[bagging_fraction: 0.877735]
[pos_bagging_fraction: 1]
[neg_bagging_fraction: 1]
[bagging_freq: 1]
[bagging_seed: 3]
[bagging_by_query: 0]
[feature_fraction: 0.994608]
[feature_fraction_bynode: 1]
[feature_fraction_seed: 2]
[extra_trees: 0]
[extra_seed: 6]
[early_stopping_round: 0]
[early_stopping_min_delta: 0]
[first_metric_only: 0]
[max_delta_step: 0]
[lambda_l1: 0.025301]
[lambda_l2: 2.65532e-05]
[linear_lambda: 0]
[min_gain_to_split: 0]
[drop_rate: 0.1]
[max_drop: 50]
[skip_drop: 0.5]
[xgboost_dart_mode: 0]
[uniform_drop: 0]
[drop_seed: 4]
[top_rate: 0.2]
[other_rate: 0.1]
[min_data_per_group: 100]
[max_cat_threshold: 32]
[cat_l2: 10]
[cat_smooth: 10]
[max_cat_to_onehot: 4]
[top_k: 20]
[monotone_constraints: ]
[monotone_constraints_method: basic]
[monotone_penalty: 0]
[feature_contri: ]
[forcedsplits_filename: ]
[refit_decay_rate: 0.9]
[cegb_tradeoff: 1]
[cegb_penalty_split: 0]
[cegb_penalty_feature_lazy: ]
[cegb_penalty_feature_coupled: ]
[path_smooth: 0]
[interaction_constraints: ]
[verbosity: 1]
[saved_feature_importance_type: 0]
[use_quantized_grad: 0]
[num_grad_quant_bins: 4]
[quant_train_renew_leaf: 0]
[stochastic_rounding: 1]
[linear_tree: 0]
[max_bin: 255]
[max_bin_by_feature: ]
[min_data_in_bin: 3]
[bin_construct_sample_cnt: 200000]
[data_random_seed: 1]
[is_enable_sparse: 1]
[enable_bundle: 1]
[use_missing: 1]
[zero_as_missing: 0]
[feature_pre_filter: 1]
[pre_partition: 0]
[two_round: 0]
[header: 0]
[label_column: ]
[weight_column: ]
[group_column: ]
[ignore_column: ]
[categorical_feature: ]
[forcedbins_filename: ]
[precise_float_parser: 0]
[parser_config_file: ]
[objective_seed: 5]
[num_class: 1]
[is_unbalance: 0]
[scale_pos_weight: 1]
[sigmoid: 1]
[boost_from_average: 1]
[reg_sqrt: 0]
[alpha: 0.9]
[fair_c: 1]
[poisson_max_delta_step: 0.7]
[tweedie_variance_power: 1.5]
[lambdarank_truncation_level: 30]
[lambdarank_norm: 1]
[label_gain: ]
[lambdarank_position_bias_regularization: 0]
[eval_at: ]
[multi_error_top_k: 1]
[auc_mu_weights: ]
[num_machines: 1]
[local_listen_port: 12400]
[time_out: 120]
[machine_list_filename: ]
[machines: ]
[gpu_platform_id: -1]
[gpu_device_id: -1]
[gpu_use_dp: 0]
[num_gpu: 1]

end of parameters

pandas_categorical:[]
