tree
version=v4
num_class=1
num_tree_per_iteration=1
label_index=0
max_feature_idx=85
objective=regression
feature_names=team_a_xg team_b_xg team_a_xga team_b_xga odds_ft_1 odds_ft_x odds_ft_2 rolling_goals_scored_form_home rolling_goals_conceded_form_home rolling_points_earned_form_home rolling_xg_for_form_home rolling_xga_against_form_home days_since_last_match_home rolling_goals_scored_form_away rolling_goals_conceded_form_away rolling_points_earned_form_away rolling_xg_for_form_away rolling_xga_against_form_away days_since_last_match_away home_matches_last_7d home_matches_last_14d away_matches_last_7d away_matches_last_14d home_rolling_xg_as_home home_rolling_xga_as_home home_rolling_goals_scored_as_home home_rolling_goals_conceded_as_home away_rolling_xg_as_away away_rolling_xga_as_away away_rolling_goals_scored_as_away away_rolling_goals_conceded_as_away rolling_possession_form_home rolling_shots_for_form_home rolling_shots_against_form_home rolling_sot_for_form_home rolling_sot_against_form_home rolling_corners_for_form_home rolling_corners_against_form_home rolling_fouls_for_form_home rolling_fouls_against_form_home rolling_da_for_form_home rolling_da_against_form_home rolling_possession_form_away rolling_shots_for_form_away rolling_shots_against_form_away rolling_sot_for_form_away rolling_sot_against_form_away rolling_corners_for_form_away rolling_corners_against_form_away rolling_fouls_for_form_away rolling_fouls_against_form_away rolling_da_for_form_away rolling_da_against_form_away market_prob_btts_yes market_prob_o25 market_prob_u25 rolling_synth_goals_minus_xg_form_home rolling_synth_goals_per_xg_ratio_form_home rolling_synth_goals_per_shot_form_home rolling_synth_goals_per_sot_form_home rolling_synth_sot_per_shot_ratio_form_home rolling_synth_goals_minus_xg_form_away rolling_synth_goals_per_xg_ratio_form_away rolling_synth_goals_per_shot_form_away rolling_synth_goals_per_sot_form_away rolling_synth_sot_per_shot_ratio_form_away rolling_synth_xga_per_shot_conceded_form_home rolling_synth_xga_per_sot_conceded_form_home rolling_synth_xga_per_shot_conceded_form_away rolling_synth_xga_per_sot_conceded_form_away pre_match_home_elo pre_match_away_elo elo_diff elo_prob_home_win dynamic_league_quality competition_type_cup competition_type_league dynamic_league_tier_0 dynamic_league_tier_1 dynamic_league_tier_2 dynamic_league_tier_3 dynamic_league_tier_4 dynamic_league_tier_5 dynamic_league_tier_6 dynamic_league_tier_7 dynamic_league_tier_8
feature_infos=[-2.7841682223243156:7.5594097902473631] [-2.6036568447047777:5.089421892587132] [-5.0009795721787009:7.0761317736714426] [-4.9559567370095241:7.62826284865608] [-1.4350071804009399:25.038310410711127] [-3.1724361544345729:16.633339210603008] [-1.1960554320388768:18.723177371960041] [-2.119286318854718:8.6747052184549371] [-2.3283361318670264:7.6311370782224524] [-1.9483943403560049:2.3414649930085276] [-4.474551411889566:7.5535626071358495] [-4.655228472232765:6.5532827062390764] [-0.27668276427073746:36.414038956951828] [-2.1243589924392778:8.3684410616727192] [-2.3054779239566665:9.5638134078797084] [-2.0041838418555997:2.2797874657523924] [-4.4296607984250338:13.08377203782414] [-4.5796633837948129:7.1306838608583423] [-0.25371133362733655:23.872261924380542] [-1.1167535977492922:2.1929930928675225] [-1.7243157455568066:2.8081047136081159] [-1.1283218636222627:2.2189919834857021] [-1.726367786324706:2.7805281648462841] [-4.474551411889566:7.5535626071358495] [-4.655228472232765:6.5532827062390764] [-2.119286318854718:8.6747052184549371] [-2.3283361318670264:7.6311370782224524] [-4.4296607984250338:13.08377203782414] [-4.5796633837948129:7.1306838608583423] [-2.1243589924392778:8.3684410616727192] [-2.3054779239566665:9.5638134078797084] [-3.4929662787842317:3.5588212386583873] [-3.702345539744099:4.9103591695950355] [-3.7099026537829491:6.4091259242315797] [-3.4956266942330654:5.8516623178118552] [-3.6811729090757028:7.5709631463796061] [-3.2828586122127188:6.2318713289994747] [-3.2934510475755254:7.2535660211924382] [-5.257031035274589:5.4715610157814192] [-5.2277325933099581:9.4362711829046795] [-3.9250187026751489:6.4851491899394027] [-4.2294342662015891:8.1719860667403452] [-3.911894007473236:3.4916213549149386] [-3.4288470968795002:9.8875619635145995] [-3.1080598091179144:7.0523704694907563] [-3.4694106869684727:10.360560536177577] [-3.6251696774702147:7.6448243597977088] [-3.312355396337118:5.2816081313947834] [-3.245574766507914:6.6893513827333768] [-5.2389836721483318:9.4572740154578021] [-5.211723660951793:5.2203114402764133] [-3.8883517391614557:10.234535508729548] [-4.1828992869319883:8.3035147311384581] [-5.6053918120953314:4.4229894372493685] [-3.1943643436422136:4.2641570116358505] [-4.1969576853495809:3.1949718921887764] [-4.4428826333032081:8.6276714072066039] [-2.3201116426974524:7.7634870131488336] [-2.0076249080682627:13.044132194046414] [-2.4191352189321438:8.8753025420423448] [-4.74188504824206:7.0046709548858139] [-6.4826186846633238:7.8762226273462712] [-2.3547924128172681:7.594994352123221] [-2.0528993338682793:10.225942575329205] [-2.472510016312226:8.9874195926730334] [-4.7869491999542255:7.0769805790602813] [-3.3068136405186217:21.325564518227157] [-3.6198275799945452:19.303745732382396] [-3.3029229771080018:17.673546072476451] [-3.6903415427813728:10.42824761226329] [-2.46077342122461:4.0306650701058988] [-2.4027458563367987:3.9935474558801185] [-3.5919786704522907:3.7359735953279287] [-2.9310246995386962:2.2204587124625714] [-1.5523263395135407:2.2615688161278955] [0:1] [0:1] [0:1] [0:1] [0:1] [0:1] [0:1] [0:1] [0:1] [0:1] [0:1]
tree_sizes=817 867 869 864 874 869 876 878 882 864 873 873 866 872 870 867 881 866 866 865 866 872 866 867 872 865 871 876 869 863 878 864 868 870 872 870 853 877 837 877 886 876 875 874 870 869 871 865 864 862 866 871 870 869 866 864 868 870 880 867 864 874 867 859 875 881 885 872 857 866 847 866 864 881 871 878 863 843 756 865 758 758 758 777 866 866 788 881 790 780 861 783 875 875 881 883 774 779 778 778 599 612 603 605 848 774 776 876 888 861 888 868 800 782 888 786 781 880 878 860 753 880 788 785 890 785 892 849 865 866 843 870

Tree=0
num_leaves=8
num_cat=0
split_feature=1 6 1 1 6 6 6
split_gain=1356.51 432.874 151.423 101.016 90.6302 58.6854 55.429
threshold=-0.075368819789149902 -0.66819576273290515 -0.72465679505931113 1.5773642081712604 -0.4035545269083482 -0.38648089879063485 -0.70234301896833184
decision_type=2 2 2 2 2 2 2
left_child=2 3 6 -2 -3 -4 -1
right_child=1 4 5 -5 -6 -7 -8
leaf_value=1.2637451866733893 1.269316939964668 1.2582428692140513 1.2452126519413149 1.2920000359512434 1.2475756414534196 1.2344605188352711 1.2251874190221239
leaf_weight=35 634 1333 702 280 1816 1513 1858
leaf_count=35 634 1333 702 280 1816 1513 1858
internal_value=1.24489 1.25757 1.23237 1.27632 1.25211 1.23789 1.22593
internal_weight=8171 4063 4108 914 3149 2215 1893
internal_count=8171 4063 4108 914 3149 2215 1893
is_linear=0
shrinkage=1


Tree=1
num_leaves=8
num_cat=0
split_feature=1 6 1 1 6 6 6
split_gain=1273.99 406.515 142.8 95.4023 85.0863 64.3143 40.2064
threshold=-0.075368819789149902 -0.66819576273290515 -0.92141072695935988 1.7544427468813044 -0.4035545269083482 -0.37509848004549257 -0.69949741428204637
decision_type=2 2 2 2 2 2 2
left_child=2 3 6 -2 -3 -4 -1
right_child=1 4 5 -5 -6 -7 -8
leaf_value=0.020397604133699558 0.024866191268623366 0.013295693943245991 -0.00062983415716447633 0.048292638773754511 0.0029583649732006579 -0.01089246021093356 -0.020592625563043351
leaf_weight=22 684 1333 868 230 1816 1858 1360
leaf_count=22 684 1333 868 230 1816 1858 1360
internal_value=0.000357534 0.0126428 -0.0117805 0.0308183 0.00735082 -0.00764383 -0.0199023
internal_weight=8171 4063 4108 914 3149 2726 1382
internal_count=8171 4063 4108 914 3149 2726 1382
is_linear=0
shrinkage=0.0309264


Tree=2
num_leaves=8
num_cat=0
split_feature=1 4 1 1 53 4 0
split_gain=1196.57 376.499 135.147 100.697 74.4421 44.8912 37.0306
threshold=-0.075368819789149902 0.61667493291024555 -0.72465679505931113 1.6954165673112898 0.43530942822304247 -0.21458723945067351 -2.3043115104008867
decision_type=2 2 2 2 2 2 2
left_child=2 4 6 -3 -2 -4 -1
right_child=1 3 5 -5 -6 -7 -8
leaf_value=0.011143430492341127 0.0031180351709293648 0.023081876556654377 -0.0095781726492740488 0.046184266682144426 0.012926741377251697 -0.00039642976915931058 -0.018146001513699321
leaf_weight=40 1874 690 1393 255 1244 822 1853
leaf_count=40 1874 690 1393 255 1244 822 1853
internal_value=0.000346674 0.012253 -0.0114166 0.0293711 0.00704819 -0.00619433 -0.0174995
internal_weight=8171 4063 4108 945 3118 2215 1893
internal_count=8171 4063 4108 945 3118 2215 1893
is_linear=0
shrinkage=0.0309264


Tree=3
num_leaves=8
num_cat=0
split_feature=1 4 1 1 4 4 1
split_gain=1123.86 353.57 127.879 94.4688 66.311 49.7593 36.0091
threshold=-0.075368819789149902 0.61667493291024555 -0.92141072695935988 1.6954165673112898 -0.04515800686755625 -0.21458723945067351 -2.5347929685397599
decision_type=2 2 2 2 2 2 2
left_child=2 4 6 -3 -2 -4 -1
right_child=1 3 5 -5 -6 -7 -8
leaf_value=0.0096608042576512981 0.003526455175765086 0.022368035702342113 -0.010250793153299373 0.044755951211604673 0.013070723237213642 -0.001449287273093481 -0.019614605612349036
leaf_weight=39 2044 690 1759 255 1074 967 1343
leaf_count=39 2044 690 1759 255 1074 967 1343
internal_value=0.00033615 0.0118753 -0.0110639 0.0284644 0.00683073 -0.00714776 -0.0187507
internal_weight=8171 4063 4108 945 3118 2726 1382
internal_count=8171 4063 4108 945 3118 2726 1382
is_linear=0
shrinkage=0.0309264


Tree=4
num_leaves=8
num_cat=0
split_feature=1 6 1 55 6 6 6
split_gain=991.18 347.462 165.602 76.7879 56.5418 42.0795 39.9418
threshold=0.10170971892089398 -0.59136443620319512 -0.64595522229929148 -0.2938666048177907 -0.37794408473177815 -0.44908420188891712 -0.37509848004549257
decision_type=2 2 2 2 2 2 2
left_child=2 3 5 -2 -4 -1 -3
right_child=1 6 4 -5 -6 -7 -8
leaf_value=-0.0048482713515050875 0.032898454869773198 0.01024543306330711 0.0021580868758701369 0.016632385190239421 -0.0073317687085259478 -0.017257018342334271 0.0017944303696753616
leaf_weight=318 690 938 932 494 1653 1874 1288
leaf_count=318 690 938 932 494 1653 1874 1288
internal_value=-0.000121552 0.0126083 -0.00921952 0.0261558 -0.00389009 -0.0154807 0.00537899
internal_weight=8187 3410 4777 1184 2585 2192 2226
internal_count=8187 3410 4777 1184 2585 2192 2226
is_linear=0
shrinkage=0.0309264


Tree=5
num_leaves=8
num_cat=0
split_feature=1 71 1 1 1 72 1
split_gain=932.876 222.167 179.142 81.5791 50.9025 47.424 39.0562
threshold=0.20008668487091827 0.52295926014408267 -0.64595522229929148 1.6954165673112898 1.5183380286012458 -0.56287245381571538 -1.1575154452394183
decision_type=2 2 2 2 2 2 2
left_child=2 4 6 -3 -2 -4 -1
right_child=1 3 5 -5 -6 -7 -8
leaf_value=-0.020263233861480455 0.0048150472257632781 0.019529554686110808 0.004754703166760293 0.039722606723802283 0.018559678523291389 -0.0052093777665996486 -0.011618876363827796
leaf_weight=852 1703 865 565 256 309 2297 1340
leaf_count=852 1703 865 565 256 309 2297 1340
internal_value=-0.000117201 0.0131355 -0.00834295 0.0241875 0.00695187 -0.00322409 -0.0150026
internal_weight=8187 3133 5054 1121 2012 2862 2192
internal_count=8187 3133 5054 1121 2012 2862 2192
is_linear=0
shrinkage=0.0309264


Tree=6
num_leaves=8
num_cat=0
split_feature=1 6 1 55 6 6 1
split_gain=876.278 313.891 145.612 70.467 51.5718 39.6092 36.7418
threshold=0.10170971892089398 -0.59136443620319512 -0.64595522229929148 -0.2938666048177907 -0.37794408473177815 -0.36371606130035034 0.57391915548101147
decision_type=2 2 2 2 2 2 2
left_child=2 3 5 -2 -4 -1 -3
right_child=1 6 4 -5 -6 -7 -8
leaf_value=-0.0062088524350898426 0.031193468492600941 0.00055625666833838472 0.0021059800655988574 0.015602779358869801 -0.0069560337306172866 -0.01667943377233139 0.0085977925938580824
leaf_weight=453 690 1007 932 494 1653 1739 1219
leaf_count=453 690 1007 932 494 1653 1739 1219
internal_value=-0.000112985 0.0118559 -0.00866776 0.0247326 -0.00366861 -0.0145394 0.0049834
internal_weight=8187 3410 4777 1184 2585 2192 2226
internal_count=8187 3410 4777 1184 2585 2192 2226
is_linear=0
shrinkage=0.0309264


Tree=7
num_leaves=8
num_cat=0
split_feature=1 6 1 54 6 53 6
split_gain=823.921 258.198 157.795 67.1732 66.0852 48.9477 37.2979
threshold=0.20008668487091827 -0.59136443620319512 -0.64595522229929148 0.23076975817432213 -0.55721717996776832 -0.54497625199124744 -0.44908420188891712
decision_type=2 2 2 2 2 2 2
left_child=2 3 6 -2 -4 -3 -1
right_child=1 5 4 -5 -6 -7 -8
leaf_value=-0.0040738433390066992 0.014443060542276967 -0.0024463515405362462 0.0074032043341478535 0.030180283512525306 -0.0051539973568589751 0.0085035862759791272 -0.01576234908630806
leaf_weight=318 440 522 479 696 2383 1475 1874
leaf_count=318 440 522 479 696 2383 1475 1874
internal_value=-0.000108899 0.0123455 -0.00783976 0.0241308 -0.00303412 0.00561523 -0.0140905
internal_weight=8187 3133 5054 1136 2862 1997 2192
internal_count=8187 3133 5054 1136 2862 1997 2192
is_linear=0
shrinkage=0.0309264


Tree=8
num_leaves=8
num_cat=0
split_feature=4 4 53 4 4 53 4
split_gain=642.466 149.597 99.3454 59.0095 42.2202 29.9503 16.7941
threshold=-0.039863343349333828 0.63255892346491283 0.32201058001944816 3.883482323653475 -0.60639233979913187 -0.30647619594404779 -0.49520440591646137
decision_type=2 2 2 2 2 2 2
left_child=2 5 4 -3 -1 -2 -4
right_child=1 3 6 -5 -6 -7 -8
leaf_value=-0.013673535083728485 -0.00085913248973305909 0.018920995967470846 -0.0048797078830857491 0.046571873818844235 -0.0066296681003371969 0.0086567586163238536 0.0016104011386366254
leaf_weight=1264 412 1009 536 83 2442 1238 1314
leaf_count=1264 412 1009 536 83 2442 1238 1314
internal_value=-7.23563e-05 0.0121707 -0.00612395 0.0210705 -0.00904619 0.00624904 -0.000241767
internal_weight=8298 2742 5556 1092 3706 1650 1850
internal_count=8298 2742 5556 1092 3706 1650 1850
is_linear=0
shrinkage=0.0309264


Tree=9
num_leaves=8
num_cat=0
split_feature=1 6 1 1 6 1 1
split_gain=760.408 217.821 146.475 99.1049 58.0756 46.5719 46.3806
threshold=0.10170971892089398 -0.61982048306605075 -0.58692904272927682 2.1085998243013924 -0.38363529410434932 2.4037307221514657 -1.1378400520494134
decision_type=2 2 2 2 2 2 2
left_child=2 3 6 -2 -4 -3 -1
right_child=1 5 4 -5 -6 -7 -8
leaf_value=-0.019058347111486969 0.018697203558794742 0.005201861931455754 0.0038088842835620413 0.045858634829137462 -0.0061617905077431239 0.038280611401978186 -0.010041087610766591
leaf_weight=883 909 2346 869 154 1544 42 1551
leaf_count=883 909 2346 869 154 1544 42 1551
internal_value=-6.9924e-05 0.0110188 -0.00797572 0.0226813 -0.0025494 0.0058055 -0.0133338
internal_weight=8298 3451 4847 1063 2413 2388 2434
internal_count=8298 3451 4847 1063 2413 2388 2434
is_linear=0
shrinkage=0.0309264


Tree=10
num_leaves=8
num_cat=0
split_feature=1 1 1 6 6 6 72
split_gain=715.477 235.491 109.083 86.1415 84.4878 56.4583 22.3012
threshold=-0.075368819789149902 1.3609348830812065 -1.0591384792893939 -0.54298915653634061 -0.37794408473177815 -0.38363529410434932 -0.94127870298179683
decision_type=2 2 2 2 2 2 2
left_child=2 4 6 -3 -2 -4 -1
right_child=1 3 5 -5 -6 -7 -8
leaf_value=0.0045877277671864895 0.010267870863689457 0.03314648113444265 0.00018878465124657061 0.011325319601407773 0.00032232595609411787 -0.008762147543616039 -0.018478482249824152
leaf_weight=38 1758 464 949 290 1547 2234 1018
leaf_count=38 1758 464 949 290 1547 2234 1018
internal_value=-6.7178e-05 0.00920681 -0.00895967 0.0248229 0.00562836 -0.00607706 -0.017599
internal_weight=8298 4059 4239 754 3305 3183 1056
internal_count=8298 4059 4239 754 3305 3183 1056
is_linear=0
shrinkage=0.0309264


Tree=11
num_leaves=8
num_cat=0
split_feature=6 4 5 6 55 55 6
split_gain=559.658 168.506 62.9561 45.9999 37.5762 27.0113 8.52609
threshold=-0.37509848004549257 0.63255892346491283 2.1315504883224921 0.39890599462417969 0.089343446592814832 -1.3526847822971164 1.3664115879612704
decision_type=2 2 2 2 2 2 2
left_child=1 5 -3 4 -2 -1 -5
right_child=3 2 -4 6 -6 -7 -8
leaf_value=0.025763320706537942 -0.00063057994049511205 0.017798014541090919 0.055382479927276726 -0.0093739703118674578 -0.0074653948734742393 0.0041965336288188491 -0.014476678531634949
leaf_weight=58 1263 1045 46 892 2041 2352 601
leaf_count=58 1263 1045 46 892 2041 2352 601
internal_value=-6.41278e-05 0.00933093 0.0194305 -0.00693182 -0.00486849 0.00473722 -0.011463
internal_weight=8298 3501 1091 4797 3304 2410 1493
internal_count=8298 3501 1091 4797 3304 2410 1493
is_linear=0
shrinkage=0.0309264


Tree=12
num_leaves=8
num_cat=0
split_feature=4 4 4 53 54 4 65
split_gain=509.811 130.865 95.6123 54.743 44.6455 32.5553 25.579
threshold=0.57961228828268863 -0.35224849092445626 3.0892827959201128 -0.1571031456131555 -0.068569253946777903 -0.050452670385778671 -0.18157739288493738
decision_type=2 2 2 2 2 2 2
left_child=1 3 4 -1 -2 -3 -4
right_child=2 5 6 -5 -6 -7 -8
leaf_value=-0.011192748832847895 0.00557853208596656 -0.0015593401949328366 0.021014600853607179 -0.0032549469929812093 0.019888967287954831 0.0043343202787946107 0.04902348220985471
leaf_weight=1755 319 1997 53 1623 672 1616 118
leaf_count=1755 319 1997 53 1623 672 1616 118
internal_value=0.000129998 -0.00301645 0.019105 -0.00739439 0.0153351 0.0010623 0.0406476
internal_weight=8153 6991 1162 3378 991 3613 171
internal_count=8153 6991 1162 3378 991 3613 171
is_linear=0
shrinkage=0.0309264


Tree=13
num_leaves=8
num_cat=0
split_feature=4 4 5 53 4 54 2
split_gain=478.962 123.375 89.8699 47.9546 35.2359 32.8763 21.4866
threshold=0.57961228828268863 -0.39990046258845796 0.677806576528733 -0.1571031456131555 -0.050452670385778671 -0.068569253946777903 -0.35005833447523044
decision_type=2 2 2 2 2 2 2
left_child=1 3 5 -1 -3 -2 -4
right_child=2 4 6 -5 -6 -7 -8
leaf_value=-0.011221958125130499 0.0054189016467842991 -0.0017420757603558452 0.011580520931683306 -0.0033894659491676411 0.0042002753622386825 0.018116664195041137 0.037873595614507288
leaf_weight=1631 317 2319 41 1425 1616 571 233
leaf_count=1631 317 2319 41 1425 1616 571 233
internal_value=0.000126176 -0.00292339 0.0185183 -0.00758678 0.000685028 0.0136426 0.0341297
internal_weight=8153 6991 1162 3056 3935 888 274
internal_count=8153 6991 1162 3056 3935 888 274
is_linear=0
shrinkage=0.0309264


Tree=14
num_leaves=8
num_cat=0
split_feature=1 6 1 1 53 1 53
split_gain=604.592 169.365 143.218 93.1299 48.2097 33.9635 22.0917
threshold=0.31813904401094767 -0.66250455336033409 -0.40985050401923273 2.0692490379213826 0.26633509569214603 -1.1181646588594085 0.26633509569214603
decision_type=2 2 2 2 2 2 2
left_child=2 3 5 -2 -3 -1 -4
right_child=1 4 6 -5 -6 -7 -8
leaf_value=-0.015514230783681089 0.018359519402240652 0.0025735608186442513 -0.0026724432738653614 0.044756719813328488 0.012308598555587941 -0.0082205754292252239 0.003402022743621033
leaf_weight=913 617 1089 1489 167 905 2045 928
leaf_count=913 617 1089 1489 167 905 2045 928
internal_value=0.000122472 0.0118433 -0.00592557 0.024049 0.00701809 -0.0104894 -0.000318578
internal_weight=8153 2778 5375 784 1994 2958 2417
internal_count=8153 2778 5375 784 1994 2958 2417
is_linear=0
shrinkage=0.0309264


Tree=15
num_leaves=8
num_cat=0
split_feature=1 6 1 1 45 1 43
split_gain=567.91 159.037 134.51 87.7894 36.9066 31.861 21.9382
threshold=0.31813904401094767 -0.66250455336033409 -0.40985050401923273 2.1873013970614119 0.2899267288470207 -1.1181646588594085 0.85822133021676394
decision_type=2 2 2 2 2 2 2
left_child=2 3 5 -2 -3 -1 -4
right_child=1 4 6 -5 -6 -7 -8
leaf_value=-0.015034431084860259 0.018240131920022936 0.0035984266091007564 -0.0015952678619262695 0.04527769938183715 0.012459201349248845 -0.0079663423385586424 0.0065187874269569124
leaf_weight=913 639 1279 2040 145 715 2045 377
leaf_count=913 639 1279 2040 145 715 2045 377
internal_value=0.000118882 0.0114788 -0.00574262 0.0233073 0.00680186 -0.0101656 -0.000308058
internal_weight=8153 2778 5375 784 1994 2958 2417
internal_count=8153 2778 5375 784 1994 2958 2417
is_linear=0
shrinkage=0.0309264


Tree=16
num_leaves=8
num_cat=0
split_feature=6 55 6 73 42 49 67
split_gain=449.448 116.566 66.8707 50.1764 37.7245 18.9859 9.35248
threshold=-0.4718490393792017 -0.50670749344936705 0.3718727501044668 -2.2450070496224783 -0.07375578012989259 0.26161563378424996 -0.050904327793470136
decision_type=2 2 2 2 2 2 2
left_child=1 3 5 -1 -3 -2 -4
right_child=2 4 6 -5 -6 -7 -8
leaf_value=0.037946737689879911 -0.00081222730105917965 -0.00062771528253234826 -0.0081293784834549666 0.017061233443946035 0.0093444723276001253 -0.0051629180775081759 -0.013424641119277088
leaf_weight=138 2428 502 907 688 1225 1625 589
leaf_count=138 2428 502 907 688 1225 1625 589
internal_value=0.000284842 0.0110297 -0.00464928 0.0206138 0.00641556 -0.00256946 -0.0102491
internal_weight=8102 2553 5549 826 1727 4053 1496
internal_count=8102 2553 5549 826 1727 4053 1496
is_linear=0
shrinkage=0.0309264


Tree=17
num_leaves=8
num_cat=0
split_feature=1 1 1 72 71 6 6
split_gain=509.859 174.517 97.9593 60.1453 49.8031 46.3896 24.2645
threshold=0.10170971892089398 1.5970396013612653 -1.039463086099389 -1.5029145402136637 0.26710715277269487 -0.35517924724149369 -0.71372543771347419
decision_type=2 2 2 2 2 2 2
left_child=2 3 6 -2 -3 -4 -1
right_child=1 4 5 -5 -6 -7 -8
leaf_value=0.019858474416099857 0.019409658630652755 0.013541599328002533 0.00083649531762117614 0.004666794563045128 0.032763867786173448 -0.0064706105652102509 -0.0151467318796296
leaf_weight=18 299 228 1274 2553 337 2328 1065
leaf_count=18 299 228 1274 2553 337 2328 1065
internal_value=0.000275436 0.0093659 -0.00634355 0.00623072 0.0250993 -0.00387165 -0.0145167
internal_weight=8102 3417 4685 2852 565 3602 1083
internal_count=8102 3417 4685 2852 565 3602 1083
is_linear=0
shrinkage=0.0309264


Tree=18
num_leaves=8
num_cat=0
split_feature=1 1 1 6 71 6 6
split_gain=478.879 163.9 91.9545 56.5095 46.6882 43.5773 22.8344
threshold=0.10170971892089398 1.5970396013612653 -1.039463086099389 -0.66250455336033409 0.26710715277269487 -0.35517924724149369 -0.71372543771347419
decision_type=2 2 2 2 2 2 2
left_child=2 3 6 -2 -3 -4 -1
right_child=1 4 5 -5 -6 -7 -8
leaf_value=0.019244322706619969 0.014548083317984706 0.013122805787999499 0.0008106254978705648 0.0037721559908065164 0.031750598193715479 -0.006270497614825921 -0.014678297534741779
leaf_weight=18 595 228 1274 2257 337 2328 1065
leaf_count=18 595 228 1274 2257 337 2328 1065
internal_value=0.000267515 0.00907766 -0.00614702 0.00603859 0.0243259 -0.00375147 -0.0140663
internal_weight=8102 3417 4685 2852 565 3602 1083
internal_count=8102 3417 4685 2852 565 3602 1083
is_linear=0
shrinkage=0.0309264


Tree=19
num_leaves=8
num_cat=0
split_feature=1 1 1 72 55 4 0
split_gain=449.784 153.929 86.3167 54.3951 45.231 37.0776 20.6874
threshold=0.10170971892089398 1.5970396013612653 -1.039463086099389 -1.5029145402136637 -0.34860077330225631 -0.061041997422223507 -1.8511135046954268
decision_type=2 2 2 2 2 2 2
left_child=2 3 6 -2 -3 -4 -1
right_child=1 4 5 -5 -6 -7 -8
leaf_value=0.0085274413818722753 0.018387331365879951 0.031759758203438564 -0.0054413122038780987 0.0043639055759536853 0.013706649057471798 0.0017861696575861086 -0.014441485873218567
leaf_weight=36 299 306 2709 2553 259 893 1047
leaf_count=36 299 306 2709 2553 259 893 1047
internal_value=0.000259839 0.00879834 -0.00595657 0.0058524 0.0235765 -0.003635 -0.0136298
internal_weight=8102 3417 4685 2852 565 3602 1083
internal_count=8102 3417 4685 2852 565 3602 1083
is_linear=0
shrinkage=0.0309264


Tree=20
num_leaves=8
num_cat=0
split_feature=1 1 6 1 6 6 52
split_gain=424.52 145.731 63.8448 48.3382 43.248 35.4928 22.767
threshold=-0.055693426599145016 1.5773642081712604 -0.5600627846540539 -1.1378400520494134 -0.37509848004549257 -0.8446232532826099 0.031265444166787476
decision_type=2 2 2 2 2 2 2
left_child=2 4 6 -4 -2 -3 -1
right_child=1 5 3 -5 -6 -7 -8
leaf_value=0.0088476345693749379 0.0080176072167995396 0.05307533937119191 -0.014513270510639342 -0.0060832517809966315 0.0010202452921914172 0.019474689730452844 -0.0066152205750032384
leaf_weight=317 1878 34 852 2974 1570 559 124
leaf_count=317 1878 34 852 2974 1570 559 124
internal_value=0.000111876 0.00730174 -0.00668495 -0.00797415 0.00484659 0.0214892 0.00438146
internal_weight=8308 4041 4267 3826 3448 593 441
internal_count=8308 4041 4267 3826 3448 593 441
is_linear=0
shrinkage=0.0309264


Tree=21
num_leaves=8
num_cat=0
split_feature=1 1 1 6 54 6 6
split_gain=398.761 136.871 60.2941 40.9672 40.4585 33.7337 23.481
threshold=-0.055693426599145016 1.5773642081712604 -0.58692904272927682 -0.2698111066529269 1.2180464345965594 -0.5600627846540539 -0.71941664708604536
decision_type=2 2 2 2 2 2 2
left_child=2 3 6 -2 -3 -4 -1
right_child=1 4 5 -5 -6 -7 -8
leaf_value=0.013800229021017433 0.0070820383101679717 0.016427346275738035 0.0077787359110178386 -2.3041401442082161e-05 0.036721092947952991 -0.0040100279556080868 -0.010144105220980597
leaf_weight=38 2298 467 269 1150 126 1607 2353
leaf_count=38 2298 467 269 1150 126 1607 2353
internal_value=0.00010861 0.00707712 -0.00647858 0.00469717 0.0208273 -0.00229182 -0.00974173
internal_weight=8308 4041 4267 3448 593 1876 2391
internal_count=8308 4041 4267 3448 593 1876 2391
is_linear=0
shrinkage=0.0309264


Tree=22
num_leaves=8
num_cat=0
split_feature=1 1 6 1 13 54 52
split_gain=374.48 128.565 56.7784 44.2417 40.0496 37.9266 21.139
threshold=-0.055693426599145016 1.5773642081712604 -0.5600627846540539 -1.1378400520494134 0.164165916649925 1.2180464345965594 0.031265444166787476
decision_type=2 2 2 2 2 2 2
left_child=2 4 6 -4 -2 -3 -1
right_child=1 5 3 -5 -6 -7 -8
leaf_value=0.0084609460505020613 0.0017585070845856448 0.015919307091174447 -0.01375070590276059 -0.0056839045690298476 0.0085851832627181577 0.035585440699651111 -0.0064352444774663699
leaf_weight=317 2045 467 852 2974 1403 126 124
leaf_count=317 2045 467 852 2974 1403 126 124
internal_value=0.000105446 0.00685865 -0.00627785 -0.00749392 0.00455143 0.020186 0.00415411
internal_weight=8308 4041 4267 3826 3448 593 441
internal_count=8308 4041 4267 3826 3448 593 441
is_linear=0
shrinkage=0.0309264


Tree=23
num_leaves=8
num_cat=0
split_feature=1 1 1 6 54 4 6
split_gain=351.763 120.75 54.8061 38.3836 35.551 29.98 21.3084
threshold=-0.055693426599145016 1.5773642081712604 -0.58692904272927682 -0.66819576273290515 1.2180464345965594 0.076619254051559268 -0.71941664708604536
decision_type=2 2 2 2 2 2 2
left_child=2 3 6 -2 -3 -4 -1
right_child=1 4 5 -5 -6 -7 -8
leaf_value=0.013208756595293386 0.011450026525889383 0.015426979731859233 -0.0039314283664670822 0.0028677197064594668 0.034484910110624878 0.0062492440138934117 -0.0095791948966136749
leaf_weight=38 614 467 1542 2834 126 334 2353
leaf_count=38 614 467 1542 2834 126 334 2353
internal_value=0.000102379 0.00664773 -0.00608407 0.00441114 0.0195644 -0.00209106 -0.0091952
internal_weight=8308 4041 4267 3448 593 1876 2391
internal_count=8308 4041 4267 3448 593 1876 2391
is_linear=0
shrinkage=0.0309264


Tree=24
num_leaves=8
num_cat=0
split_feature=1 54 1 1 0 42 54
split_gain=409.304 100.938 89.0585 59.1494 28.3412 27.3557 25.1772
threshold=0.31813904401094767 1.0000000180025095e-35 -0.40985050401923273 2.7578877995715536 -2.1177005668751092 1.1883054643941739 -0.85378496060421827
decision_type=2 2 2 2 2 2 2
left_child=2 6 4 -3 -1 -4 -2
right_child=1 3 5 -5 -6 -7 -8
leaf_value=0.015918938382789159 -0.001462882559581742 0.014339332826894096 -0.0012020787618311274 0.042787218390239169 -0.0084262622987146471 0.0093886959722835322 0.0071962097797387443
leaf_weight=45 488 1351 2190 76 2924 261 892
leaf_count=45 488 1351 2190 76 2924 261 892
internal_value=0.000519928 0.010111 -0.00443763 0.015891 -0.00803969 -5.30053e-05 0.00409634
internal_weight=8227 2807 5420 1427 2969 2451 1380
internal_count=8227 2807 5420 1427 2969 2451 1380
is_linear=0
shrinkage=0.0309264


Tree=25
num_leaves=8
num_cat=0
split_feature=1 1 1 5 55 0 6
split_gain=384.395 92.3523 83.6232 54.7044 44.2236 26.6416 25.7951
threshold=0.31813904401094767 1.2822333103211871 -0.40985050401923273 1.5849110882474544 0.31769778246804731 -2.1177005668751092 -0.77348313612547093
decision_type=2 2 2 2 2 2 2
left_child=2 4 5 -3 -2 -1 -4
right_child=1 3 6 -5 -6 -7 -8
leaf_value=0.015426622298006606 0.0096891536704443275 0.016116554704621592 0.017907160805207517 0.049407242413223862 2.5736013695620352e-06 -0.0081656679874927453 -0.00063172110441424908
leaf_weight=45 1185 825 74 52 745 2924 2377
leaf_count=45 1185 825 74 52 745 2924 2377
internal_value=0.000504044 0.00979888 -0.00430009 0.01815 0.00597707 -0.00779051 -5.07076e-05
internal_weight=8227 2807 5420 877 1930 2969 2451
internal_count=8227 2807 5420 877 1930 2969 2451
is_linear=0
shrinkage=0.0309264


Tree=26
num_leaves=8
num_cat=0
split_feature=6 53 5 71 6 0 4
split_gain=282.469 75.6212 67.9315 41.9666 26.0277 24.0659 21.6623
threshold=-0.59136443620319512 -0.1571031456131555 1.4264648853271535 0.3000616537654231 -0.37509848004549257 -0.57149560623295137 -0.36813248147912347
decision_type=2 2 2 2 2 2 2
left_child=2 6 3 -1 -3 -4 -2
right_child=1 4 5 -5 -6 -7 -8
leaf_value=0.0013858228220001107 -0.0083300425807946287 0.004272888846732271 0.04474654166051046 0.013087137631587134 -0.0012777634202285702 0.012536829731288519 -0.0029213199780706769
leaf_weight=407 1710 1230 79 1153 2337 38 1273
leaf_count=407 1710 1230 79 1153 2337 38 1273
internal_value=0.000489045 -0.00240395 0.0118196 0.0100677 0.000621624 0.0347313 -0.00603936
internal_weight=8227 6550 1677 1560 3567 117 2983
internal_count=8227 6550 1677 1560 3567 117 2983
is_linear=0
shrinkage=0.0309264


Tree=27
num_leaves=8
num_cat=0
split_feature=1 54 1 1 0 42 0
split_gain=351.589 87.6103 76.7432 54.1122 24.6758 24.3328 24.2745
threshold=0.31813904401094767 1.0000000180025095e-35 -0.40985050401923273 2.1873013970614119 -2.1177005668751092 1.1883054643941739 0.63703240898160896
decision_type=2 2 2 2 2 2 2
left_child=2 6 4 -3 -1 -4 -2
right_child=1 3 5 -5 -6 -7 -8
leaf_value=0.014866848082267022 0.0022212540354531792 0.012427987518648528 -0.0011333578520019232 0.031058512008744613 -0.0078254306387224009 0.0088550728750084913 0.015140097178423685
leaf_weight=45 1220 1252 2190 175 2924 261 160
leaf_count=45 1220 1252 2190 175 2924 261 160
internal_value=0.000474116 0.00936373 -0.00412016 0.0147493 -0.00746392 -4.84263e-05 0.00375691
internal_weight=8227 2807 5420 1427 2969 2451 1380
internal_count=8227 2807 5420 1427 2969 2451 1380
is_linear=0
shrinkage=0.0309264


Tree=28
num_leaves=8
num_cat=0
split_feature=1 6 44 1 65 72 13
split_gain=355.875 93.2863 44.1861 43.0606 33.195 21.4423 15.8397
threshold=-0.036018033409140116 -0.79055676424318433 -0.93867064152308977 -1.039463086099389 -0.19770653978072358 -1.0740765353004968 1.7638758313731024
decision_type=2 2 2 2 2 2 2
left_child=3 4 -3 6 -2 -5 -1
right_child=1 2 -4 5 -6 -7 -8
leaf_value=-0.011703129215090861 0.0078498696181351756 0.013303144645498218 0.0040366601267950624 0.0052823341175376971 0.030051683361916656 -0.0046826759606253682 0.010934495897972775
leaf_weight=1091 102 596 3063 217 216 2991 28
leaf_count=1091 102 596 3063 217 216 2991 28
internal_value=0.000291403 0.00697545 0.0055603 -0.00583993 0.0230945 -0.00399234 -0.01109
internal_weight=8304 3977 3659 4327 318 3208 1119
internal_count=8304 3977 3659 4327 318 3208 1119
is_linear=0
shrinkage=0.0309264


Tree=29
num_leaves=8
num_cat=0
split_feature=1 4 44 1 1 6 6
split_gain=334.25 88.7 53.9422 40.7827 31.1652 22.5051 14.095
threshold=-0.036018033409140116 3.0892827959201128 -0.93867064152308977 -0.92141072695935988 2.7972385859515634 -0.55721717996776832 -0.70234301896833184
decision_type=2 2 2 2 2 2 2
left_child=3 2 -2 6 -3 -5 -1
right_child=1 4 -4 5 -6 -7 -8
leaf_value=0.015410148758256787 0.013837677417017471 0.023751798945653151 0.0040693640424878351 0.0032751715248986895 0.068971022158580864 -0.0046150765082092222 -0.01034895855817209
leaf_weight=19 662 148 3149 393 18 2511 1404
leaf_count=19 662 148 3149 393 18 2511 1404
internal_value=0.000282974 0.00676094 0.00577989 -0.00565895 0.0289695 -0.00352931 -0.00996835
internal_weight=8304 3977 3811 4327 166 2904 1423
internal_count=8304 3977 3811 4327 166 2904 1423
is_linear=0
shrinkage=0.0309264


Tree=30
num_leaves=8
num_cat=0
split_feature=6 6 53 54 0 18 0
split_gain=226.717 88.6438 43.2521 24.7499 23.6184 11.8102 9.75625
threshold=-0.40640013159463378 -0.78486555487061316 0.15687682406581704 1.0667531513716886 -0.42931583973712062 -0.23905399871967684 0.81475711710139731
decision_type=2 2 2 2 2 2 2
left_child=1 3 6 -1 -3 -4 -2
right_child=2 4 5 -5 -6 -7 -8
leaf_value=0.011922472065133506 -0.0070774675197741305 0.0019494981447309378 0.013665104582923433 0.02812096649967193 0.0076662953566337773 -0.00050642092328704387 -0.0031737278681258714
leaf_weight=189 2283 1446 58 205 1381 1827 915
leaf_count=189 2283 1446 58 205 1381 1827 915
internal_value=0.000274806 0.00670004 -0.00378648 0.0204831 0.00476063 -4.26886e-05 -0.00597686
internal_weight=8304 3221 5083 394 2827 1885 3198
internal_count=8304 3221 5083 394 2827 1885 3198
is_linear=0
shrinkage=0.0309264


Tree=31
num_leaves=8
num_cat=0
split_feature=1 4 44 1 1 42 13
split_gain=307.393 78.5718 49.7427 37.9058 29.1913 18.5613 14.4154
threshold=-0.036018033409140116 3.0892827959201128 -0.93867064152308977 -1.039463086099389 2.7972385859515634 1.1883054643941739 1.7638758313731024
decision_type=2 2 2 2 2 2 2
left_child=3 2 -2 6 -3 -5 -1
right_child=1 4 -4 5 -6 -7 -8
leaf_value=-0.010945001226024334 0.013293705245352509 0.022325656818328616 0.0039110563595512781 -0.0044195273736921852 0.066107469074875663 0.0039467628223716468 0.010627147213163742
leaf_weight=1091 662 148 3149 2937 18 271 28
leaf_count=1091 662 148 3149 2937 18 271 28
internal_value=0.000266501 0.00647901 0.00555459 -0.00543144 0.0273875 -0.00369651 -0.0103586
internal_weight=8304 3977 3811 4327 166 3208 1119
internal_count=8304 3977 3811 4327 166 3208 1119
is_linear=0
shrinkage=0.0309264


Tree=32
num_leaves=8
num_cat=0
split_feature=6 5 5 6 33 0 0
split_gain=190.817 80.6169 33.0047 32.0271 18.4982 15.9871 8.90877
threshold=-0.40640013159463378 -0.086696352561717607 1.5849110882474544 0.3718727501044668 1.2744026390363696 1.0635717084691014 0.51262511329775751
decision_type=2 2 2 2 2 2 2
left_child=1 4 -3 5 -1 -2 -5
right_child=3 2 -4 6 -6 -7 -8
leaf_value=0.0015500906037094456 -0.0031455372358817628 0.011438446675284979 0.030674628445574271 -0.010742827982967336 0.0095013265069333781 0.003120962084456066 -0.0056642976533537292
leaf_weight=2050 3106 762 101 616 330 437 877
leaf_count=2050 3106 762 101 616 330 437 877
internal_value=-0.000206236 0.00563796 0.0137502 -0.00398005 0.0026745 -0.00235789 -0.00779461
internal_weight=8279 3243 863 5036 2380 3543 1493
internal_count=8279 3243 863 5036 2380 3543 1493
is_linear=0
shrinkage=0.0309264


Tree=33
num_leaves=8
num_cat=0
split_feature=1 1 54 4 1 1 52
split_gain=267.33 73.5646 68.9091 41.07 32.9702 19.3251 13.8257
threshold=0.2787882576309379 -0.44920129039924256 0.96913422189613674 -0.55874036813513028 2.7578877995715536 -1.511672522659506 -1.3122482210128508
decision_type=2 2 2 2 2 2 2
left_child=1 5 3 -2 -4 -1 -3
right_child=2 6 4 -5 -6 -7 -8
leaf_value=-0.014393710216576282 -0.0091291294286542663 0.0082967109750111956 0.015796594533758031 0.0063865472275250832 0.046820095653999486 -0.0066392040254094724 -0.00098502126583964521
leaf_weight=367 173 164 409 2296 38 2537 2295
leaf_count=367 173 164 409 2296 38 2537 2295
internal_value=-0.000199273 -0.00430324 0.0073307 0.00527824 0.0185507 -0.00763717 -0.000344765
internal_weight=8279 5363 2916 2469 447 2904 2459
internal_count=8279 5363 2916 2469 447 2904 2459
is_linear=0
shrinkage=0.0309264


Tree=34
num_leaves=8
num_cat=0
split_feature=72 55 72 55 55 5 56
split_gain=132.238 48.164 41.6392 28.363 24.1505 20.4909 16.5604
threshold=-0.97935707908647973 -0.48097062872368684 -0.085955582305678083 0.45600832454399243 -2.2978241649081315 0.19850681269482348 1.1330716371870078
decision_type=2 2 2 2 2 2 2
left_child=1 4 3 -2 -1 -4 -3
right_child=2 6 5 -5 -6 -7 -8
leaf_value=0.041845047522345399 0.004126603582715444 0.0024748638220093116 -0.002218285835391463 -0.0023762821007070004 0.014336468594611781 -0.0068482136350874112 0.032917126029654208
leaf_weight=35 1489 599 3196 1117 510 1315 18
leaf_count=35 1489 599 3196 1117 510 1315 18
internal_value=-0.000192916 0.00947305 -0.00177842 0.00131927 0.0161988 -0.00357952 0.00344755
internal_weight=8279 1162 7117 2606 545 4511 617
internal_count=8279 1162 7117 2606 545 4511 617
is_linear=0
shrinkage=0.0309264


Tree=35
num_leaves=8
num_cat=0
split_feature=1 1 55 1 4 1 49
split_gain=245.948 68.0556 62.883 37.191 34.373 17.9152 13.3683
threshold=0.2787882576309379 -0.44920129039924256 -0.97554398687479382 2.7578877995715536 -0.57462435868979755 -1.511672522659506 0.54504346061665432
decision_type=2 2 2 2 2 2 2
left_child=1 5 3 -2 -4 -1 -3
right_child=2 6 4 -5 -6 -7 -8
leaf_value=-0.013839168345330116 0.015050486597972977 0.0011234602162718686 -0.0090347612816208418 0.048343744160473968 0.006064759669495959 -0.0063674693541795014 -0.0038891451067564905
leaf_weight=367 389 1743 151 37 2339 2537 716
leaf_count=367 389 1743 151 37 2339 2537 716
internal_value=-0.000186365 -0.00412304 0.00703593 0.0180647 0.00512813 -0.00732969 -0.000314864
internal_weight=8279 5363 2916 426 2490 2904 2459
internal_count=8279 5363 2916 426 2490 2904 2459
is_linear=0
shrinkage=0.0309264


Tree=36
num_leaves=8
num_cat=0
split_feature=1 1 1 6 54 3 0
split_gain=194.315 59.4046 34.734 29.4122 23.737 16.883 12.5268
threshold=-0.055693426599145016 1.5773642081712604 -0.82303376100933534 -0.40640013159463378 -0.56379784802670396 0.1534271194549485 -2.0288382128152151
decision_type=2 2 2 2 2 2 2
left_child=2 3 6 -2 -3 -4 -1
right_child=1 4 5 -5 -6 -7 -8
leaf_value=0.0084635723014045462 0.0058486945368654529 0 -0.00024290645755008737 4.4123248124124875e-05 0.016741190542955149 -0.0053035682158397018 -0.0088290621275745884
leaf_weight=38 1752 95 1378 1630 474 1199 1619
leaf_count=38 1752 95 1378 1630 474 1199 1619
internal_value=-0.00028425 0.0046418 -0.00489337 0.00306653 0.0139131 -0.00261773 -0.008401
internal_weight=8185 3951 4234 3382 569 2577 1657
internal_count=8185 3951 4234 3382 569 2577 1657
is_linear=0
shrinkage=0.0309264


Tree=37
num_leaves=8
num_cat=0
split_feature=1 1 53 1 5 13 1
split_gain=182.524 56.8561 38.1917 32.5839 22.7332 14.5397 11.9715
threshold=-0.055693426599145016 2.1479506106814021 -0.1571031456131555 -0.82303376100933534 1.3512029389400109 -0.47318938423228479 -1.511672522659506
decision_type=2 2 2 2 2 2 2
left_child=3 2 -2 6 -3 -5 -1
right_child=1 4 -4 5 -6 -7 -8
leaf_value=-0.013440921073872599 -0.00060331428695442493 0.014801595731486216 0.0058953978535850222 -0.0054691141702541864 0.043247494397569398 -0.0006544203534779848 -0.0067168206497631115
leaf_weight=343 1343 212 2362 997 34 1580 1314
leaf_count=343 1343 212 2362 997 34 1580 1314
internal_value=-0.000275136 0.00449892 0.00352564 -0.00474242 0.0189453 -0.0025374 -0.00814021
internal_weight=8185 3951 3705 4234 246 2577 1657
internal_count=8185 3951 3705 4234 246 2577 1657
is_linear=0
shrinkage=0.0309264


Tree=38
num_leaves=8
num_cat=0
split_feature=1 1 1 6 54 3 1
split_gain=171.47 53.561 30.5881 27.4805 21.7686 15.6962 11.2158
threshold=-0.055693426599145016 1.5773642081712604 -0.82303376100933534 -0.40640013159463378 -0.56379784802670396 0.1534271194549485 -1.511672522659506
decision_type=2 2 2 2 2 2 2
left_child=2 3 6 -2 -3 -4 -1
right_child=1 4 5 -5 -6 -7 -8
leaf_value=-0.013025241394719783 0.0055524856701553551 0 -0.00016879923367853696 0 0.015873389533497099 -0.0050487701759674196 -0.006509093358637961
leaf_weight=343 1752 95 1378 1630 474 1199 1314
leaf_count=343 1752 95 1378 1630 474 1199 1314
internal_value=-0.000266824 0.00436019 -0.00459689 0.00286348 0.0131645 -0.00245955 -0.00788943
internal_weight=8185 3951 4234 3382 569 2577 1657
internal_count=8185 3951 4234 3382 569 2577 1657
is_linear=0
shrinkage=0.0309264


Tree=39
num_leaves=8
num_cat=0
split_feature=4 53 54 0 0 4 72
split_gain=136.302 40.2631 31.8532 24.2741 17.7458 16.4826 14.7746
threshold=-0.050452670385778671 0.67002426983332763 -0.56379784802670396 -1.5489815008917869 0.28158299274203241 -0.57991902220801983 -1.0465699605336212
decision_type=2 2 2 2 2 2 2
left_child=1 5 4 -4 -2 -1 -3
right_child=2 6 3 -5 -6 -7 -8
leaf_value=-0.0072276856054217884 -0.0017579946643594231 0.02315466867574183 0.018864386368175622 0.0063646107144826741 0.01147050104461542 -0.0030995922398618621 0.0010668851565335353
leaf_weight=1490 682 30 168 1788 113 2646 1268
leaf_count=1490 682 30 168 1788 113 2646 1268
internal_value=-0.00025906 -0.00310474 0.00534298 0.00746489 5.66383e-05 -0.00459936 0.00161759
internal_weight=8185 5434 2751 1956 795 4136 1298
internal_count=8185 5434 2751 1956 795 4136 1298
is_linear=0
shrinkage=0.0309264


Tree=40
num_leaves=8
num_cat=0
split_feature=4 13 4 0 55 55 0
split_gain=126.105 38.7822 33.1628 28.6837 26.9874 17.2546 11.3963
threshold=-0.050452670385778671 0.66269019511852023 -0.54285637758046301 -2.1177005668751092 0.089343446592814832 0.90965171056187744 0.13940322624620163
decision_type=2 2 2 2 2 2 2
left_child=2 5 6 -3 -4 -2 -1
right_child=1 3 4 -5 -6 -7 -8
leaf_value=-0.0092588835047276163 0.0046059264217718984 0.043588838527831054 0.0031348720313695206 0.0094285241448464584 -0.0025820385323281412 -0.0024303127976289516 -0.0040019597101870717
leaf_weight=598 1234 25 1207 1063 2269 446 1363
leaf_count=598 1234 25 1207 1063 2269 446 1363
internal_value=0.000316089 0.00569517 -0.00241282 0.0102614 -0.000581895 0.00270691 -0.00563165
internal_weight=8205 2768 5437 1088 3476 1680 1961
internal_count=8205 2768 5437 1088 3476 1680 1961
is_linear=0
shrinkage=0.0309264


Tree=41
num_leaves=8
num_cat=0
split_feature=6 5 53 0 0 53 0
split_gain=128.695 46.781 39.5568 31.8653 20.4998 13.4549 12.6661
threshold=-0.37509848004549257 -0.27683179606607833 0.67002426983332763 -2.1177005668751092 -0.41154336892514176 -1.4795280142423024 -1.0868972597803375
decision_type=2 2 2 2 2 2 2
left_child=1 4 5 -3 -1 -2 -4
right_child=2 3 6 -5 -6 -7 -8
leaf_value=-0.00080909970349403091 -0.0099885466971680169 0.040618578950735812 -0.013591016136655509 0.0088288762802274361 0.0050127364904148661 -0.0037809058368439294 0.0035918181489951375
leaf_weight=1112 385 32 42 1185 1177 3408 864
leaf_count=1112 385 32 42 1185 1177 3408 864
internal_value=0.000306117 0.00479591 -0.00303269 0.00970764 0.00216168 -0.00442476 0.00273766
internal_weight=8205 3506 4699 1217 2289 3793 906
internal_count=8205 3506 4699 1217 2289 3793 906
is_linear=0
shrinkage=0.0309264


Tree=42
num_leaves=8
num_cat=0
split_feature=1 1 72 16 54 1 42
split_gain=148.835 48.2638 42.2154 24.5842 22.5878 16.2521 16.2353
threshold=0.3574898303909575 -0.64595522229929148 -0.92603323909970348 -0.15377740960481931 2.1389338303490217 -2.5347929685397599 -0.22745449086953015
decision_type=2 2 2 2 2 2 2
left_child=1 5 4 -4 -2 -1 -3
right_child=2 6 3 -5 -6 -7 -8
leaf_value=0.01216203230601838 0.011098928882201362 -0.0026241016417110456 -0.00046380012693337852 0.0066273025849868531 0.035129034965115352 -0.0066377322118607706 0.0016712120964358719
leaf_weight=43 714 1552 758 1168 42 2097 1831
leaf_count=43 714 1552 758 1168 42 2097 1831
internal_value=0.000296453 -0.00259945 0.00627941 0.00380942 0.012503 -0.00623559 -0.000283899
internal_weight=8205 5523 2682 1926 756 2140 3383
internal_count=8205 5523 2682 1926 756 2140 3383
is_linear=0
shrinkage=0.0309264


Tree=43
num_leaves=8
num_cat=0
split_feature=1 1 72 0 0 0 42
split_gain=139.783 45.3119 39.6526 23.9182 23.6941 15.7683 15.2476
threshold=0.3574898303909575 -0.64595522229929148 -0.92603323909970348 -1.5312090300798082 0.10385828462224413 -2.1177005668751092 -0.22745449086953015
decision_type=2 2 2 2 2 2 2
left_child=1 5 3 -2 -4 -1 -3
right_child=2 6 4 -5 -6 -7 -8
leaf_value=0.011273908476051052 0.025598807773917306 -0.0025429475467557169 0.00118044895062831 0.0096929784800135078 0.0084822675891705994 -0.0064557713011331678 0.0016195274787424289
leaf_weight=47 112 1552 1271 644 655 2093 1831
leaf_count=47 112 1552 1271 644 655 2093 1831
internal_value=0.000287482 -0.00251877 0.00608581 0.0121184 0.00369077 -0.00604199 -0.000274642
internal_weight=8205 5523 2682 756 1926 2140 3383
internal_count=8205 5523 2682 756 1926 2140 3383
is_linear=0
shrinkage=0.0309264


Tree=44
num_leaves=8
num_cat=0
split_feature=4 55 53 4 43 57 53
split_gain=119.408 42.4706 32.7673 20.6073 20.4262 14.0197 7.54773
threshold=0.2884057947804558 -0.32136494832332257 -0.59118171493009142 -0.11398863260444757 3.2293574333175501 1.3109806642066533 -1.7140031143640682
decision_type=2 2 2 2 2 2 2
left_child=2 4 6 -4 -2 -3 -1
right_child=1 5 3 -5 -6 -7 -8
leaf_value=-0.0092925953609485565 0.013555212353020535 0.0015139689676420963 -0.0016351458689464777 0.0029867202209695365 -0.0138676832279068 0.019829652453277436 -0.0041848939334649359
leaf_weight=366 777 779 3442 1257 25 43 1585
leaf_count=366 777 779 3442 1257 25 43 1585
internal_value=3.11296e-05 0.00755539 -0.00179853 -0.000387674 0.0126353 0.00253558 -0.00516983
internal_weight=8274 1624 6650 4699 802 822 1951
internal_count=8274 1624 6650 4699 802 822 1951
is_linear=0
shrinkage=0.0309264


Tree=45
num_leaves=8
num_cat=0
split_feature=1 1 1 63 0 1 2
split_gain=167.722 50.7566 42.1694 37.3357 27.1622 23.802 23.662
threshold=0.57391915548101147 -0.52790286315926205 2.4430815085314754 -0.51804409521859363 -0.55372313542097251 -1.511672522659506 0.84002106259676668
decision_type=2 2 2 2 2 2 2
left_child=1 5 3 -2 -3 -1 -4
right_child=2 4 6 -5 -6 -7 -8
leaf_value=-0.013242237717473043 -0.00027608533655009581 -0.0044157029208915797 0.01077504726141724 0.009089935456092841 0.0015618273607319946 -0.0045835197550364885 0.036222151310562792
leaf_weight=362 564 1014 81 1370 2565 2244 74
leaf_count=362 564 1014 81 1370 2565 2244 74
internal_value=2.99718e-05 -0.00252267 0.00761269 0.0063316 -0.000117141 -0.00580633 0.0232607
internal_weight=8274 6185 2089 1934 3579 2606 155
internal_count=8274 6185 2089 1934 3579 2606 155
is_linear=0
shrinkage=0.0309264


Tree=46
num_leaves=8
num_cat=0
split_feature=1 1 1 63 0 1 2
split_gain=157.542 47.676 39.632 35.0828 25.5085 22.3336 22.1449
threshold=0.57391915548101147 -0.52790286315926205 2.4430815085314754 -0.51804409521859363 -0.55372313542097251 -1.511672522659506 0.84002106259676668
decision_type=2 2 2 2 2 2 2
left_child=1 5 3 -2 -3 -1 -4
right_child=2 4 6 -5 -6 -7 -8
leaf_value=-0.012832702483413349 -0.00026754700650596523 -0.0042791410548738027 0.01044181371129878 0.0088088162155622804 0.0015135256256700847 -0.0044417678043448721 0.035101928872460164
leaf_weight=362 564 1014 81 1370 2565 2244 74
leaf_count=362 564 1014 81 1370 2565 2244 74
internal_value=2.88498e-05 -0.00244492 0.00737803 0.00613495 -0.000113068 -0.00562738 0.0225517
internal_weight=8274 6185 2089 1934 3579 2606 155
internal_count=8274 6185 2089 1934 3579 2606 155
is_linear=0
shrinkage=0.0309264


Tree=47
num_leaves=8
num_cat=0
split_feature=6 55 6 0 43 38 0
split_gain=117.633 33.8521 29.233 34.6176 18.9547 13.9184 13.0272
threshold=-0.57998201745805289 -0.32136494832332257 0.39890599462417969 1.0457992376571223 3.2293574333175501 1.6639626604066398 0.58371499654567249
decision_type=2 2 2 2 2 2 2
left_child=1 4 3 -2 -1 -3 -4
right_child=2 5 6 -5 -6 -7 -8
leaf_value=0.012309764139879923 -0.0015943063675358457 0.0038700665912083697 -0.0089274612145567034 0.0068067073610658555 -0.013590855768853008 -0.011306201521044201 -0.0029935337882876119
leaf_weight=855 4530 777 663 522 26 61 840
leaf_count=855 4530 777 663 522 26 61 840
internal_value=2.77625e-05 0.00723482 -0.00185427 -0.000715938 0.0114862 0.00270307 -0.00564582
internal_weight=8274 1719 6555 5052 881 838 1503
internal_count=8274 1719 6555 5052 881 838 1503
is_linear=0
shrinkage=0.0309264


Tree=48
num_leaves=8
num_cat=0
split_feature=1 13 1 17 0 61 1
split_gain=132.158 66.6177 38.2565 19.1394 17.0969 23.1666 22.6585
threshold=-0.40985050401923273 0.63021129613706195 1.4002856694612162 1.7131263340528722 -1.65561632576366 0.3318050459042996 -1.511672522659506
decision_type=2 2 2 2 2 2 2
left_child=4 3 -3 -2 5 -1 -6
right_child=1 2 -4 -5 6 -7 -8
leaf_value=-0.0030447734809057785 0.0014587665426923037 0.0059910431323012131 0.018354201392033909 -0.0080158822446514399 -0.013321086347612886 0.033177383532181373 -0.0044409834136937285
leaf_weight=42 3591 1098 316 215 315 26 2687
leaf_count=42 3591 1098 316 215 315 26 2687
internal_value=5.38708e-05 0.00305465 0.00879086 0.000909834 -0.00503144 0.0100374 -0.00539016
internal_weight=8290 5220 1414 3806 3070 68 3002
internal_count=8290 5220 1414 3806 3070 68 3002
is_linear=0
shrinkage=0.0309264


Tree=49
num_leaves=8
num_cat=0
split_feature=1 13 1 65 0 61 1
split_gain=124.136 62.5767 35.8981 18.6234 16.0242 21.7887 21.2611
threshold=-0.40985050401923273 0.63021129613706195 1.4002856694612162 -1.7932682416814421 -1.65561632576366 0.3318050459042996 -1.511672522659506
decision_type=2 2 2 2 2 2 2
left_child=4 3 -3 -2 5 -1 -6
right_child=1 2 -4 -5 6 -7 -8
leaf_value=-0.002950609293089186 -0.010065392303466253 0.0058057615549106639 0.017786571273655301 0.0013197584103529639 -0.012909112582642133 0.032151325522588883 -0.0043036396135453401
leaf_weight=42 142 1098 316 3664 315 26 2687
leaf_count=42 142 1098 316 3664 315 26 2687
internal_value=5.20101e-05 0.00296049 0.00852013 0.000881272 -0.00487636 0.00970327 -0.005224
internal_weight=8290 5220 1414 3806 3070 68 3002
internal_count=8290 5220 1414 3806 3070 68 3002
is_linear=0
shrinkage=0.0309264


Tree=50
num_leaves=8
num_cat=0
split_feature=1 6 1 0 0 61 1
split_gain=116.603 60.5654 26.9787 25.9016 15.0178 20.4935 19.9492
threshold=-0.40985050401923273 -0.59136443620319512 1.5773642081712604 0.032768401374328938 -1.65561632576366 0.3318050459042996 -1.511672522659506
decision_type=2 2 2 2 2 2 2
left_child=4 2 -2 -3 5 -1 -6
right_child=1 3 -4 -5 6 -7 -8
leaf_value=-0.0028593579333718484 0.0058034299118182283 -0.001546073760340623 0.015853751995079275 0.0035912091505745222 -0.012509879821673661 0.031157000259091128 -0.004170543371674911
leaf_weight=42 1103 2047 347 1723 315 26 2687
leaf_count=42 1103 2047 347 1723 315 26 2687
internal_value=5.02069e-05 0.00286925 0.00824457 0.000787972 -0.00472608 0.00937944 -0.00506297
internal_weight=8290 5220 1450 3770 3070 68 3002
internal_count=8290 5220 1450 3770 3070 68 3002
is_linear=0
shrinkage=0.0309264


Tree=51
num_leaves=8
num_cat=0
split_feature=6 6 0 0 68 0 44
split_gain=107.407 26.2857 26.1803 23.1581 14.8981 14.1518 14.0952
threshold=-0.59136443620319512 -0.10476603484836446 0.31712793436599013 -2.1177005668751092 0.38812850213866468 0.032768401374328938 -1.034782819834253
decision_type=2 2 2 2 2 2 2
left_child=3 2 -2 6 -5 -3 -1
right_child=1 5 -4 4 -6 -7 -8
leaf_value=0.046126757508304819 -0.0015489354781453217 -0.0070145460667117394 0.0042857555534933376 0.0046251991781723987 0.011541107322769131 -0.0023567601054921825 0.0066364250457114022
leaf_weight=24 2698 947 1011 1167 426 1998 19
leaf_count=24 2698 947 1011 1167 426 1998 19
internal_value=4.84595e-05 -0.0016907 2.74155e-05 0.00715392 0.00650741 -0.00387225 0.0298912
internal_weight=8290 6654 3709 1636 1593 2945 43
internal_count=8290 6654 3709 1636 1593 2945 43
is_linear=0
shrinkage=0.0309264


Tree=52
num_leaves=8
num_cat=0
split_feature=1 45 1 0 13 0 33
split_gain=127.354 50.0907 48.4791 31.0152 30.4692 23.0538 13.9444
threshold=1.0264531988511238 -0.24241740156772815 -0.40985050401923273 0.28158299274203241 2.1283269552080379 -2.0999280960631306 -0.18191701442112687
decision_type=2 2 2 2 2 2 2
left_child=2 6 5 -4 -3 -1 -2
right_child=1 4 3 -5 -6 -7 -8
leaf_value=0.016834868626124835 0.0099027656171984113 0.010726888238988378 -0.0012960531595055385 0.0045079780245664046 0.028998369721381076 -0.0049852964233474371 -0.005249233877123085
leaf_weight=46 76 804 2744 1293 103 2950 235
leaf_count=46 76 804 2744 1293 103 2950 235
internal_value=-4.51974e-05 0.00918102 -0.00165045 0.000549977 0.0128594 -0.00463286 -0.00137869
internal_weight=8251 1218 7033 4037 907 2996 311
internal_count=8251 1218 7033 4037 907 2996 311
is_linear=0
shrinkage=0.0309264


Tree=53
num_leaves=8
num_cat=0
split_feature=1 45 1 13 53 49 1
split_gain=119.624 47.0479 45.5154 28.5717 23.3691 10.9279 10.3721
threshold=1.0264531988511238 -0.24241740156772815 -0.40985050401923273 2.1283269552080379 -0.1571031456131555 1.3848296141941479 -2.3773898230197208
decision_type=2 2 2 2 2 2 2
left_child=2 5 6 -3 -4 -2 -1
right_child=1 3 4 -5 -6 -7 -8
leaf_value=0.010958838641975822 0.00041660096992388154 0.010395143871953276 -0.0023865728228182528 0.028101553620750053 0.0024290339975728799 -0.018797857522679717 -0.0047104299513087006
leaf_weight=39 280 804 1579 103 2458 31 2957
leaf_count=39 280 804 1579 103 2458 31 2957
internal_value=-4.32128e-05 0.0088984 -0.00159917 0.0124634 0.000532569 -0.00133086 -0.00448904
internal_weight=8251 1218 7033 907 4037 311 2996
internal_count=8251 1218 7033 907 4037 311 2996
is_linear=0
shrinkage=0.0309264


Tree=54
num_leaves=8
num_cat=0
split_feature=1 1 42 63 0 0 69
split_gain=112.574 44.4088 35.3154 32.243 27.6748 20.856 18.2597
threshold=1.0854793784211383 -0.40985050401923273 1.5303392150542119 -0.50470558127733134 0.28158299274203241 -2.0999280960631306 -1.113951777487008
decision_type=2 2 2 2 2 2 2
left_child=1 5 3 -2 -3 -1 -4
right_child=2 4 6 -5 -6 -7 -8
leaf_value=0.016059585670622087 -0.0024585997795689937 -0.0011228858954674852 -0.0031761504882543701 0.01013310138476973 0.0043096902615027358 -0.0046856064946539889 0.023623563837042956
leaf_weight=46 272 2823 24 634 1310 2950 192
leaf_count=46 272 2823 24 634 1310 2950 192
internal_value=-4.12896e-05 -0.00148069 0.00905789 0.00629521 0.000586402 -0.00434967 0.0204042
internal_weight=8251 7129 1122 906 4133 2996 216
internal_count=8251 7129 1122 906 4133 2996 216
is_linear=0
shrinkage=0.0309264


Tree=55
num_leaves=8
num_cat=0
split_feature=1 1 13 65 0 0 0
split_gain=105.716 40.1815 39.0354 30.7846 28.2253 21.7618 20.1337
threshold=1.0264531988511238 -0.48855207677925233 2.1283269552080379 -0.76619911607019364 0.28158299274203241 -1.2290770262761679 -2.0999280960631306
decision_type=2 2 2 2 2 2 2
left_child=1 6 3 -2 -3 -4 -1
right_child=2 4 5 -5 -6 -7 -8
leaf_value=0.015562920332105521 -0.0027781822784741948 -0.0013904862429519149 0.046451169484405017 0.0093971525329414173 0.0039344598097433318 0.014914705485292869 -0.004821994017765909
leaf_weight=46 250 2911 37 865 1412 66 2664
leaf_count=46 250 2911 37 865 1412 66 2664
internal_value=-3.9817e-05 -0.00150291 0.00836555 0.00662045 0.000336703 0.02675 -0.00445672
internal_weight=8251 7033 1218 1115 4323 103 2710
internal_count=8251 7033 1218 1115 4323 103 2710
is_linear=0
shrinkage=0.0309264


Tree=56
num_leaves=8
num_cat=0
split_feature=1 45 1 63 1 0 0
split_gain=94.2319 36.5179 25.9921 19.2859 18.7407 20.6806 6.31168
threshold=0.10170971892089398 -0.11070338991871805 2.7185370131915438 1.2209269569865826 -1.1575154452394183 0.65480487979358781 -1.65561632576366
decision_type=2 2 2 2 2 2 2
left_child=4 3 -3 -2 6 -6 -1
right_child=1 2 -4 -5 5 -7 -8
leaf_value=0.0031762019961568554 -0.0013486102086491161 0.0055175316790257566 0.022733713883306955 0.013400602917746363 -0.0034305398710769877 0.0016123709507459888 -0.007842190372861697
leaf_weight=46 1213 1979 90 91 2922 1044 807
leaf_count=46 1213 1979 90 91 2922 1044 807
internal_value=-0.00022191 0.00373585 0.00629165 -0.000279312 -0.00300292 -0.0020899 -0.00718682
internal_weight=8192 3373 2069 1304 4819 3966 853
internal_count=8192 3373 2069 1304 4819 3966 853
is_linear=0
shrinkage=0.0309264


Tree=57
num_leaves=8
num_cat=0
split_feature=1 45 1 1 0 64 0
split_gain=88.498 34.3015 24.3887 17.5789 19.428 17.3257 5.95083
threshold=0.10170971892089398 -0.11070338991871805 2.7185370131915438 -1.1575154452394183 0.65480487979358781 2.2119927436544975 -1.65561632576366
decision_type=2 2 2 2 2 2 2
left_child=3 5 -3 6 -5 -2 -1
right_child=1 2 -4 4 -6 -7 -8
leaf_value=0.0030779735093770097 -0.00083704367607543445 0.0053468940432320122 0.022030641356254422 -0.0033244455026588547 0.0015625060251312265 0.023733441190630679 -0.0075996594413252731
leaf_weight=46 1276 1979 90 2922 1044 28 807
leaf_count=46 1276 1979 90 2922 1044 28 807
internal_value=-0.000214456 0.00362079 0.00609785 -0.00290972 -0.00202486 -0.000269436 -0.00696266
internal_weight=8192 3373 2069 4819 3966 1304 853
internal_count=8192 3373 2069 4819 3966 1304 853
is_linear=0
shrinkage=0.0309264


Tree=58
num_leaves=8
num_cat=0
split_feature=1 45 53 1 63 0 0
split_gain=83.4962 37.7494 25.2136 20.5126 19.6566 14.8962 11.0186
threshold=0.31813904401094767 -0.11070338991871805 2.3531104123264623 -0.58692904272927682 1.2209269569865826 -0.66035796029284555 0.24603805111807472
decision_type=2 2 2 2 2 2 2
left_child=3 4 -3 6 -2 -5 -1
right_child=1 2 -4 5 -6 -7 -8
leaf_value=-0.0066827919529685951 -0.0018229642398555478 0.0064134325729602575 0.036978484098415733 -0.0046974516120809051 0.01525922479656446 0.00043504106907511639 -0.0023990130471187219
leaf_weight=1206 925 1726 27 698 69 2346 1195
leaf_count=1206 925 1726 27 698 69 2346 1195
internal_value=-0.000207232 0.00418159 0.00691397 -0.00243098 -0.000584677 -0.000724714 -0.00457245
internal_weight=8192 2747 1753 5445 994 3044 2401
internal_count=8192 2747 1753 5445 994 3044 2401
is_linear=0
shrinkage=0.0309264


Tree=59
num_leaves=8
num_cat=0
split_feature=1 71 53 37 1 0 0
split_gain=78.467 30.5418 29.5777 21.1343 16.0715 17.7985 5.67283
threshold=0.10170971892089398 1.2702875616821181 -0.30647619594404779 2.2766923418675558 -1.1575154452394183 0.65480487979358781 -1.65561632576366
decision_type=2 2 2 2 2 2 2
left_child=4 2 -2 -3 6 -6 -1
right_child=1 3 -4 -5 5 -7 -8
leaf_value=0.0031894576697060078 -0.0027970903574809363 0.0082509516070728896 0.0041316813839108657 0.037407251597516872 -0.0031364478359563169 0.0015405228873631015 -0.0072382313245339036
leaf_weight=46 848 613 1886 26 2922 1044 807
leaf_count=46 848 613 1886 26 2922 1044 807
internal_value=-0.000200626 0.00341033 0.00196351 0.00951895 -0.0027389 -0.00189214 -0.00661471
internal_weight=8192 3373 2734 639 4819 3966 853
internal_count=8192 3373 2734 639 4819 3966 853
is_linear=0
shrinkage=0.0309264


Tree=60
num_leaves=8
num_cat=0
split_feature=1 65 1 0 72 62 0
split_gain=83.0459 41.9031 23.8225 28.1069 19.1255 14.5007 11.7768
threshold=1.0264531988511238 1.1928668173428827 -0.94108612014936477 -0.41154336892514176 -2.5861311912615093 0.48408141916072395 -2.1177005668751092
decision_type=2 2 2 2 2 2 2
left_child=2 4 6 -4 -2 -3 -1
right_child=1 5 3 -5 -6 -7 -8
leaf_value=0.010761862727549806 0.029887505853912529 0.0081556124524614654 -0.003501234021631243 0.0010223320899184658 0.0044820071217923901 0.032014576453363419 -0.0056575732996543282
leaf_weight=41 30 44 2046 3647 1070 83 1343
leaf_count=41 30 44 2046 3647 1070 83 1343
internal_value=-0.0001954 0.00722493 -0.0014893 -0.00059422 0.00522233 0.0241594 -0.00513345
internal_weight=8304 1227 7077 5693 1100 127 1384
internal_count=8304 1227 7077 5693 1100 127 1384
is_linear=0
shrinkage=0.0309264


Tree=61
num_leaves=8
num_cat=0
split_feature=1 65 1 0 65 54 0
split_gain=78.0579 39.3765 22.358 26.3973 19.0911 17.7441 11.0764
threshold=1.0264531988511238 1.1928668173428827 -0.94108612014936477 -0.41154336892514176 -0.78957142535116498 -0.068569253946777903 -2.1177005668751092
decision_type=2 2 2 2 2 2 2
left_child=2 4 6 -4 -2 -3 -1
right_child=1 5 3 -5 -6 -7 -8
leaf_value=0.010429036744929052 -0.0023120427582329992 0.0041017805953773804 -0.0033929532845462002 0.00099071500997489903 0.0072813166583707177 0.031088912925807698 -0.0054826047045719705
leaf_weight=41 249 38 2046 3647 851 89 1343
leaf_count=41 249 38 2046 3647 851 89 1343
internal_value=-0.000188385 0.00700544 -0.00144301 -0.000575559 0.00506229 0.0234249 -0.00497353
internal_weight=8304 1227 7077 5693 1100 127 1384
internal_count=8304 1227 7077 5693 1100 127 1384
is_linear=0
shrinkage=0.0309264


Tree=62
num_leaves=8
num_cat=0
split_feature=1 65 71 49 54 1 10
split_gain=73.3245 37.0158 21.3888 18.3731 16.5869 16.1756 14.8909
threshold=1.0264531988511238 1.1928668173428827 0.52295926014408267 1.3848296141941479 -0.068569253946777903 -1.5313479158495111 -0.22706465303084514
decision_type=2 2 2 2 2 2 2
left_child=2 3 5 -2 -3 -1 -4
right_child=1 4 6 -5 -6 -7 -8
leaf_value=-0.009413142818436011 0.0059938851846413656 0.00397492715692945 0.0055192148251472679 -0.009928338506193967 0.030127443734107001 -0.0018787825054352881 -0.00069504590258811594
leaf_weight=292 1028 38 625 72 89 5290 870
leaf_count=292 1028 38 625 72 89 5290 870
internal_value=-0.000181976 0.0067901 -0.00139816 0.00490426 0.0227132 -0.00228226 0.00186798
internal_weight=8304 1227 7077 1100 127 5582 1495
internal_count=8304 1227 7077 1100 127 5582 1495
is_linear=0
shrinkage=0.0309264


Tree=63
num_leaves=8
num_cat=0
split_feature=1 10 1 56 46 6 53
split_gain=68.9429 25.1236 22.4468 21.6578 47.7411 22.8173 19.5132
threshold=1.5773642081712604 -0.54808300403648225 1.0461285920411287 0.94959460854348754 -0.73723370542030908 -0.8446232532826099 1.308971730250067
decision_type=2 2 2 2 2 2 2
left_child=1 2 -1 5 -5 -2 -3
right_child=3 6 -4 4 -6 -7 -8
leaf_value=0.00073891365353741755 0.031945514636007893 -0.0028391959619628601 0.011500797357643557 0.068833771660917711 0.0079363114111838853 0.0059798862221014789 0.0027459048991805668
leaf_weight=2117 36 4711 205 19 42 498 676
leaf_count=2117 36 4711 205 19 42 498 676
internal_value=-0.000176154 -0.000965199 0.00171151 0.00995924 0.0277599 0.00782811 -0.00212865
internal_weight=8304 7709 2322 595 61 534 5387
internal_count=8304 7709 2322 595 61 534 5387
is_linear=0
shrinkage=0.0309264


Tree=64
num_leaves=8
num_cat=0
split_feature=1 71 12 17 1 41 1
split_gain=60.8569 31.7279 27.0606 18.2904 15.3422 9.72896 6.82295
threshold=0.023008146160874581 1.2350051491067708 -0.091715789507470585 1.7131263340528722 -0.98043690652937454 2.3086674828567695 -2.5347929685397599
decision_type=2 2 2 2 2 2 2
left_child=4 3 -3 -2 6 -6 -1
right_child=1 2 -4 -5 5 -7 -8
leaf_value=0.0068012977937893836 0.00259000094820537 0.0053812247878987597 0.019487418710389736 -0.0079375880638748696 -0.00066242245884362214 -0.016276127988977339 -0.0053671526028010027
leaf_weight=42 2845 467 190 165 3238 39 1210
leaf_count=42 2845 467 190 165 3238 39 1210
internal_value=0.000394584 0.00336152 0.00954007 0.00199557 -0.00199613 -0.000864168 -0.00491726
internal_weight=8196 3667 657 3010 4529 3277 1252
internal_count=8196 3667 657 3010 4529 3277 1252
is_linear=0
shrinkage=0.0309264


Tree=65
num_leaves=8
num_cat=0
split_feature=1 6 19 23 1 64 69
split_gain=57.1697 30.0257 33.5487 23.0023 14.3881 9.46126 6.59989
threshold=0.023008146160874581 -0.51737871435977045 1.0000000180025095e-35 -0.61248883038469148 -0.98043690652937454 1.4312422836600429 2.3878946962626384
decision_type=2 2 2 2 2 2 2
left_child=4 2 -2 -3 6 -6 -1
right_child=1 3 -4 -5 5 -7 -8
leaf_value=-0.0052450557926966342 0.011406894085960611 0.0065081787085308615 0.0022493360019910408 -0.0010138708687430654 -0.001297469663334795 0.0053102917543729374 0.0057593355895247892
leaf_weight=1202 723 513 850 1581 3057 220 50
leaf_count=1202 723 513 850 1581 3057 220 50
internal_value=0.000382184 0.003258 0.00649161 0.000804001 -0.00193475 -0.000837935 -0.0047639
internal_weight=8196 3667 1573 2094 4529 3277 1252
internal_count=8196 3667 1573 2094 4529 3277 1252
is_linear=0
shrinkage=0.0309264


Tree=66
num_leaves=8
num_cat=0
split_feature=1 12 71 31 53 3 1
split_gain=53.7152 29.0107 31.2983 16.8167 16.1263 13.3818 10.2522
threshold=-0.016342640219135219 -0.12534614855533727 0.3000616537654231 -1.4763111769325599 0.32201058001944816 0.2279492960444999 -0.40985050401923273
decision_type=2 2 2 2 2 2 2
left_child=4 3 -3 -2 5 -1 -6
right_child=1 2 -4 -5 6 -7 -8
leaf_value=-0.0013929458827077758 0.011069294640984991 0.0024471401671511211 0.010537383149905283 -0.00049314637352785619 -0.0012951696917838944 -0.0056561212774323411 0.0040540379176606982
leaf_weight=1653 129 1167 777 1737 902 1285 546
leaf_count=1653 129 1167 777 1737 902 1285 546
internal_value=0.000370562 0.00306218 0.00570759 0.000278219 -0.00195567 -0.0032753 0.000685825
internal_weight=8196 3810 1944 1866 4386 2938 1448
internal_count=8196 3810 1944 1866 4386 2938 1448
is_linear=0
shrinkage=0.0309264


Tree=67
num_leaves=8
num_cat=0
split_feature=1 71 68 0 1 0 0
split_gain=50.5254 28.2654 28.667 26.0564 13.1905 9.58538 8.20382
threshold=0.023008146160874581 1.2350051491067708 2.5018432749118675 0.58371499654567249 -0.98043690652937454 -0.62481301866888783 -2.1177005668751092
decision_type=2 2 2 2 2 2 2
left_child=4 3 -3 -2 6 -6 -1
right_child=1 2 -4 -5 5 -7 -8
leaf_value=0.0078551358113368927 0.00038658609384016162 0.0075639713852625745 0.043298987357839006 0.0078494914696968128 -0.0038833954959134787 0.0001107578298245255 -0.0050432363981240203
leaf_weight=46 2458 634 23 552 734 2543 1206
leaf_count=46 2458 634 23 552 734 2543 1206
internal_value=0.000358904 0.00306276 0.0088944 0.00177254 -0.00181881 -0.000767949 -0.00452765
internal_weight=8196 3667 657 3010 4529 3277 1252
internal_count=8196 3667 657 3010 4529 3277 1252
is_linear=0
shrinkage=0.0309264


Tree=68
num_leaves=8
num_cat=0
split_feature=6 4 0 19 57 28 35
split_gain=45.5998 28.2997 21.8863 19.7514 18.4619 16.0718 10.3309
threshold=-0.40640013159463378 3.883482323653475 0.58371499654567249 1.0000000180025095e-35 -0.97193440952018906 0.59080012335393117 0.4680522613734423
decision_type=2 2 2 2 2 2 2
left_child=1 3 5 -1 -3 -2 -4
right_child=2 4 6 -5 -6 -7 -8
leaf_value=0.0050853846611875319 -0.0019504763659974787 0 -0.00025392734785007338 0.00011728942982772599 0.028534004574425592 -0.0067397237718815287 0.0056991592024566943
leaf_weight=1371 2337 27 1400 1783 66 970 344
leaf_count=1371 2337 27 1400 1783 66 970 344
internal_value=-4.50067e-05 0.00280792 -0.00188932 0.0022934 0.0196963 -0.00337103 0.000890382
internal_weight=8298 3247 5051 3154 93 3307 1744
internal_count=8298 3247 5051 3154 93 3307 1744
is_linear=0
shrinkage=0.0309264


Tree=69
num_leaves=8
num_cat=0
split_feature=6 4 1 0 0 1 17
split_gain=42.8385 26.511 27.3343 20.5554 17.6757 17.3279 15.0821
threshold=-0.40640013159463378 3.883482323653475 2.1085998243013924 0.58371499654567249 -0.41154336892514176 -1.5706987022295209 0.59080012335393117
decision_type=2 2 2 2 2 2 2
left_child=1 4 -3 6 -1 -5 -2
right_child=3 2 -4 5 -6 -7 -8
leaf_value=6.7159238847054411e-05 -0.0018901550640824905 0.0079682891168328922 0.047179260445571525 -0.010317312590743111 0.0047462720335807694 0.0017349490311796025 -0.0065312881367761292
leaf_weight=1712 2337 68 25 122 1442 1622 970
leaf_count=1712 2337 68 25 122 1442 1622 970
internal_value=-4.34177e-05 0.00272159 0.01907 -0.00183121 0.00222298 0.00086192 -0.00326726
internal_weight=8298 3247 93 5051 3154 1744 3307
internal_count=8298 3247 93 5051 3154 1744 3307
is_linear=0
shrinkage=0.0309264


Tree=70
num_leaves=8
num_cat=0
split_feature=1 4 57 54 1 17 13
split_gain=39.8457 23.1696 24.5454 18.694 16.5601 13.7089 4.86294
threshold=0.65262072824103068 3.883482323653475 -0.97193440952018906 -0.85378496060421827 -1.551023309039516 0.19734586476909458 0.28874777817367742
decision_type=2 2 2 2 2 2 2
left_child=4 3 -3 -2 6 -6 -1
right_child=1 2 -4 -5 5 -7 -8
leaf_value=-0.010449834399014783 -0.0037227362196318842 -0.0040714450877327541 0.031562173757501137 0.0044685967470725401 0.0003472537534649134 -0.0026246233793384205 0
leaf_weight=233 314 24 56 1570 3514 2539 48
leaf_count=233 314 24 56 1570 3514 2539 48
internal_value=-4.14914e-05 0.00380058 0.0202198 0.00307567 -0.00124105 -0.000890712 -0.00860196
internal_weight=8298 1964 80 1884 6334 6053 281
internal_count=8298 1964 80 1884 6334 6053 281
is_linear=0
shrinkage=0.0309264


Tree=71
num_leaves=8
num_cat=0
split_feature=6 4 1 0 0 1 3
split_gain=38.8584 23.4835 33.3475 19.5636 17.1704 15.7654 14.1241
threshold=-0.40640013159463378 3.293127341371676 2.1085998243013924 0.58371499654567249 0.42376275923786322 -1.511672522659506 0.8435948347019987
decision_type=2 2 2 2 2 2 2
left_child=1 4 -3 6 -1 -5 -2
right_child=3 2 -4 5 -6 -7 -8
leaf_value=0.00097723086330197932 -0.0020408852485572938 0.0057602750528063058 0.038766325865780667 -0.0085385617535211605 0.0075616588270196339 0.001822867844230372 -0.0069751434857275914
leaf_weight=2628 2578 130 40 153 449 1591 729
leaf_count=2628 2578 130 40 153 449 1591 729
internal_value=-4.01425e-05 0.00259298 0.0138334 -0.00174316 0.001955 0.000883943 -0.00314438
internal_weight=8298 3247 170 5051 3077 1744 3307
internal_count=8298 3247 170 5051 3077 1744 3307
is_linear=0
shrinkage=0.0309264


Tree=72
num_leaves=8
num_cat=0
split_feature=1 53 56 44 43 61 0
split_gain=61.1317 21.4155 20.2186 19.4128 15.2283 11.8212 8.50078
threshold=0.57391915548101147 -0.20743685583798355 -1.0371995016249158 -0.93867064152308977 -0.068039095922893783 0.87757875044950839 1.2057514749649318
decision_type=2 2 2 2 2 2 2
left_child=1 6 4 -4 -2 -3 -1
right_child=2 5 3 -5 -6 -7 -8
leaf_value=-0.0045964536591743838 -0.011452610933530987 -0.00097383520570695856 0.011891021086518449 0.0040339588418793412 0.0021293215549939909 0.0033077113916247583 0
leaf_weight=2085 116 2898 399 1401 235 783 472
leaf_count=2085 116 2898 399 1401 235 783 472
internal_value=-1.71176e-05 -0.00157357 0.00447242 0.0058046 -0.00221061 -4.89132e-05 -0.00374803
internal_weight=8389 6238 2151 1800 351 3681 2557
internal_count=8389 6238 2151 1800 351 3681 2557
is_linear=0
shrinkage=0.0309264


Tree=73
num_leaves=8
num_cat=0
split_feature=6 53 66 54 46 53 65
split_gain=41.8715 23.7201 20.2329 16.4569 15.9565 9.88194 9.27047
threshold=-0.59705564557576618 -0.30647619594404779 -1.0162736164617052 -0.068569253946777903 -0.8781086308861582 1.5167852296585764 -1.0805639752943577
decision_type=2 2 2 2 2 2 2
left_child=2 6 4 -4 -1 -3 -2
right_child=1 5 3 -5 -6 -7 -8
leaf_value=0.033702282894652151 -0.0074692764291577592 -0.00012841075455761054 -0.0013735582106124352 0.0054780222250096575 0.0082337405238965492 0.0051091215573353683 -0.0025314201693115808
leaf_weight=38 459 3731 471 1078 84 378 2150
leaf_count=38 459 3731 471 1078 84 378 2150
internal_value=-1.62038e-05 -0.00111209 0.00435839 0.00336099 0.0165943 0.000340706 -0.00342014
internal_weight=8389 6718 1671 1549 122 4109 2609
internal_count=8389 6718 1671 1549 122 4109 2609
is_linear=0
shrinkage=0.0309264


Tree=74
num_leaves=8
num_cat=0
split_feature=1 42 4 13 0 17 49
split_gain=56.0697 25.1442 17.5238 13.6449 21.558 11.5508 4.86641
threshold=0.57391915548101147 -1.2752034485876225 5.9113384511326599 0.15153370331511012 -1.9932932711912577 0.036182854755940859 -0.7741206222946585
decision_type=2 2 2 2 2 2 2
left_child=3 6 -3 5 -5 -1 -2
right_child=1 2 -4 4 -6 -7 -8
leaf_value=-0.00073338690534313373 0.00027797632128302014 0.0047260101874070171 0.034268726764909899 0.030299195812878568 0.00015386953511930065 -0.0040467485627560711 -0.014269951466472168
leaf_weight=1908 21 2031 20 23 2067 2240 79
leaf_count=1908 21 2031 20 23 2067 2240 79
internal_value=-1.55103e-05 0.00428387 0.00503954 -0.0015064 0.000510582 -0.00253525 -0.010693
internal_weight=8389 2151 2051 6238 2090 4148 100
internal_count=8389 2151 2051 6238 2090 4148 100
is_linear=0
shrinkage=0.0309264


Tree=75
num_leaves=8
num_cat=0
split_feature=1 42 53 56 62 0 50
split_gain=52.6645 23.5805 18.5791 17.0349 13.2894 8.08014 6.33055
threshold=0.57391915548101147 -1.2752034485876225 -0.20743685583798355 -1.4111431600031381 1.7970367263182674 1.2057514749649318 -1.1327979363715639
decision_type=2 2 2 2 2 2 2
left_child=2 6 5 -3 -4 -1 -2
right_child=1 3 4 -5 -6 -7 -8
leaf_value=-0.0043126953748589226 0.0041451379946126077 -0.0052995454438588656 -0.00051194505564973285 0.0056635949867603732 0.0074627353204056715 6.132397781663957e-05 -0.014163628156120676
leaf_weight=2085 18 141 3469 1910 212 472 82
leaf_count=2085 18 141 3469 1910 212 472 82
internal_value=-1.44535e-05 0.00415213 -0.00145955 0.00488447 -3.84816e-05 -0.00348488 -0.0103462
internal_weight=8389 2151 6238 2051 3681 2557 100
internal_count=8389 2151 6238 2051 3681 2557 100
is_linear=0
shrinkage=0.0309264


Tree=76
num_leaves=8
num_cat=0
split_feature=1 1 1 10 72 0 1
split_gain=32.8301 26.5339 23.8259 20.0292 11.0254 10.4994 10.0488
threshold=-0.19342117892917929 2.7185370131915438 3.4858773476017344 -0.57581416521371265 -1.0740765353004968 -1.406801734395956 -1.5313479158495111
decision_type=2 2 2 2 2 2 2
left_child=4 3 -3 -2 5 -1 -6
right_child=1 2 -4 -5 6 -7 -8
leaf_value=0.025905754538701233 0.0045037290661022406 0.025672125810055669 -0.009889191925326982 -3.8632198761049081e-05 -0.0079090582181636972 0.0020734086248012603 -0.002066225039643696
leaf_weight=21 1333 78 21 2986 318 162 3227
leaf_count=21 1333 78 21 2986 318 162 3227
internal_value=-6.97055e-05 0.00172718 0.0176017 0.00135122 -0.00221317 0.00509344 -0.00260507
internal_weight=8146 4418 99 4319 3728 183 3545
internal_count=8146 4418 99 4319 3728 183 3545
is_linear=0
shrinkage=0.0309264


Tree=77
num_leaves=8
num_cat=0
split_feature=4 55 12 7 67 0 69
split_gain=27.5457 21.4911 20.1373 14.6294 11.1638 8.21704 4.54859
threshold=-0.56403503165335278 -1.6453823986765299 -0.091715789507470585 0.91177804085965108 2.6009457737475166 0.58371499654567249 0.55631176342293565
decision_type=2 2 2 2 2 2 2
left_child=4 2 -2 -3 5 -1 -6
right_child=1 3 -4 -5 6 -7 -8
leaf_value=-0.0061193227100862346 0.0042756865523364516 9.1671343810061486e-05 0.028800664964210607 0.0052203420698619428 0 -0.0018038467586647003 0.023603669003976535
leaf_weight=814 112 5568 49 591 20 973 19
leaf_count=814 112 5568 49 591 20 973 19
internal_value=-6.73516e-05 0.000892772 0.012064 0.000592277 -0.00341903 -0.0037988 0.0126441
internal_weight=8146 6320 161 6159 1826 1787 39
internal_count=8146 6320 161 6159 1826 1787 39
is_linear=0
shrinkage=0.0309264


Tree=78
num_leaves=7
num_cat=0
split_feature=1 1 1 5 10 1
split_gain=30.3395 24.5156 22.5328 20.4429 18.7306 8.76627
threshold=2.7185370131915438 -0.19342117892917929 3.4858773476017344 -0.24514255548201822 -0.57581416521371265 -1.5313479158495111
decision_type=2 2 2 2 2 2
left_child=1 5 3 -2 -3 -1
right_child=2 4 -4 -5 -6 -7
leaf_value=-0.0070166703377071721 0 0.0043470824716904007 -0.0097541720987262895 0.034419116085444415 -4.5108585972543405e-05 -0.0016383798427004165
leaf_weight=326 21 1333 21 57 2986 3402
leaf_count=326 21 1333 21 57 2986 3402
internal_value=-6.43067e-05 -0.000280033 0.0169434 0.0248002 0.0012984 -0.00212269
internal_weight=8146 8047 99 78 4319 3728
internal_count=8146 8047 99 78 4319 3728
is_linear=0
shrinkage=0.0309264


Tree=79
num_leaves=8
num_cat=0
split_feature=1 1 1 10 72 0 1
split_gain=28.4233 23.0092 21.2024 17.5943 10.2459 9.83567 8.78871
threshold=-0.19342117892917929 2.7185370131915438 3.4858773476017344 -0.57581416521371265 -1.0740765353004968 -1.406801734395956 -1.5313479158495111
decision_type=2 2 2 2 2 2 2
left_child=4 3 -3 -2 5 -1 -6
right_child=1 2 -4 -5 6 -7 -8
leaf_value=0.025142186318641974 0.0042126427220123257 0.024022362519405649 -0.0094525103949809411 -4.3713542607399651e-05 -0.0073998088057194268 0.0020505133490072258 -0.0019304268050041001
leaf_weight=21 1333 78 21 2986 318 162 3227
leaf_count=21 1333 78 21 2986 318 162 3227
internal_value=-6.26203e-05 0.00160887 0.0163945 0.00125787 -0.00205748 0.00498555 -0.00243577
internal_weight=8146 4418 99 4319 3728 183 3545
internal_count=8146 4418 99 4319 3728 183 3545
is_linear=0
shrinkage=0.0309264


Tree=80
num_leaves=7
num_cat=0
split_feature=1 1 65 14 49 64
split_gain=36.7912 26.4996 21.7405 15.8464 19.7362 11.8717
threshold=2.698861620001539 0.10170971892089398 -0.56866305630462333 0.034011344495516481 -0.99806359658199006 0.92375448466364796
decision_type=2 2 2 2 2 2
left_child=1 5 -3 4 -2 -1
right_child=3 2 -4 -5 -6 -7
leaf_value=-0.0025859265392802378 0 -0.0023027040888315242 0.0032110868428951254 -0.00056862112320147729 0.034533459398716944 0.0017131728913241428
leaf_weight=4020 26 941 2429 29 57 710
leaf_count=4020 26 941 2429 29 57 710
internal_value=-0.000181657 -0.000431358 0.00165599 0.0174111 0.024322 -0.00192957
internal_weight=8212 8100 3370 112 83 4730
internal_count=8212 8100 3370 112 83 4730
is_linear=0
shrinkage=0.0309264


Tree=81
num_leaves=7
num_cat=0
split_feature=1 44 1 53 14 49
split_gain=34.5485 25.9454 22.7235 20.278 14.9602 18.4576
threshold=2.698861620001539 -0.84942361880558137 0.88872544652108942 0.37833159338516148 0.034011344495516481 -0.99806359658199006
decision_type=2 2 2 2 2 2
left_child=1 2 -1 -3 5 -2
right_child=4 3 -4 -5 -6 -7
leaf_value=0.0011740885199376307 0 -0.0025577265669342567 0.010315795959944279 0.0010865302001717317 -0.00055103569365051914 0.033465463297633169
leaf_weight=1316 26 4254 330 2200 29 57
leaf_count=1316 26 4254 330 2200 29 57
internal_value=-0.000175653 -0.000417818 0.00303858 -0.00130741 0.0168722 0.0235885
internal_weight=8212 8100 1646 6454 112 83
internal_count=8212 8100 1646 6454 112 83
is_linear=0
shrinkage=0.0309264


Tree=82
num_leaves=7
num_cat=0
split_feature=1 1 65 14 49 64
split_gain=32.4408 24.281 20.1803 14.1256 17.2592 11.0084
threshold=2.698861620001539 0.10170971892089398 -0.56866305630462333 0.034011344495516481 -0.99806359658199006 0.92375448466364796
decision_type=2 2 2 2 2 2
left_child=1 5 -3 4 -2 -1
right_child=3 2 -4 -5 -6 -7
leaf_value=-0.0024709625529737143 0 -0.0022193932687042061 0.0030920334282204111 -0.00053399442047401399 0.032430495443214823 0.0016678321651077094
leaf_weight=4020 26 941 2429 29 57 710
leaf_count=4020 26 941 2429 29 57 710
internal_value=-0.000169441 -0.000404299 0.00159345 0.0163498 0.0228778 -0.00183867
internal_weight=8212 8100 3370 112 83 4730
internal_count=8212 8100 3370 112 83 4730
is_linear=0
shrinkage=0.0309264


Tree=83
num_leaves=7
num_cat=0
split_feature=1 44 1 0 14 52
split_gain=30.4631 24.082 20.9668 19.4653 13.3394 16.511
threshold=2.698861620001539 -0.84942361880558137 0.88872544652108942 -0.41154336892514176 0.034011344495516481 -1.5846234287599759
decision_type=2 2 2 2 2 2
left_child=1 2 -1 -3 5 -2
right_child=4 3 -4 -5 -6 -7
leaf_value=0.0011452821559287947 -0.001366380339001812 -0.0037255133161364171 0.0099295124603811999 -7.1738765897770752e-05 -0.00051748001423659081 0.029514899177337444
leaf_weight=1316 18 2065 330 4389 29 65
leaf_count=1316 18 2065 330 4389 29 65
internal_value=-0.000163815 -0.000391596 0.0029381 -0.00124887 0.0158437 0.022189
internal_weight=8212 8100 1646 6454 112 83
internal_count=8212 8100 1646 6454 112 83
is_linear=0
shrinkage=0.0309264


Tree=84
num_leaves=8
num_cat=0
split_feature=4 59 4 0 3 70 10
split_gain=22.6429 24.213 18.6389 14.5992 20.8473 12.7073 12.704
threshold=-0.21458723945067351 1.1569877152101362 3.883482323653475 0.95693688359722806 0.77881227369812811 -0.26455631021715137 0.51160565798239033
decision_type=2 2 2 2 2 2 2
left_child=3 2 -2 4 -1 -3 -5
right_child=1 5 -4 6 -6 -7 -8
leaf_value=-0.0009951703296193781 0.00063533582614861122 0.0026724349509266946 0.015517850532421686 0.0053498664112797941 -0.0065322720653414419 0.015557556903438477 -0.0012437319599817986
leaf_weight=2473 3298 144 83 486 898 177 637
leaf_count=2473 3298 144 83 486 898 177 637
internal_value=6.68198e-06 0.001804 0.00101612 -0.00146227 -0.00248568 0.00993989 0.0015633
internal_weight=8196 3702 3381 4494 3371 321 1123
internal_count=8196 3702 3381 4494 3371 321 1123
is_linear=0
shrinkage=0.0309264


Tree=85
num_leaves=8
num_cat=0
split_feature=6 19 54 17 67 11 60
split_gain=25.8706 17.0857 27.0969 12.5715 12.7387 9.4648 5.77954
threshold=-0.37509848004549257 1.0000000180025095e-35 1.0000000180025095e-35 1.7131263340528722 -0.49811138758802814 0.73935454658109079 -0.84646878115195212
decision_type=2 2 2 2 2 2 2
left_child=1 2 -1 4 -2 -3 -5
right_child=3 5 -4 6 -6 -7 -8
leaf_value=0.00037399649433580225 0.0013702073935725231 0.0015886849038649203 0.0087107444270986666 0 -0.0021765334683891626 -0.0030505691519477642 -0.0097367221989961474
leaf_weight=773 1411 1330 746 75 3003 614 244
leaf_count=773 1411 1330 746 75 3003 614 244
internal_value=6.67227e-06 0.0020443 0.00450263 -0.00147317 -0.00103094 9.6561e-05 -0.00742872
internal_weight=8196 3463 1519 4733 4414 1944 319
internal_count=8196 3463 1519 4733 4414 1944 319
is_linear=0
shrinkage=0.0309264


Tree=86
num_leaves=7
num_cat=0
split_feature=6 0 0 3 1 4
split_gain=24.3013 20.8439 17.1633 18.963 17.0441 10.8645
threshold=-0.37509848004549257 -2.5086949247386436 0.95693688359722806 0.77881227369812811 0.59359454867101613 -0.77582157238224914
decision_type=2 2 2 2 2 2
left_child=1 -1 3 -2 -3 -4
right_child=2 4 5 -5 -6 -7
leaf_value=0.034436356222668385 -0.0011045712490497218 -3.8997667337273182e-06 -0.0033536984248915399 -0.0062225923108946875 0.0043927194468300155 0.0035901430917164661
leaf_weight=19 2631 2029 280 958 1415 864
leaf_count=19 2631 2029 280 958 1415 864
internal_value=6.48856e-06 0.00198154 -0.00142757 -0.00248525 0.00178734 0.00184498
internal_weight=8196 3463 4733 3589 3444 1144
internal_count=8196 3463 4733 3589 3444 1144
is_linear=0
shrinkage=0.0309264


Tree=87
num_leaves=8
num_cat=0
split_feature=6 19 54 53 65 3 41
split_gain=22.8262 15.9632 25.2102 12.8049 13.1273 11.3212 9.75475
threshold=-0.37509848004549257 1.0000000180025095e-35 1.0000000180025095e-35 1.5167852296585764 -0.69667066318038307 1.0598271275584465 -1.119960491544824
decision_type=2 2 2 2 2 2 2
left_child=1 2 -1 5 -5 -2 -3
right_child=3 6 -4 4 -6 -7 -8
leaf_value=0.00031162723625635582 -0.00091191105279199935 0.0085275952356510878 0.0083547132540910483 0.02880393440715551 0.003080537509099601 -0.0047695811976282056 -0.00050285442404865086
leaf_weight=773 3627 122 746 23 154 929 1822
leaf_count=773 3627 122 746 23 154 929 1822
internal_value=5.89406e-06 0.00192026 0.00429604 -0.00138377 0.00671797 -0.00170997 3.70263e-05
internal_weight=8196 3463 1519 4733 177 4556 1944
internal_count=8196 3463 1519 4733 177 4556 1944
is_linear=0
shrinkage=0.0309264


Tree=88
num_leaves=7
num_cat=0
split_feature=1 64 65 0 1 65
split_gain=23.1888 23.2849 16.1195 13.1688 17.3131 14.0836
threshold=0.3574898303909575 2.524292927652279 -0.86102127808076123 -0.44708831054909948 -1.551023309039516 0.53164294435170467
decision_type=2 2 2 2 2 2
left_child=3 2 -2 5 -5 -1
right_child=1 -3 -4 4 -6 -7
leaf_value=-0.0052341029549483236 -0.0029238638657139368 0.033115362968901801 0.0034452327932826734 -0.0082074513351342044 0.00056923083215558532 0.00095859787498810774
leaf_weight=1095 452 24 2169 228 3737 498
leaf_count=1095 452 24 2169 228 3737 498
internal_value=0.000237456 0.00262605 0.00232695 -0.000889863 5.13821e-05 -0.00326539
internal_weight=8203 2645 2621 5558 3965 1593
internal_count=8203 2645 2621 5558 3965 1593
is_linear=0
shrinkage=0.0309264


Tree=89
num_leaves=7
num_cat=0
split_feature=1 64 1 71 10 58
split_gain=21.7738 21.8594 15.5305 13.3027 14.6007 8.21376
threshold=0.3574898303909575 2.524292927652279 2.8759401587115829 0.54159421279883879 -0.29831508754019487 1.5162570487797618
decision_type=2 2 2 2 2 2
left_child=3 2 -2 5 -5 -1
right_child=1 -3 -4 4 -6 -7
leaf_value=-0.001961818781184559 0.0018341035715570147 0.032091222993086768 0.016613426493152696 0.0071268193123792626 -0.00045261276367792095 0.0030867202489257284
leaf_weight=4208 2550 24 71 379 646 325
leaf_count=4208 2550 24 71 379 646 325
internal_value=0.000230112 0.00254483 0.00225437 -0.000862052 0.00229901 -0.00158834
internal_weight=8203 2645 2621 5558 1025 4533
internal_count=8203 2645 2621 5558 1025 4533
is_linear=0
shrinkage=0.0309264


Tree=90
num_leaves=8
num_cat=0
split_feature=1 0 1 7 68 3 38
split_gain=20.5055 21.3784 19.1323 18.3375 18.1782 13.9612 13.8569
threshold=1.5773642081712604 -0.18050124836941719 -1.551023309039516 0.7012306908582161 0.091830021330126424 -1.4592984051893814 -0.5869380248149153
decision_type=2 2 2 2 2 2 2
left_child=1 5 -3 6 -5 -1 -2
right_child=3 2 -4 4 -6 -7 -8
leaf_value=0.0036380736085307635 -0.0051471163474495277 -0.0077665939551909945 0.0017516774879552182 0.0049902584704173691 0.037824164394789361 -0.0027208459316324578 0.0067117235321538819
leaf_weight=364 122 211 4035 40 33 3032 366
leaf_count=364 122 211 4035 40 33 3032 366
internal_value=0.000223389 -0.000188942 0.00126639 0.00593322 0.0205479 -0.0020239 0.00364007
internal_weight=8203 7642 4246 561 73 3396 488
internal_count=8203 7642 4246 561 73 3396 488
is_linear=0
shrinkage=0.0309264


Tree=91
num_leaves=7
num_cat=0
split_feature=53 1 0 0 50 46
split_gain=20.0503 21.9006 16.4885 16.0583 12.4839 11.7803
threshold=-0.20743685583798355 1.5773642081712604 0.032768401374328938 -2.0821556252511515 0.53632767982494889 -1.8994518405135636
decision_type=2 2 2 2 2 2
left_child=3 2 -2 -1 -3 -5
right_child=1 4 -4 5 -6 -7
leaf_value=0.021918112357052731 -0.00076870767067481688 0.011815239801863258 0.0029459862796143363 0.009777446067320934 -0.00098661074540218829 -0.0022086072242781846
leaf_weight=27 2583 286 2029 79 88 3111
leaf_count=27 2583 286 2029 79 88 3111
internal_value=0.000216677 0.00145046 0.000854217 -0.00167933 0.0086635 -0.00189541
internal_weight=8203 4986 4612 3217 374 3190
internal_count=8203 4986 4612 3217 374 3190
is_linear=0
shrinkage=0.0309264


Tree=92
num_leaves=8
num_cat=0
split_feature=53 12 65 6 46 0 16
split_gain=19.2093 16.8839 18.5095 16.026 14.7519 14.4108 9.13775
threshold=-0.49828312231981392 -0.058085430459603897 0.8479023043493954 -0.80763039236089762 -1.6705300866315589 -0.41154336892514176 1.6444277205637448
decision_type=2 2 2 2 2 2 2
left_child=3 5 -3 4 -1 -2 -5
right_child=1 2 -4 6 -6 -7 -8
leaf_value=0.032890500182789897 -0.0022273687396230056 0.0022808623001458186 0.012456448190256961 -0.0023737011651836408 0.0033676225348907196 0.0015020964647233436 -0.013642063871358729
leaf_weight=20 1568 811 224 2643 119 2686 73
leaf_count=20 1568 811 224 2643 119 2686 73
internal_value=-0.00010711 0.000989663 0.00453354 -0.0021572 0.00799096 0.000115169 -0.00269578
internal_weight=8144 5289 1035 2855 139 4254 2716
internal_count=8144 5289 1035 2855 139 4254 2716
is_linear=0
shrinkage=0.0309264


Tree=93
num_leaves=8
num_cat=0
split_feature=1 44 69 0 59 0 9
split_gain=21.9835 17.6303 17.1521 16.607 6.6529 7.35436 4.17067
threshold=-0.82303376100933534 -0.93867064152308977 0.73731676133851221 -0.35822595648920524 1.0072466933297961 0.40599028842588436 1.0545071929991683
decision_type=2 2 2 2 2 2 2
left_child=4 2 -2 -3 5 -1 -6
right_child=1 3 -4 -5 6 -7 -8
leaf_value=-0.0065444036467955224 0.0017346466081013914 -0.002246806318426187 0.010301748953091392 0.001307150803640801 0.0041257693388228591 -0.0017972666833538516 -0.0026817647253949838
leaf_weight=680 805 2020 321 3330 164 648 176
leaf_count=680 805 2020 321 3330 164 648 176
internal_value=-0.000103203 0.000705637 0.0042233 -2.49626e-05 -0.0032748 -0.00426733 0.000448379
internal_weight=8144 6476 1126 5350 1668 1328 340
internal_count=8144 6476 1126 5350 1668 1328 340
is_linear=0
shrinkage=0.0309264


Tree=94
num_leaves=8
num_cat=0
split_feature=1 65 12 5 59 1 72
split_gain=20.6582 17.0118 22.1228 12.8813 6.24955 4.72973 3.96585
threshold=-0.82303376100933534 -1.0805639752943577 -0.091715789507470585 -0.0074732511015672288 1.0072466933297961 -1.72810184774956 0.51206666708209447
decision_type=2 2 2 2 2 2 2
left_child=4 3 -3 -2 5 -1 -6
right_child=1 2 -4 -5 6 -7 -8
leaf_value=-0.010430172722319523 -0.0014100416495574828 0.0001035791820173335 0.004476139296137059 -0.011225197998624935 0.004596051454347069 -0.0035082858722444024 -0.0021581591277004394
leaf_weight=113 623 4166 1520 167 138 1215 202
leaf_count=113 623 4166 1520 167 138 1215 202
internal_value=-9.98131e-05 0.000684063 0.00128164 -0.00355095 -0.00317449 -0.00413657 0.000429765
internal_weight=8144 6476 5686 790 1668 1328 340
internal_count=8144 6476 5686 790 1668 1328 340
is_linear=0
shrinkage=0.0309264


Tree=95
num_leaves=8
num_cat=0
split_feature=1 44 69 0 59 0 72
split_gain=19.408 16.4557 16.1097 15.6691 5.87073 6.91227 3.72574
threshold=-0.82303376100933534 -0.93867064152308977 0.68322662517194577 -0.35822595648920524 1.0072466933297961 0.40599028842588436 0.51206666708209447
decision_type=2 2 2 2 2 2 2
left_child=4 2 -2 -3 5 -1 -6
right_child=1 3 -4 -5 6 -7 -8
leaf_value=-0.0062161953782814373 0.0015801304857267387 -0.0022012192991546792 0.0097886904515588277 0.0012506798715995777 0.0044539118553760578 -0.0016140243024809894 -0.0020914150267398661
leaf_weight=680 792 2020 334 3330 138 648 202
leaf_count=680 792 2020 334 3330 138 648 202
internal_value=-9.69245e-05 0.000662658 0.00406134 -4.28995e-05 -0.00307729 -0.00400986 0.000411727
internal_weight=8144 6476 1126 5350 1668 1328 340
internal_count=8144 6476 1126 5350 1668 1328 340
is_linear=0
shrinkage=0.0309264


Tree=96
num_leaves=7
num_cat=0
split_feature=4 53 0 0 0 64
split_gain=24.2093 23.8186 15.6934 14.8608 11.5594 10.899
threshold=3.293127341371676 -0.40340265123100855 -1.5845264425157446 -1.65561632576366 0.12163075543422278 1.4000122652602649
decision_type=2 2 2 2 2 2
left_child=1 4 -2 -3 -1 -4
right_child=2 3 5 -5 -6 -7
leaf_value=-0.0045379636911119844 0.034009806779750108 0.012082628925794819 0.011611374872519479 0.00055989023948794549 -0.0005439200880317023 -0.011165845342385945
leaf_weight=1526 27 110 99 5118 1330 23
leaf_count=1526 27 110 99 5118 1330 23
internal_value=-0.000186856 -0.000420776 0.0121542 0.000812317 -0.00269627 0.00688955
internal_weight=8233 8084 149 5228 2856 122
internal_count=8233 8084 149 5228 2856 122
is_linear=0
shrinkage=0.0309264


Tree=97
num_leaves=7
num_cat=0
split_feature=4 53 1 46 8 64
split_gain=22.7349 22.381 17.4534 13.1894 11.5952 9.77163
threshold=3.293127341371676 -0.40340265123100855 0.31813904401094767 -0.17373400355691312 -0.4024540619837001 0.55717355439958549
decision_type=2 2 2 2 2 2
left_child=1 5 -3 4 -2 -1
right_child=3 2 -4 -5 -6 -7
leaf_value=-0.001653785248985582 0.02762359393225149 -0.00059026358012192884 0.0030869562816539676 0.030613322156564905 0.0015520460667138639 -0.0061724401656365023
leaf_weight=2261 21 3255 1973 30 98 595
leaf_count=2261 21 3255 1973 30 98 595
internal_value=-0.000180686 -0.000407563 0.000787504 0.0117783 0.00659145 -0.00261344
internal_weight=8233 8084 5228 149 119 2856
internal_count=8233 8084 5228 149 119 2856
is_linear=0
shrinkage=0.0309264


Tree=98
num_leaves=7
num_cat=0
split_feature=4 53 1 0 0 13
split_gain=21.43 21.0227 16.3931 14.6328 10.8067 10.532
threshold=3.293127341371676 -0.40340265123100855 0.31813904401094767 -1.5845264425157446 0.12163075543422278 2.3958547256791882
decision_type=2 2 2 2 2 2
left_child=1 4 -3 -2 -1 -5
right_child=3 2 -4 5 -6 -7
leaf_value=-0.0043134158697258522 0.032534527004811922 -0.00057200880399130923 0.0029914877438680706 0.011554311344746217 -0.00045136600192216731 -0.009307682619675909
leaf_weight=1526 27 3255 1973 94 1330 28
leaf_count=1526 27 3255 1973 94 1330 28
internal_value=-0.000174705 -0.000395158 0.00076284 0.0114357 -0.00253318 0.00633855
internal_weight=8233 8084 5228 149 2856 122
internal_count=8233 8084 5228 149 2856 122
is_linear=0
shrinkage=0.0309264


Tree=99
num_leaves=7
num_cat=0
split_feature=4 53 1 0 46 0
split_gain=20.1263 19.747 15.3973 13.721 10.18 10.1403
threshold=3.293127341371676 -0.40340265123100855 0.31813904401094767 -1.5845264425157446 -1.1246397504513939 0.12163075543422278
decision_type=2 2 2 2 2 2
left_child=1 5 -3 -2 -5 -1
right_child=3 2 -4 4 -6 -7
leaf_value=-0.0041800173280981765 0.031528351067723615 -0.00055431862783172816 0.002898971650713289 -0.0051328780855589709 0.012919929204041603 -0.00043740689481000132
leaf_weight=1526 27 3255 1973 43 79 1330
leaf_count=1526 27 3255 1973 43 79 1330
internal_value=-0.000169302 -0.000383137 0.00073894 0.0110821 0.00612929 -0.00245541
internal_weight=8233 8084 5228 149 122 2856
internal_count=8233 8084 5228 149 122 2856
is_linear=0
shrinkage=0.0309264


Tree=100
num_leaves=5
num_cat=0
split_feature=4 53 3 66
split_gain=26.4173 24.0953 17.0889 14.7338
threshold=5.9113384511326599 1.5167852296585764 0.2279492960444999 1.469187437861714
decision_type=2 2 2 2
left_child=1 2 -1 -3
right_child=-2 3 -4 -5
leaf_value=0.00078508324627512638 0.033246185430164915 0.0077977915266984358 -0.0021861900571761269 -0.011935135766950879
leaf_weight=4639 23 505 3068 37
leaf_count=4639 23 505 3068 37
internal_value=0.00014455 4.5929e-05 -0.000390949 0.00635442
internal_weight=8272 8249 7707 542
internal_count=8272 8249 7707 542
is_linear=0
shrinkage=0.0309264


Tree=101
num_leaves=5
num_cat=0
split_feature=4 6 68 0
split_gain=24.8084 19.0343 22.6198 19.8003
threshold=5.9113384511326599 -0.51737871435977045 0.42973281432906552 -0.41154336892514176
decision_type=2 2 2 2
left_child=1 2 -1 -3
right_child=-2 3 -4 -5
leaf_value=0.00061892778399822617 0.032217999527679619 -0.0036995734805782771 0.0078413202081376848 0.00024102216217262868
leaf_weight=1601 23 1676 569 4403
leaf_count=1601 23 1676 569 4403
internal_value=0.00014008 4.43129e-05 0.00253677 -0.000836828
internal_weight=8272 8249 2170 6079
internal_count=8272 8249 2170 6079
is_linear=0
shrinkage=0.0309264


Tree=102
num_leaves=5
num_cat=0
split_feature=4 53 42 66
split_gain=23.2969 22.4999 15.4178 13.9106
threshold=5.9113384511326599 1.5167852296585764 -0.028295598080140927 1.469187437861714
decision_type=2 2 2 2
left_child=1 2 -1 -3
right_child=-2 3 -4 -5
leaf_value=-0.001647530936542349 0.031221611996706537 0.0075438422689003207 0.0011265139155640577 -0.011618588062338625
leaf_weight=4201 23 505 3506 37
leaf_count=4201 23 505 3506 37
internal_value=0.000136138 4.31381e-05 -0.000378816 0.00613942
internal_weight=8272 8249 7707 542
internal_count=8272 8249 7707 542
is_linear=0
shrinkage=0.0309264


Tree=103
num_leaves=5
num_cat=0
split_feature=4 53 12 3
split_gain=21.8781 21.1769 18.5102 17.2146
threshold=5.9113384511326599 1.308971730250067 -0.12534614855533727 0.2279492960444999
decision_type=2 2 2 2
left_child=1 3 -3 -1
right_child=-2 2 -4 -5
leaf_value=0.00071255706920889692 0.03025603876912257 -0.00021231053065643324 0.0086042476694643856 -0.002337534208649471
leaf_weight=4418 23 406 488 2937
leaf_count=4418 23 406 488 2937
internal_value=0.000131927 4.16083e-05 0.00454193 -0.000498311
internal_weight=8272 8249 894 7355
internal_count=8272 8249 894 7355
is_linear=0
shrinkage=0.0309264


Tree=104
num_leaves=8
num_cat=0
split_feature=17 12 71 70 58 35 50
split_gain=15.2228 12.7826 12.1214 9.83142 4.95569 4.39253 3.7839
threshold=1.6393590415637445 0.14369672382759632 2.2577773578142191 -0.91864345185061003 0.22914208851825799 0.4680522613734423 -1.414462884104726
decision_type=2 2 2 2 2 2 2
left_child=1 2 -1 -3 5 -2 -6
right_child=4 3 -4 -5 6 -7 -8
leaf_value=-0.00074938572173792798 -0.0068121906675354948 0.015531655434916997 0.0055973933964949506 0.0027083875300412397 0 0.00047951646393585944 -0.013403032877532941
leaf_weight=6889 174 68 299 503 18 122 114
leaf_count=6889 174 68 299 503 18 122 114
internal_value=-0.000437852 -0.000117781 -0.000478118 0.0043269 -0.00611831 -0.00363052 -0.0113017
internal_weight=8187 7759 7188 571 428 296 132
internal_count=8187 7759 7188 571 428 296 132
is_linear=0
shrinkage=0.0309264


Tree=105
num_leaves=7
num_cat=0
split_feature=0 6 0 71 1 5
split_gain=17.1206 23.3793 22.3218 23.4965 22.8285 5.23222
threshold=-2.1177005668751092 -0.67388697210547632 -0.57149560623295137 2.0419238027702713 -1.1771908384294232 -0.32436565694216857
decision_type=2 2 2 2 2 2
left_child=1 -1 3 -2 -4 -3
right_child=2 5 4 -5 -6 -7
leaf_value=0.032771287234616704 -0.0041216918320527993 0.009815032545124119 -0.0050210757821928017 0.005876333867615673 0.0011789808661327537 -0.011834036177481825
leaf_weight=35 2155 20 638 247 5070 22
leaf_count=35 2155 20 638 247 5070 22
internal_value=-0.00042378 0.0140642 -0.00056777 -0.00307186 0.000476839 -0.000282412
internal_weight=8187 77 8110 2402 5708 42
internal_count=8187 77 8110 2402 5708 42
is_linear=0
shrinkage=0.0309264


Tree=106
num_leaves=7
num_cat=0
split_feature=0 6 0 71 1 5
split_gain=16.0789 21.9548 20.9527 22.0757 21.4399 4.91445
threshold=-2.1177005668751092 -0.67388697210547632 -0.57149560623295137 2.0419238027702713 -1.1771908384294232 -0.32436565694216857
decision_type=2 2 2 2 2 2
left_child=1 -1 3 -2 -4 -3
right_child=2 5 4 -5 -6 -7
leaf_value=0.031757788400887769 -0.0039942225652508595 0.0095114889702794057 -0.0048657917877474319 0.0056945997549214013 0.0011425191926717785 -0.011468051689812945
leaf_weight=35 2155 20 638 247 5070 22
leaf_count=35 2155 20 638 247 5070 22
internal_value=-0.000410279 0.0136293 -0.000550012 -0.00297619 0.00046181 -0.00023525
internal_weight=8187 77 8110 2402 5708 42
internal_count=8187 77 8110 2402 5708 42
is_linear=0
shrinkage=0.0309264


Tree=107
num_leaves=8
num_cat=0
split_feature=0 10 71 0 6 32 14
split_gain=15.3195 19.0324 18.721 17.9364 20.6171 12.8757 10.1469
threshold=0.12163075543422278 0.10829938620571235 -0.091566806274629112 -2.1177005668751092 -0.67388697210547632 -2.0631533531279405 -1.0199746921550343
decision_type=2 2 2 2 2 2 2
left_child=3 2 -2 4 -1 -5 -3
right_child=1 6 -4 5 -6 -7 -8
leaf_value=0.030775633370679848 0.0014439274225500202 -0.0072229891748699778 0.0089995222982174102 0.015782864873171428 -0.00018954754023268853 -0.0019256941561799112 -2.7436115859340994e-05
leaf_weight=35 1057 214 460 39 42 4707 1633
leaf_count=35 1057 214 460 39 42 4707 1633
internal_value=-0.000397197 0.00119599 0.00376941 -0.00151925 0.0132078 -0.00176918 -0.000889393
internal_weight=8187 3364 1517 4823 77 4746 1847
internal_count=8187 3364 1517 4823 77 4746 1847
is_linear=0
shrinkage=0.0309264


Tree=108
num_leaves=8
num_cat=0
split_feature=10 12 53 1 69 50 27
split_gain=20.4537 13.092 15.8699 11.8553 15.9735 8.27983 7.33211
threshold=-0.20969481485423333 -0.12534614855533727 0.67002426983332763 -0.25244735849919397 0.27957194127438639 0.53632767982494889 1.2856016371130965
decision_type=2 2 2 2 2 2 2
left_child=3 5 -3 6 -5 -2 -1
right_child=1 2 -4 4 -6 -7 -8
leaf_value=-5.5712313649933294e-05 -0.0018506285208612502 -0.001438308652832503 0.0043601571053573391 0.0012568230279246513 0.0069583430854005647 -0.0060043907958412107 -0.013524922794726425
leaf_weight=1426 1770 1467 650 1503 705 653 40
leaf_count=1426 1770 1467 650 1503 705 653 40
internal_value=-4.26551e-05 -0.00143713 0.000317391 0.00166631 0.00310092 -0.00299161 -0.00045882
internal_weight=8214 4540 2117 3674 2208 2423 1466
internal_count=8214 4540 2117 3674 2208 2423 1466
is_linear=0
shrinkage=0.0309264


Tree=109
num_leaves=8
num_cat=0
split_feature=10 0 3 65 12 53 0
split_gain=19.2073 14.1154 15.7629 13.944 12.2988 15.0565 9.43225
threshold=-0.20969481485423333 0.83252958791337617 -1.9609443862156104 0.075310367313572144 -0.12534614855533727 0.37833159338516148 1.2057514749649318
decision_type=2 2 2 2 2 2 2
left_child=1 2 -1 -3 6 -6 -2
right_child=4 3 -4 -5 5 -7 -8
leaf_value=0.012059975640852063 -0.0038444260330163594 0.012629163344064723 0.00055915512172100121 0 -0.0017793243175255175 0.0035467055189803303 0.0009761609706096944
leaf_weight=119 1959 208 3216 131 1278 839 464
leaf_count=119 1959 208 3216 131 1278 839 464
internal_value=-4.15324e-05 0.00161433 0.000985177 0.00764988 -0.00139304 0.000306813 -0.00289975
internal_weight=8214 3674 3335 339 4540 2117 2423
internal_count=8214 3674 3335 339 4540 2117 2423
is_linear=0
shrinkage=0.0309264


Tree=110
num_leaves=8
num_cat=0
split_feature=10 71 68 12 45 65 50
split_gain=18.0407 12.342 13.7044 11.5439 14.5816 9.63226 7.78818
threshold=-0.20969481485423333 0.3000616537654231 0.36266253652389951 -0.12534614855533727 -0.32473865884835934 -0.098484549405916888 0.53632767982494889
decision_type=2 2 2 2 2 2 2
left_child=1 5 -3 6 -5 -1 -2
right_child=3 2 -4 4 -6 -7 -8
leaf_value=0.0023434166792502282 -0.0017022118642195437 0.001754716243008259 0.009358511058787709 -0.0032574092723446496 0.0021578470052955653 -0.0013880643142099225 -0.0057306232620813018
leaf_weight=1289 1770 681 358 718 1399 1346 653
leaf_count=1289 1770 681 358 718 1399 1346 653
internal_value=-3.95884e-05 0.001565 0.00442492 -0.0013496 0.000296562 0.000417511 -0.00280941
