tree
version=v4
num_class=1
num_tree_per_iteration=1
label_index=0
max_feature_idx=85
objective=regression
feature_names=team_a_xg team_b_xg team_a_xga team_b_xga odds_ft_1 odds_ft_x odds_ft_2 rolling_goals_scored_form_home rolling_goals_conceded_form_home rolling_points_earned_form_home rolling_xg_for_form_home rolling_xga_against_form_home days_since_last_match_home rolling_goals_scored_form_away rolling_goals_conceded_form_away rolling_points_earned_form_away rolling_xg_for_form_away rolling_xga_against_form_away days_since_last_match_away home_matches_last_7d home_matches_last_14d away_matches_last_7d away_matches_last_14d home_rolling_xg_as_home home_rolling_xga_as_home home_rolling_goals_scored_as_home home_rolling_goals_conceded_as_home away_rolling_xg_as_away away_rolling_xga_as_away away_rolling_goals_scored_as_away away_rolling_goals_conceded_as_away rolling_possession_form_home rolling_shots_for_form_home rolling_shots_against_form_home rolling_sot_for_form_home rolling_sot_against_form_home rolling_corners_for_form_home rolling_corners_against_form_home rolling_fouls_for_form_home rolling_fouls_against_form_home rolling_da_for_form_home rolling_da_against_form_home rolling_possession_form_away rolling_shots_for_form_away rolling_shots_against_form_away rolling_sot_for_form_away rolling_sot_against_form_away rolling_corners_for_form_away rolling_corners_against_form_away rolling_fouls_for_form_away rolling_fouls_against_form_away rolling_da_for_form_away rolling_da_against_form_away market_prob_btts_yes market_prob_o25 market_prob_u25 rolling_synth_goals_minus_xg_form_home rolling_synth_goals_per_xg_ratio_form_home rolling_synth_goals_per_shot_form_home rolling_synth_goals_per_sot_form_home rolling_synth_sot_per_shot_ratio_form_home rolling_synth_goals_minus_xg_form_away rolling_synth_goals_per_xg_ratio_form_away rolling_synth_goals_per_shot_form_away rolling_synth_goals_per_sot_form_away rolling_synth_sot_per_shot_ratio_form_away rolling_synth_xga_per_shot_conceded_form_home rolling_synth_xga_per_sot_conceded_form_home rolling_synth_xga_per_shot_conceded_form_away rolling_synth_xga_per_sot_conceded_form_away pre_match_home_elo pre_match_away_elo elo_diff elo_prob_home_win dynamic_league_quality competition_type_cup competition_type_league dynamic_league_tier_0 dynamic_league_tier_1 dynamic_league_tier_2 dynamic_league_tier_3 dynamic_league_tier_4 dynamic_league_tier_5 dynamic_league_tier_6 dynamic_league_tier_7 dynamic_league_tier_8
feature_infos=[-2.7943132483941304:5.3363851235696025] [-2.6188109356420908:4.8630582717549622] [-5.0601871237118443:4.0736346479724368] [-5.0224655197506483:3.4323674785995704] [-1.4357516979694145:25.068930034334034] [-3.1925908368274722:9.2984226034994162] [-1.1961350316808481:8.4826162145100721] [-2.1147901761589885:5.2954264333328673] [-2.3242593145533692:4.3719627321949677] [-1.9471883699471093:2.3392409795691158] [-4.5257329479714876:4.6530492718366583] [-4.7034312796230155:3.9748613601300149] [-0.27791678995706309:14.468583810530491] [-2.1216869158871425:4.5012780112073765] [-2.3045520950718728:4.9612953317838668] [-2.0038458564382076:2.2767593131791219] [-4.4760148116353733:4.5440718949342322] [-4.6371435681620561:4.0429348983721889] [-0.25496046714460263:22.534206910131008] [-1.1083646733417039:2.2037990531785723] [-1.7089178022368505:2.832589781789848] [-1.1193698557551384:2.2359419227319752] [-1.7141184903820905:2.8124856783939158] [-4.5257329479714876:4.6530492718366583] [-4.7034312796230155:3.9748613601300149] [-2.1147901761589885:5.2954264333328673] [-2.3242593145533692:4.3719627321949677] [-4.4760148116353733:4.5440718949342322] [-4.6371435681620561:4.0429348983721889] [-2.1216869158871425:4.5012780112073765] [-2.3045520950718728:4.9612953317838668] [-3.5002218115018291:3.5634006563434459] [-3.2292360939916747:3.9825342820975416] [-3.0223784421437947:3.4638779033272913] [-3.5347568465431722:4.7728308287232712] [-3.715596057265798:3.3428940127343028] [-3.2876891529005907:6.238099512262246] [-3.297935267523703:3.9623232348400177] [-3.5666600999516191:3.9934093186608806] [-3.1243220991356568:5.2332671144057814] [-3.9554511655792082:5.2155218116850932] [-4.2645161610501177:4.436093152362222] [-3.5295883351177761:3.4968968773710789] [-2.9625038855000709:3.869899377760083] [-3.0194821149218791:3.3240742341516092] [-3.5060281195532097:4.4349824936908337] [-3.6643469046515649:3.4111549273306334] [-3.3156410879830944:5.289720217670439] [-3.2454126032212569:4.0383370322209826] [-3.136987291019945:5.2529516969320262] [-3.5377198944737471:3.9626824702260852] [-3.9125352833136282:5.0330554338927103] [-4.2232466488302496:5.0823316749459222] [-5.630511149935451:3.5873483318069175] [-2.5126620302625438:3.7047803650568816] [-3.7145532647140826:2.602173329634212] [-3.1402071781418237:5.3670697918768067] [-2.3217973232491453:7.8341650234423348] [-2.0212826399726431:11.802156400806966] [-2.4396645589974373:5.8859517265880967] [-4.7611244321065467:7.090365508668615] [-2.8680000297805961:4.210055172952357] [-2.3564143526010324:7.6613502481197742] [-2.0730279956362012:7.0905049140058498] [-2.4977491947557828:5.8946720291957062] [-4.808844930713331:5.4587634939601397] [-3.346848709637078:5.8363695685418735] [-3.668340304659405:9.7634924550813356] [-3.3493701948744201:5.9540505704475226] [-3.7483863167429616:10.662913663788023] [-2.2903885041298082:3.4829053971102848] [-2.2564913632167851:3.5116769389905911] [-3.2895681035027402:3.7604926499655837] [-2.8408489428266543:2.2309827787209815] [-1.0304034005408464:-0.18099126664335957] none none [0:1] [0:1] none none none none none none none
tree_sizes=721 770 761 766 769 768 761 765 852 853 768 760 852 767 766 765 855 687 858 863 777 771 771 772 597 603 773

Tree=0
num_leaves=7
num_cat=0
split_feature=4 0 70 0 0 4
split_gain=377.175 123.821 71.2894 32.3825 30.0054 28.8278
threshold=-0.47363175108679928 -0.79714388846854078 1.8380482908589346 0.090486938165054473 -0.35332847515174309 -0.19268212472438281
decision_type=2 2 2 2 2 2
left_child=2 5 4 -3 -1 -2
right_child=1 3 -4 -5 -6 -7
leaf_value=1.5135606168679929 1.4920885779370601 1.4944611493363238 1.6210222933214042 1.5218032221395372 1.5578926746058166 1.4493868539012194
leaf_weight=109 117 653 91 395 425 387
leaf_count=109 117 653 91 395 425 387
internal_value=1.50991 1.49 1.55935 1.50477 1.54884 1.4593
internal_weight=2177 1552 625 1048 534 504
internal_count=2177 1552 625 1048 534 504
is_linear=0
shrinkage=1


Tree=1
num_leaves=7
num_cat=0
split_feature=4 0 70 0 0 4
split_gain=323.795 101.546 68.1911 28.1795 22.0191 21.1002
threshold=-0.43122426031511385 -0.79714388846854078 1.4577118791866226 0.090486938165054473 -0.38883370821708679 -0.19268212472438281
decision_type=2 2 2 2 2 2
left_child=2 5 4 -3 -1 -2
right_child=1 3 -4 -5 -6 -7
leaf_value=0.00022744436673067397 -0.01914427591487556 -0.016954434855797101 0.085017910778502237 0.0093448415960364038 0.036791632467355791 -0.057246850994552068
leaf_weight=121 105 627 157 367 413 387
leaf_count=121 105 627 157 367 413 387
internal_value=-0.00128384 -0.0211078 0.0413473 -0.00724434 0.0285066 -0.0491157
internal_weight=2177 1486 691 994 534 492
internal_count=2177 1486 691 994 534 492
is_linear=0
shrinkage=0.0753797


Tree=2
num_leaves=7
num_cat=0
split_feature=6 0 0 4 31 0
split_gain=277.778 97.1944 49.7858 32.9857 24.1607 13.5564
threshold=0.01513221986451555 -0.54860725701113411 1.4751910277134634 -0.17147837933854007 0.98947918512676336 -0.35332847515174309
decision_type=2 2 2 2 2 2
left_child=1 3 5 -1 -3 -2
right_child=2 4 -4 -5 -6 -7
leaf_value=-0.012971786841044912 0.0068961694240012644 -0.003960314173220545 0.092556138661425508 -0.047358398793938015 0.03785034874731507 0.040911179772392448
leaf_weight=229 82 806 104 515 87 354
leaf_count=229 82 806 104 515 87 354
internal_value=-0.00118705 -0.0166519 0.045694 -0.0367746 0.000113411 0.0345141
internal_weight=2177 1637 540 744 893 436
internal_count=2177 1637 540 744 893 436
is_linear=0
shrinkage=0.0753797


Tree=3
num_leaves=7
num_cat=0
split_feature=4 0 70 0 0 0
split_gain=239.623 76.3616 56.3167 22.303 21.7955 19.2725
threshold=-0.43122426031511385 -0.79714388846854078 1.8380482908589346 0.090486938165054473 -0.38883370821708679 -1.4894959332427449
decision_type=2 2 2 2 2 2
left_child=2 5 4 -3 -1 -2
right_child=1 3 -4 -5 -6 -7
leaf_value=-0.00048699622172111018 -0.068420372497388415 -0.014767723993784884 0.090142482848868721 0.0086291911416660518 0.034598918212004344 -0.033870707154038622
leaf_weight=128 122 627 93 367 470 370
leaf_count=128 122 627 93 367 470 370
internal_value=-0.00109754 -0.0181512 0.0355763 -0.00612923 0.027089 -0.042439
internal_weight=2177 1486 691 994 598 492
internal_count=2177 1486 691 994 598 492
is_linear=0
shrinkage=0.0753797


Tree=4
num_leaves=7
num_cat=0
split_feature=4 0 70 4 31 18
split_gain=213.718 57.1989 43.7076 18.1368 18.0237 17.9989
threshold=-0.45242800570095654 -0.79714388846854078 1.4577118791866226 -0.20328399741730421 0.91780035934604554 -0.12498422735025501
decision_type=2 2 2 2 2 2
left_child=2 3 5 -2 -3 -1
right_child=1 4 -4 -5 -6 -7
leaf_value=0.0078787153580433707 -0.0083855928654080966 -0.008545649253047476 0.071003935376817581 -0.044050160545227111 0.027016013232605413 0.036542486387794226
leaf_weight=208 102 898 152 394 89 310
leaf_count=208 102 898 152 394 89 310
internal_value=0.000129876 -0.0158333 0.0354631 -0.0367162 -0.00533875 0.0250331
internal_weight=2153 1483 670 496 987 518
internal_count=2153 1483 670 496 987 518
is_linear=0
shrinkage=0.0753797


Tree=5
num_leaves=7
num_cat=0
split_feature=4 0 70 0 18 4
split_gain=182.714 49.6164 37.3671 16.1075 15.3877 9.67384
threshold=-0.45242800570095654 -1.0634331364586191 1.4577118791866226 0.090486938165054473 -0.12498422735025501 0.053811415386039126
decision_type=2 2 2 2 2 2
left_child=2 5 4 -3 -1 -2
right_child=1 3 -4 -5 -6 -7
leaf_value=0.0072848457276159483 -0.023791739774016153 -0.013413549482484292 0.065652001567056584 0.005629958440991626 0.033788005720050349 -0.050285933552250875
leaf_weight=208 126 776 152 374 310 207
leaf_count=208 126 776 152 374 310 207
internal_value=0.000120113 -0.0146398 0.03279 -0.00722027 0.0231461 -0.040262
internal_weight=2153 1483 670 1150 518 333
internal_count=2153 1483 670 1150 518 333
is_linear=0
shrinkage=0.0753797


Tree=6
num_leaves=7
num_cat=0
split_feature=6 0 0 54 31 13
split_gain=146.99 46.7854 44.5274 21.2654 14.5025 11.7537
threshold=-0.13574243191434285 -0.79714388846854078 1.4751910277134634 0.5169327254822268 0.91780035934604554 0.68343263501288487
decision_type=2 2 2 2 2 2
left_child=1 5 3 -2 -3 -1
right_child=2 4 -4 -5 -6 -7
leaf_value=-0.024943616288209257 0.0079496330446875534 -0.0070765738115924444 0.071571744390278885 0.03654977081921882 0.025380553009133701 -0.050221155633217156
leaf_weight=330 355 864 112 253 86 153
leaf_count=330 355 864 112 253 86 153
internal_value=0.000111066 -0.01385 0.0278973 0.019851 -0.00413813 -0.0329516
internal_weight=2153 1433 720 608 950 483
internal_count=2153 1433 720 608 950 483
is_linear=0
shrinkage=0.0753797


Tree=7
num_leaves=7
num_cat=0
split_feature=4 0 54 0 14 70
split_gain=135.097 37.0964 31.516 19.3527 14.4819 13.221
threshold=-0.44182613300803519 -0.35332847515174309 1.4321694341108595 -1.4894959332427449 0.51964865047837028 -0.61252834702673598
decision_type=2 2 2 2 2 2
left_child=2 3 4 -2 -1 -3
right_child=1 5 -4 -5 -6 -7
leaf_value=0.011387397658117918 -0.05026793736772172 0.013650778747463935 0.064120959247945378 -0.018394079263556341 0.036245738208571049 -0.0083330191084391783
leaf_weight=361 128 267 113 701 211 372
leaf_count=361 128 267 113 701 211 372
internal_value=0.000102713 -0.0127957 0.0277447 -0.023316 0.0205576 0.000852763
internal_weight=2153 1468 685 829 572 639
internal_count=2153 1468 685 829 572 639
is_linear=0
shrinkage=0.0753797


Tree=8
num_leaves=8
num_cat=0
split_feature=0 54 4 51 72 44 0
split_gain=128.942 58.6101 23.8356 20.4336 16.5277 15.2932 11.7583
threshold=-0.35332847515174309 0.69171750339078042 0.077665628945112322 -0.21870990289415648 0.62025906203284076 -1.2110121031246124 -1.4184854671120573
decision_type=2 2 2 2 2 2 2
left_child=2 4 5 -3 -2 -1 -4
right_child=1 3 6 -5 -6 -7 -8
leaf_value=0.020394692462881541 0.0022856577248108988 0.066957357642044704 -0.05516378325971142 0.028459392917199053 0.028894231973999891 -0.014586862097573068 -0.025924546659472286
leaf_weight=84 712 137 103 183 163 459 324
leaf_count=84 712 137 103 183 163 459 324
internal_value=0.000764526 0.0173384 -0.0196538 0.0449428 0.00724271 -0.0091751 -0.0329786
internal_weight=2165 1195 970 320 875 543 427
internal_count=2165 1195 970 320 875 543 427
is_linear=0
shrinkage=0.0753797


Tree=9
num_leaves=8
num_cat=0
split_feature=0 54 4 51 55 44 0
split_gain=110.237 50.1076 20.3778 17.6303 14.992 13.0747 10.0527
threshold=-0.35332847515174309 0.69171750339078042 0.077665628945112322 -0.38623032831000548 0.058831677777705517 -1.2110121031246124 -1.4184854671120573
decision_type=2 2 2 2 2 2 2
left_child=2 4 5 -3 -2 -1 -4
right_child=1 3 6 -5 -6 -7 -8
leaf_value=0.018857513995622112 0.01866664872173341 0.06583320000915302 -0.051005924324480069 0.028658839528825975 -0.0014364882421752194 -0.013487330785501831 -0.023970416718961864
leaf_weight=84 354 111 103 209 521 459 324
leaf_count=84 354 111 103 209 521 459 324
internal_value=0.000706913 0.0160315 -0.0181723 0.0415552 0.00669678 -0.00848347 -0.0304928
internal_weight=2165 1195 970 320 875 543 427
internal_count=2165 1195 970 320 875 543 427
is_linear=0
shrinkage=0.0753797


Tree=10
num_leaves=7
num_cat=0
split_feature=0 72 3 55 45 0
split_gain=94.2444 44.82 23.7422 18.4538 17.5847 12.1775
threshold=-0.35332847515174309 0.84273136343575417 0.14953198933069572 0.058831677777705517 1.1924031599495164 -1.2587119183180102
decision_type=2 2 2 2 2 2
left_child=4 3 -3 -2 5 -1
right_child=1 2 -4 -5 -6 -7
leaf_value=-0.029083824245639048 0.018249771725344276 0.018111050300970058 0.060547193699540536 -0.0034916624213178283 -0.041109610175190207 -0.0074934576893102619
leaf_weight=194 406 145 155 489 144 632
leaf_count=194 406 145 155 489 144 632
internal_value=0.000653639 0.0148231 0.0400376 0.00637102 -0.0168025 -0.0125646
internal_weight=2165 1195 300 895 970 826
internal_count=2165 1195 300 895 970 826
is_linear=0
shrinkage=0.0753797


Tree=11
num_leaves=7
num_cat=0
split_feature=4 0 9 0 0 7
split_gain=82.6824 38.4645 24.7069 21.3257 11.8383 8.0538
threshold=-0.21918680645668628 1.7414802757035417 1.4343281168934683 0.090486938165054473 -1.2587119183180102 -0.1402142481450217
decision_type=2 2 2 2 2 2
left_child=1 2 -1 4 -2 -5
right_child=3 -3 -4 5 -6 -7
leaf_value=0.005387607761407961 -0.036923054348888866 0.062388049481811203 0.036393180671873519 0.020327926485141291 -0.01539623045015351 -0.010757580163628887
leaf_weight=882 188 88 175 114 637 81
leaf_count=882 188 88 175 114 637 81
internal_value=0.000604373 0.014508 0.0105213 -0.0150031 -0.0203021 0.00741559
internal_weight=2165 1145 1057 1020 825 195
internal_count=2165 1145 1057 1020 825 195
is_linear=0
shrinkage=0.0753797


Tree=12
num_leaves=8
num_cat=0
split_feature=4 73 68 0 12 1 31
split_gain=68.3828 31.1852 16.3846 14.8897 12.0496 11.2047 5.37968
threshold=-0.21918680645668628 1.3961525795414553 0.70855866403068035 -0.97467005379525984 -0.12879487377235743 0.34440305307700553 -0.96539788162008389
decision_type=2 2 2 2 2 2 2
left_child=1 2 -1 6 -3 -5 -2
right_child=3 4 -4 5 -6 -7 -8
leaf_value=0.0016644151801312832 -0.01321455479070693 0.062370560419274135 0.026758203791843616 -0.017816376172108864 0.022566025549103839 0.0012041373724076007 -0.035212431824547849
leaf_weight=807 88 80 181 391 94 320 224
leaf_count=807 88 80 181 391 94 320 224
internal_value=-0.00106802 0.0114442 0.00626176 -0.0152804 0.0408693 -0.0092559 -0.0290085
internal_weight=2185 1162 988 1023 174 711 312
internal_count=2185 1162 988 1023 174 711 312
is_linear=0
shrinkage=0.0753797


Tree=13
num_leaves=7
num_cat=0
split_feature=4 4 1 52 8 69
split_gain=58.9261 20.9018 18.5261 16.156 15.521 9.53006
threshold=-0.48423362377972068 0.11477218337033718 -1.3094838243476061 1.2511659960102961 1.0946796431667698 0.35689265847523544
decision_type=2 2 2 2 2 2
left_child=2 4 -1 -4 -2 -3
right_child=1 5 3 -5 -6 -7
leaf_value=0.046753918005297712 -0.0060331337062673549 -0.014894717394599433 0.019586478654050433 -0.012638440903080876 0.021218692400323036 -0.037775354826403131
leaf_weight=109 851 432 406 113 138 136
leaf_count=109 851 432 406 113 138 136
internal_value=-0.000987498 -0.00884923 0.0185039 0.0125702 -0.00223039 -0.0203737
internal_weight=2185 1557 628 519 989 568
internal_count=2185 1557 628 519 989 568
is_linear=0
shrinkage=0.0753797


Tree=14
num_leaves=7
num_cat=0
split_feature=0 0 40 45 7 49
split_gain=51.6083 28.7339 18.1762 13.17 11.4032 4.56918
threshold=-0.35332847515174309 1.8124907418342295 0.69911986525455683 1.0600529830621155 0.094741134715947542 -0.15855895029699521
decision_type=2 2 2 2 2 2
left_child=3 2 -2 4 -1 -5
right_child=1 -3 -4 5 -6 -7
leaf_value=-0.015142103389324372 9.2499661749465755e-07 0.052013012204147238 0.02084384601410575 -0.045335010697479028 0.0052756781579711993 -0.020390465713501581
leaf_weight=598 785 84 341 85 210 82
leaf_count=598 785 84 341 85 210 82
internal_value=-0.000913055 0.00948607 0.00631315 -0.0138186 -0.0098355 -0.0330886
internal_weight=2185 1210 1126 975 808 167
internal_count=2185 1210 1126 975 808 167
is_linear=0
shrinkage=0.0753797


Tree=15
num_leaves=7
num_cat=0
split_feature=4 0 72 0 1 31
split_gain=46.2476 22.6106 13.61 10.96 10.0126 4.62196
threshold=-0.21918680645668628 1.8124907418342295 1.6459756653130229 -0.97467005379525984 0.34440305307700553 -0.96539788162008389
decision_type=2 2 2 2 2 2
left_child=1 2 -1 5 -5 -2
right_child=3 -3 -4 4 -6 -7
leaf_value=0.0039031014348561376 -0.0096711564050836595 0.048113389796026411 0.033224572660948054 -0.01545576452787336 0.0025244953161264023 -0.030060599646477129
leaf_weight=983 88 80 99 391 320 224
leaf_count=983 88 80 99 391 320 224
internal_value=-0.00084423 0.00944556 0.00658619 -0.0125321 -0.00736345 -0.0243102
internal_weight=2185 1162 1082 1023 711 312
internal_count=2185 1162 1082 1023 711 312
is_linear=0
shrinkage=0.0753797


Tree=16
num_leaves=8
num_cat=0
split_feature=0 54 39 56 67 1 0
split_gain=41.99 29.3826 15.358 11.9347 9.39167 9.1554 7.95635
threshold=-0.35332847515174309 0.69171750339078042 -0.24095382046386052 -0.13640321095006006 1.3654736530346481 0.14751175814550391 -1.2587119183180102
decision_type=2 2 2 2 2 2 2
left_child=3 4 -3 5 -2 -1 -5
right_child=1 2 -4 6 -6 -7 -8
leaf_value=-0.032702100287661975 -9.3365243469392919e-05 0.046255496652263396 0.013002407437748172 -0.020301835518960698 0.026979549668477598 -0.011219177383168452 0.0015857884086956549
leaf_weight=199 809 153 163 125 80 260 385
leaf_count=199 809 153 163 125 80 260 385
internal_value=-3.32911e-05 0.00936101 0.0291037 -0.0117156 0.00234315 -0.0205336 -0.00377909
internal_weight=2174 1205 316 969 889 459 510
internal_count=2174 1205 316 969 889 459 510
is_linear=0
shrinkage=0.0753797


Tree=17
num_leaves=6
num_cat=0
split_feature=73 40 4 44 1
split_gain=36.2501 15.0657 14.0006 19.1255 12.6683
threshold=1.0523193430466293 0.88910235630899637 -0.21918680645668628 -1.2110121031246124 0.34440305307700553
decision_type=2 2 2 2 2
left_child=2 -2 3 -1 -4
right_child=1 -3 4 -5 -6
leaf_value=0.0358644993322162 0.0068939953239357202 0.040135476814848955 -0.017908577939005105 -0.00074091708015575758 -0.0011574419395901461
leaf_weight=91 152 158 536 745 492
leaf_count=91 152 158 536 745 492
internal_value=-3.07742e-05 0.0238371 -0.00400032 0.00324399 -0.00989158
internal_weight=2174 310 1864 836 1028
internal_count=2174 310 1864 836 1028
is_linear=0
shrinkage=0.0753797


Tree=18
num_leaves=8
num_cat=0
split_feature=0 55 14 70 56 1 42
split_gain=34.0633 23.1215 18.5159 13.4048 9.91377 7.42357 7.36795
threshold=-0.35332847515174309 0.058831677777705517 0.68767199870800588 -0.61252834702673598 -0.13640321095006006 0.14751175814550391 -0.8621263563025624
decision_type=2 2 2 2 2 2 2
left_child=4 2 -2 -3 5 -1 -6
right_child=1 3 -4 -5 6 -7 -8
leaf_value=-0.029544584621313034 0.010520999792298629 0.012464644453826513 0.03944312517703976 -0.012696685064530736 0.015994355088238765 -0.010199914368294089 -0.00756767613314704
leaf_weight=199 519 189 166 331 92 260 418
leaf_count=199 519 189 166 331 92 260 418
internal_value=-2.84345e-05 0.00843282 0.0175303 -0.00355145 -0.0105504 -0.0185872 -0.00331706
internal_weight=2174 1205 685 520 969 459 510
internal_count=2174 1205 685 520 969 459 510
is_linear=0
shrinkage=0.0753797


Tree=19
num_leaves=8
num_cat=0
split_feature=0 54 39 68 56 0 1
split_gain=29.1216 20.4771 12.895 9.3631 8.47559 6.66391 6.34663
threshold=-0.35332847515174309 0.69171750339078042 -0.24095382046386052 -0.67139949110369079 -0.13640321095006006 -1.2587119183180102 0.14751175814550391
decision_type=2 2 2 2 2 2 2
left_child=4 3 -3 -2 6 -6 -1
right_child=1 2 -4 -5 5 -7 -8
leaf_value=-0.027317624642560004 0.018388046400847711 0.039995019055281418 0.0095250020595734237 -0.0016994681503763587 -0.018188323840506275 0.0018428236935427544 -0.0094310749079557794
leaf_weight=199 161 153 163 728 125 385 260
leaf_count=199 161 153 163 728 125 385 260
internal_value=-2.62852e-05 0.00779719 0.0242786 0.00193858 -0.00975515 -0.00306701 -0.0171862
internal_weight=2174 1205 316 889 969 510 459
internal_count=2174 1205 316 889 969 510 459
is_linear=0
shrinkage=0.0753797


Tree=20
num_leaves=7
num_cat=0
split_feature=4 56 5 1 51 70
split_gain=32.4152 16.0556 13.3079 9.70749 15.2379 7.95892
threshold=-0.21918680645668628 1.6280690494982488 0.93917478391922582 0.34440305307700553 1.2722218833068999 -0.66472342976519572
decision_type=2 2 2 2 2 2
left_child=1 2 -1 5 -5 -2
right_child=3 -3 -4 4 -6 -7
leaf_value=0.0030233675191989541 -0.0063353723996999525 0.037794349218162132 0.027716774294249943 0.0067588311213920569 -0.022847404131127409 -0.024649491653246161
leaf_weight=893 252 102 144 354 137 290
leaf_count=893 252 102 144 354 137 290
internal_value=0.000489854 0.00925957 0.00645256 -0.00917975 -0.00150224 -0.0161347
internal_weight=2172 1139 1037 1033 491 542
internal_count=2172 1139 1037 1033 491 542
is_linear=0
shrinkage=0.0753797


Tree=21
num_leaves=7
num_cat=0
split_feature=4 70 36 1 51 8
split_gain=27.7127 14.2738 10.4526 8.29918 13.0273 6.9024
threshold=-0.21918680645668628 1.8380482908589346 1.3410391421433225 0.34440305307700553 1.2722218833068999 -0.3755423971351029
decision_type=2 2 2 2 2 2
left_child=1 2 -1 5 -5 -2
right_child=3 -3 -4 4 -6 -7
leaf_value=0.00868483154205444 -0.029127412255569196 0.036217572791394835 -0.015138899836603914 0.0062493655609344679 -0.021125288414034764 -0.0098255339728974024
leaf_weight=924 143 97 118 354 137 399
leaf_count=924 143 97 118 354 137 399
internal_value=0.000452936 0.00856163 0.00598683 -0.00848781 -0.00138903 -0.0149185
internal_weight=2172 1139 1042 1033 491 542
internal_count=2172 1139 1042 1033 491 542
is_linear=0
shrinkage=0.0753797


Tree=22
num_leaves=7
num_cat=0
split_feature=4 1 57 14 1 0
split_gain=23.6924 13.8499 12.1578 8.03303 6.79995 6.31517
threshold=-0.21918680645668628 -1.3291729538407562 1.1546798763094139 0.60315237037023162 0.34440305307700553 -0.51310202394579019
decision_type=2 2 2 2 2 2
left_child=1 -1 -3 4 -2 -5
right_child=3 2 -4 5 -6 -7
leaf_value=0.030972784544226514 -0.017731203804948543 0.0013905562618119417 0.024339404679765704 -0.0069104469157773504 -0.0042150293180927348 0.02082534667476095
leaf_weight=131 423 853 155 98 423 89
leaf_count=131 423 853 155 98 423 89
internal_value=0.000418786 0.00791627 0.00491959 -0.00784804 -0.0109732 0.00629038
internal_weight=2172 1139 1008 1033 846 187
internal_count=2172 1139 1008 1033 846 187
is_linear=0
shrinkage=0.0753797


Tree=23
num_leaves=7
num_cat=0
split_feature=31 1 7 4 71 57
split_gain=21.3356 15.3674 14.2457 13.0142 10.8486 9.88881
threshold=0.29223969798705474 -1.3094838243476061 0.46620062785858035 0.093568437984494393 -0.85282332217484502 1.215055990708106
decision_type=2 2 2 2 2 2
left_child=2 -2 3 -1 -3 -4
right_child=1 4 5 -5 -6 -7
leaf_value=0.0040226275834704412 0.037276468901832671 0.028462752664321793 -0.035230753144728136 -0.012288290845287502 0.0019749226540953214 -0.0018315393119589397
leaf_weight=773 106 105 136 434 538 80
leaf_count=773 106 105 136 434 538 80
internal_value=0.000387234 0.0106848 -0.00503296 -0.00184232 0.00630065 -0.0228613
internal_weight=2172 749 1423 1207 643 216
internal_count=2172 749 1423 1207 643 216
is_linear=0
shrinkage=0.0753797


Tree=24
num_leaves=5
num_cat=0
split_feature=0 4 67 0
split_gain=23.7899 13.2685 13.9617 5.69898
threshold=1.5106962607788073 0.11477218337033718 1.3654736530346481 -1.5072485497754169
decision_type=2 2 2 2
left_child=1 2 -1 -3
right_child=-2 3 -4 -5
leaf_value=0.0003554600610922988 0.030889078859545501 -0.02926573629557834 0.028392687716968828 -0.0079899829229008786
leaf_weight=1360 139 84 109 482
leaf_count=1360 139 84 109 482
internal_value=0.000718728 -0.00134218 0.00243599 -0.0111479
internal_weight=2174 2035 1469 566
internal_count=2174 2035 1469 566
is_linear=0
shrinkage=0.0753797


Tree=25
num_leaves=5
num_cat=0
split_feature=0 45 71 11
split_gain=20.3387 12.2866 10.5776 5.74667
threshold=1.5106962607788073 0.88358608054558119 -1.3446559530977795 -0.69700145461598506
decision_type=2 2 2 2
left_child=1 2 -1 -3
right_child=-2 3 -4 -5
leaf_value=0.023181963893775359 0.028560822485610093 0.0019743322029654189 -0.00038091763903575111 -0.021617447779495438
leaf_weight=116 139 80 1619 220
leaf_count=116 139 80 1619 220
internal_value=0.000664558 -0.00124101 0.00119458 -0.0153264
internal_weight=2174 2035 1735 300
internal_count=2174 2035 1735 300
is_linear=0
shrinkage=0.0753797


Tree=26
num_leaves=7
num_cat=0
split_feature=0 54 7 43 63 59
split_gain=18.0519 15.7608 10.9848 10.8027 9.55048 6.31822
threshold=0.4100340357531489 1.2202832718218861 -0.099617069774448938 -0.055977497298674905 2.0744021232242562 0.23573476984701044
decision_type=2 2 2 2 2 2
left_child=3 2 -2 4 -1 -5
right_child=1 -3 -4 5 -6 -7
leaf_value=0.0036620643983858339 0.018611344683161331 0.035920875693396671 -0.0048154213375350211 -0.016616624151430299 -0.023069592398156803 -0.00024216724504597074
leaf_weight=892 204 123 257 418 83 197
leaf_count=892 204 123 257 418 83 197
internal_value=0.000614474 0.0119482 0.00555147 -0.00354841 0.00138625 -0.0113716
internal_weight=2174 584 461 1590 975 615
internal_count=2174 584 461 1590 975 615
is_linear=0
shrinkage=0.0753797


end of trees

feature_importances:
team_a_xg=44
odds_ft_1=24
team_b_xg=12
pre_match_home_elo=9
market_prob_o25=7
rolling_possession_form_home=6
rolling_goals_scored_form_home=4
rolling_da_for_form_away=4
rolling_synth_goals_minus_xg_form_home=4
rolling_goals_conceded_form_away=3
rolling_shots_against_form_away=3
rolling_sot_for_form_away=3
market_prob_u25=3
elo_diff=3
odds_ft_2=2
rolling_goals_conceded_form_home=2
days_since_last_match_away=2
rolling_fouls_against_form_home=2
rolling_da_for_form_home=2
rolling_synth_goals_per_xg_ratio_form_home=2
rolling_synth_xga_per_sot_conceded_form_home=2
rolling_synth_xga_per_shot_conceded_form_away=2
pre_match_away_elo=2
elo_prob_home_win=2
team_b_xga=1
odds_ft_x=1
rolling_points_earned_form_home=1
rolling_xga_against_form_home=1
days_since_last_match_home=1
rolling_goals_scored_form_away=1
rolling_corners_for_form_home=1
rolling_possession_form_away=1
rolling_shots_for_form_away=1
rolling_fouls_for_form_away=1
rolling_da_against_form_away=1
rolling_synth_goals_per_sot_form_home=1
rolling_synth_goals_per_shot_form_away=1
rolling_synth_xga_per_sot_conceded_form_away=1

parameters:
[boosting: gbdt]
[objective: regression]
[metric: poisson,l2]
[tree_learner: serial]
[device_type: cpu]
[data_sample_strategy: bagging]
[data: ]
[valid: ]
[num_iterations: 107]
[learning_rate: 0.0753797]
[num_leaves: 112]
[num_threads: 2]
[seed: 0]
[deterministic: 0]
[force_col_wise: 0]
[force_row_wise: 0]
[histogram_pool_size: -1]
[max_depth: 3]
[min_data_in_leaf: 80]
[min_sum_hessian_in_leaf: 0.001]
[bagging_fraction: 0.925228]
[pos_bagging_fraction: 1]
[neg_bagging_fraction: 1]
[bagging_freq: 4]
[bagging_seed: 3]
[bagging_by_query: 0]
[feature_fraction: 0.986577]
[feature_fraction_bynode: 1]
[feature_fraction_seed: 2]
[extra_trees: 0]
[extra_seed: 6]
[early_stopping_round: 0]
[early_stopping_min_delta: 0]
[first_metric_only: 0]
[max_delta_step: 0]
[lambda_l1: 5.03016e-07]
[lambda_l2: 0.00914617]
[linear_lambda: 0]
[min_gain_to_split: 0]
[drop_rate: 0.1]
[max_drop: 50]
[skip_drop: 0.5]
[xgboost_dart_mode: 0]
[uniform_drop: 0]
[drop_seed: 4]
[top_rate: 0.2]
[other_rate: 0.1]
[min_data_per_group: 100]
[max_cat_threshold: 32]
[cat_l2: 10]
[cat_smooth: 10]
[max_cat_to_onehot: 4]
[top_k: 20]
[monotone_constraints: ]
[monotone_constraints_method: basic]
[monotone_penalty: 0]
[feature_contri: ]
[forcedsplits_filename: ]
[refit_decay_rate: 0.9]
[cegb_tradeoff: 1]
[cegb_penalty_split: 0]
[cegb_penalty_feature_lazy: ]
[cegb_penalty_feature_coupled: ]
[path_smooth: 0]
[interaction_constraints: ]
[verbosity: 1]
[saved_feature_importance_type: 0]
[use_quantized_grad: 0]
[num_grad_quant_bins: 4]
[quant_train_renew_leaf: 0]
[stochastic_rounding: 1]
[linear_tree: 0]
[max_bin: 255]
[max_bin_by_feature: ]
[min_data_in_bin: 3]
[bin_construct_sample_cnt: 200000]
[data_random_seed: 1]
[is_enable_sparse: 1]
[enable_bundle: 1]
[use_missing: 1]
[zero_as_missing: 0]
[feature_pre_filter: 1]
[pre_partition: 0]
[two_round: 0]
[header: 0]
[label_column: ]
[weight_column: ]
[group_column: ]
[ignore_column: ]
[categorical_feature: ]
[forcedbins_filename: ]
[precise_float_parser: 0]
[parser_config_file: ]
[objective_seed: 5]
[num_class: 1]
[is_unbalance: 0]
[scale_pos_weight: 1]
[sigmoid: 1]
[boost_from_average: 1]
[reg_sqrt: 0]
[alpha: 0.9]
[fair_c: 1]
[poisson_max_delta_step: 0.7]
[tweedie_variance_power: 1.5]
[lambdarank_truncation_level: 30]
[lambdarank_norm: 1]
[label_gain: ]
[lambdarank_position_bias_regularization: 0]
[eval_at: ]
[multi_error_top_k: 1]
[auc_mu_weights: ]
[num_machines: 1]
[local_listen_port: 12400]
[time_out: 120]
[machine_list_filename: ]
[machines: ]
[gpu_platform_id: -1]
[gpu_device_id: -1]
[gpu_use_dp: 0]
[num_gpu: 1]

end of parameters

pandas_categorical:[]
