tree
version=v4
num_class=1
num_tree_per_iteration=1
label_index=0
max_feature_idx=85
objective=regression
feature_names=team_a_xg team_b_xg team_a_xga team_b_xga odds_ft_1 odds_ft_x odds_ft_2 rolling_goals_scored_form_home rolling_goals_conceded_form_home rolling_points_earned_form_home rolling_xg_for_form_home rolling_xga_against_form_home days_since_last_match_home rolling_goals_scored_form_away rolling_goals_conceded_form_away rolling_points_earned_form_away rolling_xg_for_form_away rolling_xga_against_form_away days_since_last_match_away home_matches_last_7d home_matches_last_14d away_matches_last_7d away_matches_last_14d home_rolling_xg_as_home home_rolling_xga_as_home home_rolling_goals_scored_as_home home_rolling_goals_conceded_as_home away_rolling_xg_as_away away_rolling_xga_as_away away_rolling_goals_scored_as_away away_rolling_goals_conceded_as_away rolling_possession_form_home rolling_shots_for_form_home rolling_shots_against_form_home rolling_sot_for_form_home rolling_sot_against_form_home rolling_corners_for_form_home rolling_corners_against_form_home rolling_fouls_for_form_home rolling_fouls_against_form_home rolling_da_for_form_home rolling_da_against_form_home rolling_possession_form_away rolling_shots_for_form_away rolling_shots_against_form_away rolling_sot_for_form_away rolling_sot_against_form_away rolling_corners_for_form_away rolling_corners_against_form_away rolling_fouls_for_form_away rolling_fouls_against_form_away rolling_da_for_form_away rolling_da_against_form_away market_prob_btts_yes market_prob_o25 market_prob_u25 rolling_synth_goals_minus_xg_form_home rolling_synth_goals_per_xg_ratio_form_home rolling_synth_goals_per_shot_form_home rolling_synth_goals_per_sot_form_home rolling_synth_sot_per_shot_ratio_form_home rolling_synth_goals_minus_xg_form_away rolling_synth_goals_per_xg_ratio_form_away rolling_synth_goals_per_shot_form_away rolling_synth_goals_per_sot_form_away rolling_synth_sot_per_shot_ratio_form_away rolling_synth_xga_per_shot_conceded_form_home rolling_synth_xga_per_sot_conceded_form_home rolling_synth_xga_per_shot_conceded_form_away rolling_synth_xga_per_sot_conceded_form_away pre_match_home_elo pre_match_away_elo elo_diff elo_prob_home_win dynamic_league_quality competition_type_cup competition_type_league dynamic_league_tier_0 dynamic_league_tier_1 dynamic_league_tier_2 dynamic_league_tier_3 dynamic_league_tier_4 dynamic_league_tier_5 dynamic_league_tier_6 dynamic_league_tier_7 dynamic_league_tier_8
feature_infos=[-2.7902541142875559:5.1145815172673839] [-2.611344268745964:4.7101935863591713] [-2.896956612268959:6.9479154220101709] [-2.9400906608977744:4.7552151343922233] [-1.4326358865008024:13.264266565535568] [-3.1770615332525636:9.5150434193124518] [-1.1959553071390945:9.9001541341755868] [-2.115294826448888:6.0293378628095455] [-2.325796472323963:5.9666124586351952] [-1.9466505463547048:2.3376553596244403] [-2.8531261732918676:4.5566429978716876] [-2.9043570892981774:6.4299748258587668] [-0.2775602705573138:14.91012145625014] [-2.1202416947354283:5.9684070197714227] [-2.3053452973198549:4.4769438563421806] [-2.0020091736807317:2.2765537563888536] [-2.7607756443951654:6.0740305666048799] [-3.209935484137648:5.2288339058358266] [-0.25457794919647825:23.690347676247555] [-1.1116077007545802:2.2014434278464843] [-1.7170455882924212:2.8198442050824428] [-1.1224142492569713:2.2288118849236538] [-1.7190427963828863:2.7950668391427986] [-2.8531261732918676:4.5566429978716876] [-2.9043570892981774:6.4299748258587668] [-2.115294826448888:6.0293378628095455] [-2.325796472323963:5.9666124586351952] [-2.7607756443951654:6.0740305666048799] [-3.209935484137648:5.2288339058358266] [-2.1202416947354283:5.9684070197714227] [-2.3053452973198549:4.4769438563421806] [-3.4310613568450785:3.3799758522891898] [-2.7410494084965773:4.1978869762996007] [-2.9281852223761859:6.433786337497243] [-2.6988819312895158:4.7678413029271178] [-3.700303272160641:4.7575006970389415] [-3.2865523588315959:4.0926462696511292] [-3.2935824991096689:4.6188879863771879] [-3.1492940126280016:5.4677022322753945] [-3.5451533404710909:9.4222863629524394] [-3.8495059866443437:4.2808782468624571] [-3.9708064648328256:5.4402303870144726] [-3.9145489121535708:3.4932955166371835] [-2.7054432032915292:4.4641557175620248] [-2.8713381782383909:4.7771017057119751] [-3.4857729235006349:4.4312013013104323] [-3.2217981864111751:4.8297472112114725] [-3.314657588368612:3.9641830517530705] [-3.2431409418890595:4.1688602520644693] [-3.5542298329138142:9.4464575386620186] [-3.1198513016310678:5.210822961459197] [-2.928104013816196:4.9695186558486801] [-2.9462808682342887:4.0790852840099454] [-3.9645164130420554:2.4820284155394106] [-2.2905925267814125:4.2678768068665258] [-4.1138758576968657:2.2970252295493889] [-4.4320587867755989:4.8245993154237565] [-2.3189893347611394:6.88183983201169] [-2.0106122473746195:8.0885433831563738] [-2.4220832531048968:8.9356931516408729] [-3.0663756107348799:5.8697274964164539] [-3.526113342603348:5.2605135816500415] [-2.3505054270336707:5.2941098601861576] [-2.0552640437710763:7.6447341036607703] [-2.4771645569895777:9.0535757232907397] [-4.796872426368842:3.8729095050168203] [-2.3093212894855997:10.114057163079853] [-2.652914847625039:7.3449930277059519] [-2.2900159659455821:10.019866545567961] [-2.9055804574065709:7.56374059491728] [-2.4683022425130248:3.5563013937659615] [-2.4108810932199565:3.7487710078421213] [-3.6017465553779124:3.5561081104814765] [-2.9376027698550935:2.1975793528629] [-1.5601455218875895:-0.11671946052349559] none none [0:1] none [0:1] none none none none none none
tree_sizes=818 842 862 862 845 855 862 844 854

Tree=0
num_leaves=8
num_cat=0
split_feature=1 6 1 1 6 13 1
split_gain=572.903 177.491 96.9596 88.1372 27.8332 21.4045 8.01577
threshold=-0.082264660194862546 -0.49177913105566279 2.141750871060192 -1.0466607755178503 -0.57713381906577566 1.9655111855748744 -1.578062716614191
decision_type=2 2 2 2 2 2 2
left_child=3 2 -2 6 -5 -3 -1
right_child=1 5 -4 4 -6 -7 -8
leaf_value=1.0008092302806855 1.3284068044131603 1.2192434431527281 1.5769976581281635 1.237592107561907 1.1328302697272139 1.5113511871266483 1.0585566085109235
leaf_weight=126 604 998 69 109 1225 9.9999999999999982 384
leaf_count=126 604 998 69 109 1225 10 384
internal_value=1.191 1.27489 1.35389 1.11453 1.14139 1.22214 1.04429
internal_weight=3525 1681 673 1844 1334 1008 510
internal_count=3525 1681 673 1844 1334 1008 510
is_linear=0
shrinkage=1


Tree=1
num_leaves=8
num_cat=0
split_feature=1 6 1 5 6 28 1
split_gain=385.35 102.79 79.0707 48.4538 23.0165 20.9448 18.8452
threshold=0.19327708704027674 -0.62550147560483971 -0.65302970803908 1.5785115411616411 -0.38650834917652349 0.68569419742060589 -1.1450685423875433
decision_type=2 2 2 2 2 2 2
left_child=2 3 6 -2 -4 -3 -1
right_child=1 5 4 -5 -6 -7 -8
leaf_value=-0.12594036417041096 0.1475240788365772 0.067744320202947669 0.021083677742256172 0.36748316613732079 -0.036259135893188278 -0.0012100306990051859 -0.069909501127084203
leaf_weight=401 325 685 410 45 847 233 579
leaf_count=401 325 685 410 45 847 233 579
internal_value=-0.000692731 0.0858734 -0.050535 0.174276 -0.0175554 0.0502428 -0.0928364
internal_weight=3525 1288 2237 370 1257 918 980
internal_count=3525 1288 2237 370 1257 918 980
is_linear=0
shrinkage=0.198667


Tree=2
num_leaves=8
num_cat=0
split_feature=1 1 1 0 4 6 9
split_gain=248.601 90.5797 46.5458 45.3412 30.7318 19.0275 7.67765
threshold=0.11455087354452252 1.5709858232159744 -0.92857145527421947 -1.8754248220963661 -0.055462113567178735 -0.70232069481394122 -0.83987152064342563
decision_type=2 2 2 2 2 2 2
left_child=2 4 6 -3 -2 -4 -1
right_child=1 3 5 -5 -6 -7 -8
leaf_value=-0.027914169727669216 0.014457538286566441 0.64668826890313458 0.086368776479797904 0.16475861502970637 0.07904910375965947 -0.028745103412021571 -0.096420478380472976
leaf_weight=73 661 7.9999999999999991 59 209 519 1437 559
leaf_count=73 661 8 59 209 519 1437 559
internal_value=-0.00055511 0.0645605 -0.0433025 0.182526 0.0428669 -0.0242052 -0.0885076
internal_weight=3525 1397 2128 217 1180 1496 632
internal_count=3525 1397 2128 217 1180 1496 632
is_linear=0
shrinkage=0.198667


Tree=3
num_leaves=8
num_cat=0
split_feature=1 1 52 49 1 3 61
split_gain=161.272 68.1152 33.9315 30.8845 24.2695 18.5031 5.78838
threshold=-0.082264660194862546 1.7284382502074827 -1.2451123627824778 -1.9186594861671769 -1.0466607755178503 -1.9001123109389095 1.2865931104305905
decision_type=2 2 2 2 2 2 2
left_child=4 2 -2 -3 6 -6 -1
right_child=1 3 -4 -5 5 -7 -8
leaf_value=-0.082979315929636518 0.11202302916901427 0.52077855746657675 0.019665552221227633 0.14273236159742125 0.16272506647403859 -0.029811277841034906 0.0099357359206800559
leaf_weight=482 178 8.9999999999999982 1331 163 20 1314 28
leaf_count=482 178 9 1331 163 20 1314 28
internal_value=-0.000444826 0.0440615 0.0305599 0.162514 -0.041017 -0.0269247 -0.0778781
internal_weight=3525 1681 1509 172 1844 1334 510
internal_count=3525 1681 1509 172 1844 1334 510
is_linear=0
shrinkage=0.198667


Tree=4
num_leaves=8
num_cat=0
split_feature=72 1 55 1 53 36 1
split_gain=110.912 50.6097 37.2561 25.3895 18.5885 14.0001 6.64047
threshold=-0.78238341052120985 -0.65302970803908 -0.29314560908732773 2.102387764312315 0.67117524549978169 -1.0280703543565799 -1.578062716614191
decision_type=2 2 2 2 2 2 2
left_child=2 6 3 -1 -3 -4 -2
right_child=1 4 5 -5 -6 -7 -8
leaf_value=0.10483208102994723 -0.097618053511713043 -0.0080868304142849932 -0.061927301307083953 0.26608855080662225 0.039807128824540815 0.051002854719480545 -0.048060185414392123
leaf_weight=214 123 1596 51 47 400 288 806
leaf_count=214 123 1596 51 47 400 288 806
internal_value=-0.000356455 -0.016317 0.0774513 0.133871 0.00151116 0.0340134 -0.0546217
internal_weight=3525 2925 600 261 1996 339 929
internal_count=3525 2925 600 261 1996 339 929
is_linear=0
shrinkage=0.198667


Tree=5
num_leaves=8
num_cat=0
split_feature=6 5 1 1 53 34 56
split_gain=84.6247 47.1202 27.2915 26.133 13.128 9.00719 7.23975
threshold=-0.27270209849637289 0.80905267841238671 0.075187766796645863 2.141750871060192 0.32242386439795562 -1.7825113525447469 -0.67143231522950042
decision_type=2 2 2 2 2 2 2
left_child=1 2 -1 -3 5 -2 -6
right_child=4 3 -4 -5 6 -7 -8
leaf_value=-0.0033745701500745057 0.13147549029379571 0.10860792470666787 0.046522077246743891 0.34958137874039452 0.06340486842817801 -0.041454295387927928 -0.0100697254281117
leaf_weight=791 11.999999999999998 78 955 23 64 1271 306
leaf_count=791 12 78 955 23 64 1271 306
internal_value=0.00232485 0.031549 0.0239171 0.163483 -0.0303292 -0.0398369 0.00263939
internal_weight=3500 1847 1746 101 1653 1283 370
internal_count=3500 1847 1746 101 1653 1283 370
is_linear=0
shrinkage=0.198667


Tree=6
num_leaves=8
num_cat=0
split_feature=1 1 67 41 6 0 69
split_gain=57.4546 32.8705 23.2953 19.6935 13.0833 12.8693 7.951
threshold=0.094869320170584179 2.6829935888435021 2.6586353276362362 1.6118571433989215 0.26645501410084049 -1.573442337295391 2.4792460123806235
decision_type=2 2 2 2 2 2 2
left_child=4 2 -2 -3 5 -1 -6
right_child=1 3 -4 -5 6 -7 -8
leaf_value=0.10120752173672773 0.024240211878210387 0.14173768113550345 0.26537086042703423 0.5022887334213485 -0.050856972536606565 -0.012951367455479776 0.087277161025038241
leaf_weight=40 1353 41 15.999999999999998 6.9999999999999991 505 1521 17
leaf_count=40 1353 41 16 7 505 1521 17
internal_value=0.00186298 0.0327242 0.0270584 0.194318 -0.019131 -0.0100261 -0.0463584
internal_weight=3500 1417 1369 48 2083 1561 522
internal_count=3500 1417 1369 48 2083 1561 522
is_linear=0
shrinkage=0.198667


Tree=7
num_leaves=8
num_cat=0
split_feature=6 5 0 51 0 4 53
split_gain=43.1699 25.9954 23.583 13.871 11.1847 10.4308 8.55291
threshold=-0.31253428623442564 0.76145728484026831 -0.47209445155065777 0.52710590416218706 0.718071812076715 -0.77973392505242411 0.26663036367950982
decision_type=2 2 2 2 2 2 2
left_child=1 2 -1 -3 6 -6 -2
right_child=4 3 -4 -5 5 -7 -8
leaf_value=-0.0062025340618531251 -0.039956064727788947 0.25976445200092257 0.04204009564936783 0.082001098441565709 -0.044362354207659355 0.01958130458561895 -0.0015156472139869995
leaf_weight=823 938 21 778 99 134 405 302
leaf_count=823 938 21 778 99 134 405 302
internal_value=0.00149287 0.0239254 0.0172408 0.11311 -0.0202083 0.00368436 -0.030594
internal_weight=3500 1721 1601 120 1779 539 1240
internal_count=3500 1721 1601 120 1779 539 1240
is_linear=0
shrinkage=0.198667


Tree=8
num_leaves=8
num_cat=0
split_feature=1 71 39 13 66 4 63
split_gain=33.8802 20.9482 16.9534 13.2325 6.68809 9.70199 6.06691
threshold=-0.20035398043849384 2.3549818119025967 -0.3346662526073621 2.3997641098598685 -1.1793339405178001 -0.15590856917462151 2.1993809071610277
decision_type=2 2 2 2 2 2 2
left_child=4 3 -3 -2 5 -1 -6
right_child=1 2 -4 -5 6 -7 -8
leaf_value=-0.0062349241401502683 0.017710765561771102 0.23199882872950989 0.041952549376123395 -0.11537421926351281 -0.023233144437807284 0.21108310255437246 0.049954655927502853
leaf_weight=25 1725 32 44 30 1586 11.999999999999998 46
leaf_count=25 1725 32 44 30 1586 12 46
internal_value=0.00119628 0.0198578 0.121972 0.0154358 -0.0192766 0.0642466 -0.0211703
internal_weight=3500 1831 76 1755 1669 37 1632
internal_count=3500 1831 76 1755 1669 37 1632
is_linear=0
shrinkage=0.198667


end of trees

feature_importances:
team_b_xg=21
odds_ft_2=8
team_a_xg=4
odds_ft_1=3
odds_ft_x=3
market_prob_btts_yes=3
rolling_goals_scored_form_away=2
team_b_xga=1
rolling_points_earned_form_home=1
away_rolling_xga_as_away=1
rolling_sot_for_form_home=1
rolling_corners_for_form_home=1
rolling_fouls_against_form_home=1
rolling_da_against_form_home=1
rolling_fouls_for_form_away=1
rolling_da_for_form_away=1
rolling_da_against_form_away=1
market_prob_u25=1
rolling_synth_goals_minus_xg_form_home=1
rolling_synth_goals_minus_xg_form_away=1
rolling_synth_goals_per_shot_form_away=1
rolling_synth_xga_per_shot_conceded_form_home=1
rolling_synth_xga_per_sot_conceded_form_home=1
rolling_synth_xga_per_sot_conceded_form_away=1
pre_match_away_elo=1
elo_diff=1

parameters:
[boosting: gbdt]
[objective: regression]
[metric: poisson,l2]
[tree_learner: serial]
[device_type: cpu]
[data_sample_strategy: bagging]
[data: ]
[valid: ]
[num_iterations: 48]
[learning_rate: 0.198667]
[num_leaves: 232]
[num_threads: 2]
[seed: 0]
[deterministic: 0]
[force_col_wise: 0]
[force_row_wise: 0]
[histogram_pool_size: -1]
[max_depth: 3]
[min_data_in_leaf: 6]
[min_sum_hessian_in_leaf: 0.001]
[bagging_fraction: 0.871091]
[pos_bagging_fraction: 1]
[neg_bagging_fraction: 1]
[bagging_freq: 5]
[bagging_seed: 3]
[bagging_by_query: 0]
[feature_fraction: 0.809936]
[feature_fraction_bynode: 1]
[feature_fraction_seed: 2]
[extra_trees: 0]
[extra_seed: 6]
[early_stopping_round: 0]
[early_stopping_min_delta: 0]
[first_metric_only: 0]
[max_delta_step: 0]
[lambda_l1: 3.24335e-06]
[lambda_l2: 2.33226e-07]
[linear_lambda: 0]
[min_gain_to_split: 0]
[drop_rate: 0.1]
[max_drop: 50]
[skip_drop: 0.5]
[xgboost_dart_mode: 0]
[uniform_drop: 0]
[drop_seed: 4]
[top_rate: 0.2]
[other_rate: 0.1]
[min_data_per_group: 100]
[max_cat_threshold: 32]
[cat_l2: 10]
[cat_smooth: 10]
[max_cat_to_onehot: 4]
[top_k: 20]
[monotone_constraints: ]
[monotone_constraints_method: basic]
[monotone_penalty: 0]
[feature_contri: ]
[forcedsplits_filename: ]
[refit_decay_rate: 0.9]
[cegb_tradeoff: 1]
[cegb_penalty_split: 0]
[cegb_penalty_feature_lazy: ]
[cegb_penalty_feature_coupled: ]
[path_smooth: 0]
[interaction_constraints: ]
[verbosity: 1]
[saved_feature_importance_type: 0]
[use_quantized_grad: 0]
[num_grad_quant_bins: 4]
[quant_train_renew_leaf: 0]
[stochastic_rounding: 1]
[linear_tree: 0]
[max_bin: 255]
[max_bin_by_feature: ]
[min_data_in_bin: 3]
[bin_construct_sample_cnt: 200000]
[data_random_seed: 1]
[is_enable_sparse: 1]
[enable_bundle: 1]
[use_missing: 1]
[zero_as_missing: 0]
[feature_pre_filter: 1]
[pre_partition: 0]
[two_round: 0]
[header: 0]
[label_column: ]
[weight_column: ]
[group_column: ]
[ignore_column: ]
[categorical_feature: ]
[forcedbins_filename: ]
[precise_float_parser: 0]
[parser_config_file: ]
[objective_seed: 5]
[num_class: 1]
[is_unbalance: 0]
[scale_pos_weight: 1]
[sigmoid: 1]
[boost_from_average: 1]
[reg_sqrt: 0]
[alpha: 0.9]
[fair_c: 1]
[poisson_max_delta_step: 0.7]
[tweedie_variance_power: 1.5]
[lambdarank_truncation_level: 30]
[lambdarank_norm: 1]
[label_gain: ]
[lambdarank_position_bias_regularization: 0]
[eval_at: ]
[multi_error_top_k: 1]
[auc_mu_weights: ]
[num_machines: 1]
[local_listen_port: 12400]
[time_out: 120]
[machine_list_filename: ]
[machines: ]
[gpu_platform_id: -1]
[gpu_device_id: -1]
[gpu_use_dp: 0]
[num_gpu: 1]

end of parameters

pandas_categorical:[]
