tree
version=v4
num_class=1
num_tree_per_iteration=1
label_index=0
max_feature_idx=84
objective=regression
feature_names=team_a_xg team_b_xg team_a_xga team_b_xga odds_ft_1 odds_ft_x odds_ft_2 rolling_goals_scored_form_home rolling_goals_conceded_form_home rolling_points_earned_form_home rolling_xg_for_form_home rolling_xga_against_form_home days_since_last_match_home rolling_goals_scored_form_away rolling_goals_conceded_form_away rolling_points_earned_form_away rolling_xg_for_form_away rolling_xga_against_form_away days_since_last_match_away home_matches_last_7d home_matches_last_14d away_matches_last_7d away_matches_last_14d home_rolling_xg_as_home home_rolling_xga_as_home home_rolling_goals_scored_as_home home_rolling_goals_conceded_as_home away_rolling_xg_as_away away_rolling_xga_as_away away_rolling_goals_scored_as_away away_rolling_goals_conceded_as_away rolling_possession_form_home rolling_shots_for_form_home rolling_shots_against_form_home rolling_sot_for_form_home rolling_sot_against_form_home rolling_corners_for_form_home rolling_corners_against_form_home rolling_fouls_for_form_home rolling_fouls_against_form_home rolling_da_for_form_home rolling_da_against_form_home rolling_possession_form_away rolling_shots_for_form_away rolling_shots_against_form_away rolling_sot_for_form_away rolling_sot_against_form_away rolling_corners_for_form_away rolling_corners_against_form_away rolling_fouls_for_form_away rolling_fouls_against_form_away rolling_da_for_form_away rolling_da_against_form_away market_prob_btts_yes market_prob_o25 market_prob_u25 rolling_synth_goals_minus_xg_form_home rolling_synth_goals_per_xg_ratio_form_home rolling_synth_goals_per_shot_form_home rolling_synth_goals_per_sot_form_home rolling_synth_sot_per_shot_ratio_form_home rolling_synth_goals_minus_xg_form_away rolling_synth_goals_per_xg_ratio_form_away rolling_synth_goals_per_shot_form_away rolling_synth_goals_per_sot_form_away rolling_synth_sot_per_shot_ratio_form_away rolling_synth_xga_per_shot_conceded_form_home rolling_synth_xga_per_sot_conceded_form_home rolling_synth_xga_per_shot_conceded_form_away rolling_synth_xga_per_sot_conceded_form_away pre_match_home_elo pre_match_away_elo elo_diff elo_prob_home_win dynamic_league_quality competition_type_league dynamic_league_tier_0 dynamic_league_tier_1 dynamic_league_tier_2 dynamic_league_tier_3 dynamic_league_tier_4 dynamic_league_tier_5 dynamic_league_tier_6 dynamic_league_tier_7 dynamic_league_tier_8
feature_infos=[-2.872667164988417:5.4991961066160311] [-2.7071951899330462:4.9518609356585426] [-5.2660991026474351:4.2025908478774952] [-5.2157250387847629:3.5222908141849829] [-1.5013361424043252:26.469397792064829] [-3.3584884523927472:10.036222061916064] [-1.2548117559685605:9.2469473113788183] [-2.1478896705404318:5.4904186361627865] [-2.3290983244838772:6.0411367614285343] [-1.9483634446116007:2.3612067257728149] [-4.6521800004631704:4.9270857310534204] [-4.8826279401103347:4.0881351654881177] [-0.4207346095182149:25.959417738060989] [-2.1387388291773193:5.5436600741656772] [-2.3224804142800046:5.0428217537478393] [-2.0007129330580158:2.3121020630474787] [-4.6254555634214487:4.7127515575744114] [-4.7991402844834337:3.6186353494323908] [-0.33735029691551699:33.865198099532172] [-1.0818462266521982:2.3310094424234253] [-1.7628241848179844:3.0745452007679313] [-1.0887870498518584:2.3459645478885207] [-1.7685124523126179:3.0531035868282501] [-4.6521800004631704:4.9270857310534204] [-4.8826279401103347:4.0881351654881177] [-2.1478896705404318:5.4904186361627865] [-2.3290983244838772:6.0411367614285343] [-4.6254555634214487:4.7127515575744114] [-4.7991402844834337:3.6186353494323908] [-2.1387388291773193:5.5436600741656772] [-2.3224804142800046:5.0428217537478393] [-3.5064397781070293:3.5708341215425228] [-3.3049126942983174:4.0144701738072577] [-3.1441966563721917:3.7137810612773077] [-3.6048557051125329:4.8503064639024309] [-3.8075759987403694:3.3973213679622662] [-3.2943899756204948:6.7969862522537481] [-3.3693846307755364:4.0733896053472671] [-3.5746284251841391:4.0253828501610291] [-3.135589585971442:5.2893807191766857] [-4.0906539719625679:5.607570282197945] [-4.4329008809237909:4.7038319794444128] [-3.5241447254222416:3.4980199340137919] [-3.0433031231281951:4.1817818217093548] [-3.3193854357930097:3.568482581571101] [-3.5979345049915654:4.5650643232751902] [-3.7381197011450822:3.4493239011683143] [-3.3308989445847965:5.7582212467170191] [-3.3178720596880829:4.1234126782330547] [-3.1183145361847822:5.2582016778687457] [-3.5643439518643349:4.0193827734358223] [-4.0925078835712041:5.1888756633160797] [-4.3750723313526523:5.1455167975972111] [-5.7001952404153933:3.3712336135019765] [-2.7088232879592233:3.7959734151709679] [-3.805646109556545:2.7237655761502841] [-3.1869619412220231:5.5671716284770003] [-2.3456226078286204:8.0743449977851061] [-2.0968362963138447:12.614481224942852] [-2.5350946873336744:7.4207856014073883] [-4.8445957823802148:7.2807786374885062] [-2.9127147219105751:5.2793126147468321] [-2.373533181165806:7.8960218360204282] [-2.1358971340665005:7.5770337459398203] [-2.5751135826163383:6.099213845836152] [-4.8766978168883837:5.6061034454379435] [-3.5793406437791706:7.6952463033278633] [-3.8830928202847872:10.458555696340643] [-3.555682923743956:6.9152272527927758] [-3.9203500960195967:11.278972143542845] [-2.2036366859556336:3.8181856517785655] [-2.1863361485910944:3.7453406225609744] [-3.6558424456629162:3.8717131681949244] [-2.9989171719342167:2.278328523663955] [-0.33820551753763639:0.06526934905100519] none [0:1] none [0:1] [0:1] none none none none none
tree_sizes=833 849 852 865 844 862 868 867 853 847 855 853 860 862 863 860 855 858 786 877 866 856 782 863 870 894 770 865 806 856 847 891 768 770 887 845 790 891 873 775 876 868 863 895 773 596 863 602 781 785 884 864 769 882 799 786 732 812 850 785 870 751 877 783 541 877 879 795 914 848 879 764 879 822 794 868 602 869 793 876 768 715 793 862 868 829 788 748 781 882 715 711 877 864 819 868 687 624 692 531 882 613

Tree=0
num_leaves=8
num_cat=0
split_feature=4 6 5 53 4 47 68
split_gain=391.203 102.273 49.3415 28.9454 28.6746 26.3173 23.8169
threshold=0.74191671914010093 -0.3111978162407299 2.0943391037195567 -0.03353958768936547 -0.70976437205884813 1.1022748742119226 0.34782227917897518
decision_type=2 2 2 2 2 2 2
left_child=1 3 6 -1 -3 -4 -2
right_child=2 4 5 -5 -6 -7 -8
leaf_value=1.2174439684847305 1.2678431596294564 1.1881575345666811 1.2990456455214727 1.2368969660893496 1.2104326556026186 1.4273112137428385 1.303938174594151
leaf_weight=504 200 304 13.000000000000002 952 1380 15.999999999999998 132
leaf_count=504 200 304 13 952 1380 16 132
internal_value=1.22486 1.21742 1.28956 1.23016 1.2064 1.37138 1.28226
internal_weight=3501 3140 361 1456 1684 29 332
internal_count=3501 3140 361 1456 1684 29 332
is_linear=0
shrinkage=1


Tree=1
num_leaves=8
num_cat=0
split_feature=1 71 1 5 0 13 11
split_gain=438.352 128.547 110.764 64.782 25.2468 25.1735 22.8243
threshold=0.28588332230471963 0.54369747901578658 -0.74204263139309889 2.0943391037195567 -2.0775229459604838 0.8948001399984401 1.0996644970350433
decision_type=2 2 2 2 2 2 2
left_child=2 6 4 -3 -1 -4 -2
right_child=1 3 5 -5 -6 -7 -8
leaf_value=0.016667912175223943 0.011167707813053488 0.054522259037679141 -0.0099609736313905923 0.16965939627369311 -0.040270289010599584 0.016929230824574766 0.040150802204174038
leaf_weight=35 687 399 1319 22 729 169 141
leaf_count=35 687 399 1319 22 729 169 141
internal_value=-3.98192e-05 0.0311498 -0.0173404 0.0606746 -0.0376551 -0.00690349 0.0161183
internal_weight=3501 1249 2252 421 764 1488 828
internal_count=3501 1249 2252 421 764 1488 828
is_linear=0
shrinkage=0.0656543


Tree=2
num_leaves=8
num_cat=0
split_feature=6 6 54 6 45 6 5
split_gain=306.628 74.2689 44.8218 35.1946 22.7978 21.6746 20.5256
threshold=-0.6756706309310212 -0.3111978162407299 1.1486026600649668 -0.88570581227796874 0.41553991890625602 0.69882430582473876 -0.59999921812417012
decision_type=2 2 2 2 2 2 2
left_child=2 6 4 -4 -1 -3 -2
right_child=1 5 3 -5 -6 -7 -8
leaf_value=0.019075981702010119 -0.0066334909583925629 -0.012904265178648643 0.17476097326191042 0.072354117189952868 0.054764303508062294 -0.031982125771151899 0.0099514811101344258
leaf_weight=126 502 1369 18 75 201 316 894
leaf_count=126 502 1369 18 75 201 316 894
internal_value=-3.54916e-05 -0.00721126 0.0525657 0.0927548 0.0410485 -0.0164881 0.00398718
internal_weight=3501 3081 420 93 327 1685 1396
internal_count=3501 3081 420 93 327 1685 1396
is_linear=0
shrinkage=0.0656543


Tree=3
num_leaves=8
num_cat=0
split_feature=1 4 1 1 4 6 13
split_gain=375.628 98.5201 96.4251 40.4958 32.1676 31.1098 18.4602
threshold=0.28588332230471963 1.4663587280428521 -0.72188722053627885 1.4952079737139181 0.89575575577968147 1.0000000180025095e-35 0.8948001399984401
decision_type=2 2 2 2 2 2 2
left_child=2 5 4 -3 -1 -2 -4
right_child=1 3 6 -5 -6 -7 -8
leaf_value=-0.035922478088455147 0.026084027861967275 0.043295112158298142 -0.0085026612549734416 0.10800394132459017 0.067003020742261832 -0.0072031757591048467 0.014692015780228775
leaf_weight=788 928 84 1274 84 12.999999999999998 139 167
leaf_count=788 928 84 1274 84 13 139 167
internal_value=4.9337e-05 0.02912 -0.0159661 0.0758074 -0.0342233 0.0217465 -0.00581151
internal_weight=3477 1235 2242 168 801 1067 1441
internal_count=3477 1235 2242 168 801 1067 1441
is_linear=0
shrinkage=0.0656543


Tree=4
num_leaves=8
num_cat=0
split_feature=1 1 72 5 71 0 42
split_gain=334.022 115.446 69.8705 41.0234 29.8232 23.1221 15.1907
threshold=0.628525306870659 -0.58079934453853899 -0.56948662852334075 2.0387416462846857 0.68461568707009091 -2.0775229459604838 1.6384467001261016
decision_type=2 2 2 2 2 2 2
left_child=1 5 3 -2 -3 -1 -4
right_child=2 4 6 -5 -6 -7 -8
leaf_value=0.023536704600339929 0.052476871360700963 -0.0046563172192396005 0.017635320391227081 0.1446962164923741 0.01866452515634532 -0.030580957986249744 0.078605476059171425
leaf_weight=35 331 1332 467 22 287 985 18
leaf_count=35 331 1332 467 22 287 985 18
internal_value=4.74655e-05 -0.01142 0.0361504 0.0583617 -0.000518947 -0.0287163 0.0199534
internal_weight=3477 2639 838 353 1619 1020 485
internal_count=3477 2639 838 353 1619 1020 485
is_linear=0
shrinkage=0.0656543


Tree=5
num_leaves=8
num_cat=0
split_feature=1 4 1 1 4 1 28
split_gain=293.308 100.526 77.9796 44.7676 27.2739 22.2847 10.8446
threshold=-0.056758662261219804 0.31116741654927599 1.4952079737139181 -0.72188722053627885 0.89575575577968147 0.628525306870659 1.5576388101330665
decision_type=2 2 2 2 2 2 2
left_child=3 5 -3 4 -1 -2 -5
right_child=1 2 -4 6 -6 -7 -8
leaf_value=-0.031684359725686929 0.001687683089075436 0.028552169993855476 0.087538702841750402 -0.00791790504415423 0.063076894807065575 0.019633643680836668 -0.047805069701328425
leaf_weight=788 692 353 133 944 12.999999999999998 524 30
leaf_count=788 692 353 133 944 13 524 30
internal_value=4.63367e-05 0.0195178 0.0447462 -0.0186243 -0.0301194 0.0094246 -0.00916336
internal_weight=3477 1702 486 1775 801 1216 974
internal_count=3477 1702 486 1775 801 1216 974
is_linear=0
shrinkage=0.0656543


Tree=6
num_leaves=8
num_cat=0
split_feature=1 1 6 1 4 27 72
split_gain=240.098 77.836 61.7235 47.5406 23.7525 20.4542 12.0112
threshold=0.50759284172973962 -0.72188722053627885 -0.59845181425934935 1.535518795427558 0.89575575577968147 0.90650063845519346 -0.22116079989627838
decision_type=2 2 2 2 2 2 2
left_child=1 4 3 -2 -1 -3 -4
right_child=2 5 6 -5 -6 -7 -8
leaf_value=-0.029388890986080617 0.030272931334361913 -0.0055591350651145455 0.026694470229782205 0.079327543235929082 0.05904350562820828 0.017928743003253204 0.0077398346292441387
leaf_weight=786 229 1538 226 136 12.999999999999998 178 398
leaf_count=786 229 1538 226 136 13 178 398
internal_value=-0.000225503 -0.0110028 0.0271748 0.0486097 -0.0279247 -0.00311945 0.0146163
internal_weight=3504 2515 989 365 799 1716 624
internal_count=3504 2515 989 365 799 1716 624
is_linear=0
shrinkage=0.0656543


Tree=7
num_leaves=8
num_cat=0
split_feature=1 6 1 1 4 4 6
split_gain=211.158 58.9129 55.4361 50.2321 20.7874 15.8485 14.9758
threshold=0.28588332230471963 -0.60462931959308308 -0.72188722053627885 1.535518795427558 0.89575575577968147 -0.54753411523892703 -0.5737417929244143
decision_type=2 2 2 2 2 2 2
left_child=2 3 4 -2 -1 -3 -4
right_child=1 5 6 -5 -6 -7 -8
leaf_value=-0.027460236726558233 0.025814305618881987 -0.013498010087931443 0.010042911965148737 0.074394262832098032 0.055268027351374559 0.014588544923504584 -0.0076020086891462769
leaf_weight=786 287 98 250 135 12.999999999999998 728 1207
leaf_count=786 287 98 250 135 13 728 1207
internal_value=-0.00020946 0.0214564 -0.0121964 0.0414044 -0.0260904 0.0112516 -0.00457254
internal_weight=3504 1248 2256 422 799 826 1457
internal_count=3504 1248 2256 422 799 826 1457
is_linear=0
shrinkage=0.0656543


Tree=8
num_leaves=8
num_cat=0
split_feature=6 16 6 5 54 3 13
split_gain=146.95 32.5451 27.6578 27.2449 15.4616 13.5923 8.21502
threshold=-0.59845181425934935 0.7958078006902034 -0.0054113022209092074 2.0387416462846857 -0.99873082193662921 -1.5270523769469664 0.04756405892060088
decision_type=2 2 2 2 2 2 2
left_child=1 5 4 -3 -2 -1 -4
right_child=2 3 6 -5 -6 -7 -8
leaf_value=0.044835376604462011 -0.01271141989047927 0.037823774485828694 -0.019874089606842827 0.11346123733725684 0.0010272930011039731 0.0096998822463859706 -0.00550621084577896
leaf_weight=55 467 271 679 22 1444 336 230
leaf_count=55 467 271 679 22 1444 336 230
internal_value=-0.000194836 0.0270971 -0.00681721 0.0436317 -0.00233166 0.0146783 -0.0162424
internal_weight=3504 684 2820 293 1911 391 909
internal_count=3504 684 2820 293 1911 391 909
is_linear=0
shrinkage=0.0656543


Tree=9
num_leaves=8
num_cat=0
split_feature=1 71 5 1 1 6 6
split_gain=194.502 65.5628 29.8955 29.206 25.5686 17.6307 11.6052
threshold=-0.056758662261219804 1.2610064312322875 2.0387416462846857 -0.88313050739083854 0.628525306870659 -0.6756706309310212 -0.5737417929244143
decision_type=2 2 2 2 2 2 2
left_child=3 4 -3 5 -2 -1 -5
right_child=1 2 -4 6 -6 -7 -8
leaf_value=0.034769518483433889 0.00213459957166179 0.038537913260557499 0.11792528493876012 0.0068134346935971816 0.01967224733430778 -0.029047071042352261 -0.011800669585452712
leaf_weight=19 781 257 22 168 662 576 1017
leaf_count=19 781 257 22 168 662 576 1017
internal_value=9.27052e-05 0.0158223 0.0449378 -0.0151243 0.0101833 -0.0269897 -0.00916026
internal_weight=3502 1722 279 1780 1443 595 1185
internal_count=3502 1722 279 1780 1443 595 1185
is_linear=0
shrinkage=0.0656543


Tree=10
num_leaves=8
num_cat=0
split_feature=1 71 1 1 1 6 6
split_gain=169.829 57.2803 28.0155 25.7187 23.2449 13.6772 11.0741
threshold=-0.056758662261219804 1.2610064312322875 1.9587824234207774 -0.76219804224991894 1.5959850279980181 -0.6756706309310212 -0.5737417929244143
decision_type=2 2 2 2 2 2 2
left_child=3 4 -3 5 -2 -1 -5
right_child=1 2 -4 6 -6 -7 -8
leaf_value=0.025788119446528014 0.0065363810740842188 0.031950284410479785 0.085363673386273958 0.0085037342592785142 0.032840498647715363 -0.025378174852319545 -0.010419793898996232
leaf_weight=23 1280 227 52 156 163 695 906
leaf_count=23 1280 227 52 156 163 695 906
internal_value=8.78007e-05 0.0147859 0.0420003 -0.0141313 0.00951505 -0.0237271 -0.00763794
internal_weight=3502 1722 279 1780 1443 718 1062
internal_count=3502 1722 279 1780 1443 718 1062
is_linear=0
shrinkage=0.0656543


Tree=11
num_leaves=8
num_cat=0
split_feature=6 73 53 68 73 26 66
split_gain=104.034 27.8616 23.893 22.1729 17.7384 14.5273 9.46953
threshold=-0.59845181425934935 -2.492139728005236 -0.76503111113182887 3.3318303470703463 0.059074813512093406 0.24035391895110039 -0.11917269519500041
decision_type=2 2 2 2 2 2 2
left_child=1 5 6 -3 -4 -1 -2
right_child=2 3 4 -5 -6 -7 -8
leaf_value=0.039268667636192203 -0.0064655629501300677 0.017382512688880896 0.004468741380664774 0.085498007205633678 -0.0073378330671604874 0.11665040003128237 -0.024066708741154061
leaf_weight=24 210 614 937 21 1322 19 355
leaf_count=24 210 614 937 21 1322 19 355
internal_value=8.30629e-05 0.0231709 -0.00546205 0.0196811 -0.00244059 0.0741283 -0.0175332
internal_weight=3502 678 2824 635 2259 43 565
internal_count=3502 678 2824 635 2259 43 565
is_linear=0
shrinkage=0.0656543


Tree=12
num_leaves=8
num_cat=0
split_feature=1 1 72 52 0 10 45
split_gain=132.226 46.2007 35.8577 26.2827 16.977 15.1268 14.0907
threshold=0.628525306870659 -0.45986687939761911 -0.56948662852334075 0.26243685745129924 -2.0775229459604838 -0.14731762466201012 1.2318398017329317
decision_type=2 2 2 2 2 2 2
left_child=1 4 3 -2 -1 -4 -3
right_child=2 6 5 -5 -6 -7 -8
leaf_value=0.026229671294783669 0.049773908028605415 -0.0012351455086285767 0.022367572034630068 0.0091668421855513032 -0.018217435297448702 -0.00079532436103863207 0.021773534353640066
leaf_weight=38 257 1354 256 94 1128 231 125
leaf_count=38 257 1354 256 94 1128 231 125
internal_value=0.000209831 -0.00699078 0.0229311 0.0389197 -0.0167613 0.0113874 0.000713947
internal_weight=3483 2645 838 351 1166 487 1479
internal_count=3483 2645 838 351 1166 487 1479
is_linear=0
shrinkage=0.0656543


Tree=13
num_leaves=8
num_cat=0
split_feature=1 1 72 4 0 49 54
split_gain=115.45 40.7641 31.3108 23.907 14.0125 13.7018 12.0843
threshold=0.628525306870659 -0.58079934453853899 -0.56948662852334075 5.2312195156224011 -2.0775229459604838 1.1118261519122492 -1.0497150822918184
decision_type=2 2 2 2 2 2 2
left_child=1 4 3 -2 -1 -4 -3
right_child=2 6 5 -5 -6 -7 -8
leaf_value=0.022528273229693512 0.032923817123253478 -0.01231938898042806 0.014450772189993594 0.12271451088962072 -0.018488157896006333 -0.021110995917123065 0.002441750290376684
leaf_weight=37 338 290 435 12.999999999999998 965 52 1353
leaf_count=37 338 290 435 13 965 52 1353
internal_value=0.000196774 -0.00653155 0.0214278 0.0363683 -0.016966 0.0106407 -0.000165576
internal_weight=3483 2645 838 351 1002 487 1643
internal_count=3483 2645 838 351 1002 487 1643
is_linear=0
shrinkage=0.0656543


Tree=14
num_leaves=8
num_cat=0
split_feature=1 1 72 55 68 27 1
split_gain=100.82 35.7303 28.1465 24.8854 14.7452 12.8365 12.8082
threshold=0.628525306870659 -0.45986687939761911 -0.24620053976959283 0.10753957095615847 -0.34254678614035999 0.85963125446328026 -1.1854616702431382
decision_type=2 2 2 2 2 2 2
left_child=1 6 3 -2 -4 -3 -1
right_child=2 5 4 -5 -6 -7 -8
leaf_value=-0.025784651551175118 0.041079980127198108 -0.0016411479309234663 0.024115561772194042 0.0093135907134917345 -0.0036620392896087313 0.016832475491745859 -0.010418652651290231
leaf_weight=324 318 1294 127 160 233 185 842
leaf_count=324 318 1294 127 160 233 185 842
internal_value=0.000184798 -0.00610277 0.020025 0.0304619 0.00615035 0.000672847 -0.0146951
internal_weight=3483 2645 838 478 360 1479 1166
internal_count=3483 2645 838 478 360 1479 1166
is_linear=0
shrinkage=0.0656543


Tree=15
num_leaves=8
num_cat=0
split_feature=4 73 54 43 13 68 8
split_gain=68.9908 21.0354 18.2036 23.1841 12.6924 10.3977 9.92979
threshold=0.74191671914010093 0.066829847648526799 1.1486026600649668 2.051789247062441 -0.81578878878958816 0.34782227917897518 -0.72416802955694848
decision_type=2 2 2 2 2 2 2
left_child=1 4 5 -4 -1 -2 -3
right_child=2 6 3 -5 -6 -7 -8
leaf_value=-0.011546496741357916 0.0075479904011250742 -0.014859205740193341 0.067913610136926081 -0.014756912597191663 0.0053339457179401462 0.03353038127448054 -0.0044070847770594354
leaf_weight=228 161 609 75 18 1206 113 1099
leaf_count=228 161 609 75 18 1206 113 1099
internal_value=-6.73265e-05 -0.00321468 0.0268549 0.0519146 0.00264769 0.0182933 -0.00813629
internal_weight=3509 3142 367 93 1434 274 1708
internal_count=3509 3142 367 93 1434 274 1708
is_linear=0
shrinkage=0.0656543


Tree=16
num_leaves=8
num_cat=0
split_feature=4 71 53 4 38 33 17
split_gain=61.0431 23.0541 20.3505 19.6393 15.1087 10.8411 8.13414
threshold=0.28599375600825383 0.54369747901578658 1.2216968259965111 5.172480974360016 -0.77388352926990145 -0.48673029078301094 0.33989599388121178
decision_type=2 2 2 2 2 2 2
left_child=2 4 5 -3 -2 -1 -4
right_child=1 3 6 -5 -6 -7 -8
leaf_value=-0.011002423231645063 0.038916395392553871 0.022900807245669001 0.0053941217577470266 0.084822866530378183 -0.00596011402636548 -0.0023680614338758492 0.030343383098357983
leaf_weight=1128 38 429 195 23 206 1411 79
leaf_count=1128 38 429 195 23 206 1411 79
internal_value=-6.24538e-05 0.0173413 -0.00437025 0.0261151 0.00107318 -0.00620513 0.0126178
internal_weight=3509 696 2813 452 244 2539 274
internal_count=3509 696 2813 452 244 2539 274
is_linear=0
shrinkage=0.0656543


Tree=17
num_leaves=8
num_cat=0
split_feature=1 1 43 1 0 35 17
split_gain=83.6383 35.8001 32.5761 16.2953 15.4061 12.2618 6.95514
threshold=1.0000000180025095e-35 1.5959850279980181 -0.073511713983929472 -1.1854616702431382 -1.9130103489202217 0.44331344761418573 1.5576388101330665
decision_type=2 2 2 2 2 2 2
left_child=3 5 -3 4 -1 -2 -5
right_child=1 2 -4 6 -6 -7 -8
leaf_value=0.017981589005435141 0.0022350513364700463 0.001208043293678426 0.051909398479603679 -0.0058945991759802672 -0.028018977657771268 0.01513166920080908 -0.029602275292433759
leaf_weight=35 907 84 156 1497 286 489 55
leaf_count=35 907 84 156 1497 286 489 55
internal_value=-5.72776e-05 0.010787 0.0341925 -0.00952974 -0.0229885 0.0067554 -0.00674137
internal_weight=3509 1636 240 1873 321 1396 1552
internal_count=3509 1636 240 1873 321 1396 1552
is_linear=0
shrinkage=0.0656543


Tree=18
num_leaves=7
num_cat=0
split_feature=1 4 1 1 0 50
split_gain=77.8146 27.899 21.6878 13.8857 16.2303 8.41927
threshold=-0.056758662261219804 5.2312195156224011 1.5959850279980181 -1.1854616702431382 -1.9130103489202217 -1.8369395311015209
decision_type=2 2 2 2 2 2
left_child=3 2 -2 4 -1 -5
right_child=1 -3 -4 5 -6 -7
leaf_value=0.019444292684171874 0.0060933370312639071 0.095162580506465255 0.02795356335917527 0.026110381949527139 -0.0271359678732313 -0.0077705388304640469
leaf_weight=36 1487 15.999999999999998 225 32 291 1418
leaf_count=36 1487 16 225 32 291 1418
internal_value=-0.000130375 0.00978878 0.00897157 -0.00977619 -0.0219918 -0.00701656
internal_weight=3505 1728 1712 1777 327 1450
internal_count=3505 1728 1712 1777 327 1450
is_linear=0
shrinkage=0.0656543


Tree=19
num_leaves=8
num_cat=0
split_feature=4 71 68 38 6 30 45
split_gain=43.4743 16.9492 16.9431 14.4778 12.8347 10.2456 8.37204
threshold=0.28599375600825383 0.35287215203318784 -0.8467690179681846 -1.1961063779001886 -0.0054113022209092074 2.3154276149708268 -1.48915980768932
decision_type=2 2 2 2 2 2 2
left_child=4 3 -3 -2 5 -1 -6
right_child=1 2 -4 -5 6 -7 -8
leaf_value=-9.0215413528486725e-05 0.061652650039707727 -0.0093621640248162195 0.025601561702362823 -0.0068307011670661116 -0.03003783281078249 -0.038547413106396977 -0.0081917569221915659
leaf_weight=1864 13.999999999999998 69 437 183 83 30 825
leaf_count=1864 14 69 437 183 83 30 825
internal_value=-0.000120884 0.0144729 0.0208301 -0.00186244 -0.00378378 -0.000706464 -0.0101997
internal_weight=3505 703 506 197 2802 1894 908
internal_count=3505 703 506 197 2802 1894 908
is_linear=0
shrinkage=0.0656543


Tree=20
num_leaves=8
num_cat=0
split_feature=6 45 2 70 53 25 14
split_gain=38.0282 19.9439 22.5115 14.2274 11.7479 9.4846 7.42038
threshold=-0.52741050292141112 0.41553991890625602 1.7340929934616027 -1.4751209929399656 1.2216968259965111 0.37848211182286046 -1.0054715537579069
decision_type=2 2 2 2 2 2 2
left_child=1 3 -3 -1 5 -2 -6
right_child=4 2 -4 -5 6 -7 -8
leaf_value=-0.035392538679268941 -0.0028041204823034192 0.017850425327909866 0.10138959285702083 0.0049192887898232103 -0.025724095070107644 -0.011787915784338996 0.014201324003342021
leaf_weight=41 1578 474 13.999999999999998 432 22 746 198
leaf_count=41 1578 474 14 432 22 746 198
internal_value=-0.000113 0.0110113 0.0203181 0.00140103 -0.00431628 -0.00568935 0.0101733
internal_weight=3505 961 488 473 2544 2324 220
internal_count=3505 961 488 473 2544 2324 220
is_linear=0
shrinkage=0.0656543


Tree=21
num_leaves=8
num_cat=0
split_feature=1 1 72 55 67 0 0
split_gain=63.0495 25.2706 17.3814 21.1833 16.1665 12.7589 9.0623
threshold=0.628525306870659 -0.45986687939761911 -0.13409682719231408 -0.28985874499309333 -1.004439051826836 0.59123696158154526 -2.0775229459604838
decision_type=2 2 2 2 2 2 2
left_child=1 6 3 -2 -4 -3 -1
right_child=2 5 4 -5 -6 -7 -8
leaf_value=0.020407906971205654 0.037792354486176662 -0.0019113653791895762 -0.035699976114494929 0.011269746133944488 0.0093011823151891541 0.013834902621064233 -0.01290859546872771
leaf_weight=36 236 1195 39 289 274 272 1146
leaf_count=36 236 1195 39 289 274 272 1146
internal_value=0.000220089 -0.00474552 0.0159126 0.0232099 0.00365975 0.00101059 -0.0118879
internal_weight=3487 2649 838 525 313 1467 1182
internal_count=3487 2649 838 525 313 1467 1182
is_linear=0
shrinkage=0.0656543


Tree=22
num_leaves=7
num_cat=0
split_feature=4 68 4 53 51 68
split_gain=36.9898 15.5654 15.7998 13.9212 10.7077 7.26785
threshold=0.74191671914010093 3.3318303470703463 5.172480974360016 -0.76503111113182887 2.4644245940752909 -0.18777566198391527
decision_type=2 2 2 2 2 2
left_child=3 2 -2 5 -5 -1
right_child=1 -3 -4 4 -6 -7
leaf_value=-0.001740342610654636 0.013405136126465043 0.084820194816345243 0.069370231239966551 -0.00061115591412572114 0.028848417198319411 -0.016789595302957074
leaf_weight=221 324 14.999999999999998 23 2480 54 370
leaf_count=221 324 15 23 2480 54 370
internal_value=0.00020592 0.0200633 0.0171811 -0.00209625 2.03982e-05 -0.0111668
internal_weight=3487 362 347 3125 2534 591
internal_count=3487 362 347 3125 2534 591
is_linear=0
shrinkage=0.0656543


Tree=23
num_leaves=8
num_cat=0
split_feature=1 1 43 1 43 0 3
split_gain=53.8282 23.4377 25.1746 12.5279 11.5144 9.39198 7.87473
threshold=-0.076914073118039786 1.5959850279980181 -0.073511713983929472 -1.1854616702431382 2.5021841527146527 -1.9130103489202217 1.1638641659597952
decision_type=2 2 2 2 2 2 2
left_child=3 4 -3 5 -2 -1 -5
right_child=1 2 -4 6 -6 -7 -8
leaf_value=0.012439307602603719 0.0060329111524399775 -0.0015421663790804859 0.043618524879991905 -0.0037841188909999838 -0.044948649268133835 -0.023464921123437295 -0.021206923531607587
leaf_weight=35 1484 82 151 1305 19 289 122
leaf_count=35 1484 82 151 1305 19 289 122
internal_value=0.000193561 0.00838518 0.0277453 -0.00792778 0.00537801 -0.0195764 -0.00527866
internal_weight=3487 1736 233 1751 1503 324 1427
internal_count=3487 1736 233 1751 1503 324 1427
is_linear=0
shrinkage=0.0656543


Tree=24
num_leaves=8
num_cat=0
split_feature=4 67 53 66 60 55 40
split_gain=29.8019 16.1312 14.0545 13.2865 11.8696 10.1399 9.87276
threshold=0.28599375600825383 -1.1268874387769843 1.3587012128919767 -0.03568914670163037 0.3698636797102442 -0.42957170707167802 -0.28379181026568173
decision_type=2 2 2 2 2 2 2
left_child=2 3 6 -2 -3 -4 -1
right_child=1 4 5 -5 -6 -7 -8
leaf_value=0.0020976661503220484 0.056531845225787164 0.001917035558763286 0.0054569829184566423 -0.016826278983928116 0.020759066059317943 0.039414021973627804 -0.006983147704928608
leaf_weight=715 55 391 191 12.999999999999998 228 47 1853
leaf_count=715 55 391 191 13 228 47 1853
internal_value=-3.86782e-05 0.0122138 -0.00303971 0.0424893 0.00886543 0.0122116 -0.00445476
internal_weight=3493 687 2806 68 619 238 2568
internal_count=3493 687 2806 68 619 238 2568
is_linear=0
shrinkage=0.0656543


Tree=25
num_leaves=8
num_cat=0
split_feature=4 28 50 53 28 72 64
split_gain=27.1926 16.1375 16.3547 14.5884 10.9952 10.6431 9.11234
threshold=1.7516602141744377 -0.73284005620013792 -0.15166692547926425 -0.48633120273086888 -0.33609979756344294 -0.036666404095186823 -0.23704576428724955
decision_type=2 2 2 2 2 2 2
left_child=3 2 -2 6 -3 -5 -1
right_child=1 4 -4 5 -6 -7 -8
leaf_value=-0.0012178161863564921 0.016425254594334627 -0.063956569021217824 0.061629009195014184 0.0064250232093625258 0.020451492240928276 -0.002763249572458141 -0.012928345288586662
leaf_weight=548 90 13.000000000000002 56 1081 12.999999999999998 1092 600
leaf_count=548 90 13 56 1081 13 1092 600
internal_value=-3.54445e-05 0.0253918 0.0338708 -0.00135496 -0.0220294 0.0018078 -0.0073406
internal_weight=3493 172 146 3321 26 2173 1148
internal_count=3493 172 146 3321 26 2173 1148
is_linear=0
shrinkage=0.0656543


Tree=26
num_leaves=7
num_cat=0
split_feature=1 4 1 1 50 0
split_gain=43.4215 18.6427 11.721 9.1885 7.65778 6.92521
threshold=-0.056758662261219804 5.172480974360016 1.0719443457206987 -1.1854616702431382 -1.752675900820408 -1.9130103489202217
decision_type=2 2 2 2 2 2
left_child=3 2 -2 5 -5 -1
right_child=1 -3 -4 4 -6 -7
leaf_value=0.009867891368151133 0.0033072832486413929 0.071501608419411916 0.015505606503143796 0.022520101113463628 -0.0058177946435152084 -0.020584135327371637
leaf_weight=36 1229 19 469 42 1409 289
leaf_count=36 1229 19 469 42 1409 289
internal_value=-3.29551e-05 0.00741099 0.00667919 -0.00722981 -0.00499215 -0.0172032
internal_weight=3493 1717 1698 1776 1451 325
internal_count=3493 1717 1698 1776 1451 325
is_linear=0
shrinkage=0.0656543


Tree=27
num_leaves=8
num_cat=0
split_feature=1 1 49 8 8 65 8
split_gain=37.8374 16.4847 14.5214 16.0356 7.39461 6.76449 4.68204
threshold=0.628525306870659 -0.88313050739083854 1.1118261519122492 1.2825816416294831 -1.8762908886238752 1.8049408799624092 -0.46305234466530337
decision_type=2 2 2 2 2 2 2
left_child=1 6 3 -2 -3 -4 -1
right_child=2 4 5 -5 -6 -7 -8
leaf_value=-0.019860677430920126 0.011821507959994669 -0.039612621620420958 -0.0059064472665880316 0.045167227516388603 -0.0007695022442865705 -0.057013347044032804 -0.0081569801018187924
leaf_weight=275 696 21 69 68 2039 12.999999999999998 319
leaf_count=275 696 21 69 68 2039 13 319
internal_value=-9.73835e-05 -0.00395172 0.0119905 0.014809 -0.00117223 -0.0142186 -0.0135843
internal_weight=3500 2654 846 764 2060 82 594
internal_count=3500 2654 846 764 2060 82 594
is_linear=0
shrinkage=0.0656543


Tree=28
num_leaves=7
num_cat=0
split_feature=1 54 1 1 51 4
split_gain=33.38 16.7843 10.6926 8.27013 8.36425 4.55274
threshold=-0.056758662261219804 2.2933260326487792 1.5959850279980181 -0.88313050739083854 -0.41645428775348742 0.63283085679567141
decision_type=2 2 2 2 2 2
left_child=3 2 -2 5 -5 -1
right_child=1 -3 -4 4 -6 -7
leaf_value=-0.013558061836685674 0.0038139646686805311 0.079802968274064551 0.01900249774047608 0.0054378039666106923 -0.0067015592686949987 0.025272044468861946
leaf_weight=581 1468 12.999999999999998 231 343 851 12.999999999999998
leaf_count=581 1468 13 231 343 851 13
internal_value=-9.14898e-05 0.00646022 0.00588266 -0.0063649 -0.00321349 -0.0126935
internal_weight=3500 1712 1699 1788 1194 594
internal_count=3500 1712 1699 1788 1194 594
is_linear=0
shrinkage=0.0656543


Tree=29
num_leaves=8
num_cat=0
split_feature=1 1 23 35 31 0 45
split_gain=29.7811 12.5684 11.7441 13.4333 12.5498 9.97415 4.1553
threshold=0.628525306870659 -0.74204263139309889 0.44990929420269116 -0.99766602572634133 -0.75126488359401178 2.0901295123928225 -1.48915980768932
decision_type=2 2 2 2 2 2 2
left_child=1 6 4 -4 -2 -3 -1
right_child=2 5 3 -5 -6 -7 -8
leaf_value=-0.027331367339585241 0.0010818643125090795 -0.0012285654160622058 0.042944786250193039 -0.014638240631813133 0.020024346927885999 0.038010142938474767 -0.0092160281645965597
leaf_weight=59 219 1866 20 123 484 28 701
leaf_count=59 219 1866 20 123 484 28 701
internal_value=-8.47254e-05 -0.00350421 0.0106393 -0.00649815 0.0141272 -0.000641466 -0.0106346
internal_weight=3500 2654 846 143 703 1894 760
internal_count=3500 2654 846 143 703 1894 760
is_linear=0
shrinkage=0.0656543


Tree=30
num_leaves=8
num_cat=0
split_feature=71 31 61 53 13 52 71
split_gain=19.3344 12.0565 16.8781 8.91945 10.6 8.64803 8.32082
threshold=0.45521631655584011 1.021318016548842 2.4585233494540302 1.3587012128919767 1.7020762426884772 0.48911755099772442 2.3180208482767992
decision_type=2 2 2 2 2 2 2
left_child=3 2 -2 4 -1 -5 -3
right_child=1 6 -4 5 -6 -7 -8
leaf_value=-0.0030258442688230807 0.014120945579601333 -0.015830197623726516 -0.038458188456396591 0.0015687218301529233 -0.05061310789732501 0.032258032250426463 0.032984718928007327
leaf_weight=2438 709 114 27 119 20 59 17
leaf_count=2438 709 114 27 119 20 59 17
internal_value=0.000405456 0.00890843 0.0121745 -0.00239194 -0.00342026 0.0117856 -0.00942283
internal_weight=3503 867 736 2636 2458 178 131
internal_count=3503 867 736 2636 2458 178 131
is_linear=0
shrinkage=0.0656543


Tree=31
num_leaves=8
num_cat=0
split_feature=1 45 1 60 62 65 1
split_gain=27.7306 16.5348 22.306 17.7683 6.70852 6.27073 5.66238
threshold=-0.076914073118039786 0.41553991890625602 1.8176945474230379 3.0059011011472214 1.2878100383983508 2.5897153928789312 -1.5885698873795375
decision_type=2 2 2 2 2 2 2
left_child=4 3 -3 -2 6 -6 -1
right_child=1 2 -4 -5 5 -7 -8
leaf_value=-0.020289692172526793 0.00075112691750302729 0.0095099442425954136 0.043937778920057777 0.071867703637781194 0.011422954165682486 -0.03407158993097139 -0.0055871926101276554
leaf_weight=122 1141 489 97 14.999999999999998 146 13.999999999999998 1479
leaf_count=122 1141 489 97 15 146 14 1479
internal_value=0.000378655 0.00625135 0.0152319 0.00169549 -0.00543061 0.00737525 -0.00671189
internal_weight=3503 1742 586 1156 1761 160 1601
internal_count=3503 1742 586 1156 1761 160 1601
is_linear=0
shrinkage=0.0656543


Tree=32
num_leaves=7
num_cat=0
split_feature=1 54 61 0 52 1
split_gain=24.3109 20.6474 13.7803 7.49584 12.0687 10.9026
threshold=-0.43971146854079934 2.2933260326487792 2.4585233494540302 -1.9130103489202217 -0.020914009481732457 -1.5885698873795375
decision_type=2 2 2 2 2 2
left_child=3 2 -2 4 -1 -5
right_child=1 -3 -4 5 -6 -7
leaf_value=0.057810337048698854 0.0043483105991204089 0.075678342090210404 -0.041715642973907362 -0.02903519884072446 -0.016622331411996431 -0.006188328438555434
leaf_weight=19 2251 17 28 98 18 1072
leaf_count=19 2251 17 28 98 18 1072
internal_value=0.000354305 0.00431984 0.00377597 -0.00718794 0.021775 -0.00811029
internal_weight=3503 2296 2279 1207 37 1170
internal_count=3503 2296 2279 1207 37 1170
is_linear=0
shrinkage=0.0656543


Tree=33
num_leaves=7
num_cat=0
split_feature=29 6 24 33 67 29
split_gain=15.1242 11.2483 11.258 7.45569 9.26257 8.54762
threshold=0.46000448884953521 -0.88570581227796874 1.8015143751918445 -0.64389228014581179 1.3636637125063593 0.32836078621231696
decision_type=2 2 2 2 2 2
left_child=3 -2 -3 4 -1 -5
right_child=1 2 -4 5 -6 -7
leaf_value=-0.0095646904723912102 0.055746075876725351 0.0050931005143000502 0.052325770615091631 0.0011410555556066815 0.012067289654285305 -0.019605503331955088
leaf_weight=814 20 827 22 1629 95 90
leaf_count=814 20 827 22 1629 95 90
internal_value=-9.15553e-06 0.00749754 0.00633827 -0.00249216 -0.00729988 5.0946e-05
internal_weight=3497 869 849 2628 909 1719
internal_count=3497 869 849 2628 909 1719
is_linear=0
shrinkage=0.0656543


Tree=34
num_leaves=8
num_cat=0
split_feature=13 74 65 51 70 0 0
split_gain=13.2124 11.0309 13.9295 10.7769 7.92187 9.74939 7.56624
threshold=0.46000448884953521 1.0000000180025095e-35 -1.1651929319839884 1.026157761669068 0.30669948446675227 -0.066813426579502969 0.84714544586639728
decision_type=2 2 2 2 2 2 2
left_child=4 2 -2 -3 5 -1 -6
right_child=1 3 -4 -5 6 -7 -8
leaf_value=-0.0038190650159152665 0.063596085612841816 0.0084060352352966789 -0.0021396171803956818 0.032437212435600452 -0.012601352576162812 0.0058735125407390109 0.0015887014770124524
leaf_weight=1154 13.999999999999998 306 440 109 506 730 238
leaf_count=1154 14 306 440 109 506 730 238
internal_value=-7.89966e-06 0.00700831 -6.48122e-05 0.0147404 -0.00232867 -6.29143e-05 -0.00806308
internal_weight=3497 869 454 415 2628 1884 744
internal_count=3497 869 454 415 2628 1884 744
is_linear=0
shrinkage=0.0656543


Tree=35
num_leaves=8
num_cat=0
split_feature=1 49 34 0 1 0 0
split_gain=21.7008 12.7547 13.0198 11.2859 7.84786 9.81868 6.24646
threshold=0.628525306870659 1.1118261519122492 -1.2716005710400973 -0.30444273341543721 -0.88313050739083854 0.84714544586639728 -1.9130103489202217
decision_type=2 2 2 2 2 2 2
left_child=4 2 -2 -3 6 -6 -1
right_child=1 3 -4 -5 5 -7 -8
leaf_value=0.016821387821734875 -0.01516542663594906 -0.036341018477613611 0.014482936698910613 0.0127240502521919 -0.0028501662528265825 0.010178837605071503 -0.011280006069088166
leaf_weight=36 70 47 696 35 1764 290 559
leaf_count=36 70 47 696 35 1764 290 559
internal_value=-6.75652e-06 0.00913203 0.0117676 -0.01543 -0.00293319 -0.00100909 -0.00957047
internal_weight=3497 848 766 82 2649 2054 595
internal_count=3497 848 766 82 2649 2054 595
is_linear=0
shrinkage=0.0656543


Tree=36
num_leaves=7
num_cat=0
split_feature=1 54 42 62 12 38
split_gain=16.2943 17.5653 12.5968 6.39434 6.28566 4.51922
threshold=-0.45986687939761911 2.2933260326487792 -1.6125554570202101 1.2878100383983508 0.22064330168085663 -1.9279593155260193
decision_type=2 2 2 2 2 2
left_child=3 2 -2 5 -5 -1
right_child=1 -3 -4 4 -6 -7
leaf_value=0.026196907228849861 -0.022674090823088883 0.068698330021453674 0.0033262433059251494 0.00098218444105674439 0.04175769994480686 -0.0086032066212601132
leaf_weight=15.999999999999998 83 17 2212 82 20 1064
leaf_count=16 83 17 2212 82 20 1064
internal_value=-0.000325147 0.00288051 0.00238252 -0.00659466 0.00909472 -0.00807913
internal_weight=3494 2312 2295 1182 102 1080
internal_count=3494 2312 2295 1182 102 1080
is_linear=0
shrinkage=0.0656543


Tree=37
num_leaves=8
num_cat=0
split_feature=27 43 35 61 37 43 0
split_gain=12.296 17.9916 11.7143 9.37248 8.89562 11.7837 9.32458
threshold=2.0078147383045954 2.3332860630950729 0.77954199139364222 1.2579982838344572 2.1112036703694375 -1.1009750925030353 -0.011975894232748908
decision_type=2 2 2 2 2 2 2
left_child=4 2 -2 -3 6 -6 -1
right_child=1 3 -4 -5 5 -7 -8
leaf_value=-0.0045624293313158704 0.026356102176501733 0.0072843294713645541 0.090633540855704589 -0.056822704153234212 0.072933954167719084 0.0078015711075789139 0.0024878092141009923
leaf_weight=1886 63 31 14.999999999999998 13.999999999999998 14.999999999999998 55 1415
leaf_count=1886 63 31 15 14 15 55 1415
internal_value=-0.000303063 0.0200568 0.039068 -0.0129369 -0.00104802 0.0220539 -0.00154026
internal_weight=3494 123 78 45 3371 70 3301
internal_count=3494 123 78 45 3371 70 3301
is_linear=0
shrinkage=0.0656543


Tree=38
num_leaves=8
num_cat=0
split_feature=1 49 67 1 0 0 58
split_gain=14.6938 15.9527 22.6623 8.41562 12.9809 6.11594 5.32654
threshold=1.2331876325752584 1.1118261519122492 1.3323950938447429 -0.45986687939761911 -0.10337178147733901 -2.0775229459604838 -0.36869874699142519
decision_type=2 2 2 2 2 2 2
left_child=3 2 -2 5 -5 -1 -3
right_child=1 6 -4 4 -6 -7 -8
leaf_value=0.020008556558835312 0.011404425491447524 -0.058393396953625991 0.074766162247758422 -0.0038315494038360341 0.0070398514945362615 -0.0069944109983664047 -0.0082827280513069878
leaf_weight=37 322 14.999999999999998 26 1089 837 1145 23
leaf_count=37 322 15 26 1089 837 1145 23
internal_value=-0.000282186 0.0117931 0.016209 -0.00178313 0.000893216 -0.00614328 -0.0284204
internal_weight=3494 386 348 3108 1926 1182 38
internal_count=3494 386 348 3108 1926 1182 38
is_linear=0
shrinkage=0.0656543


Tree=39
num_leaves=7
num_cat=0
split_feature=52 6 37 10 49 11
split_gain=11.7045 10.6794 10.4085 8.64939 10.1116 9.28886
threshold=0.26243685745129924 -0.88570581227796874 2.3480192142460727 -0.0961377419288761 -1.4848938744443443 0.2339163332609128
decision_type=2 2 2 2 2 2
left_child=1 -1 -3 4 -2 -5
right_child=3 2 -4 5 -6 -7
leaf_value=0.046825059398937476 0.028635112326872301 0.002447847112212965 0.046582422296544246 -0.0048874236416408577 -0.0013363008107672044 -0.021323474411209114
leaf_weight=24 51 1724 23 588 881 198
leaf_count=24 51 1724 23 588 881 198
internal_value=-0.000104091 0.00364082 0.00303821 -0.00396464 0.000313544 -0.00903574
internal_weight=3489 1771 1747 1718 932 786
internal_count=3489 1771 1747 1718 932 786
is_linear=0
shrinkage=0.0656543


Tree=40
num_leaves=8
num_cat=0
split_feature=1 35 10 67 52 16 32
split_gain=14.5361 12.594 16.9474 12.7935 6.11027 11.0719 7.67228
threshold=0.50759284172973962 0.44331344761418573 -0.16373298889541824 1.1677301254356067 0.1490965106780863 1.2992916878411478 -2.0040067548498652
decision_type=2 2 2 2 2 2 2
left_child=4 3 -3 -2 6 -6 -1
right_child=1 2 -4 -5 5 -7 -8
leaf_value=0.047032852549445649 -0.0027841148243310555 0.0275193711838649 -0.0019829501347123548 0.024182556899824861 -0.0062588997381517672 0.045080532762179791 0.0002832629402060796
leaf_weight=14.999999999999998 535 224 134 88 1397 18 1078
leaf_count=15 535 224 134 88 1397 18 1078
internal_value=-9.66126e-05 0.00667779 0.0164846 0.00103591 -0.00274708 -0.00559471 0.000939841
internal_weight=3489 981 358 623 2508 1415 1093
internal_count=3489 981 358 623 2508 1415 1093
is_linear=0
shrinkage=0.0656543


Tree=41
num_leaves=8
num_cat=0
split_feature=1 10 35 61 1 1 6
split_gain=12.815 11.3096 14.3333 11.1005 6.3473 6.75977 5.80762
threshold=0.628525306870659 0.51221675684989654 -0.99766602572634133 2.3535885659406159 -1.1854616702431382 0.60836989601383906 -0.54594301892261243
decision_type=2 2 2 2 2 2 2
left_child=4 3 -3 -2 6 -6 -1
right_child=1 2 -4 -5 5 -7 -8
leaf_value=0.017992672925389204 0.011466021800197766 0.043149719217251185 -0.019417048772968137 -0.045001682255098964 -0.00080352145698427255 -0.038812387903779735 -0.013659636016515932
leaf_weight=27 694 18 113 14.999999999999998 2308 20 294
leaf_count=27 694 18 113 15 2308 20 294
internal_value=-8.93836e-05 0.00697483 -0.0107266 0.0102495 -0.00233018 -0.00113592 -0.0109799
internal_weight=3489 840 131 709 2649 2328 321
internal_count=3489 840 131 709 2649 2328 321
is_linear=0
shrinkage=0.0656543


Tree=42
num_leaves=8
num_cat=0
split_feature=1 35 54 41 50 16 39
split_gain=13.0039 11.6123 16.1204 12.6936 5.73651 8.69891 7.18208
threshold=0.50759284172973962 1.7221827302039039 0.50995438006472449 2.0758438680601565 1.9549238315485573 -0.88527740312148573 0.69777190287095625
decision_type=2 2 2 2 2 2 2
left_child=4 3 -3 -2 6 -6 -1
right_child=1 2 -4 -5 5 -7 -8
leaf_value=-0.0014768132410462877 0.0064594535838085583 0.012147018848842178 0.093011549579648189 -0.025417304536791772 -0.018307302420555425 0.02992856837204191 -0.010366902385610723
leaf_weight=1933 883 35 14.999999999999998 57 23 52 491
leaf_count=1933 883 35 15 57 23 52 491
internal_value=-0.000201819 0.00616498 0.0368866 0.00451753 -0.00272469 0.0151164 -0.00327891
internal_weight=3489 990 50 940 2499 75 2424
internal_count=3489 990 50 940 2499 75 2424
is_linear=0
shrinkage=0.0656543


Tree=43
num_leaves=8
num_cat=0
split_feature=1 47 16 70 10 0 11
split_gain=12.3865 22.8394 14.6663 13.1407 9.25182 7.2728 6.46969
threshold=1.9386270125639573 0.92405683124522042 2.5918816702206589 -0.013276402732129997 -2.1312875049252664 -0.10337178147733901 -1.4633650969600625
decision_type=2 2 2 2 2 2 2
left_child=4 3 -3 -2 6 -6 -1
right_child=1 2 -4 -5 5 -7 -8
leaf_value=0.0046283852152440765 -0.015816117527380793 0.070495343587871642 -0.0089883739144814723 0.042075313052403127 -0.0042036398700839306 0.0019560032066945651 0.069857961458116888
leaf_weight=13.000000000000002 69 42 12.999999999999998 22 1761 1556 12.999999999999998
leaf_count=13 69 42 13 22 1761 1556 13
internal_value=-0.000188001 0.0185076 0.051765 -0.00171055 -0.00100642 -0.00131418 0.0377449
internal_weight=3489 146 55 91 3343 3317 26
internal_count=3489 146 55 91 3343 3317 26
is_linear=0
shrinkage=0.0656543


Tree=44
num_leaves=7
num_cat=0
split_feature=4 23 0 39 35 67
split_gain=9.2337 9.71884 9.00033 7.59537 7.6641 7.47457
threshold=-0.044060904418482295 -2.1312875049252664 0.024582460665087142 1.2664573984684553 2.118452085372549 0.54561300202404206
decision_type=2 2 2 2 2 2
left_child=3 -2 -3 4 -1 -5
right_child=1 2 -4 5 -6 -7
leaf_value=-0.001899060742374681 0.053244171403585172 0.00073078085751999381 0.014513244470180382 -0.0083445177486934103 0.035929680809767391 -0.039796956647640769
leaf_weight=2057 17 935 261 155 23 41
leaf_count=2057 17 935 261 155 23 41
internal_value=-0.000174596 0.00445111 0.00374206 -0.0026403 -0.0014747 -0.0149841
internal_weight=3489 1213 1196 2276 2080 196
internal_count=3489 1213 1196 2276 2080 196
is_linear=0
shrinkage=0.0656543


Tree=45
num_leaves=5
num_cat=0
split_feature=4 41 37 35
split_gain=9.15405 7.35535 10.0483 8.24448
threshold=5.2312195156224011 1.02088089861558 -0.9673984000268131 1.7221827302039039
decision_type=2 2 2 2
left_child=1 3 -3 -1
right_child=-2 2 -4 -5
leaf_value=0.00081242621236887779 0.045045722340768604 -0.044917842729756768 -0.0044056367684835469 0.023912690560936787
leaf_weight=2604 19 27 761 68
leaf_count=2604 19 27 761 68
internal_value=1.12458e-05 -0.000240477 -0.00581329 0.00140344
internal_weight=3479 3460 788 2672
internal_count=3479 3460 788 2672
is_linear=0
shrinkage=0.0656543


Tree=46
num_leaves=8
num_cat=0
split_feature=71 38 16 52 28 64 12
split_gain=8.44564 11.2919 14.9416 9.94976 9.80969 6.7871 4.02394
threshold=0.45521631655584011 1.4498234735162778 0.13930112306076214 -1.0031970148495755 -1.461495374118458 2.7214724279631857 0.1648713094026765
decision_type=2 2 2 2 2 2 2
left_child=4 3 -3 -2 6 -6 -1
right_child=1 2 -4 -5 5 -7 -8
leaf_value=-0.031323030677485639 0.016728643060017676 0.087974944637393693 0.0057692220016506996 -6.4898947037850675e-05 -0.001424690310665443 0.037610692134308274 0.0043822528133479633
leaf_weight=66 200 15.999999999999998 23 631 2507 19 17
leaf_count=66 200 16 23 631 2507 19 17
internal_value=1.06417e-05 0.00561124 0.0399809 0.00398185 -0.00185733 -0.00112583 -0.0240189
internal_weight=3479 870 39 831 2609 2526 83
internal_count=3479 870 39 831 2609 2526 83
is_linear=0
shrinkage=0.0656543


Tree=47
num_leaves=5
num_cat=0
split_feature=55 54 60 3
split_gain=8.21561 7.03467 9.46812 7.36086
threshold=-2.5858265690940265 -1.1731292997273635 -0.96180402408411947 1.177525078686388
decision_type=2 2 2 2
left_child=-1 2 -2 -3
right_child=1 3 -4 -5
leaf_value=0.045079697082448765 0.014282905684606552 0.0018379695782338292 -0.013116872454308814 -0.0094868779895223992
leaf_weight=17 65 2802 324 271
leaf_count=17 65 2802 324 271
internal_value=1.07331e-05 -0.000215003 -0.00852914 0.000838212
internal_weight=3479 3462 389 3073
internal_count=3479 3462 389 3073
is_linear=0
shrinkage=0.0656543


Tree=48
num_leaves=7
num_cat=0
split_feature=53 66 4 55 40 7
split_gain=8.32216 10.1669 8.77585 8.40656 6.31408 4.24605
threshold=1.2216968259965111 1.0604880282857752 5.2312195156224011 -0.42957170707167802 -0.28379181026568173 0.99186890693023122
decision_type=2 2 2 2 2 2
left_child=2 3 4 -2 -1 -3
right_child=1 5 -4 -5 -6 -7
leaf_value=0.0033625113816303184 0.0083714423699842444 -0.036584938343838497 0.043267934491588778 0.035118369962460545 -0.0030479095891202098 0.0079743128649957251
leaf_weight=954 240 26 19 64 2164 13.999999999999998
leaf_count=954 240 26 19 64 2164 14
internal_value=0.000250556 0.00993936 -0.000812806 0.014037 -0.0010863 -0.0210482
internal_weight=3481 344 3137 304 3118 40
internal_count=3481 344 3137 304 3118 40
is_linear=0
shrinkage=0.0656543


Tree=49
num_leaves=7
num_cat=0
split_feature=1 61 4 49 31 0
split_gain=10.9293 14.6834 16.5109 5.39293 9.3406 4.48205
threshold=-0.056758662261219804 2.4585233494540302 5.2312195156224011 -1.6314829081902811 -0.15387506641879609 -2.0501041797871067
decision_type=2 2 2 2 2 2
left_child=3 2 -2 4 -1 -5
right_child=1 -3 -4 5 -6 -7
leaf_value=0.037379285991314445 0.0041096824353781891 -0.047735830205701865 0.077425740107640736 0.017258475290564641 -0.012003126702184197 -0.0046266274600126151
leaf_weight=36 1675 23 12.999999999999998 41 30 1663
leaf_count=36 1675 23 13 41 30 1663
internal_value=0.000234499 0.00397586 0.00469031 -0.00338207 0.0149834 -0.00409648
internal_weight=3481 1711 1688 1770 66 1704
internal_count=3481 1711 1688 1770 66 1704
is_linear=0
shrinkage=0.0656543


Tree=50
num_leaves=8
num_cat=0
split_feature=1 45 14 37 53 59 31
split_gain=9.58893 15.5471 15.1594 11.449 8.40644 8.47971 6.77954
threshold=1.9386270125639573 1.0000000180025095e-35 0.20484701508791617 -0.29078256037928568 1.2216968259965111 -0.21205595329409313 1.4946596749663625
decision_type=2 2 2 2 2 2 2
left_child=4 3 -3 -2 5 -1 -6
right_child=1 2 -4 -5 6 -7 -8
leaf_value=0.0024106868266681584 0.03045484509495501 0.019709753153035331 0.08897369761962233 -0.039578388841700778 0.012340937662878805 -0.0046259472686283184 -0.021257553953429313
leaf_weight=1299 14.999999999999998 84 15.999999999999998 29 301 1709 28
leaf_count=1299 15 84 16 29 301 1709 28
internal_value=0.000219574 0.0167868 0.0310646 -0.0156457 -0.000496937 -0.00158717 0.00946125
internal_weight=3481 144 100 44 3337 3008 329
internal_count=3481 144 100 44 3337 3008 329
is_linear=0
shrinkage=0.0656543


Tree=51
num_leaves=8
num_cat=0
split_feature=1 47 26 34 12 37 74
split_gain=8.53686 15.1957 14.4408 9.08136 8.0452 8.95503 7.3477
threshold=1.9386270125639573 1.1022748742119226 0.4856350631670549 -0.7633667794599629 -0.058216659710044034 2.1112036703694375 1.0000000180025095e-35
decision_type=2 2 2 2 2 2 2
left_child=4 3 -3 -2 5 -1 -6
right_child=1 2 -4 -5 6 -7 -8
leaf_value=-0.0030015342358989229 -0.030802062902747819 0.020013221852167275 0.095782374673397688 0.013304141630737251 -0.00030047295617362929 0.023467062454950297 0.012352509833214034
leaf_weight=2485 28 33 15.999999999999998 69 463 56 345
leaf_count=2485 28 33 16 69 463 56 345
internal_value=7.784e-05 0.0155994 0.0452602 0.000505135 -0.000600291 -0.00241497 0.00510476
internal_weight=3495 146 49 97 3349 2541 808
internal_count=3495 146 49 97 3349 2541 808
is_linear=0
shrinkage=0.0656543


Tree=52
num_leaves=7
num_cat=0
split_feature=1 54 61 50 1 45
split_gain=7.70175 11.0973 9.91123 3.17481 5.17299 2.98327
threshold=-0.88313050739083854 2.2933260326487792 2.4585233494540302 0.32231599485199564 -0.98390756167493854 -1.48915980768932
decision_type=2 2 2 2 2 2
left_child=3 2 -2 5 -5 -1
right_child=1 -3 -4 4 -6 -7
leaf_value=-0.030052392186724119 0.0015236932607593022 0.046536602342163898 -0.032977747948360059 0.0053855795347057638 -0.020710290269769002 -0.0085738334190178286
leaf_weight=30 2852 23 36 157 41 356
leaf_count=30 2852 23 36 157 41 356
internal_value=7.35889e-05 0.0014543 0.00108961 -0.00680498 -4.35821e-05 -0.0102694
internal_weight=3495 2911 2888 584 198 386
internal_count=3495 2911 2888 584 198 386
is_linear=0
shrinkage=0.0656543


Tree=53
num_leaves=8
num_cat=0
split_feature=1 45 10 37 0 1 37
split_gain=7.33552 12.7168 14.4745 10.0051 7.3651 12.0562 11.5331
threshold=1.9386270125639573 1.0000000180025095e-35 0.29278738206972982 -0.29078256037928568 -0.10337178147733901 -1.5885698873795375 2.246526838298943
decision_type=2 2 2 2 2 2 2
left_child=4 3 -3 -2 6 -6 -1
right_child=1 2 -4 -5 5 -7 -8
leaf_value=-0.0041697243066486991 0.02813975871414692 0.037812338397507438 -0.029690833543989156 -0.037330499403534244 -0.022349522877193228 0.004079956598128872 0.033707836805920502
leaf_weight=1760 14.999999999999998 86 15.999999999999998 29 78 1476 35
leaf_count=1760 15 86 16 29 78 1476 35
internal_value=6.84935e-05 0.0144565 0.0271561 -0.0149594 -0.000560109 0.0027485 -0.00342463
internal_weight=3495 146 102 44 3349 1554 1795
internal_count=3495 146 102 44 3349 1554 1795
is_linear=0
shrinkage=0.0656543


Tree=54
num_leaves=7
num_cat=0
split_feature=1 54 61 16 42 25
split_gain=7.71527 9.86434 10.0194 5.05768 6.98052 3.9544
threshold=-0.45986687939761911 2.2933260326487792 2.4585233494540302 0.3080765594760006 1.3458565059829335 1.8471772687886818
decision_type=2 2 2 2 2 2
left_child=3 2 -2 4 -1 -5
right_child=1 -3 -4 5 -6 -7
leaf_value=-0.0031458916811249542 0.0021959360677698703 0.052886961258370842 -0.036411976843001265 -0.016896674607534818 0.044657429243283503 0.014374681146605343
leaf_weight=976 2279 15.999999999999998 29 182 12.999999999999998 19
leaf_count=976 2279 16 29 182 13 19
internal_value=-0.000135601 0.00206564 0.0017053 -0.00443408 -0.00250179 -0.0139196
internal_weight=3514 2324 2308 1190 989 201
internal_count=3514 2324 2308 1190 989 201
is_linear=0
shrinkage=0.0656543


Tree=55
num_leaves=7
num_cat=0
split_feature=1 43 42 27 4 65
split_gain=6.73416 9.70598 9.08753 4.47936 9.27385 6.6747
threshold=-0.45986687939761911 -2.0721391078156146 -1.6125554570202101 0.059317816611520122 0.8510025814845309 -1.0510634835011046
decision_type=2 2 2 2 2 2
left_child=3 -2 -3 4 -1 -5
right_child=1 2 -4 5 -6 -7
leaf_value=-0.0026572817977061074 -0.044377824658497399 -0.020582554208127924 0.0030603055500732401 0.01912833243225245 0.05247982350786163 -0.014410126498558233
leaf_weight=884 19 72 2233 28 12.999999999999998 265
leaf_count=884 19 72 2233 28 13 265
internal_value=-0.000126313 0.00193021 0.00231868 -0.0041422 -0.00183787 -0.0111853
internal_weight=3514 2324 2305 1190 897 293
internal_count=3514 2324 2305 1190 897 293
is_linear=0
shrinkage=0.0656543


Tree=56
num_leaves=6
num_cat=0
split_feature=72 31 52 12 0
split_gain=6.42654 11.686 7.28004 6.07365 6.22577
threshold=-2.5319050937140388 -0.35953385593813258 -1.2865478817826073 4.9612626453261681 -0.011975894232748908
decision_type=2 2 2 2 2
left_child=1 2 -1 4 -2
right_child=3 -3 -4 -5 -6
leaf_value=0.031159820615409128 -0.0029800701373946113 0.076079906198429928 -0.032055467228679219 0.042192546502172933 0.0026665834176867473
leaf_weight=17 2007 12.999999999999998 14.000000000000002 13.999999999999998 1449
leaf_count=17 2007 13 14 14 1449
internal_value=-0.000118068 0.0247165 0.00256347 -0.000435496 -0.000612485
internal_weight=3514 44 31 3470 3456
internal_count=3514 44 31 3470 3456
is_linear=0
shrinkage=0.0656543


Tree=57
num_leaves=7
num_cat=0
split_feature=41 1 37 8 1 4
split_gain=6.85758 13.0157 9.3441 8.44293 7.66011 1.84359
threshold=1.02088089861558 3.077407725974286 -0.9673984000268131 0.76100837672536892 1.0920997565775186 -0.33495653733696146
decision_type=2 2 2 2 2 2
left_child=1 4 5 -4 -1 -2
right_child=2 -3 3 -5 -6 -7
leaf_value=3.5933158818359644e-05 -0.024174526198622918 0.066330451565070475 -0.00035563550290014425 -0.017180408723668789 0.010827395779813375 -0.059449992184441171
leaf_weight=2355 13.000000000000002 12.999999999999998 604 163 322 13.999999999999998
leaf_count=2355 13 13 604 163 322 14
internal_value=7.53906e-05 0.00165805 -0.00528454 -0.00393769 0.00133531 -0.0429987
internal_weight=3484 2690 794 767 2677 27
internal_count=3484 2690 794 767 2677 27
is_linear=0
shrinkage=0.0656543


Tree=58
num_leaves=8
num_cat=0
split_feature=41 48 43 1 35 45 1
split_gain=6.32539 10.4243 12.5688 9.42337 7.36377 12.6097 5.8736
threshold=2.0381666191514216 -0.85999316140504034 0.25020962445359723 0.16495085716379965 1.7221827302039039 -0.80890990533375706 -0.76219804224991894
decision_type=2 2 2 2 2 2 2
left_child=4 3 -3 -2 6 -6 -1
right_child=1 2 -4 -5 5 -7 -8
leaf_value=-0.0051939418188754654 -0.0041193989660798461 -0.011756586130764413 0.038835896145260854 -0.066869634239713469 -0.019864192748301181 0.0336533765729915 0.0016820073364372413
leaf_weight=680 18 128 25 24 26 68 2515
leaf_count=680 18 128 25 24 26 68 2515
internal_value=7.02737e-05 -0.0114079 -0.00341877 -0.0402377 0.000752013 0.0188291 0.000218091
internal_weight=3484 195 153 42 3289 94 3195
internal_count=3484 195 153 42 3289 94 3195
is_linear=0
shrinkage=0.0656543


Tree=59
num_leaves=7
num_cat=0
split_feature=41 1 18 0 1 1
split_gain=5.73486 11.3492 11.123 7.38407 7.23896 6.55288
threshold=1.0773967719786828 3.0370969042606459 0.074467459442218248 -0.048534249130584954 1.0920997565775186 0.80992400458203895
decision_type=2 2 2 2 2 2
left_child=1 4 5 -4 -1 -2
right_child=2 -3 3 -5 -6 -7
leaf_value=-0.00010898307461975473 -0.0050782494981125356 0.059685472888629881 0.00080724756093602666 0.033257591176103093 0.010283502783941046 -0.021236569376879302
leaf_weight=2405 463 13.999999999999998 87 46 328 141
leaf_count=2405 463 14 87 46 328 141
internal_value=6.54243e-05 0.00144531 -0.00507568 0.0120902 0.00113932 -0.0088608
internal_weight=3484 2747 737 133 2733 604
internal_count=3484 2747 737 133 2733 604
is_linear=0
shrinkage=0.0656543


Tree=60
num_leaves=8
num_cat=0
split_feature=1 41 10 56 43 27 1
split_gain=7.4307 16.8247 14.9756 12.6587 7.37579 13.404 7.73968
threshold=1.5959850279980181 0.62291495701706823 0.25029371072071521 -1.0164411693110511 2.3332860630950729 2.0078147383045954 0.72930236115475899
decision_type=2 2 2 2 2 2 2
left_child=4 2 -2 -3 5 -1 -6
right_child=1 3 -4 -5 6 -7 -8
leaf_value=-0.00097004649292900156 0.038752431761615025 0.051417021081079824 -0.013857539679872534 -0.016997433903605887 -0.0088710789278899933 0.034594245000816266 -0.069430160006659525
leaf_weight=3173 102 12.999999999999998 30 92 29 46 12.999999999999998
leaf_count=3173 102 13 30 92 29 46 13
internal_value=0 0.0112158 0.0267886 -0.00838276 -0.000816313 -0.000458062 -0.0280381
internal_weight=3498 237 132 105 3261 3219 42
internal_count=3498 237 132 105 3261 3219 42
is_linear=0
shrinkage=0.0656543


Tree=61
num_leaves=7
num_cat=0
split_feature=45 21 18 43 46 29
split_gain=6.61066 6.94583 10.6543 7.15726 5.61118 3.40053
threshold=-1.8973097491026578 1.4872766484534261 -0.31567567815984665 2.3332860630950729 0.64622089626608969 -1.0982855016412794
decision_type=2 2 2 2 2 2
left_child=4 3 -3 -2 5 -1
right_child=1 2 -4 -5 -6 -7
leaf_value=-0.023927104509341875 0.00138685384006541 0.0071735497314879739 -0.029530398876503234 -0.022858024328020709 -0.04749292417718181 0.013683908799251673
leaf_weight=22 3243 59 80 53 22 19
leaf_count=22 3243 59 80 53 22 19
internal_value=0 0.000387556 -0.0139701 0.000994542 -0.0210161 -0.00652258
internal_weight=3498 3435 139 3296 63 41
internal_count=3498 3435 139 3296 63 41
is_linear=0
shrinkage=0.0656543


Tree=62
num_leaves=8
num_cat=0
split_feature=52 1 16 0 0 50 73
split_gain=6.80865 10.9723 19.5523 9.48641 6.91997 13.7129 9.95937
threshold=0.26243685745129924 1.6161404388548379 -0.34768906972430408 -2.1871980106539914 -0.15820931382409306 1.9549238315485573 0.066829847648526799
decision_type=2 2 2 2 2 2 2
left_child=1 3 -3 -1 5 -2 -6
right_child=4 2 -4 -5 6 -7 -8
leaf_value=0.037625931731245281 -0.0091188866930840481 -0.056396377909385231 0.026818992396945428 0.0005708972414106546 0.010652675103364694 0.038206885519201268 -0.0038294519004657451
leaf_weight=30 760 12.999999999999998 140 1596 303 27 629
leaf_count=30 760 13 140 1596 303 27 629
internal_value=-5.72498e-07 0.00284638 0.0196348 0.00126263 -0.00294703 -0.00747876 0.000880721
internal_weight=3498 1779 153 1626 1719 787 932
internal_count=3498 1779 153 1626 1719 787 932
is_linear=0
shrinkage=0.0656543


Tree=63
num_leaves=7
num_cat=0
split_feature=39 1 55 41 10 12
split_gain=6.15812 6.22788 7.06999 5.84911 5.109 4.11245
threshold=1.5402689333857691 -1.1854616702431382 -2.5858265690940265 -1.0136905424561022 0.013352101538985906 0.22064330168085663
decision_type=2 2 2 2 2 2
left_child=1 5 -3 -2 -5 -1
right_child=3 2 -4 4 -6 -7
leaf_value=-0.011336981207075453 0.019235786942180786 0.04760816865497762 0.0014084448612947554 -0.0085827812717939895 -0.034384466311458695 0.010735956484823023
leaf_weight=260 23 13.999999999999998 2973 117 46 42
leaf_count=260 23 14 2973 117 46 42
internal_value=6.39508e-05 0.000721791 0.00163059 -0.0115467 -0.0159236 -0.00825753
internal_weight=3475 3289 2987 186 163 302
internal_count=3475 3289 2987 186 163 302
is_linear=0
shrinkage=0.0656543


Tree=64
num_leaves=4
num_cat=0
split_feature=12 48 5
split_gain=5.42713 5.20876 5.80055
threshold=4.9612626453261681 2.7028037737208384 5.6140858320963609
decision_type=2 2 2
left_child=1 2 -1
right_child=-2 -3 -4
leaf_value=-6.5508173238797734e-05 0.04035567206046687 -0.031012798552759079 0.043299397581141076
leaf_weight=3425 13.999999999999998 23 12.999999999999998
leaf_count=3425 14 23 13
internal_value=5.99143e-05 -0.000107045 0.00010275
internal_weight=3475 3461 3438
internal_count=3475 3461 3438
is_linear=0
shrinkage=0.0656543


Tree=65
num_leaves=8
num_cat=0
split_feature=39 40 1 16 64 37 64
split_gain=5.94933 14.1605 15.0637 9.53273 6.56534 8.05391 6.28957
threshold=-0.79766032629283645 -0.28379181026568173 1.1122551674343384 2.1631138646782517 1.8542792412468636 1.0000000180025095e-35 0.69537202298696721
decision_type=2 2 2 2 2 2 2
left_child=1 2 -1 -3 6 -6 -2
right_child=4 3 -4 -5 5 -7 -8
leaf_value=0.011790697435746811 -0.00032534412628969022 -0.0020888030391964874 0.058847558820657689 0.054151365170893376 0.034459205104645028 -0.0027441299346694639 -0.0082413995070375595
leaf_weight=174 2124 486 35 12.999999999999998 48 52 543
leaf_count=174 2124 486 35 13 48 52 543
internal_value=5.63209e-05 0.00542529 0.019757 -0.000586401 -0.00131786 0.0151683 -0.00193801
internal_weight=3475 708 209 499 2767 100 2667
internal_count=3475 708 209 499 2767 100 2667
is_linear=0
shrinkage=0.0656543


Tree=66
num_leaves=8
num_cat=0
split_feature=1 64 43 29 12 72 71
split_gain=5.6697 8.53818 14.3972 14.3714 6.48297 7.55595 6.36686
threshold=-0.076914073118039786 0.69537202298696721 2.2206873366820203 1.2996146991888702 -0.28130462882276447 1.8418554970364778 1.8047659360886688
decision_type=2 2 2 2 2 2 2
left_child=4 3 -3 -2 5 -1 -6
right_child=1 2 -4 -5 6 -7 -8
leaf_value=-0.012846395357834705 0.0038195259370742704 -0.0028886434562366511 -0.072086579582310698 0.033940196197726841 0.00027096784118203456 0.023024917840029278 -0.028771915951982269
leaf_weight=344 1219 449 12.999999999999998 72 1337 27 33
leaf_count=344 1219 449 13 72 1337 27 33
internal_value=0.000132017 0.00276748 -0.0048891 0.00550827 -0.00252148 -0.010216 -0.000435531
internal_weight=3494 1753 462 1291 1741 371 1370
internal_count=3494 1753 462 1291 1741 371 1370
is_linear=0
shrinkage=0.0656543


Tree=67
num_leaves=7
num_cat=0
split_feature=41 32 1 61 64 65
split_gain=5.45512 6.36673 5.78428 8.34095 4.07685 1.83812
threshold=2.7917115973261186 -1.4083538521720029 -0.76219804224991894 2.4585233494540302 2.1058131766203823 0.089288320607237001
decision_type=2 2 2 2 2 2
left_child=2 -2 4 -4 -1 -3
right_child=1 5 3 -5 -6 -7
leaf_value=-0.0056736877589420517 0.016338327949517992 -0.056603608391388248 0.0022219124644057785 -0.029018994113879131 0.024886479705812578 -0.024270567849379872
leaf_weight=693 12.999999999999998 12.999999999999998 2699 37 19 20
leaf_count=693 13 13 2699 37 19 20
internal_value=0.000122981 -0.0222514 0.000423771 0.0017957 -0.00484605 -0.0374733
internal_weight=3494 46 3448 2736 712 33
internal_count=3494 46 3448 2736 712 33
is_linear=0
shrinkage=0.0656543


Tree=68
num_leaves=8
num_cat=0
split_feature=43 22 4 17 17 37 4
split_gain=5.24281 8.44618 7.40872 11.8618 7.33424 3.05021 2.94054
threshold=2.3332860630950729 1.0000000180025095e-35 1.7516602141744377 -1.0461849722987597 -1.3506906019349287 0.081356151426854637 2.2775100121424576
decision_type=2 2 2 2 2 2 2
left_child=2 5 4 -4 -1 -2 -3
right_child=1 6 3 -5 -6 -7 -8
leaf_value=-0.011855227767911956 -0.019769216190145929 0.027102279613590942 0.025585820824470851 -0.017687429901807557 0.00062423865820802936 -0.063172266068359975 -0.014947744234993962
leaf_weight=217 13.000000000000002 14.000000000000002 110 36 3074 15.999999999999998 13.999999999999998
leaf_count=217 13 14 110 36 3074 16 14
internal_value=0.000114426 -0.0195732 0.000442955 0.0148972 -0.000199708 -0.0441897 0.00614228
internal_weight=3494 57 3437 146 3291 29 28
internal_count=3494 57 3437 146 3291 29 28
is_linear=0
shrinkage=0.0656543


Tree=69
num_leaves=8
num_cat=0
split_feature=53 66 0 0 39 1 6
split_gain=6.2173 8.76272 7.16333 7.01507 6.59929 7.30177 5.93625
threshold=1.2216968259965111 1.0604880282857752 1.0116580429066595 0.061140815562923202 1.5402689333857691 1.9386270125639573 -0.63860559892861868
decision_type=2 2 2 2 2 2 2
left_child=4 2 -2 -3 5 -1 -6
right_child=1 3 -4 -5 6 -7 -8
leaf_value=-0.00068675537060009667 0.015232937055382307 -0.046050631279481148 -0.022635428674716757 0.0086500857898873448 0.014859536138215782 0.01588891451655251 -0.019261600328427175
leaf_weight=2852 282 21 23 19 26 119 134
leaf_count=2852 282 21 23 19 26 119 134
internal_value=0.000200704 0.00856098 0.0123539 -0.0202105 -0.000721263 -2.09634e-05 -0.013695
internal_weight=3476 345 305 40 3131 2971 160
internal_count=3476 345 305 40 3131 2971 160
is_linear=0
shrinkage=0.0656543


Tree=70
num_leaves=8
num_cat=0
split_feature=35 54 39 68 18 65 45
split_gain=5.8602 12.2071 8.13629 5.70224 5.24401 9.09328 6.05937
threshold=1.7221827302039039 0.50995438006472449 0.75042796727813199 -0.18777566198391527 0.031118221930877689 -1.2071947282875855 1.6229834955873803
decision_type=2 2 2 2 2 2 2
left_child=4 2 -2 -3 6 -6 -1
right_child=1 3 -4 -5 5 -7 -8
leaf_value=-0.002414536672036862 0.012518868530655531 0.024237905469830446 -0.037981613542209879 0.083161359211880587 -0.021367415680183958 0.0068189055467388496 0.011155755685582568
leaf_weight=2504 66 16.000000000000004 17 12.999999999999998 53 657 150
leaf_count=2504 66 16 17 13 53 657 150
internal_value=0.000187298 0.0149378 0.00205686 0.0513334 -0.000305212 0.00470505 -0.0016461
internal_weight=3476 112 83 29 3364 710 2654
internal_count=3476 112 83 29 3364 710 2654
is_linear=0
shrinkage=0.0656543


Tree=71
num_leaves=7
num_cat=0
split_feature=39 41 51 17 35 52
split_gain=5.18961 6.48506 4.99539 4.92824 6.21998 5.49254
threshold=1.5402689333857691 -1.0136905424561022 0.67854040036242802 1.8131037243109107 1.7221827302039039 2.1892227525959145
decision_type=2 2 2 2 2 2
left_child=3 -2 -3 4 -1 -5
right_child=1 2 -4 5 -6 -7
leaf_value=0.00066543321329486755 0.021150377303068232 -0.0071203885896336085 -0.031676681242387747 -0.026787460708438762 0.016962661991504785 0.0079069490929823232
leaf_weight=3100 24 109 53 56 104 30
leaf_count=3100 24 109 53 56 104 30
internal_value=0.000175507 -0.0104832 -0.0152065 0.00077922 0.0011963 -0.0146985
internal_weight=3476 186 162 3290 3204 86
internal_count=3476 186 162 3290 3204 86
is_linear=0
shrinkage=0.0656543


Tree=72
num_leaves=8
num_cat=0
split_feature=10 11 47 1 8 69 31
split_gain=5.90013 13.5754 13.3506 11.2465 10.0032 11.5636 9.25839
threshold=-0.16373298889541824 0.2499455282179375 1.7705925353370564 1.9386270125639573 -0.88011912878190979 0.85027851044911562 -0.30730305225068216
decision_type=2 2 2 2 2 2 2
left_child=4 3 -3 -2 5 -1 -6
right_child=1 2 -4 -5 6 -7 -8
leaf_value=-0.014330511468704475 -0.00020786187153592331 -0.010545154234258563 -0.072948160553159017 0.040910398729289289 0.00050912887798031797 0.02762222974332363 0.010914295865485875
leaf_weight=228 1247 410 14.999999999999998 29 896 32 626
leaf_count=228 1247 410 15 29 896 32 626
internal_value=0.000117126 -0.0026483 -0.0128061 0.000737323 0.00275701 -0.00913606 0.00479048
internal_weight=3483 1701 425 1276 1782 260 1522
internal_count=3483 1701 425 1276 1782 260 1522
is_linear=0
shrinkage=0.0656543


Tree=73
num_leaves=7
num_cat=0
split_feature=61 72 33 14 70 41
split_gain=4.87378 8.1364 12.1681 6.62786 4.4426 3.76316
threshold=2.4585233494540302 -2.5319050937140388 0.31336710960943087 -0.33374570468330228 -1.4751209929399656 0.015369318363718559
decision_type=2 2 2 2 2 2
left_child=1 2 -1 5 -3 -2
right_child=3 4 -4 -5 -6 -7
leaf_value=0.06137972478907941 -0.012748550241630715 -0.014228163728984404 -0.016333525371658528 0.015066377004087897 0.00044887099189876525 -0.060534072919703495
leaf_weight=22 13.000000000000002 91 13.999999999999998 13.999999999999998 3313 15.999999999999998
leaf_count=22 13 91 14 14 3313 16
internal_value=0.000109313 0.000385029 0.0312833 -0.0217679 5.50136e-05 -0.039527
internal_weight=3483 3440 36 43 3404 29
internal_count=3483 3440 36 43 3404 29
is_linear=0
shrinkage=0.0656543


Tree=74
num_leaves=7
num_cat=0
split_feature=10 40 8 43 10 45
split_gain=5.19762 9.07371 10.574 7.38503 6.8694 6.52476
threshold=-0.16373298889541824 -0.8314146734332154 -0.88011912878190979 -1.6076693613617727 -0.1558513670647462 1.9120897040884945
decision_type=2 2 2 2 2 2
left_child=1 3 -3 -1 -2 -6
right_child=4 2 -4 -5 5 -7
leaf_value=0.024028223577922413 -0.04773252092613476 -0.0081417416380173153 0.0074619428668031562 -0.0092631422806026074 -0.002831148594967092 0.020937101603352132
leaf_weight=31 13.999999999999998 222 1185 344 1636 51
leaf_count=31 14 222 1185 344 1636 51
internal_value=0.000101949 0.0025797 0.00499836 -0.00649063 -0.00249363 -0.00210828
internal_weight=3483 1782 1407 375 1701 1687
internal_count=3483 1782 1407 375 1701 1687
is_linear=0
shrinkage=0.0656543


Tree=75
num_leaves=8
num_cat=0
split_feature=0 1 64 14 49 70 54
split_gain=5.66131 10.4797 10.537 8.98011 9.09984 1.59333 1.40299
threshold=-0.43239697555786299 -1.5885698873795375 2.1058131766203823 1.9384313171033674 0.46264614532310072 -0.49646112195994202 1.8556003461451507
decision_type=2 2 2 2 2 2 2
left_child=3 6 -3 4 -1 -5 -2
right_child=1 2 -4 5 -6 -7 -8
leaf_value=0.0010630882651174343 -0.02571666135239618 0.0024052450366398668 0.036298640359709776 -0.019058916374611073 -0.010762938939880775 -0.048007086612418787 -0.0052074663316488317
leaf_weight=959 62 1980 40 14.999999999999998 396 20 19
leaf_count=959 62 1980 40 15 396 20 19
internal_value=2.15131e-06 0.00215261 0.00308267 -0.00324783 -0.00239475 -0.0359179 -0.020952
internal_weight=3491 2101 2020 1390 1355 35 81
internal_count=3491 2101 2020 1390 1355 35 81
is_linear=0
shrinkage=0.0656543


Tree=76
num_leaves=5
num_cat=0
split_feature=4 53 11 45
split_gain=4.46869 4.57388 10.3765 5.76253
threshold=5.2312195156224011 -1.3334564911498961 0.50286209616780209 -1.8973097491026578
decision_type=2 2 2 2
left_child=1 2 -1 -3
right_child=-2 3 -4 -5
leaf_value=-0.0027660995065860051 0.033240817438679578 -0.021031642766558056 -0.036836615837055518 0.00093340293654411044
leaf_weight=257 17 52 45 3120
leaf_count=257 17 52 45 3120
internal_value=1.54376e-06 -0.000164345 -0.00788025 0.000570969
internal_weight=3491 3474 302 3172
internal_count=3491 3474 302 3172
is_linear=0
shrinkage=0.0656543


Tree=77
num_leaves=8
num_cat=0
split_feature=0 41 64 14 49 14 70
split_gain=4.96119 9.64361 8.397 7.84451 7.98711 4.41072 1.39468
threshold=-0.43239697555786299 2.1260801999384698 1.8542792412468636 1.9384313171033674 0.46264614532310072 -0.048125526571101994 -0.49646112195994202
decision_type=2 2 2 2 2 2 2
left_child=3 2 -2 4 -1 -3 -5
right_child=1 5 -4 6 -6 -7 -8
leaf_value=0.00099572220175319259 0.0021427419544793143 -0.0041026851737958562 0.026069445457948148 -0.017801896556076405 -0.0100836780304527 -0.03438251688611868 -0.044886500457241532
leaf_weight=959 1953 40 65 14.999999999999998 396 43 20
leaf_count=959 1953 40 65 15 396 43 20
internal_value=1.25925e-06 0.00201437 0.00291792 -0.00304113 -0.0022438 -0.0198711 -0.0335758
internal_weight=3491 2101 2018 1390 1355 83 35
internal_count=3491 2101 2018 1390 1355 83 35
is_linear=0
shrinkage=0.0656543


Tree=78
num_leaves=7
num_cat=0
split_feature=43 16 45 64 8 50
split_gain=6.25046 11.8363 9.51023 6.28819 5.42904 3.18777
threshold=2.3332860630950729 2.2544239335187113 1.9971209418829401 0.64452079016470176 -1.8762908886238752 -0.15166692547926425
decision_type=2 2 2 2 2 2
left_child=1 4 -3 5 -1 -2
right_child=3 2 -4 -5 -6 -7
leaf_value=-0.024074431675475641 -0.027265513069683889 0.0095880619742993341 0.074161808409781871 -0.053497721192574961 0.00015302570369147894 0.012126890949773893
leaf_weight=40 15.999999999999998 25 15.999999999999998 18 3358 19
leaf_count=40 16 25 16 18 3358 19
internal_value=-5.55916e-05 0.000290243 0.0352058 -0.0223564 -0.000134526 -0.00596449
internal_weight=3492 3439 41 53 3398 35
internal_count=3492 3439 41 53 3398 35
is_linear=0
shrinkage=0.0656543


Tree=79
num_leaves=8
num_cat=0
split_feature=14 69 59 33 21 18 8
split_gain=5.16931 12.382 12.534 10.9444 5.73055 10.8858 6.19218
threshold=-1.7744571653070833 0.4506577059342593 0.13232754924563139 -0.54388010509675644 1.4872766484534261 -0.31567567815984665 -1.8762908886238752
decision_type=2 2 2 2 2 2 2
left_child=1 3 -3 -1 6 -6 -2
right_child=4 2 -4 -5 5 -7 -8
leaf_value=-0.036586937451975415 -0.025420028778799827 0.0035096177074425625 0.091243439954150865 0.030866558390443933 0.0073036378478582645 -0.029647565717978001 0.00045964152841788459
leaf_weight=22 40 13.000000000000002 14.999999999999998 19 61 78 3244
leaf_count=22 40 13 15 19 61 78 3244
internal_value=-5.19891e-05 0.0176943 0.0510621 -0.00532477 -0.000411553 -0.0134519 0.00014168
internal_weight=3492 69 28 41 3423 139 3284
internal_count=3492 69 28 41 3423 139 3284
is_linear=0
shrinkage=0.0656543


Tree=80
num_leaves=7
num_cat=0
split_feature=43 16 60 12 65 14
split_gain=5.39269 10.3271 10.5587 6.0763 6.15288 5.09559
threshold=2.3332860630950729 2.2544239335187113 0.06798424997154702 -0.11398865198822415 -0.32040567148856341 0.043016550801301727
decision_type=2 2 2 2 2 2
left_child=1 5 -3 4 -2 -1
right_child=3 2 -4 -5 -6 -7
leaf_value=-0.0023624128129505037 0.020184642903638823 0.0017330168992041796 0.068265960157704864 -0.052689686624279017 -0.033670728090830451 0.0027631067534198417
leaf_weight=1914 19 22 19 17 17 1484
leaf_count=1914 19 22 19 17 17 1484
internal_value=-4.82879e-05 0.000272936 0.0328867 -0.0207624 -0.00531845 -0.000123824
internal_weight=3492 3439 41 53 36 3398
internal_count=3492 3439 41 53 36 3398
is_linear=0
shrinkage=0.0656543


Tree=81
num_leaves=6
num_cat=0
split_feature=23 11 0 41 2
split_gain=5.02465 6.97039 5.36032 10.0203 7.54709
threshold=-2.1312875049252664 -1.2470134055539093 -0.43239697555786299 2.1260801999384698 2.0538509849119246
decision_type=2 2 2 2 2
left_child=1 -1 4 -4 -2
right_child=2 -3 3 -5 -6
leaf_value=-0.004038859724139734 -0.0039496218852393059 0.059867227383277322 0.0028845055115013269 -0.020348494154965258 0.035397669542344579
leaf_weight=15.000000000000002 1343 13.999999999999998 2004 83 21
leaf_count=15 1343 14 2004 83 21
internal_value=9.5449e-05 0.0271469 -0.000134508 0.00195716 -0.00333477
internal_weight=3480 29 3451 2087 1364
internal_count=3480 29 3451 2087 1364
is_linear=0
shrinkage=0.0656543


Tree=82
num_leaves=7
num_cat=0
split_feature=61 14 71 35 14 8
split_gain=4.45894 6.90998 15.4618 5.99902 5.80735 2.51053
threshold=2.4585233494540302 -1.7744571653070833 1.8630707248289704 1.7221827302039039 -0.33374570468330228 -0.23961748216817544
decision_type=2 2 2 2 2 2
left_child=1 2 -1 -3 5 -2
right_child=4 3 -4 -5 -6 -7
leaf_value=0.005274062313685165 -0.016402456037739571 -0.00056106479009941049 0.084536208727909318 0.015212445197495039 0.013212645842765627 -0.056263299395702987
leaf_weight=52 13 3266 12.999999999999998 107 13.999999999999998 15
leaf_count=52 13 3266 13 107 14 15
internal_value=8.96352e-05 0.000350491 0.0214961 -5.90931e-05 -0.0210844 -0.0381942
internal_weight=3480 3438 65 3373 42 28
internal_count=3480 3438 65 3373 42 28
is_linear=0
shrinkage=0.0656543


Tree=83
num_leaves=8
num_cat=0
split_feature=52 16 1 3 1 0 0
split_gain=5.08028 8.39473 9.97155 7.23304 12.9151 10.3853 6.74463
threshold=0.26243685745129924 0.013300249279738314 1.0517889348638789 -1.2956706373320073 1.6967620822821179 -1.6205435097375334 -0.15820931382409306
decision_type=2 2 2 2 2 2 2
left_child=3 2 -2 5 -5 -1 -3
right_child=1 6 -4 4 -6 -7 -8
leaf_value=0.023025423687101167 -0.0014835013658331558 -0.01870033425348068 0.019523748281852864 0.0032151954055290692 0.032269929799747327 -0.010353516028486442 -0.0026104035836468052
leaf_weight=46 1157 211 106 1349 69 302 240
leaf_count=46 1157 211 106 1349 69 302 240
internal_value=8.40455e-05 -0.00246191 0.000284252 0.00255519 0.00463676 -0.005922 -0.0101473
internal_weight=3480 1714 1263 1766 1418 348 451
internal_count=3480 1714 1263 1766 1418 348 451
is_linear=0
shrinkage=0.0656543


Tree=84
num_leaves=8
num_cat=0
split_feature=14 47 24 69 44 53 17
split_gain=4.39378 8.8772 8.05462 7.53239 10.5585 9.70821 7.4819
threshold=0.032417534977644359 -1.2591141950968823 0.38957886068645781 0.25845465003082985 0.09584912281669529 0.5851733442491065 -1.3941055283063686
decision_type=2 2 2 2 2 2 2
left_child=3 2 -2 4 -1 -5 -3
right_child=1 6 -4 5 -6 -7 -8
leaf_value=-0.0094422967713710896 -0.0020741725341030665 -0.028153404860813989 -0.033036715767992428 -0.0012807659002324278 0.0040370885565352956 0.016351210437026944 0.0048249074968078542
leaf_weight=879 113 30 53 602 350 173 1303
leaf_count=879 113 30 53 602 350 173 1303
internal_value=-0.000396582 0.00229153 -0.0120098 -0.00240748 -0.0056033 0.00266037 0.00407536
internal_weight=3503 1499 166 2004 1229 775 1333
internal_count=3503 1499 166 2004 1229 775 1333
is_linear=0
shrinkage=0.0656543


Tree=85
num_leaves=7
num_cat=0
split_feature=41 32 37 68 40 65
split_gain=4.21089 4.91898 4.71658 15.3913 5.46547 2.05824
threshold=2.7917115973261186 -1.4083538521720029 2.3480192142460727 0.19398815535104189 -0.8314146734332154 0.65916157463678737
decision_type=2 2 2 2 2 2
left_child=2 -2 4 -4 -1 -3
right_child=1 5 3 -5 -6 -7
leaf_value=-0.0074912485491510274 0.014243396085380501 -0.045442971303999054 -0.015462540769860589 0.078468298597962144 0.00062768949898041424 -0.011862025287009199
leaf_weight=405 12.999999999999998 21 17.000000000000004 12.999999999999998 3021 12.999999999999998
leaf_count=405 13 21 17 13 3021 13
internal_value=-0.000370867 -0.0198176 -0.000104356 0.0256646 -0.000332664 -0.0328611
internal_weight=3503 47 3456 30 3426 34
internal_count=3503 47 3456 30 3426 34
is_linear=0
shrinkage=0.0656543


Tree=86
num_leaves=7
num_cat=0
split_feature=36 37 42 14 56 36
split_gain=3.8612 8.60945 6.34586 6.04722 5.64813 5.60465
threshold=-0.45198567143591634 2.3480192142460727 -0.96235502559094777 0.043016550801301727 -0.92637806674213119 -0.5360804733348683
decision_type=2 2 2 2 2 2
left_child=1 5 4 -4 -2 -1
right_child=2 -3 3 -5 -6 -7
leaf_value=-1.6542577585949255e-05 -0.028145004350078762 0.044791823692973798 -0.0036953346740670129 0.0039838107493291516 -0.0062572287996737501 0.01199835700182075
leaf_weight=1133 63 20 1088 744 259 196
leaf_count=1133 63 20 1088 744 259 196
internal_value=-0.000346433 0.00240747 -0.00207137 -0.000576418 -0.0105662 0.00175788
internal_weight=3503 1349 2154 1832 322 1329
internal_count=3503 1349 2154 1832 322 1329
is_linear=0
shrinkage=0.0656543


Tree=87
num_leaves=6
num_cat=0
split_feature=16 10 33 40 13
split_gain=3.84947 5.03139 5.05779 4.38953 3.62307
threshold=-2.2094228905954343 -2.1312875049252664 -0.82962917666548563 -0.8314146734332154 -1.0077958983229649
decision_type=2 2 2 2 2
left_child=4 2 -2 -3 -1
right_child=1 3 -4 -5 -6
leaf_value=-0.045465430333095191 -9.6899620453658498e-05 -0.0062543914173434911 0.05741588043103818 0.0010733140388055251 -7.2717012245698936e-05
leaf_weight=15.000000000000002 13.000000000000002 398 12.999999999999998 3053 14.999999999999998
leaf_count=15 13 398 13 3053 15
internal_value=0.000242673 0.00044591 0.0290275 0.000227595 -0.0230388
internal_weight=3507 3477 26 3451 30
internal_count=3507 3477 26 3451 30
is_linear=0
shrinkage=0.0656543


Tree=88
num_leaves=7
num_cat=0
split_feature=1 54 54 62 55 33
split_gain=3.82811 8.81087 9.95174 3.86096 4.23077 2.89643
threshold=-0.58079934453853899 2.2933260326487792 1.7966036323191796 1.3453871828556687 -0.4567178224112754 1.3992135815706019
decision_type=2 2 2 2 2 2
left_child=3 2 -2 5 -5 -1
right_child=1 -3 -4 4 -6 -7
leaf_value=-0.0038262488606407986 0.0018533106585182394 0.049656904738683783 -0.029883953940011695 0.029489501049575133 -0.0013821824377823224 -0.030179859312551578
leaf_weight=921 2429 15.999999999999998 43 31 49 18
leaf_count=921 2429 16 43 31 49 18
internal_value=0.000226768 0.00161501 0.00129701 -0.00316191 0.0106531 -0.0043427
internal_weight=3507 2488 2472 1019 80 939
internal_count=3507 2488 2472 1019 80 939
is_linear=0
shrinkage=0.0656543


Tree=89
num_leaves=8
num_cat=0
split_feature=49 0 49 48 45 45 46
split_gain=3.75387 6.11143 6.02848 9.73864 5.91895 5.46186 2.52625
threshold=1.1118261519122492 -0.88937641178081306 0.76280464299335227 -0.087678002999589028 -0.94495988580486989 1.2318398017329317 1.0000000180025095e-35
decision_type=2 2 2 2 2 2 2
left_child=2 6 5 -4 -3 -1 -2
right_child=1 4 3 -5 -6 -7 -8
leaf_value=-0.00090838453008815732 -0.016779718340430769 -0.01923685965096554 -0.0032223501440672426 0.021643781467278519 0.0025062608916723559 0.0085336097723205107 -0.047293487487230924
leaf_weight=2568 44 69 125 148 243 294 15.999999999999998
leaf_count=2568 44 69 125 148 243 294 16
internal_value=0.000211972 -0.00602043 0.000952182 0.0102676 -0.00231751 6.23723e-05 -0.0251468
internal_weight=3507 372 3135 273 312 2862 60
internal_count=3507 372 3135 273 312 2862 60
is_linear=0
shrinkage=0.0656543


Tree=90
num_leaves=6
num_cat=0
split_feature=43 10 41 1 41
split_gain=5.08114 5.1519 6.38031 6.09851 3.54276
threshold=-2.0721391078156146 0.022987388854820396 1.6425555056097056 3.077407725974286 -0.18479106646393537
decision_type=2 2 2 2 2
left_child=4 3 -3 -2 -1
right_child=1 2 -4 -5 -6
leaf_value=0.001813917434596907 0.0019034782599482332 -0.0019732960986419299 -0.022690098125488039 0.04642846159184226 -0.039896236933571964
leaf_weight=13.999999999999998 2051 1325 67 12.999999999999998 23
leaf_count=14 2051 1325 67 13 23
internal_value=-0.00015006 0.000110148 -0.00297605 0.00219182 -0.0242368
internal_weight=3493 3456 1392 2064 37
internal_count=3493 3456 1392 2064 37
is_linear=0
shrinkage=0.0656543


Tree=91
num_leaves=6
num_cat=0
split_feature=43 0 73 39 31
split_gain=4.44481 3.78183 11.1566 7.37543 3.08386
threshold=-2.0721391078156146 -0.011975894232748908 -0.21801256660605742 -1.9139688917249633 0.2933511901549995
decision_type=2 2 2 2 2
left_child=4 3 -3 -2 -1
right_child=1 2 -4 -5 -6
leaf_value=-0.039001704651743761 -0.032818607098001468 0.013396134630951862 -0.00045374149909329574 -0.0012148499350581783 -0.00084079210741385443
leaf_weight=21 32 324 1104 1996 15.999999999999998
leaf_count=21 32 324 1104 1996 16
internal_value=-0.000140297 0.000103068 0.00269097 -0.0017192 -0.0226684
internal_weight=3493 3456 1428 2028 37
internal_count=3493 3456 1428 2028 37
is_linear=0
shrinkage=0.0656543


Tree=92
num_leaves=8
num_cat=0
split_feature=53 42 18 69 7 18 45
split_gain=4.22752 6.82971 8.80436 8.02556 4.82719 7.25028 6.74795
threshold=1.2216968259965111 -0.20812252513300353 -0.18562796562582504 -0.14224473068305515 0.37848211182286046 0.16116593446489938 2.3202396455018328
decision_type=2 2 2 2 2 2 2
left_child=4 2 -2 -3 5 -1 -6
right_child=1 3 -4 -5 6 -7 -8
leaf_value=-0.00094440727679952837 -0.0074382401260715148 -0.0090784829634927375 0.036377680062174116 0.014452527813341646 -0.0059155070001055158 0.0090696548102522367 0.039503650361865393
leaf_weight=1938 29 142 61 111 827 371 13.999999999999998
leaf_count=1938 29 142 61 111 827 371 14
internal_value=-0.000131499 0.00678635 0.0222819 0.00125 -0.000885527 0.000665615 -0.00514309
internal_weight=3493 343 90 253 3150 2309 841
internal_count=3493 343 90 253 3150 2309 841
is_linear=0
shrinkage=0.0656543


Tree=93
num_leaves=8
num_cat=0
split_feature=39 62 53 25 52 61 52
split_gain=4.57214 8.23215 10.3471 8.27766 5.87871 8.41765 7.28598
threshold=-0.79766032629283645 -0.5584588429031393 1.4992299363243566 -0.48428685023498175 0.26243685745129924 -1.5876907605971218 0.36869343255118608
decision_type=2 2 2 2 2 2 2
left_child=1 3 -3 -1 5 -2 -6
right_child=4 2 -4 -5 6 -7 -8
leaf_value=-0.021418746770553537 0.027954324198133266 0.01146003318370116 -0.03331789641390865 0.004957183891305417 -0.01939543891655951 0.00087417724198710208 -0.0026704236735353754
leaf_weight=88 51 476 23 122 123 1361 1254
leaf_count=88 51 476 23 122 123 1361 1254
internal_value=7.95872e-05 0.00478608 0.00937382 -0.00611144 -0.00111722 0.00185912 -0.00416909
internal_weight=3498 709 499 210 2789 1412 1377
internal_count=3498 709 499 210 2789 1412 1377
is_linear=0
shrinkage=0.0656543


Tree=94
num_leaves=7
num_cat=0
split_feature=21 76 38 29 51 51
split_gain=3.94758 5.96138 5.99837 4.85424 4.54246 1.44983
threshold=1.4872766484534261 1.0000000180025095e-35 0.94315605515993317 -1.7753237500494643 2.6773402278756078 -0.36431168355749161
decision_type=2 2 2 2 2 2
left_child=3 -2 -3 5 -5 -1
right_child=1 2 -4 4 -6 -7
leaf_value=-0.011539099702110105 -0.049295356480502692 0.00044664235615916506 -0.03769538879501836 0.00036188116452733169 0.015884733186089326 -0.042805992023689676
leaf_weight=13.000000000000002 14.999999999999998 106 21 3247 83 12.999999999999998
leaf_count=13 15 106 21 3247 83 13
internal_value=7.4151e-05 -0.0106344 -0.00594389 0.000528389 0.000750486 -0.0275414
internal_weight=3498 142 127 3356 3330 26
internal_count=3498 142 127 3356 3330 26
is_linear=0
shrinkage=0.0656543


Tree=95
num_leaves=8
num_cat=0
split_feature=39 46 10 66 52 61 36
split_gain=3.97572 9.13511 11.8696 9.12821 5.10756 7.45468 6.94143
threshold=-0.79766032629283645 -0.2162723360115181 -0.49030642151461884 -0.79052593596795051 0.26243685745129924 -1.5876907605971218 -0.45198567143591634
decision_type=2 2 2 2 2 2 2
left_child=1 3 -3 -1 5 -2 -6
right_child=4 2 -4 -5 6 -7 -8
leaf_value=0.02731644971370158 0.026283961756883613 0.027305349122119984 0.0030056406744346539 -0.0076053865990372794 0.0018228052528981025 0.00079980547619203795 -0.0076925406251484533
leaf_weight=36 51 131 255 287 550 1361 827
leaf_count=36 51 131 255 287 550 1361 827
internal_value=6.84592e-05 0.00445726 0.0112703 -0.00368715 -0.00104755 0.0017267 -0.00389223
internal_weight=3498 709 386 323 2789 1412 1377
internal_count=3498 709 386 323 2789 1412 1377
is_linear=0
shrinkage=0.0656543


Tree=96
num_leaves=6
num_cat=0
split_feature=8 53 31 11 6
split_gain=3.92473 3.86689 4.33844 4.29297 3.4529
threshold=-1.8762908886238752 -2.0031488674276736 -0.64680327621911105 0.35732007093345258 -0.020855065555243531
decision_type=2 2 2 2 2
left_child=4 2 -2 -3 -1
right_child=1 3 -4 -5 -6
leaf_value=-0.040640139272912087 -0.043001363403969713 0.0019360267918049055 -0.0063245544955117788 -0.0031379275256627282 -0.001199061570768442
leaf_weight=19 17 2315 71 1042 19
leaf_count=19 17 2315 71 1042 19
internal_value=-0.000228446 3.98678e-06 -0.0135543 0.000360848 -0.0211163
internal_weight=3483 3445 88 3357 38
internal_count=3483 3445 88 3357 38
is_linear=0
shrinkage=0.0656543


Tree=97
num_leaves=5
num_cat=0
split_feature=12 30 58 69
split_gain=3.81063 3.96088 7.76551 7.76479
threshold=4.9612626453261681 0.032417534977644359 -1.5818787322865633 0.25845465003082985
decision_type=2 2 2 2
left_child=1 3 -3 -1
right_child=-2 2 -4 -5
leaf_value=-0.0055602592990703975 0.033551363601116539 -0.032459350830896849 0.0028520064470554294 0.0028699789588199059
leaf_weight=1209 13.999999999999998 27 1462 771
leaf_count=1209 14 27 1462 771
internal_value=-0.000214068 -0.000353764 0.0022041 -0.00227751
internal_weight=3483 3469 1489 1980
internal_count=3483 3469 1489 1980
is_linear=0
shrinkage=0.0656543


Tree=98
num_leaves=6
num_cat=0
split_feature=41 67 19 57 73
split_gain=3.60808 4.48833 3.81082 8.71575 7.17539
threshold=2.7917115973261186 -0.14765409339106614 1.0000000180025095e-35 -1.69514653839493 0.8850909089652037
decision_type=2 2 2 2 2
left_child=2 -2 4 -4 -1
right_child=1 -3 3 -5 -6
leaf_value=0.0046467957750989074 -0.036996380205847459 0.0039763287228780043 -0.027303812648891101 -0.001101759205484518 -0.0074321031461673888
leaf_weight=1225 25 21 56 1900 256
leaf_count=1225 25 21 56 1900 256
internal_value=-0.000199995 -0.0183961 4.52951e-05 -0.00185678 0.00255745
internal_weight=3483 46 3437 1956 1481
internal_count=3483 46 3437 1956 1481
is_linear=0
shrinkage=0.0656543


Tree=99
num_leaves=4
num_cat=0
split_feature=67 55 61
split_gain=6.02028 3.71148 3.52438
threshold=-2.2653745345920724 -2.5858265690940265 2.4585233494540302
decision_type=2 2 2
left_child=-1 -2 -3
right_child=1 2 -4
leaf_value=-0.044097662644710538 0.030371812366991158 0.00016048688095934469 -0.018896496017018833
leaf_weight=12.999999999999998 17 3429 42
leaf_count=13 17 3429 42
internal_value=-8.89113e-05 7.94139e-05 -7.18994e-05
internal_weight=3501 3488 3471
internal_count=3501 3488 3471
is_linear=0
shrinkage=0.0656543


Tree=100
num_leaves=8
num_cat=0
split_feature=10 11 11 1 32 4 37
split_gain=3.97223 7.52332 8.43184 7.18162 6.34901 9.48429 7.3082
threshold=0.022987388854820396 0.25813249265593102 1.7499423531255685 1.454897152000278 -1.2749276019721618 4.1179843050305287 -0.51068270826473194
decision_type=2 2 2 2 2 2 2
left_child=4 3 -3 -2 6 -6 -1
right_child=1 2 -4 -5 5 -7 -8
leaf_value=-0.018476448104182992 -0.0012315925297952213 -0.013742776447581238 0.037755441773457521 0.026043864287903517 0.0032190465597738364 0.049474095353485889 -0.00017972636445907737
leaf_weight=124 1038 313 13.999999999999998 43 1563 19 387
leaf_count=124 1038 313 14 43 1563 19 387
internal_value=-8.32805e-05 -0.00277927 -0.0114994 -0.000138355 0.00173039 0.0037855 -0.00462971
internal_weight=3501 1408 327 1081 2093 1582 511
internal_count=3501 1408 327 1081 2093 1582 511
is_linear=0
shrinkage=0.0656543


Tree=101
num_leaves=5
num_cat=0
split_feature=5 10 11 32
split_gain=3.58456 3.80525 6.09036 5.50102
threshold=4.5363505033588698 0.022987388854820396 0.25813249265593102 -1.2749276019721618
decision_type=2 2 2 2
left_child=1 3 -3 -1
right_child=-2 2 -4 -5
leaf_value=-0.0044062588697166396 0.025561931091175053 -0.00049812606030213221 -0.010742660555885946 0.0034338276194466949
leaf_weight=510 23 1061 327 1580
leaf_count=510 23 1061 327 1580
internal_value=-7.72675e-05 -0.000249435 -0.00291392 0.00152015
internal_weight=3501 3478 1388 2090
internal_count=3501 3478 1388 2090
is_linear=0
shrinkage=0.0656543


end of trees

feature_importances:
team_b_xg=99
team_a_xg=37
odds_ft_1=31
odds_ft_2=23
rolling_sot_for_form_away=18
rolling_shots_for_form_away=17
rolling_xg_for_form_home=16
rolling_da_against_form_home=16
market_prob_btts_yes=16
market_prob_o25=15
rolling_corners_against_form_home=13
rolling_da_against_form_away=13
rolling_synth_goals_minus_xg_form_away=13
rolling_goals_conceded_form_away=12
rolling_xg_for_form_away=12
rolling_sot_against_form_home=12
rolling_goals_conceded_form_home=11
pre_match_away_elo=11
rolling_xga_against_form_home=10
rolling_fouls_against_form_home=10
rolling_fouls_for_form_away=10
elo_diff=10
days_since_last_match_home=9
rolling_synth_goals_per_sot_form_away=9
rolling_synth_xga_per_shot_conceded_form_away=9
odds_ft_x=8
rolling_possession_form_home=8
market_prob_u25=8
rolling_synth_sot_per_shot_ratio_form_away=8
rolling_synth_xga_per_sot_conceded_form_home=8
rolling_goals_scored_form_away=7
rolling_fouls_against_form_away=7
rolling_xga_against_form_away=6
days_since_last_match_away=6
rolling_shots_against_form_home=6
rolling_da_for_form_home=6
rolling_possession_form_away=6
rolling_da_for_form_away=6
pre_match_home_elo=6
elo_prob_home_win=6
away_rolling_xg_as_away=5
away_rolling_goals_scored_as_away=5
rolling_shots_for_form_home=5
rolling_fouls_for_form_home=5
rolling_corners_for_form_away=5
rolling_synth_xga_per_shot_conceded_form_home=5
rolling_synth_xga_per_sot_conceded_form_away=5
team_b_xga=4
away_rolling_xga_as_away=4
rolling_synth_sot_per_shot_ratio_form_home=4
rolling_synth_goals_per_xg_ratio_form_away=4
away_matches_last_7d=3
home_rolling_xg_as_home=3
home_rolling_goals_scored_as_home=3
rolling_corners_for_form_home=3
rolling_sot_against_form_away=3
rolling_corners_against_form_away=3
team_a_xga=2
rolling_goals_scored_form_home=2
home_rolling_xga_as_home=2
home_rolling_goals_conceded_as_home=2
away_rolling_goals_conceded_as_away=2
rolling_sot_for_form_home=2
rolling_synth_goals_minus_xg_form_home=2
rolling_synth_goals_per_shot_form_home=2
rolling_synth_goals_per_sot_form_home=2
dynamic_league_quality=2
home_matches_last_7d=1
away_matches_last_14d=1
rolling_shots_against_form_away=1
rolling_synth_goals_per_xg_ratio_form_home=1
dynamic_league_tier_0=1

parameters:
[boosting: gbdt]
[objective: regression]
[metric: poisson,l2]
[tree_learner: serial]
[device_type: cpu]
[data_sample_strategy: bagging]
[data: ]
[valid: ]
[num_iterations: 174]
[learning_rate: 0.0656543]
[num_leaves: 138]
[num_threads: 2]
[seed: 0]
[deterministic: 0]
[force_col_wise: 0]
[force_row_wise: 0]
[histogram_pool_size: -1]
[max_depth: 3]
[min_data_in_leaf: 13]
[min_sum_hessian_in_leaf: 0.001]
[bagging_fraction: 0.970137]
[pos_bagging_fraction: 1]
[neg_bagging_fraction: 1]
[bagging_freq: 3]
[bagging_seed: 3]
[bagging_by_query: 0]
[feature_fraction: 0.656402]
[feature_fraction_bynode: 1]
[feature_fraction_seed: 2]
[extra_trees: 0]
[extra_seed: 6]
[early_stopping_round: 0]
[early_stopping_min_delta: 0]
[first_metric_only: 0]
[max_delta_step: 0]
[lambda_l1: 0.0041132]
[lambda_l2: 0.34771]
[linear_lambda: 0]
[min_gain_to_split: 0]
[drop_rate: 0.1]
[max_drop: 50]
[skip_drop: 0.5]
[xgboost_dart_mode: 0]
[uniform_drop: 0]
[drop_seed: 4]
[top_rate: 0.2]
[other_rate: 0.1]
[min_data_per_group: 100]
[max_cat_threshold: 32]
[cat_l2: 10]
[cat_smooth: 10]
[max_cat_to_onehot: 4]
[top_k: 20]
[monotone_constraints: ]
[monotone_constraints_method: basic]
[monotone_penalty: 0]
[feature_contri: ]
[forcedsplits_filename: ]
[refit_decay_rate: 0.9]
[cegb_tradeoff: 1]
[cegb_penalty_split: 0]
[cegb_penalty_feature_lazy: ]
[cegb_penalty_feature_coupled: ]
[path_smooth: 0]
[interaction_constraints: ]
[verbosity: 1]
[saved_feature_importance_type: 0]
[use_quantized_grad: 0]
[num_grad_quant_bins: 4]
[quant_train_renew_leaf: 0]
[stochastic_rounding: 1]
[linear_tree: 0]
[max_bin: 255]
[max_bin_by_feature: ]
[min_data_in_bin: 3]
[bin_construct_sample_cnt: 200000]
[data_random_seed: 1]
[is_enable_sparse: 1]
[enable_bundle: 1]
[use_missing: 1]
[zero_as_missing: 0]
[feature_pre_filter: 1]
[pre_partition: 0]
[two_round: 0]
[header: 0]
[label_column: ]
[weight_column: ]
[group_column: ]
[ignore_column: ]
[categorical_feature: ]
[forcedbins_filename: ]
[precise_float_parser: 0]
[parser_config_file: ]
[objective_seed: 5]
[num_class: 1]
[is_unbalance: 0]
[scale_pos_weight: 1]
[sigmoid: 1]
[boost_from_average: 1]
[reg_sqrt: 0]
[alpha: 0.9]
[fair_c: 1]
[poisson_max_delta_step: 0.7]
[tweedie_variance_power: 1.5]
[lambdarank_truncation_level: 30]
[lambdarank_norm: 1]
[label_gain: ]
[lambdarank_position_bias_regularization: 0]
[eval_at: ]
[multi_error_top_k: 1]
[auc_mu_weights: ]
[num_machines: 1]
[local_listen_port: 12400]
[time_out: 120]
[machine_list_filename: ]
[machines: ]
[gpu_platform_id: -1]
[gpu_device_id: -1]
[gpu_use_dp: 0]
[num_gpu: 1]

end of parameters

pandas_categorical:[]
